4483 32
u1 -0.018812164664268494 -0.17231878638267517 -0.1576303094625473 0.06411851197481155 0.11643171310424805 0.14815525710582733 -0.014425057917833328 0.24183188378810883 -0.3982110619544983 0.2095876783132553 0.2775131165981293 0.2109796702861786 -0.3029857873916626 -0.09570267796516418 -0.20128238201141357 -0.2959445118904114 0.019688811153173447 0.0002361014485359192 -0.22947879135608673 0.21754595637321472 0.3196295201778412 0.06953996419906616 -0.08699338138103485 -0.0003272742033004761 -0.559978723526001 -0.29692333936691284 -0.010232117027044296 0.30792927742004395 0.06245023012161255 0.16341057419776917 -0.32592812180519104 0.03845927119255066 
i1 -1.3522526025772095 -0.6933217644691467 -0.1889295130968094 -0.672070324420929 0.667199969291687 0.2093675136566162 0.255512535572052 -0.15334990620613098 -0.36750441789627075 -0.4908822774887085 0.0030355630442500114 -0.09199497848749161 -0.30305567383766174 0.7325006723403931 0.3076556324958801 0.6481930017471313 -0.14161434769630432 0.3053571879863739 -0.02580852620303631 -0.028453737497329712 0.6869909763336182 -0.05529310926795006 -0.039394766092300415 0.020961612462997437 0.5542314052581787 0.5481153130531311 0.5787827372550964 -0.3550024628639221 -0.559730052947998 0.48420071601867676 -0.18391308188438416 -0.23009294271469116 
i2 -0.7711822390556335 0.13127078115940094 0.27677667140960693 0.20630373060703278 -0.29595398902893066 -0.11377573013305664 0.0030902884900569916 0.08930235356092453 -0.18838979303836823 0.030067598447203636 -0.24472947418689728 -0.33163514733314514 0.08231447637081146 -0.045168519020080566 0.17704948782920837 0.11477826535701752 0.12516999244689941 -0.023859361186623573 -0.11518284678459167 0.5965757966041565 0.8884093165397644 -0.2827852964401245 0.09206627309322357 0.7357035875320435 0.6380057334899902 0.3980766832828522 0.02082131989300251 -0.2558402121067047 0.0965699553489685 0.5010194182395935 0.23386389017105103 0.45010629296302795 
i3 -0.7857192158699036 -0.1646004021167755 -0.04027695953845978 0.048312366008758545 -0.0739489197731018 -0.009699800983071327 -0.14295251667499542 -0.10971792042255402 -0.19042015075683594 -0.079227976500988 -0.06938883662223816 0.0034990310668945312 0.12736962735652924 -0.03952835500240326 0.09248095750808716 0.05345545709133148 0.10368673503398895 -0.048976339399814606 0.14406569302082062 0.4992300570011139 0.766034722328186 -0.3677079379558563 0.0025603212416172028 0.6388625502586365 0.4084700644016266 0.5079365372657776 -0.03424513712525368 0.09504659473896027 0.011093243956565857 0.5064705610275269 0.10376813262701035 -0.02188723534345627 
i4 -0.49494561553001404 0.2596597969532013 -0.7385684251785278 -0.09010080248117447 0.019763026386499405 -0.8766170740127563 -0.45637694001197815 -0.5177879929542542 -0.3465496599674225 -0.992884635925293 0.33929643034935 0.5135002136230469 0.3709430396556854 -0.24264098703861237 0.09015702456235886 0.4275023639202118 0.7046920657157898 -0.35995256900787354 0.9418332576751709 0.5249778032302856 0.810906708240509 -0.3618836998939514 0.3301275074481964 0.7326104640960693 0.17454159259796143 0.14379902184009552 0.12838609516620636 -0.2454666793346405 0.0870339646935463 0.49573567509651184 0.4152856171131134 0.2184288203716278 
i5 -0.6418358683586121 -0.08266426622867584 -0.08949614316225052 0.004923013970255852 -0.05471081659197807 -0.15060622990131378 -0.13617917895317078 -0.12104734778404236 -0.2583646774291992 -0.2298567295074463 0.008253106847405434 0.04466743767261505 0.11621543765068054 -0.06853890419006348 0.12929464876651764 0.15404629707336426 0.217077374458313 -0.09891726821660995 0.18082775175571442 0.5388500690460205 0.778670608997345 -0.3464217185974121 0.05543913319706917 0.6508171558380127 0.35886555910110474 0.4261098802089691 0.062305327504873276 -0.013017646968364716 0.0333765372633934 0.5233361124992371 0.15377195179462433 0.06713155657052994 
i6 -0.4778410494327545 0.2802988886833191 -0.7792169451713562 -0.0964910164475441 0.025066006928682327 -0.9198201894760132 -0.4748772084712982 -0.5407248139381409 -0.3508298397064209 -1.0397119522094727 0.3598291277885437 0.5416719913482666 0.38738006353378296 -0.2526904344558716 0.08816124498844147 0.4439859688282013 0.7335076928138733 -0.3762754499912262 0.9893158674240112 0.5214718580245972 0.8076790571212769 -0.3591259717941284 0.3473982810974121 0.7332343459129333 0.16060006618499756 0.12370897829532623 0.13327398896217346 -0.2612675130367279 0.08993500471115112 0.4898650050163269 0.43138134479522705 0.22653427720069885 
i7 -0.46698132157325745 0.2785305082798004 -0.777254045009613 -0.09555001556873322 0.0256648026406765 -0.9225119948387146 -0.476613312959671 -0.542271614074707 -0.3483664393424988 -1.0366884469985962 0.3644970655441284 0.536447286605835 0.38770219683647156 -0.25211101770401 0.0841846764087677 0.44468238949775696 0.7329307794570923 -0.3765256702899933 0.9862610101699829 0.5159409046173096 0.7996038198471069 -0.3537657856941223 0.34620270133018494 0.7268077731132507 0.15794387459754944 0.11994652450084686 0.13375268876552582 -0.2636653482913971 0.08823150396347046 0.4854190945625305 0.43810591101646423 0.22135159373283386 
i8 -0.6150615215301514 -0.0777919739484787 -0.08915876597166061 -0.0004363544285297394 -0.057307567447423935 -0.14870977401733398 -0.1335180103778839 -0.1238844096660614 -0.2472817301750183 -0.220296248793602 0.013179855421185493 0.03852579742670059 0.11503417789936066 -0.059218525886535645 0.12722466886043549 0.15562961995601654 0.2086557298898697 -0.09111882001161575 0.1750907301902771 0.5173704028129578 0.7532448768615723 -0.3365274667739868 0.052697956562042236 0.6368937492370605 0.3486329913139343 0.4117199182510376 0.05510794371366501 -0.01928570121526718 0.03456827998161316 0.5046781301498413 0.1581699103116989 0.05980486422777176 
i9 -0.4751429259777069 0.2547527253627777 -0.7161749005317688 -0.09001126885414124 0.017426904290914536 -0.8427343964576721 -0.4412861168384552 -0.5026258230209351 -0.33540546894073486 -0.9554917216300964 0.3306095004081726 0.4895482063293457 0.3586438000202179 -0.23640502989292145 0.08996178209781647 0.416007399559021 0.6815253496170044 -0.3461013734340668 0.9041615724563599 0.5068954825401306 0.7827754020690918 -0.3492227792739868 0.31833964586257935 0.7128136157989502 0.16844122111797333 0.13414932787418365 0.12379798293113708 -0.23824602365493774 0.08671631664037704 0.4771656095981598 0.404623419046402 0.20366781949996948 
i10 -0.5064289569854736 -0.0891764760017395 -0.07224669307470322 -0.009478824213147163 -0.041696686297655106 -0.1261318475008011 -0.1024782806634903 -0.09459417313337326 -0.22938169538974762 -0.18484462797641754 0.01390304695814848 0.04231836646795273 0.10169970989227295 -0.019327834248542786 0.11059000343084335 0.12814998626708984 0.17907994985580444 -0.07377802580595016 0.1562916785478592 0.4564456343650818 0.6715244650840759 -0.287814199924469 0.045129820704460144 0.5586268901824951 0.29715806245803833 0.3673860430717468 0.04611264169216156 -0.02044638618826866 0.029514558613300323 0.45014798641204834 0.1359969973564148 0.056392841041088104 
u2 -0.7641078233718872 0.32190102338790894 0.48298215866088867 0.3263092041015625 -0.4729143977165222 -0.13719716668128967 0.09177879989147186 0.2118663191795349 -0.15432707965373993 0.1691257208585739 -0.40695998072624207 -0.6024596691131592 0.1155616044998169 -0.03025224804878235 0.24438706040382385 0.1160980761051178 0.10736975073814392 0.008989419788122177 -0.27864009141921997 0.6494081616401672 0.954663097858429 -0.21841752529144287 0.15481986105442047 0.8130406141281128 0.8436421155929565 0.3490011990070343 0.0075456127524375916 -0.4744206666946411 0.16148881614208221 0.4637441039085388 0.32672059535980225 0.70781409740448 
u3 1.0061753988265991 0.00836227461695671 -0.02930111438035965 -0.07065052539110184 -0.19690857827663422 -0.26968637108802795 -0.07728298008441925 -0.37812861800193787 -0.5674371719360352 0.3017999231815338 -0.12788312137126923 0.08484222739934921 0.16331319510936737 0.08526429533958435 0.09935472905635834 -0.0925971195101738 -0.13930301368236542 0.22241023182868958 -0.13382557034492493 -0.6405206322669983 -0.02575039118528366 -0.10580778121948242 0.057123247534036636 -0.369596004486084 0.5913057923316956 -0.4659702181816101 -0.03970972076058388 -0.11689259856939316 -0.06455160677433014 0.21124368906021118 -0.047755248844623566 -0.26817214488983154 
u4 1.1020110845565796 0.11479859054088593 -0.005565309897065163 0.1931649148464203 0.15976259112358093 -0.08617249131202698 0.08233314752578735 -0.03229217603802681 -0.46747976541519165 0.11924342811107635 0.011336666531860828 -0.047930292785167694 0.21987223625183105 0.18760687112808228 0.1483442485332489 -0.04540494084358215 -0.016592975705862045 0.06839358061552048 0.034507133066654205 -0.6034594178199768 0.04135170206427574 -0.1367504894733429 0.037198904901742935 -0.2927665710449219 0.42628324031829834 -0.28382405638694763 0.018505249172449112 0.014415639452636242 0.07858071476221085 0.10340745002031326 -0.048414476215839386 -0.186985045671463 
u5 1.15635085105896 -0.12191718816757202 0.2091248780488968 -0.1731078177690506 0.4228964149951935 0.11718511581420898 -0.01779117062687874 0.20184248685836792 -0.09003666043281555 -0.3225117325782776 -0.6782500147819519 0.25276654958724976 0.21503479778766632 0.23049594461917877 0.026326984167099 -0.4051550030708313 0.18361471593379974 -0.26811710000038147 0.08171840757131577 0.04022962599992752 -0.4368804395198822 0.1898009032011032 0.013290377333760262 -0.43313610553741455 0.26478731632232666 0.17617367208003998 0.013868719339370728 0.20493781566619873 -0.04332978278398514 0.018551692366600037 -0.1753249615430832 0.523016631603241 
u6 0.9647775292396545 -0.0071017928421497345 -0.03983384370803833 -0.046281471848487854 -0.12678535282611847 -0.14047348499298096 -0.03695221617817879 -0.2223764806985855 -0.5067890286445618 0.1977754384279251 -0.11398088932037354 0.09308835119009018 0.1916462779045105 0.05329558998346329 0.070533387362957 -0.11662407964468002 -0.08545596897602081 0.11734327673912048 -0.09239267557859421 -0.5038886070251465 -0.025519363582134247 -0.037146393209695816 0.04791325330734253 -0.3884883224964142 0.4630315601825714 -0.38069674372673035 -0.011349786072969437 -0.053528279066085815 -0.045547351241111755 0.11583040654659271 -0.0953453853726387 -0.1591135859489441 
u7 0.9448403120040894 0.052523110061883926 -0.024389397352933884 -0.08668513596057892 -0.2248881310224533 -0.40519487857818604 -0.1138787567615509 -0.5328534245491028 -0.6182088255882263 0.39503613114356995 -0.16878663003444672 0.08741166442632675 0.09871330857276917 0.05871900916099548 0.14300599694252014 -0.09126291424036026 -0.14622138440608978 0.3120271861553192 -0.1821374148130417 -0.7146983742713928 -0.04270799830555916 -0.17160668969154358 0.08772271126508713 -0.32820796966552734 0.6838277578353882 -0.5627968311309814 -0.016675632447004318 -0.14747560024261475 -0.07529705762863159 0.3341919779777527 -0.03435068577528 -0.3895820379257202 
i11 1.0533583164215088 -0.12268625199794769 0.054122984409332275 -0.11092743277549744 0.08676326274871826 0.04388626664876938 0.03730250895023346 0.07642725110054016 -0.2065107822418213 -0.03561548516154289 -0.23768967390060425 0.09956511110067368 0.2729596495628357 0.15161830186843872 0.004550635814666748 -0.1757921725511551 0.0014393441379070282 -0.06262856721878052 0.035421766340732574 -0.158463716506958 -0.19403690099716187 0.1495836228132248 0.0017568590119481087 -0.3860374093055725 0.23032627999782562 -0.012706343084573746 -0.03760154917836189 0.006843402981758118 -0.014829263091087341 -0.06992176175117493 -0.08804786950349808 0.19695982336997986 
u8 0.9522912502288818 0.5385661721229553 0.5896185040473938 -0.5515973567962646 -0.31128692626953125 0.19254973530769348 -0.7345064878463745 0.0790262222290039 -0.07168551534414291 -0.3798540532588959 0.6758266687393188 0.09034530073404312 0.8634976744651794 0.5830004215240479 -0.2892874479293823 0.3815009593963623 -0.154738187789917 0.7022486925125122 -0.43885302543640137 0.029757611453533173 -0.3516164720058441 0.6584238409996033 -0.30184677243232727 0.07490193843841553 -0.2660456597805023 -0.40375080704689026 -0.28607887029647827 0.2678801417350769 0.05590169131755829 -0.344909131526947 0.07727845758199692 -0.09124013781547546 
u9 1.1305731534957886 -0.36568525433540344 -0.04454522579908371 -0.19814521074295044 -0.26460376381874084 -0.0759047120809555 0.46945181488990784 0.1301327347755432 -0.14275707304477692 0.23407487571239471 0.15826715528964996 0.09068510681390762 0.5030511617660522 0.3511093258857727 -0.02913377434015274 -0.09733454883098602 -0.00655650720000267 0.02837769128382206 0.2889113128185272 -0.17431539297103882 0.04191875085234642 0.1326192021369934 0.0925036296248436 -0.5043228268623352 0.012595120817422867 0.2511034905910492 -0.11398737132549286 -0.24945580959320068 0.10955871641635895 -0.33113181591033936 0.06547176092863083 0.24086850881576538 
u10 1.064981460571289 -0.24786701798439026 -0.03761039674282074 -0.13882601261138916 -0.16527409851551056 -0.031976282596588135 0.28414386510849 0.0845642015337944 -0.20108750462532043 0.16965174674987793 0.06666341423988342 0.06373777240514755 0.40777453780174255 0.22097428143024445 -0.01669260859489441 -0.09202614426612854 -0.031311746686697006 0.023583708330988884 0.16097527742385864 -0.19648310542106628 -0.021115798503160477 0.13930073380470276 0.05360929295420647 -0.4448530077934265 0.09522181749343872 0.08009429275989532 -0.07526420056819916 -0.16481941938400269 0.06054810807108879 -0.2305569052696228 -0.00017428956925868988 0.14803150296211243 
u11 0.9752938151359558 0.27056175470352173 -0.6515166759490967 -0.8162676692008972 0.03177639842033386 -0.21947996318340302 0.547290563583374 0.1428762972354889 0.14245586097240448 -0.23987270891666412 0.0580764040350914 -0.6201357245445251 0.38865774869918823 -0.46970605850219727 -0.12929853796958923 -0.10692808032035828 -0.06976822018623352 -0.5771752595901489 -0.8051950931549072 0.24127326905727386 -0.19130297005176544 -0.025205831974744797 0.03546436131000519 -0.17622613906860352 0.16154524683952332 -0.5134950876235962 -0.4478175640106201 0.5295482873916626 -0.1599866896867752 -0.5100899934768677 -0.4019344449043274 -0.07275322824716568 
u12 -0.803725004196167 -0.31811442971229553 -0.15611305832862854 0.0597691610455513 -0.0974397361278534 0.28371870517730713 -0.2722598612308502 -0.22846603393554688 -0.015936454758048058 0.1730823963880539 -0.33757102489471436 -0.09125068038702011 0.48399925231933594 0.08783084154129028 0.12617385387420654 -0.22075076401233673 -0.04344211891293526 -0.013739906251430511 0.3070392608642578 0.43650326132774353 0.6372597813606262 -0.3785687983036041 -0.013937977142632008 0.6874576807022095 0.6566710472106934 0.7333928346633911 -0.32588669657707214 0.3467121422290802 0.010906454175710678 0.3742016553878784 0.08369971066713333 -0.43963679671287537 
u13 0.8848647475242615 -0.06801742315292358 -0.13317734003067017 0.1775657683610916 -0.21851734817028046 0.4286864995956421 -0.3183038532733917 0.01640510745346546 -0.5002386569976807 -0.14408215880393982 -0.17381420731544495 0.010846119374036789 0.09934616088867188 -0.11951065063476562 0.07399991154670715 0.021341247484087944 -0.09037892520427704 -0.2362857609987259 0.06979433447122574 -0.5396079421043396 0.1138962060213089 0.04398239031434059 -0.01711660996079445 -0.32012102007865906 0.5026069283485413 -0.4083386957645416 0.10740694403648376 -0.20422565937042236 -0.1407693326473236 -0.06078958511352539 0.18187738955020905 -0.08403702080249786 
u14 1.2142373323440552 -0.12315966188907623 0.26699137687683105 -0.19677041471004486 0.5260072350502014 0.1397247314453125 -0.0468539334833622 0.2335062325000763 -0.061472781002521515 -0.4209199547767639 -0.829845666885376 0.30708155035972595 0.19657570123672485 0.2806880474090576 0.03283941000699997 -0.479106068611145 0.23240865767002106 -0.332894891500473 0.09348513931035995 0.07648012787103653 -0.5100665092468262 0.18925581872463226 0.010382243432104588 -0.4515705108642578 0.3030226528644562 0.236037477850914 0.014071417972445488 0.26829469203948975 -0.05895323306322098 0.05502866208553314 -0.1939772665500641 0.6342251896858215 
u15 1.132140040397644 -0.11483001708984375 0.17152614891529083 -0.15208332240581512 0.35261088609695435 0.10534629970788956 -0.00941169261932373 0.17384222149848938 -0.13295741379261017 -0.2643132507801056 -0.5876805186271667 0.22691255807876587 0.22381868958473206 0.20437033474445343 0.024493254721164703 -0.36332640051841736 0.14934414625167847 -0.2298361361026764 0.06833556294441223 -0.011951415799558163 -0.37847164273262024 0.1751549243927002 0.014160742051899433 -0.431476891040802 0.26538413763046265 0.1192932277917862 0.01025538519024849 0.1723639965057373 -0.03931121528148651 0.006232008337974548 -0.16739583015441895 0.44840505719184875 
i12 1.033017635345459 -0.1048990935087204 -0.1833144724369049 0.2836170494556427 -0.3294476866722107 0.6109991669654846 -0.49444302916526794 0.001340241520665586 -0.6415073871612549 -0.22084911167621613 -0.25449874997138977 0.004748381674289703 0.06976917386054993 -0.22305281460285187 0.10362743586301804 0.0688888281583786 -0.14400748908519745 -0.3343520164489746 0.12782414257526398 -0.7238783836364746 0.16802920401096344 0.05185312405228615 -0.023098688572645187 -0.3742518424987793 0.6858054995536804 -0.5529342889785767 0.1708657294511795 -0.32937243580818176 -0.22390976548194885 -0.06519142538309097 0.30607280135154724 -0.13189597427845 
u16 1.3003112077713013 0.6691732406616211 0.06967734545469284 0.8339683413505554 1.0253853797912598 -0.3428747057914734 0.46521443128585815 0.15303698182106018 -0.4488600492477417 0.17848075926303864 0.3163701891899109 -0.6049039363861084 0.12723983824253082 0.46850067377090454 0.5634087324142456 0.2267569899559021 0.2183184176683426 0.2290867418050766 0.2291404753923416 -1.1148476600646973 0.14904487133026123 -0.6495774984359741 0.06347401440143585 0.16252559423446655 0.5634399056434631 -0.2849958837032318 0.19096222519874573 0.1991797387599945 0.5127394199371338 0.39302849769592285 0.10293660312891006 -0.6872364282608032 
u17 1.2983827590942383 0.5922334790229797 0.052160024642944336 0.7394899725914001 0.921748161315918 -0.2869729697704315 0.4507029950618744 0.17259147763252258 -0.4269437789916992 0.16035707294940948 0.3059387803077698 -0.5697879791259766 0.16285404562950134 0.4479943513870239 0.5073204040527344 0.21417388319969177 0.1841014176607132 0.2076282799243927 0.20306138694286346 -1.0478601455688477 0.13542449474334717 -0.5768299102783203 0.03830903768539429 0.10597866773605347 0.5307756066322327 -0.25995099544525146 0.14838974177837372 0.18536493182182312 0.47678840160369873 0.3153763711452484 0.08848171681165695 -0.607844889163971 
u18 0.9212459325790405 -0.338408499956131 -0.020584959536790848 -0.21435962617397308 -0.12013240158557892 -0.06255951523780823 0.43910732865333557 0.1849595308303833 0.06389673799276352 0.19675490260124207 0.11780672520399094 0.008450143039226532 0.44470611214637756 0.22099646925926208 -0.034263111650943756 -0.06241515651345253 0.03216814994812012 0.02904369868338108 0.2664436995983124 0.10622522979974747 -0.11243990063667297 0.2627190053462982 0.07945884019136429 -0.35478445887565613 -0.1688636988401413 0.334865003824234 -0.04545099660754204 -0.24025112390518188 0.13130918145179749 -0.3463778495788574 0.053415119647979736 0.24063625931739807 
u19 1.046350121498108 -0.0895475298166275 -0.13556848466396332 0.17460232973098755 -0.23850266635417938 0.40508171916007996 -0.30962416529655457 -0.0028153574094176292 -0.576015055179596 -0.11405783891677856 -0.1887322962284088 0.039581745862960815 0.147075816988945 -0.11911576986312866 0.07140599191188812 -0.006095335818827152 -0.11494110524654388 -0.21726153790950775 0.07129884511232376 -0.60746830701828 0.10225717723369598 0.05492088571190834 -0.008649361319839954 -0.4092618227005005 0.5607184767723083 -0.45040562748908997 0.10044161975383759 -0.2100341022014618 -0.15417265892028809 -0.05857091397047043 0.14505800604820251 -0.0822589099407196 
u20 1.0444223880767822 -0.09844672679901123 -0.16131927073001862 0.2329910844564438 -0.28813666105270386 0.5150464177131653 -0.40873491764068604 -0.0012170277768746018 -0.6136212944984436 -0.170506089925766 -0.22460216283798218 0.02182278037071228 0.10705061256885529 -0.17500893771648407 0.08859232068061829 0.03327925503253937 -0.13136065006256104 -0.2796620726585388 0.10162854939699173 -0.6721387505531311 0.13711851835250854 0.05370640382170677 -0.01615152135491371 -0.393293559551239 0.6297420263290405 -0.5069880485534668 0.13807298243045807 -0.27434542775154114 -0.19209399819374084 -0.0621175616979599 0.23043222725391388 -0.10891740024089813 
u21 1.0470142364501953 -0.10504333674907684 -0.1668175607919693 0.2424774318933487 -0.30315274000167847 0.5356488823890686 -0.4217323660850525 0.0004686511820182204 -0.6192869544029236 -0.17926815152168274 -0.22768400609493256 0.01915571093559265 0.10273203253746033 -0.1800256222486496 0.09154951572418213 0.0415765643119812 -0.1342778354883194 -0.2919228971004486 0.11287998408079147 -0.6858962178230286 0.14765602350234985 0.05233447626233101 -0.01641414687037468 -0.3922385275363922 0.6413940787315369 -0.511742353439331 0.14333634078502655 -0.29124584794044495 -0.1979576051235199 -0.06682294607162476 0.2513218820095062 -0.110828697681427 
u22 -1.4127306938171387 -0.6341490149497986 0.4723396897315979 -0.6664308905601501 0.6537120342254639 0.1136486679315567 0.49341586232185364 -0.19859662652015686 -0.22598996758460999 -0.589448094367981 0.06087775155901909 0.43375155329704285 -0.1826830506324768 0.04612377658486366 0.3431558907032013 0.45310261845588684 -0.44829878211021423 0.05120109021663666 0.043347179889678955 -0.22382138669490814 0.570175051689148 -0.2686366140842438 0.013821563683450222 0.06987228989601135 0.3927631080150604 0.6057191491127014 0.19310258328914642 0.030940845608711243 -0.2921808660030365 0.5486499071121216 0.26688870787620544 -0.4657101333141327 
u23 0.9719339609146118 0.024400275200605392 -0.034383635967969894 -0.06365508586168289 -0.17451032996177673 -0.2769342064857483 -0.07583007216453552 -0.3819112479686737 -0.5776803493499756 0.30136123299598694 -0.14918528497219086 0.09599823504686356 0.14750027656555176 0.04500418156385422 0.10914221405982971 -0.11281964927911758 -0.1129479855298996 0.21480333805084229 -0.13893237709999084 -0.6160723567008972 -0.039349962025880814 -0.10226178169250488 0.073008231818676 -0.3727746307849884 0.5812641382217407 -0.4857587218284607 -0.006219800561666489 -0.0976862981915474 -0.06198977679014206 0.22964347898960114 -0.07522499561309814 -0.278028279542923 
u24 1.0011179447174072 0.024266477674245834 -0.026715442538261414 -0.07907859236001968 -0.2166859358549118 -0.33539247512817383 -0.09549924731254578 -0.4538625180721283 -0.5992091298103333 0.34972724318504333 -0.14554964005947113 0.08665413409471512 0.13949839770793915 0.07891909778118134 0.11848795413970947 -0.09095102548599243 -0.1497846394777298 0.2684524953365326 -0.15588533878326416 -0.688750147819519 -0.03223080560564995 -0.13694819808006287 0.06995195895433426 -0.35893362760543823 0.6447694301605225 -0.5147112607955933 -0.034487564116716385 -0.13631901144981384 -0.0721202939748764 0.2677353322505951 -0.039461053907871246 -0.32527920603752136 
u25 1.12100088596344 -0.3929063379764557 -0.040732525289058685 -0.21833418309688568 -0.2637537121772766 -0.08619196712970734 0.5094735026359558 0.15098553895950317 -0.08692695200443268 0.24690505862236023 0.17375202476978302 0.07903877645730972 0.520446240901947 0.3595595359802246 -0.03472422808408737 -0.09040892869234085 0.0028183497488498688 0.033295340836048126 0.316542387008667 -0.11644101142883301 0.022608976811170578 0.1607116013765335 0.09845277667045593 -0.4934350848197937 -0.04175420477986336 0.3105388879776001 -0.11362457275390625 -0.27350130677223206 0.12574012577533722 -0.36263102293014526 0.08150085061788559 0.26436397433280945 
u26 0.9972811937332153 0.013692159205675125 -0.036904215812683105 -0.05748468637466431 -0.1666630059480667 -0.24286451935768127 -0.06665666401386261 -0.3430057764053345 -0.5719415545463562 0.27943411469459534 -0.1418944150209427 0.09754405170679092 0.1657191962003708 0.04680197313427925 0.09878616034984589 -0.11734460294246674 -0.10977880656719208 0.19111905992031097 -0.12703700363636017 -0.6007405519485474 -0.037276703864336014 -0.08405190706253052 0.06734181195497513 -0.3909960389137268 0.5610604286193848 -0.46738001704216003 -0.008685298264026642 -0.08851410448551178 -0.05984129756689072 0.19912050664424896 -0.08327177911996841 -0.2478957176208496 
u27 1.0642004013061523 0.18478593230247498 -0.16318152844905853 0.16908761858940125 0.14799118041992188 -0.12628722190856934 -0.11780135333538055 -0.031860433518886566 -0.4372572600841522 0.16243292391300201 -0.07065711915493011 0.0056698620319366455 0.24366873502731323 0.36501073837280273 0.20212846994400024 -0.1299957036972046 0.15652889013290405 -0.14010249078273773 0.02209329791367054 -0.6921688914299011 -0.05866805091500282 -0.18994872272014618 0.1144259050488472 -0.3075324296951294 0.48501279950141907 -0.29641976952552795 -0.08977742493152618 -0.15769243240356445 -0.0011440999805927277 -0.08364821970462799 0.09316893666982651 -0.15185096859931946 
u28 -1.039226770401001 0.08621589839458466 0.16176937520503998 0.10511307418346405 0.05803221836686134 -0.022108232602477074 -0.15415872633457184 -0.06962231546640396 0.19328291714191437 0.09740380197763443 0.10371411591768265 0.19455799460411072 -0.6111816763877869 0.28752124309539795 -0.21350699663162231 -0.14195269346237183 0.09940414130687714 -0.2554168999195099 -0.2878820300102234 -0.6477679014205933 -0.18256431818008423 -0.39764171838760376 -0.12112021446228027 -0.10786330699920654 -0.23887670040130615 -0.166314497590065 -0.11087082326412201 0.10810860246419907 -0.05436928570270538 -0.061689749360084534 0.3529070019721985 -0.050268761813640594 
u29 -0.9530341625213623 0.5639482140541077 -0.35754260420799255 0.07246661186218262 0.03544576093554497 -0.05928851664066315 -0.39489346742630005 5.289330147206783e-06 0.5705912709236145 0.22553661465644836 -0.03917167708277702 0.10942771285772324 -0.5480461120605469 0.504580557346344 0.011690028011798859 -0.15085966885089874 0.3420635461807251 -0.40283259749412537 -0.18634732067584991 -0.5243786573410034 -0.6804783344268799 -0.2924399673938751 0.057627856731414795 0.1643860936164856 -0.40496382117271423 -0.4045847952365875 -0.30964067578315735 -0.24680238962173462 -0.10048909485340118 -0.5922598838806152 0.30864593386650085 -0.12286628782749176 
u30 -0.937843382358551 0.6643885970115662 -0.44977182149887085 0.05471312999725342 0.05077261105179787 -0.09497616440057755 -0.47867873311042786 -0.011856799013912678 0.612690269947052 0.24205376207828522 -0.07985425740480423 0.11898801475763321 -0.5186464786529541 0.5951038002967834 0.08566761761903763 -0.164384126663208 0.4407298266887665 -0.49780187010765076 -0.17421157658100128 -0.5536346435546875 -0.7582683563232422 -0.32002952694892883 0.11531315743923187 0.22183986008167267 -0.37643352150917053 -0.42182329297065735 -0.36220458149909973 -0.35176730155944824 -0.10655181109905243 -0.6931812763214111 0.3907274901866913 -0.14989608526229858 
u31 -0.9647514820098877 0.5878748893737793 -0.3833419978618622 0.07532455772161484 0.042441342025995255 -0.07627713680267334 -0.43053552508354187 -0.005138952750712633 0.5802841782569885 0.23621045053005219 -0.05150323733687401 0.11326093226671219 -0.5470413565635681 0.5469409227371216 0.028929762542247772 -0.16128742694854736 0.37670135498046875 -0.4377101957798004 -0.18647335469722748 -0.5512170791625977 -0.6990269422531128 -0.3139497935771942 0.07308854162693024 0.17424575984477997 -0.38892605900764465 -0.4058685302734375 -0.3310064971446991 -0.28030678629875183 -0.10979259014129639 -0.6204164028167725 0.3433474004268646 -0.12660592794418335 
u32 -1.3214631080627441 0.17855538427829742 -0.2595585584640503 -0.10540410876274109 -0.9545887112617493 0.019180862233042717 0.33438190817832947 -0.9048126935958862 0.7068144679069519 -0.489564448595047 -0.558597207069397 -0.9822956323623657 -0.0982484519481659 0.6271166205406189 -0.3164541721343994 -0.21362462639808655 0.5019235610961914 0.07834503054618835 0.4283161163330078 -0.9266077876091003 -0.8901818990707397 -0.22360888123512268 -0.003570125438272953 -0.3477269411087036 -0.29841843247413635 -0.8678003549575806 0.3698480427265167 0.6573830842971802 0.5983390808105469 -0.1591029316186905 0.5594598650932312 0.40519049763679504 
u33 -0.10474569350481033 0.220636785030365 0.04170903563499451 0.4783458113670349 -0.07491767406463623 0.01946462132036686 -0.15958161652088165 -0.15265615284442902 0.3137252926826477 -0.0033066552132368088 0.39754319190979004 0.2354128360748291 -0.3134869635105133 -0.4559236764907837 -0.30266451835632324 0.29005128145217896 0.034336332231760025 0.1054481714963913 -0.15314523875713348 -0.01892103999853134 0.1915733963251114 -0.12820830941200256 -0.190470889210701 -0.5794199705123901 -0.03718714043498039 0.5366584062576294 -0.03137173131108284 0.24451681971549988 -0.016713328659534454 -0.24363744258880615 -0.7075292468070984 0.1382238268852234 
u34 -0.8565850257873535 0.6083534955978394 -0.3751528859138489 0.021973801776766777 0.021749798208475113 -0.02313918061554432 -0.3343218266963959 0.00909093301743269 0.5945247411727905 0.19312246143817902 -0.039531413465738297 0.10337599366903305 -0.5020906925201416 0.4170917868614197 0.044950954616069794 -0.11218474060297012 0.3149013817310333 -0.3672143220901489 -0.16303114593029022 -0.4182650148868561 -0.7191665172576904 -0.21194671094417572 0.07145047932863235 0.21096737682819366 -0.453304260969162 -0.43257245421409607 -0.2778109610080719 -0.2406817078590393 -0.056239672005176544 -0.6133002042770386 0.24983033537864685 -0.15277275443077087 
u35 -1.1201503276824951 -0.39633244276046753 0.05074632912874222 0.48508262634277344 -0.09300640225410461 -0.9983431696891785 0.18742047250270844 0.1110265851020813 0.43750858306884766 -0.6121336221694946 -0.07643763720989227 -0.5829618573188782 0.10925963521003723 -0.3705158233642578 -0.28867706656455994 -0.301595002412796 -0.8464947938919067 0.5465019941329956 1.0757346153259277 -0.8777455687522888 -0.6670112609863281 -0.001736026257276535 0.2901651859283447 -0.3998667001724243 -0.19144831597805023 -0.9281296730041504 -0.32846885919570923 0.3812997043132782 -0.48284634947776794 0.23613867163658142 0.21436375379562378 0.505374014377594 
u36 -0.16888833045959473 0.24773840606212616 -0.09567593783140182 -0.12906064093112946 0.05347380042076111 -0.0014931801706552505 0.44661039113998413 0.28344884514808655 0.8224064111709595 -0.08652891963720322 -0.16129322350025177 0.09781946986913681 0.013543691486120224 -0.19452719390392303 0.3114944100379944 0.2588106691837311 -0.28472256660461426 0.01170753501355648 0.379960834980011 0.6524966359138489 -0.9544594287872314 0.5136235356330872 0.038955532014369965 0.3926323652267456 -0.7837257981300354 -0.12718439102172852 0.370336651802063 -0.3904148042201996 -0.031663164496421814 -0.4087541997432709 -0.21780981123447418 -0.38347238302230835 
u37 0.002161686308681965 0.314532071352005 -0.07170525193214417 -0.10081435739994049 -0.09200486540794373 0.09207157790660858 0.35941025614738464 0.11615191400051117 0.7583972215652466 -0.02717776782810688 -0.21831181645393372 0.028831973671913147 0.023235004395246506 -0.10873457789421082 0.2990280091762543 0.11317121982574463 -0.10847672820091248 -0.01368340477347374 0.34605157375335693 0.7125092148780823 -0.8582447171211243 0.5159509778022766 0.11522172391414642 0.38213902711868286 -0.6267852187156677 -0.08604680001735687 0.3897692859172821 -0.3474569618701935 0.007314279675483704 -0.3746194541454315 -0.1897476613521576 -0.420305073261261 
u38 0.054997581988573074 0.31822606921195984 -0.04237004369497299 -0.08606453984975815 -0.10446161031723022 0.04813877493143082 0.5089929103851318 0.16377140581607819 0.8988238573074341 -0.10654077678918839 -0.3399639129638672 0.07798170298337936 0.13044457137584686 -0.15927734971046448 0.4862726032733917 0.21578478813171387 -0.2561821937561035 -0.0035446714609861374 0.5574468374252319 0.9648295044898987 -1.0315052270889282 0.6561660170555115 0.14732250571250916 0.5271822214126587 -0.680959939956665 -0.05435120686888695 0.6010510325431824 -0.5245941281318665 -0.07193446159362793 -0.35461586713790894 -0.259082168340683 -0.6134666204452515 
u39 0.048171523958444595 0.2892192304134369 -0.5917579531669617 -0.5917483568191528 0.5175251960754395 0.7557146549224854 0.281620055437088 -0.3055405914783478 0.571641743183136 0.21043741703033447 -0.4133072793483734 -0.3222047686576843 -0.017843328416347504 -0.8935685753822327 0.7312743663787842 0.32374900579452515 0.23324337601661682 0.9628359079360962 0.6920956373214722 0.41757920384407043 -0.7679601907730103 0.37925034761428833 0.1891869306564331 0.7059175968170166 -0.7222751379013062 -0.025634832680225372 -0.3846205174922943 -0.577682614326477 0.6593905687332153 -0.4449358880519867 0.12806299328804016 0.7186788320541382 
u40 -0.29523277282714844 0.8779608607292175 -0.1927153617143631 -0.0064114052802324295 -0.4352375864982605 0.3140082359313965 0.1427409052848816 -0.2231147587299347 0.7894787788391113 -0.031502556055784225 -0.3243219554424286 0.07994387298822403 -0.29922640323638916 -0.016166426241397858 0.4009173512458801 -0.01007103268057108 0.037160724401474 -0.08882196247577667 0.22619275748729706 0.5490330457687378 -0.9245350360870361 0.3528800904750824 0.2170150727033615 0.6133002638816833 -0.5210103988647461 -0.5512773990631104 0.412387490272522 -0.24866163730621338 0.014062099158763885 -0.3862619400024414 -0.2521898150444031 -0.7883915305137634 
u41 -0.32861316204071045 0.5925300717353821 -0.26670143008232117 -0.15889796614646912 -0.07161563634872437 0.17296095192432404 0.07066654413938522 0.06093975529074669 0.5566374659538269 0.033062681555747986 -0.0013505993410944939 0.007395036518573761 -0.24933739006519318 -0.09878210723400116 0.08789647370576859 0.0638994574546814 0.048509299755096436 -0.04363063722848892 -0.07209765911102295 0.12543053925037384 -0.6658703088760376 0.1915254294872284 0.05168815702199936 0.3114342987537384 -0.5975309610366821 -0.4590770900249481 -0.052261870354413986 -0.05277634412050247 0.16526052355766296 -0.4884844422340393 -0.11066294461488724 -0.20434048771858215 
u42 0.4869174063205719 -0.2475050687789917 0.05196572095155716 -0.20778639614582062 0.19909457862377167 -0.08832690119743347 0.5042509436607361 0.3629292845726013 0.6307817101478577 0.017445487901568413 -0.11379089951515198 -0.08397791534662247 0.3935064971446991 -0.14971527457237244 0.15879511833190918 0.14049972593784332 -0.10544352233409882 0.04561524838209152 0.41795581579208374 0.8900172114372253 -0.6733373403549194 0.6721038818359375 0.05993098020553589 0.10336822271347046 -0.6092469096183777 0.44357237219810486 0.3287688195705414 -0.39727649092674255 0.05719548463821411 -0.34393829107284546 -0.08262522518634796 0.0003715232014656067 
u43 0.3443722426891327 -0.6867085099220276 0.38860660791397095 0.06929169595241547 0.3338102698326111 -0.48066452145576477 -0.028747770935297012 0.019098613411188126 0.6137790679931641 0.3222259283065796 0.29982414841651917 -0.8281406164169312 0.2952035069465637 -0.297707200050354 -0.3627462685108185 0.092330202460289 0.37312382459640503 -0.17125077545642853 -0.023718709126114845 0.9749872088432312 -0.6342188715934753 0.8327913880348206 0.02479986846446991 0.0029864683747291565 -0.4425572454929352 0.7048044800758362 0.4928815960884094 -0.435962438583374 -0.09532913565635681 -0.11600969731807709 0.9402406215667725 -0.3448636829853058 
i13 0.006837599910795689 -0.20720842480659485 -0.189111590385437 0.07079707086086273 0.14893203973770142 0.18099945783615112 -0.021579381078481674 0.28533199429512024 -0.48942750692367554 0.2502782344818115 0.33525583148002625 0.2512189745903015 -0.3572443127632141 -0.11231288313865662 -0.23249328136444092 -0.3549899458885193 0.03073740005493164 -0.0018111132085323334 -0.28262025117874146 0.2656427323818207 0.3896699845790863 0.09330801665782928 -0.09955943375825882 -0.004316940903663635 -0.6724069714546204 -0.35421696305274963 -0.008414801210165024 0.36610493063926697 0.08022025227546692 0.19519370794296265 -0.3869388997554779 0.03779258579015732 
i14 0.38021376729011536 -0.5993425250053406 0.3149041533470154 0.008798731490969658 0.3052234947681427 -0.3885275423526764 0.044416096061468124 0.07251274585723877 0.5803113579750061 0.27965691685676575 0.2398315966129303 -0.6921266317367554 0.29902416467666626 -0.2536371946334839 -0.29723310470581055 0.07344307005405426 0.31776636838912964 -0.13032816350460052 0.020038386806845665 0.9095509648323059 -0.5966110825538635 0.7720467448234558 0.029464904218912125 -0.010141730308532715 -0.45483526587486267 0.6522524356842041 0.4142889678478241 -0.38852450251579285 -0.04349827021360397 -0.16439886391162872 0.7495233416557312 -0.23083052039146423 
u44 0.33558544516563416 -1.0853170156478882 0.3337826728820801 -0.036476895213127136 0.5981529355049133 -0.8030648231506348 -0.28328242897987366 -0.35295572876930237 0.6812323331832886 0.4196774661540985 0.3984863758087158 -1.35654616355896 0.11675596237182617 -0.428000271320343 -0.24718928337097168 0.11079199612140656 0.39085474610328674 -0.2458094209432602 -0.266933798789978 1.0638004541397095 -0.6939879059791565 0.9537222385406494 -0.007795409299433231 -0.0956992506980896 -0.5232007503509521 0.9398020505905151 0.6901165246963501 -0.6549715399742126 0.04857137054204941 0.0874573290348053 1.6289068460464478 -0.5774651765823364 
u45 0.44360432028770447 -0.7928206324577332 0.053674571216106415 -0.274852454662323 0.5339144468307495 -0.5421714782714844 0.13094542920589447 -0.1218695342540741 0.7294321060180664 0.17271633446216583 0.066338911652565 -0.8195465803146362 0.17920158803462982 -0.33885639905929565 0.21658912301063538 0.17112448811531067 -0.019948352128267288 -0.08089008927345276 0.08697018772363663 1.040636658668518 -0.7672024965286255 0.8603999018669128 0.016283206641674042 -0.008894383907318115 -0.6892653703689575 0.7643663883209229 0.6188291907310486 -0.678189754486084 0.1777496337890625 -0.06410062313079834 0.8924404382705688 -0.3685421049594879 
i15 -0.767704427242279 0.172166645526886 0.32860222458839417 0.23683612048625946 -0.33834028244018555 -0.10921385884284973 0.031040605157613754 0.12214179337024689 -0.17437529563903809 0.0794392079114914 -0.2743263244628906 -0.39738982915878296 0.08048653602600098 -0.04124376177787781 0.18551963567733765 0.11155203729867935 0.10746139287948608 -0.00754760205745697 -0.16427971422672272 0.5912113189697266 0.8896825313568115 -0.2621197998523712 0.10009289532899857 0.7365024089813232 0.671265721321106 0.375911146402359 0.014868393540382385 -0.3018265664577484 0.10994862765073776 0.4802626073360443 0.24729710817337036 0.5000136494636536 
u46 -0.8037148118019104 -0.3180483281612396 -0.15605226159095764 0.0597677081823349 -0.0974285751581192 0.2835998833179474 -0.2721961736679077 -0.22840635478496552 -0.016006773337721825 0.17298515141010284 -0.33745381236076355 -0.09121212363243103 0.48383158445358276 0.08777737617492676 0.12615270912647247 -0.22063659131526947 -0.043388742953538895 -0.01374955102801323 0.306954562664032 0.43651628494262695 0.6373024582862854 -0.3785589039325714 -0.013936844654381275 0.6874202489852905 0.6565529108047485 0.7332857847213745 -0.3257610499858856 0.3466064929962158 0.010904572904109955 0.37425094842910767 0.08370068669319153 -0.43945345282554626 
u47 -1.1340088844299316 0.07543058693408966 0.7994132041931152 -0.472231924533844 0.048393625766038895 0.2708359956741333 0.3670230507850647 -0.2471693605184555 -0.15984243154525757 -0.26184511184692383 0.08813205361366272 0.5115363001823425 -0.25898537039756775 -0.4775552749633789 0.16810694336891174 0.17634810507297516 -0.04408155754208565 -0.3720543384552002 -0.43981826305389404 0.06236399710178375 0.4381615221500397 -0.3644618093967438 -0.027222953736782074 0.5139832496643066 0.08788585662841797 0.3940008580684662 0.1981489360332489 0.234624445438385 0.4631757438182831 0.47626930475234985 0.6830887198448181 -0.39998647570610046 
i16 -0.6764432191848755 -0.11036230623722076 0.19486014544963837 0.0703725665807724 -0.03637821599841118 0.13479141891002655 0.022585418075323105 0.03067498654127121 -0.09449034184217453 0.12204533070325851 -0.048279233276844025 -0.047894179821014404 -0.12143363058567047 -0.000499434769153595 0.027974680066108704 0.009469396434724331 -0.03617877885699272 0.010606305673718452 -0.18408696353435516 0.1988358497619629 0.48943382501602173 -0.20393654704093933 -0.034689370542764664 0.2617073655128479 0.23982909321784973 0.34241539239883423 -0.007366415113210678 0.051288701593875885 0.031080201268196106 0.2748372554779053 0.009861093014478683 0.03057243674993515 
u48 -0.6842565536499023 -0.1515844762325287 0.1838052123785019 0.06947347521781921 -0.007702205330133438 0.14840352535247803 0.024202626198530197 0.02680356614291668 -0.10493835806846619 0.1129724457859993 -0.029873061925172806 -0.03223319351673126 -0.10934101045131683 -0.03403783589601517 0.01768210530281067 0.007393001578748226 -0.051144976168870926 0.022280754521489143 -0.16034765541553497 0.2075921595096588 0.5055087208747864 -0.19235342741012573 -0.037165503948926926 0.23786526918411255 0.2329682558774948 0.36725977063179016 -0.009253975003957748 0.0815780907869339 0.021004989743232727 0.2828029692173004 -0.017068469896912575 0.005625329911708832 
u49 -0.612204909324646 -0.15491987764835358 0.14420099556446075 0.05464160442352295 0.02641875296831131 0.13910508155822754 0.03261818736791611 0.06826335191726685 -0.20131151378154755 0.1049438938498497 0.008591518737375736 -0.011243093758821487 -0.12083341181278229 -0.050001755356788635 0.009067259728908539 -0.03087187372148037 -0.02603013440966606 0.017202312126755714 -0.16931380331516266 0.2656250596046448 0.5465573072433472 -0.14789040386676788 -0.028821945190429688 0.2722812294960022 0.14308993518352509 0.275029718875885 0.02747863344848156 0.09965451806783676 0.047680724412202835 0.32165634632110596 -0.027931032702326775 0.021339327096939087 
u50 -0.5963948965072632 -0.07327549159526825 -0.05818236619234085 0.02964271418750286 0.021902430802583694 -0.1051502525806427 -0.0805756002664566 -0.059391412883996964 -0.24485093355178833 -0.1789352148771286 0.11432240903377533 0.10409154742956161 -0.02105039358139038 -0.09325416386127472 0.019490405917167664 0.09325259923934937 0.15117383003234863 -0.0686957985162735 0.07033653557300568 0.3729539215564728 0.655299186706543 -0.22128558158874512 0.03174751251935959 0.39062440395355225 0.1265932023525238 0.26093000173568726 0.0687093660235405 0.05976836010813713 0.03930501639842987 0.39120984077453613 0.0366722047328949 0.07385585457086563 
u51 -0.6094024181365967 -0.0802018791437149 -0.058708980679512024 0.043309904634952545 0.015175197273492813 -0.08877559006214142 -0.09413209557533264 -0.05367923527956009 -0.2602250874042511 -0.19314727187156677 0.10997346043586731 0.09898342937231064 -0.024898113682866096 -0.11371897161006927 0.019961532205343246 0.10090562701225281 0.1447630226612091 -0.07629938423633575 0.07918769866228104 0.37159016728401184 0.6766200065612793 -0.21648560464382172 0.03292408213019371 0.39724087715148926 0.1406731754541397 0.2524038255214691 0.0778975784778595 0.048780012875795364 0.03240322321653366 0.398582398891449 0.04957268387079239 0.07678700238466263 
u52 -0.5724716186523438 -0.08200694620609283 -0.05370943248271942 0.022705605253577232 0.0011914782226085663 -0.11357367038726807 -0.08518940210342407 -0.07219692319631577 -0.24429252743721008 -0.16880837082862854 0.12632715702056885 0.09635835140943527 -0.01402178406715393 -0.06531022489070892 0.016103029251098633 0.1084023118019104 0.12930357456207275 -0.053409382700920105 0.0696132555603981 0.3452894985675812 0.6644183993339539 -0.23006339371204376 0.022811129689216614 0.39518067240715027 0.14519624412059784 0.2653767168521881 0.04509976878762245 0.041628263890743256 0.035834506154060364 0.38958868384361267 0.05840900540351868 0.06962964683771133 
i17 -0.571607768535614 -0.06168502941727638 -0.06638031452894211 0.02211708389222622 0.018338855355978012 -0.09948781132698059 -0.08805882930755615 -0.07060781121253967 -0.2252480685710907 -0.16982904076576233 0.11065943539142609 0.1080564334988594 -0.028018087148666382 -0.07042710483074188 0.024779126048088074 0.09175591170787811 0.15900546312332153 -0.07551061362028122 0.06271929293870926 0.353134423494339 0.6232306957244873 -0.23198941349983215 0.026453897356987 0.3835182785987854 0.12133133411407471 0.25889602303504944 0.06309165805578232 0.059641674160957336 0.04024283215403557 0.3743971884250641 0.0408967062830925 0.058009304106235504 
u53 -0.5586851239204407 -0.068703293800354 -0.05500178039073944 0.0277577992528677 0.024023588746786118 -0.09746820479631424 -0.07274018228054047 -0.05280949920415878 -0.2372523844242096 -0.17048104107379913 0.10848823189735413 0.09631664305925369 -0.01810220256447792 -0.08760207891464233 0.020856227725744247 0.08733014762401581 0.14377959072589874 -0.06519676744937897 0.06585750728845596 0.3536319434642792 0.6244279146194458 -0.20768988132476807 0.03090400993824005 0.37081408500671387 0.12049251794815063 0.24393965303897858 0.06727030873298645 0.05772696062922478 0.03960153087973595 0.3723975121974945 0.03434886038303375 0.06921689957380295 
u54 -0.5462104678153992 -0.06287012994289398 -0.059127576649188995 0.023970356211066246 0.02223014086484909 -0.09461846202611923 -0.07650628685951233 -0.058454398065805435 -0.22738680243492126 -0.1658981591463089 0.10664475709199905 0.09831205755472183 -0.021608848124742508 -0.07611386477947235 0.023517895489931107 0.0865769013762474 0.1477210372686386 -0.06862647831439972 0.062023960053920746 0.34365734457969666 0.6082887649536133 -0.21307682991027832 0.02823987975716591 0.36723777651786804 0.11784437298774719 0.24291600286960602 0.06444307416677475 0.0576632022857666 0.04007350653409958 0.363936185836792 0.03647492825984955 0.061241768300533295 
u55 -0.5630640983581543 -0.059499237686395645 -0.048200227320194244 0.037188366055488586 0.007918670773506165 -0.09242216497659683 -0.06756176054477692 -0.06218660995364189 -0.23242713510990143 -0.17411532998085022 0.09366385638713837 0.09619522839784622 -0.016673248261213303 -0.0893399566411972 0.03366674855351448 0.08359959721565247 0.14111368358135223 -0.06490480899810791 0.08033597469329834 0.37856388092041016 0.6230201721191406 -0.1974671185016632 0.03985640034079552 0.3865593373775482 0.12793244421482086 0.24200387299060822 0.08858642727136612 0.04850156605243683 0.033095311373472214 0.3817487955093384 0.027840077877044678 0.04862504452466965 
i18 -0.6282933950424194 -0.06293188035488129 -0.08860031515359879 0.03372965008020401 0.017145439982414246 -0.1656120866537094 -0.10083439946174622 -0.08688243478536606 -0.25325775146484375 -0.2515113353729248 0.13531866669654846 0.12328793853521347 0.00863642618060112 -0.12051063776016235 0.019053179770708084 0.1323750913143158 0.18020954728126526 -0.08106611669063568 0.13297529518604279 0.4035781919956207 0.7007311582565308 -0.23758897185325623 0.04858153313398361 0.41692453622817993 0.14472948014736176 0.27711358666419983 0.07744143903255463 0.04590512439608574 0.031175091862678528 0.41483455896377563 0.04948778823018074 0.09795554727315903 
u56 -0.5780924558639526 -0.08143994212150574 -0.09856508672237396 0.01087859831750393 -0.0175897516310215 -0.17201240360736847 -0.06365740299224854 -0.09070524573326111 -0.22398535907268524 -0.22409029304981232 0.15704551339149475 0.13442108035087585 0.02717740088701248 -0.05797196924686432 0.02088535949587822 0.13132694363594055 0.18983501195907593 -0.08444736897945404 0.15639342367649078 0.3772834241390228 0.6886301040649414 -0.2548600733280182 0.05134538561105728 0.39253824949264526 0.12666991353034973 0.31503400206565857 0.05657820403575897 0.02223900333046913 0.043113574385643005 0.37319934368133545 0.07374703139066696 0.10360635071992874 
u57 -0.3699744939804077 0.09662294387817383 -0.1302662342786789 -0.03438759595155716 0.20955894887447357 -0.2750265300273895 -0.24923881888389587 -0.18027657270431519 -0.13799847662448883 -0.6692478656768799 -0.18784581124782562 0.3806372284889221 0.026588182896375656 0.003932647407054901 0.08366603404283524 0.014999068342149258 0.43068066239356995 -0.3149818778038025 0.39880016446113586 0.5019710063934326 0.42421913146972656 -0.2198759913444519 0.1361289769411087 0.41605043411254883 0.1870434731245041 0.30574730038642883 0.15691375732421875 0.09100859612226486 -0.009753607213497162 0.4624505639076233 0.06474252045154572 0.27527233958244324 
u58 -0.6587122678756714 -0.1574704945087433 0.2090950459241867 0.07350658625364304 -0.03413763269782066 0.11468300223350525 0.03739685192704201 0.016614966094493866 -0.0966421514749527 0.09758920222520828 -0.014580889604985714 -0.05413224920630455 -0.08591523766517639 -0.028692245483398438 0.012660093605518341 0.05159255862236023 -0.09205909073352814 0.054204508662223816 -0.1394234001636505 0.17043890058994293 0.5171151161193848 -0.18523260951042175 -0.03850875794887543 0.2241348922252655 0.2737925350666046 0.37389886379241943 -0.02748100459575653 0.040065355598926544 0.007469072937965393 0.2765955924987793 0.004242315888404846 0.025004945695400238 
u59 -0.5424498319625854 -0.03778643533587456 -0.09915155172348022 0.017031049355864525 0.011357083916664124 -0.14480432868003845 -0.1067732721567154 -0.10119083523750305 -0.20845068991184235 -0.22160868346691132 0.12246161699295044 0.1219002977013588 -0.0029821060597896576 -0.06866051256656647 0.0301707424223423 0.12272903323173523 0.18506677448749542 -0.08901743590831757 0.11079227179288864 0.34434452652931213 0.6088874936103821 -0.24466992914676666 0.03625969588756561 0.38358184695243835 0.12916748225688934 0.2565961182117462 0.0634678304195404 0.043363120406866074 0.033464111387729645 0.3638089597225189 0.05595400184392929 0.06195499747991562 
u60 -0.6148844361305237 -0.07741877436637878 -0.070517897605896 0.04047770798206329 0.035820845514535904 -0.19941335916519165 -0.026918698102235794 -0.05725258216261864 -0.16709281504154205 -0.27898305654525757 0.08316869288682938 0.12093319743871689 0.03880063816905022 -0.15802259743213654 0.10948045551776886 0.18794119358062744 0.08199819922447205 -0.07338258624076843 0.2156045287847519 0.5000854730606079 0.5749478936195374 -0.15285056829452515 0.05241762101650238 0.46737247705459595 0.0887584388256073 0.2708720564842224 0.18671777844429016 -0.05076379328966141 -0.009021759033203125 0.41487088799476624 0.04211615025997162 -0.0118517205119133 
u61 -0.5777831673622131 -0.06155969575047493 -0.08295662701129913 0.02787739597260952 0.010148938745260239 -0.15793225169181824 -0.09515643119812012 -0.08592302352190018 -0.24307866394519806 -0.23410215973854065 0.13334064185619354 0.1120399460196495 0.011957265436649323 -0.09904736280441284 0.01954028010368347 0.13090386986732483 0.16318902373313904 -0.07134334743022919 0.12406361848115921 0.3694891631603241 0.6691882610321045 -0.22884652018547058 0.04241224378347397 0.3978671133518219 0.14528967440128326 0.26182904839515686 0.06485427916049957 0.03698410093784332 0.030534282326698303 0.3930922746658325 0.05636126548051834 0.08857328444719315 
u62 -0.5901871919631958 -0.05885200574994087 -0.08414442837238312 0.03150402009487152 0.019309628754854202 -0.15483349561691284 -0.09252592921257019 -0.07946436107158661 -0.245045468211174 -0.23923060297966003 0.12853586673736572 0.11499354988336563 0.009569365531206131 -0.1129959374666214 0.0205208882689476 0.1245647519826889 0.17184023559093475 -0.07727198302745819 0.12504413723945618 0.383053183555603 0.6681203842163086 -0.22415345907211304 0.046696051955223083 0.39654743671417236 0.1378074735403061 0.260109007358551 0.07543420791625977 0.04474365711212158 0.03193400055170059 0.3952670097351074 0.04670412838459015 0.0917755737900734 
u63 -0.5911331176757812 -0.05929434671998024 -0.0838315561413765 0.03179123252630234 0.01944562792778015 -0.15504959225654602 -0.0922403335571289 -0.07903629541397095 -0.24579359591007233 -0.23957814276218414 0.1286756545305252 0.11484222859144211 0.00983528234064579 -0.11386711895465851 0.020319048315286636 0.12462186813354492 0.17154134809970856 -0.07701189815998077 0.12533484399318695 0.38380956649780273 0.6693442463874817 -0.2237449437379837 0.04689808189868927 0.3968186378479004 0.13800828158855438 0.26018664240837097 0.07564859837293625 0.044748492538928986 0.03189820796251297 0.3959086537361145 0.046542901545763016 0.0923803523182869 
u64 -0.5705887079238892 -0.04883784428238869 -0.09072931110858917 0.02506391517817974 0.01580744981765747 -0.15221387147903442 -0.09920211136341095 -0.09094639867544174 -0.22974969446659088 -0.23037175834178925 0.12507414817810059 0.11819659918546677 0.0030247438699007034 -0.09446625411510468 0.02543012797832489 0.12350259721279144 0.177934929728508 -0.08142148703336716 0.118128202855587 0.3655504286289215 0.6417692303657532 -0.2339145690202713 0.04272368922829628 0.3913739323616028 0.13499875366687775 0.2571120858192444 0.07095251977443695 0.044035881757736206 0.03251483663916588 0.3832669258117676 0.050548478960990906 0.07706528156995773 
u65 -0.5804084539413452 -0.054279495030641556 -0.08737856894731522 0.028535110875964165 0.017903771251440048 -0.15259961783885956 -0.0954781025648117 -0.08388930559158325 -0.23731201887130737 -0.23563815653324127 0.12709079682826996 0.11655772477388382 0.006820563226938248 -0.10399051010608673 0.02260732650756836 0.12397429347038269 0.17492987215518951 -0.07996046543121338 0.12203908711671829 0.3752342462539673 0.6554691791534424 -0.22837617993354797 0.04460768774151802 0.39374402165412903 0.13573162257671356 0.25930657982826233 0.07321797311306 0.04469367861747742 0.03230397403240204 0.3886343240737915 0.04837071895599365 0.08552401512861252 
u66 -0.5451335906982422 -0.06384710967540741 -0.08283951133489609 0.018252169713377953 -0.009766999632120132 -0.16271409392356873 -0.10271425545215607 -0.10244230180978775 -0.23344017565250397 -0.22092826664447784 0.14221172034740448 0.10707437247037888 0.014900799840688705 -0.06376875936985016 0.01902250573039055 0.14355745911598206 0.14756816625595093 -0.06105060875415802 0.11987210065126419 0.33586016297340393 0.6622626781463623 -0.2415769100189209 0.032066408544778824 0.3985671103000641 0.15923002362251282 0.2647990882396698 0.04142525792121887 0.020937535911798477 0.027913175523281097 0.38381898403167725 0.0774896889925003 0.07745487242937088 
u67 -0.575995683670044 -0.05221608653664589 -0.08883803337812424 0.027195347473025322 0.01726936176419258 -0.15159155428409576 -0.09681032598018646 -0.08588612824678421 -0.23382216691970825 -0.234017014503479 0.1264386773109436 0.11726357787847519 0.005580127239227295 -0.0999266654253006 0.023548860102891922 0.1237078458070755 0.17632411420345306 -0.08117368817329407 0.12068302184343338 0.3717058300971985 0.6497600674629211 -0.2302817553281784 0.04366528242826462 0.39247894287109375 0.13479487597942352 0.25894448161125183 0.07221788167953491 0.04467112571001053 0.03247092664241791 0.3856412172317505 0.04912279546260834 0.08270289748907089 
u68 -0.54265296459198 -0.03662501648068428 -0.09986560791730881 0.017072146758437157 0.012475766241550446 -0.1439746618270874 -0.10687649250030518 -0.10097400844097137 -0.20745313167572021 -0.22176770865917206 0.12151137739419937 0.12259700149297714 -0.00379255972802639 -0.06922054290771484 0.030663054436445236 0.12169454991817474 0.18685893714427948 -0.09034073352813721 0.1104365810751915 0.3450453579425812 0.6066227555274963 -0.24468016624450684 0.03654450178146362 0.3829200565814972 0.1277167946100235 0.2562084496021271 0.06466113775968552 0.04450070858001709 0.03373243659734726 0.363025426864624 0.05480543524026871 0.06138671189546585 
i19 -0.6640560626983643 -0.14689160883426666 0.1875884085893631 0.07366809993982315 -0.0013575367629528046 0.12927955389022827 0.03896016255021095 0.038716431707143784 -0.11930810660123825 0.09203184396028519 -0.020281299948692322 -0.03591613471508026 -0.10209260880947113 -0.05470474064350128 0.015781525522470474 0.01745000295341015 -0.05478619411587715 0.030158845707774162 -0.1475512832403183 0.21496248245239258 0.5102854371070862 -0.17016267776489258 -0.02911118045449257 0.23061111569404602 0.223979189991951 0.3451836407184601 0.006131565198302269 0.07094432413578033 0.020654357969760895 0.2860390543937683 -0.02233855612576008 0.024949051439762115 
u69 -0.5161056518554688 -0.04457949474453926 -0.0899454802274704 0.02083500660955906 0.016559332609176636 -0.1356532722711563 -0.0950494110584259 -0.08320768177509308 -0.21933509409427643 -0.21969473361968994 0.11777683347463608 0.11315589398145676 0.005635485053062439 -0.08052679896354675 0.02636515349149704 0.11539079248905182 0.17222058773040771 -0.0832977443933487 0.1096174344420433 0.3390575349330902 0.6030807495117188 -0.22255530953407288 0.038230039179325104 0.3640108108520508 0.1288689821958542 0.2416820377111435 0.06651020050048828 0.043691642582416534 0.031970564275979996 0.356587290763855 0.04794086515903473 0.07091937214136124 
u70 -0.6205797791481018 -0.11306609213352203 0.14673911035060883 0.04943707585334778 -0.009910564869642258 0.15282468497753143 0.008473414927721024 0.04894845187664032 -0.15850122272968292 0.14318104088306427 -0.022764060646295547 -0.024037692695856094 -0.1495569497346878 0.015691198408603668 0.02131909504532814 -0.042789388447999954 0.007772333920001984 -0.011571573093533516 -0.21539799869060516 0.2309911847114563 0.5060379505157471 -0.1920352280139923 -0.03629595786333084 0.28485435247421265 0.15967397391796112 0.28120315074920654 0.008478384464979172 0.08328793197870255 0.05977802723646164 0.2939024269580841 0.007362504489719868 0.02379787713289261 
u71 -0.6485852599143982 -0.10997889935970306 0.16915777325630188 0.05958643555641174 -0.023549463599920273 0.147439643740654 0.012259159237146378 0.035041261464357376 -0.1189705953001976 0.1359695941209793 -0.03694472834467888 -0.036730047315359116 -0.13959601521492004 0.011485114693641663 0.024257570505142212 -0.018439026549458504 -0.007280323654413223 -0.004523314535617828 -0.20386934280395508 0.2071928083896637 0.4904468357563019 -0.20233631134033203 -0.0360124446451664 0.26453569531440735 0.2006588578224182 0.3165438771247864 -0.0017705298960208893 0.06890252232551575 0.04615074396133423 0.2774045169353485 0.009824652224779129 0.02689068764448166 
u72 -0.6336649656295776 -0.10346771776676178 0.15313446521759033 0.08479432761669159 -0.0488947369158268 0.2044120728969574 -0.04421776905655861 0.03406211733818054 -0.13765157759189606 0.10766857862472534 -0.055448126047849655 -0.043513182550668716 -0.16085046529769897 -0.007290706038475037 0.032338064163923264 -0.00044506159611046314 -0.013544801622629166 -0.03650224581360817 -0.1934482902288437 0.16630497574806213 0.4981343746185303 -0.20902101695537567 -0.04271451756358147 0.2784995138645172 0.23435765504837036 0.2777796685695648 0.011805057525634766 0.042498014867305756 0.029080558568239212 0.2732946574687958 0.05436244606971741 0.0077542588114738464 
u73 -0.7287169694900513 -0.10707166790962219 0.22848619520664215 0.08802372217178345 -0.05610528215765953 0.13166065514087677 0.02480112761259079 0.0049823890440166 -0.028448885306715965 0.11420871317386627 -0.0708111822605133 -0.0700390636920929 -0.11185970902442932 -0.008454151451587677 0.02940111607313156 0.04293656349182129 -0.04807838425040245 0.015882352367043495 -0.17195270955562592 0.15601405501365662 0.4648140072822571 -0.22360970079898834 -0.03311480954289436 0.21677899360656738 0.3050968647003174 0.40556368231773376 -0.025018148124217987 0.03306208550930023 0.011761445552110672 0.24319703876972198 0.014220038428902626 0.041164033114910126 
u74 -0.6633315086364746 -0.10543133318424225 0.18333786725997925 0.06522789597511292 -0.033920738846063614 0.14478699862957 0.013409465551376343 0.022919025272130966 -0.08701871335506439 0.13272802531719208 -0.04771937429904938 -0.04489612206816673 -0.13397397100925446 0.013167884200811386 0.027414362877607346 -0.0015258502680808306 -0.016326557844877243 -0.0009296778589487076 -0.19727125763893127 0.1863212287425995 0.4728798568248749 -0.21180404722690582 -0.03689191862940788 0.24871833622455597 0.22856639325618744 0.3411189019680023 -0.01016375795006752 0.05870454013347626 0.03670600801706314 0.26230865716934204 0.012427514418959618 0.025844797492027283 
u75 -0.6668585538864136 -0.11075523495674133 0.18151694536209106 0.06592485308647156 -0.029402364045381546 0.143751323223114 0.015534522011876106 0.03055066242814064 -0.10381372272968292 0.13073353469371796 -0.04303832724690437 -0.04359542205929756 -0.1334567666053772 0.005018353462219238 0.024637695401906967 -0.006458231247961521 -0.016032148152589798 0.00018795020878314972 -0.1968509703874588 0.1996302604675293 0.48921075463294983 -0.20519569516181946 -0.03484492748975754 0.2561664581298828 0.221358522772789 0.3339051902294159 -0.005595862865447998 0.06202162057161331 0.03942636027932167 0.27276065945625305 0.010183474980294704 0.031462930142879486 
u76 -0.6223471760749817 -0.15780802071094513 0.13473476469516754 0.04709826409816742 0.021792083978652954 0.1603454053401947 0.0156603641808033 0.056559838354587555 -0.1900346279144287 0.12902848422527313 0.0007945811375975609 -0.004480268806219101 -0.13128326833248138 -0.023938097059726715 0.011517331004142761 -0.04559477046132088 -0.018099714070558548 0.006675548851490021 -0.18572455644607544 0.25848570466041565 0.5380498766899109 -0.17041343450546265 -0.03800385817885399 0.28172922134399414 0.1436677724123001 0.290362149477005 0.01278606615960598 0.11283912509679794 0.05066293478012085 0.31795525550842285 -0.022242611274123192 -0.0017617866396903992 
u77 -0.6450475454330444 -0.15391062200069427 0.15404078364372253 0.05546697974205017 0.009213980287313461 0.15606774389743805 0.018326478078961372 0.04299577325582504 -0.1526753008365631 0.12344837188720703 -0.012279043905436993 -0.015476278960704803 -0.1230291873216629 -0.02548670768737793 0.014667589217424393 -0.023903759196400642 -0.030835773795843124 0.012332500889897346 -0.1761278659105301 0.2352135330438614 0.5209447741508484 -0.18069371581077576 -0.03826519474387169 0.26281583309173584 0.17990946769714355 0.32185670733451843 0.0030479468405246735 0.09992631524801254 0.03853367641568184 0.3015228509902954 -0.0196231659501791 -0.0005316585302352905 
u78 -0.5872695446014404 -0.17104682326316833 0.07826180011034012 0.08259741961956024 0.0013707876205444336 0.26378703117370605 -0.07527588307857513 0.08154815435409546 -0.28464651107788086 0.08977646380662918 -0.007075234316289425 -0.0011571012437343597 -0.18205516040325165 -0.06808017194271088 0.021286718547344208 -0.04884994402527809 -0.008814860135316849 -0.058010853826999664 -0.1767510324716568 0.2439657300710678 0.5965639352798462 -0.15449663996696472 -0.044580236077308655 0.3306610584259033 0.13796748220920563 0.18749327957630157 0.062187325209379196 0.08003249764442444 0.03957894444465637 0.342618465423584 0.04818741977214813 -0.02793513983488083 
u79 -0.624240517616272 -0.13921570777893066 0.16552434861660004 0.060466304421424866 0.004862651228904724 0.1376904547214508 0.0300968699157238 0.038671623915433884 -0.12952429056167603 0.10457853972911835 -0.013778525404632092 -0.023994311690330505 -0.11469702422618866 -0.0326322540640831 0.01824965327978134 -0.00027533737011253834 -0.038011256605386734 0.019652632996439934 -0.16176286339759827 0.21435876190662384 0.4938143193721771 -0.17221401631832123 -0.033761993050575256 0.23836375772953033 0.19183476269245148 0.3195745348930359 0.008329296484589577 0.08056434988975525 0.03065846860408783 0.2830319404602051 -0.02044481225311756 0.009509392082691193 
u80 -0.6830195784568787 -0.1634829044342041 0.17325252294540405 0.06782836467027664 0.005739908665418625 0.1479053795337677 0.027429085224866867 0.04673709347844124 -0.15151473879814148 0.1110544428229332 -0.01593160629272461 -0.0257033072412014 -0.11129902303218842 -0.04954070597887039 0.01107337698340416 -0.010152184404432774 -0.04597068205475807 0.0224428903311491 -0.16298095881938934 0.2422167956829071 0.5438644886016846 -0.1756211519241333 -0.03303693234920502 0.2593666911125183 0.20568977296352386 0.34168216586112976 0.0032613128423690796 0.09277336299419403 0.030741572380065918 0.30932965874671936 -0.022435994818806648 0.016254089772701263 
u81 -0.7015764117240906 -0.15919944643974304 0.18992681801319122 0.07478119432926178 -0.005740314722061157 0.14447720348834991 0.029291901737451553 0.03384630009531975 -0.116791732609272 0.10670154541730881 -0.02786126360297203 -0.035249169915914536 -0.10440993309020996 -0.0493428111076355 0.014253135770559311 0.009116253815591335 -0.05680278316140175 0.02702310122549534 -0.1549377739429474 0.22005994617938995 0.5263670086860657 -0.1855437159538269 -0.033636949956417084 0.24198314547538757 0.23769256472587585 0.3696688711643219 -0.0058248043060302734 0.08123224973678589 0.019973959773778915 0.29348957538604736 -0.019804006442427635 0.0162552148103714 
u82 -0.647689700126648 -0.1586885005235672 0.1520346850156784 0.05590870976448059 0.01346079632639885 0.15524250268936157 0.02014622464776039 0.050009798258543015 -0.16826650500297546 0.1218041256070137 -0.007878457196056843 -0.014101136475801468 -0.12274366617202759 -0.03264492005109787 0.012152567505836487 -0.02870442159473896 -0.030312467366456985 0.013201510533690453 -0.1759556233882904 0.24743758141994476 0.5357073545455933 -0.17465047538280487 -0.036453746259212494 0.26977866888046265 0.17280003428459167 0.3148403763771057 0.007279682904481888 0.10312015563249588 0.04118482023477554 0.3110846281051636 -0.021657267585396767 0.004399716854095459 
u83 -0.6295801997184753 -0.16713470220565796 0.13229411840438843 0.04868941754102707 0.029321104288101196 0.15832111239433289 0.019559165462851524 0.06959674507379532 -0.21841201186180115 0.12524092197418213 0.00859287939965725 -0.002620389685034752 -0.13001728057861328 -0.038528166711330414 0.006699614226818085 -0.053481753915548325 -0.018105972558259964 0.00890343077480793 -0.18457531929016113 0.28123709559440613 0.5664445161819458 -0.15906350314617157 -0.03436625376343727 0.2942160367965698 0.13233163952827454 0.27881771326065063 0.020521754398941994 0.11821302771568298 0.05500591918826103 0.3358995318412781 -0.026133118197321892 0.008303098380565643 
u84 -0.6169623136520386 -0.17610175907611847 0.11603402346372604 0.04334571957588196 0.043736379593610764 0.16027328372001648 0.020039411261677742 0.0883064866065979 -0.26509854197502136 0.12704946100711823 0.023558463901281357 0.006943069398403168 -0.13548298180103302 -0.04673841595649719 0.0012024864554405212 -0.07506120204925537 -0.008419390767812729 0.006032787263393402 -0.19113773107528687 0.31358471512794495 0.5977311134338379 -0.1439378708600998 -0.03182664513587952 0.31664198637008667 0.09746137261390686 0.24742542207241058 0.032909128814935684 0.13149617612361908 0.06702949851751328 0.35994958877563477 -0.030629700049757957 0.013843782246112823 
u85 -0.6293541789054871 -0.14221441745758057 0.1667216718196869 0.06195704638957977 0.006261050701141357 0.1364842653274536 0.03181598335504532 0.04198352247476578 -0.13588407635688782 0.10258438438177109 -0.012335064820945263 -0.02450394257903099 -0.11333797872066498 -0.03815193474292755 0.016823910176753998 -0.0008172851521521807 -0.03939402475953102 0.021083010360598564 -0.1603011041879654 0.22018180787563324 0.5023757815361023 -0.1691650003194809 -0.03245599940419197 0.24089404940605164 0.19160477817058563 0.31875360012054443 0.010111328214406967 0.08113594353199005 0.0309368334710598 0.287833034992218 -0.021587977185845375 0.013334669172763824 
u86 -0.6146466732025146 -0.17496372759342194 0.13138671219348907 0.05568055808544159 0.04567290097475052 0.1408187597990036 0.037315357476472855 0.09788663685321808 -0.26752904057502747 0.10509195178747177 0.03132692724466324 -0.0006157271564006805 -0.12731999158859253 -0.07488763332366943 -0.003119327127933502 -0.05625072866678238 -0.02129008248448372 0.018994415178894997 -0.17622487246990204 0.3140016198158264 0.6048321723937988 -0.12414567172527313 -0.02436971291899681 0.2969989776611328 0.1020486056804657 0.2413151115179062 0.04274681955575943 0.11850928515195847 0.060003913938999176 0.35857677459716797 -0.041926875710487366 0.03706268221139908 
u87 -0.6378667950630188 -0.15016819536685944 0.16630683839321136 0.0641372874379158 0.011822190135717392 0.13429099321365356 0.03553234040737152 0.05236168950796127 -0.1577601581811905 0.09870154410600662 -0.0065791914239525795 -0.023849159479141235 -0.11145785450935364 -0.05129111558198929 0.012818995863199234 -0.005866789259016514 -0.04056033864617348 0.02358335442841053 -0.15840265154838562 0.2383296638727188 0.5261132121086121 -0.15999044477939606 -0.02923913300037384 0.25029459595680237 0.18480856716632843 0.31133922934532166 0.01611541025340557 0.08474662154912949 0.03370049223303795 0.3023216426372528 -0.024815229699015617 0.022413425147533417 
u88 -0.6778398752212524 -0.15205809473991394 0.19318683445453644 0.07798312604427338 -0.0007718466222286224 0.1262107640504837 0.042752522975206375 0.04285327345132828 -0.12533490359783173 0.08721117675304413 -0.01969202235341072 -0.038769956678152084 -0.09805291891098022 -0.06569285690784454 0.013544946908950806 0.020072920247912407 -0.05963154509663582 0.03389700502157211 -0.14308449625968933 0.2223336398601532 0.5240229964256287 -0.16598013043403625 -0.02661769837141037 0.2323226034641266 0.22967426478862762 0.3489258587360382 0.007944019511342049 0.06986666470766068 0.019139699637889862 0.29258355498313904 -0.024115996435284615 0.03259066492319107 
u89 -0.6706964373588562 -0.14861977100372314 0.19090397655963898 0.07582428306341171 -0.0019058845937252045 0.1278487592935562 0.04056762158870697 0.03945973888039589 -0.11931177973747253 0.0898541510105133 -0.02085867151618004 -0.03767707571387291 -0.10004830360412598 -0.058983489871025085 0.015123128890991211 0.019778897985816002 -0.05741213634610176 0.03192908316850662 -0.1452620029449463 0.21634192764759064 0.5144671201705933 -0.169200599193573 -0.02817780151963234 0.23010289669036865 0.22837014496326447 0.34853991866111755 0.006224475800991058 0.0697421208024025 0.019333817064762115 0.28752321004867554 -0.02285468764603138 0.027934066951274872 
u90 -0.6564163565635681 -0.15337608754634857 0.17688556015491486 0.07032530009746552 0.008522331714630127 0.13039550185203552 0.039555396884679794 0.05177776515483856 -0.15159712731838226 0.09292621165513992 -0.010025586001574993 -0.02959025651216507 -0.10553810000419617 -0.06108325719833374 0.011871952563524246 0.0029068056028336287 -0.048516739159822464 0.028463242575526237 -0.15171515941619873 0.23755989968776703 0.5326076745986938 -0.15954431891441345 -0.027202017605304718 0.24603772163391113 0.20058156549930573 0.3240220248699188 0.014713888987898827 0.07993418723344803 0.02875373885035515 0.3029150068759918 -0.02553287334740162 0.029269538819789886 
u91 -0.622025191783905 -0.1551138162612915 0.1510244607925415 0.05807064473628998 0.023029619827866554 0.13713690638542175 0.034313976764678955 0.06548333168029785 -0.19231508672237396 0.10217243432998657 0.005064007826149464 -0.015045925974845886 -0.11750529706478119 -0.05317924916744232 0.009394526481628418 -0.024120641872286797 -0.03081904724240303 0.01972520537674427 -0.16550172865390778 0.2609235942363739 0.5451779961585999 -0.14973606169223785 -0.028273120522499084 0.26739242672920227 0.15469759702682495 0.2848157584667206 0.02519388496875763 0.09575620293617249 0.04389357939362526 0.31867098808288574 -0.027638373896479607 0.02359214425086975 
u92 -0.616472065448761 -0.14557574689388275 0.16673029959201813 0.058070674538612366 -0.0015904642641544342 0.13357603549957275 0.029328051954507828 0.03712313249707222 -0.13750267028808594 0.10766644030809402 -0.006532422266900539 -0.02670244127511978 -0.11137355864048004 -0.02528306096792221 0.01543540507555008 0.003785415319725871 -0.04715852811932564 0.026688585057854652 -0.1616971343755722 0.20944388210773468 0.5058898329734802 -0.1725703477859497 -0.03641628473997116 0.2438661903142929 0.1963662952184677 0.318136066198349 0.0007386952638626099 0.07454827427864075 0.030450262129306793 0.2875712811946869 -0.01252775825560093 0.010706745088100433 
u93 -0.5747740864753723 -0.14717230200767517 0.12389051169157028 0.04228460043668747 0.031686265021562576 0.14704546332359314 0.02413242496550083 0.06734835356473923 -0.20889030396938324 0.11684015393257141 0.014103214256465435 -0.00030502304434776306 -0.13261428475379944 -0.02854245901107788 0.011680282652378082 -0.046791426837444305 -0.010463673621416092 0.007303975522518158 -0.1825782060623169 0.2635405957698822 0.529370903968811 -0.15055431425571442 -0.033381301909685135 0.278638631105423 0.11402148008346558 0.2520395815372467 0.028999723494052887 0.10822124779224396 0.056672923266887665 0.3176637291908264 -0.025913113728165627 0.006338030099868774 
u94 -0.6442314982414246 -0.14310842752456665 0.16641613841056824 0.059720173478126526 0.004892703145742416 0.10902771353721619 0.027981840074062347 0.023185383528470993 -0.1685786098241806 0.11742124706506729 -0.011926735751330853 -0.023572325706481934 -0.12301988899707794 -0.05211390554904938 0.020307201892137527 -0.0051002660766243935 -0.04349913075566292 0.04121054708957672 -0.16802148520946503 0.2223692387342453 0.5242871642112732 -0.17268718779087067 -0.024859994649887085 0.2592737078666687 0.2016410082578659 0.29239621758461 0.017903028056025505 0.0777570977807045 0.03205285593867302 0.32500869035720825 -0.01982484571635723 -0.0006470829248428345 
u95 -0.6245976090431213 -0.1426888108253479 0.1741609424352646 0.06116098165512085 -0.006775569170713425 0.13244466483592987 0.029928002506494522 0.030658546835184097 -0.11983897536993027 0.10582848638296127 -0.01273107435554266 -0.03087029606103897 -0.10862220823764801 -0.024634793400764465 0.017324700951576233 0.012560284696519375 -0.05139083042740822 0.02814284898340702 -0.15824048221111298 0.19844037294387817 0.495564341545105 -0.17768418788909912 -0.036772310733795166 0.23505191504955292 0.21094970405101776 0.33131441473960876 -0.0033409707248210907 0.0694570392370224 0.02543105185031891 0.27912211418151855 -0.01156708411872387 0.00995521992444992 
u96 -0.6682941913604736 -0.14925231039524078 0.1886819750070572 0.07491626590490341 -0.00033453479409217834 0.128287672996521 0.04034898802638054 0.04125668480992317 -0.12410426139831543 0.09040281921625137 -0.019225984811782837 -0.036401715129613876 -0.1009501963853836 -0.059113189578056335 0.014668509364128113 0.01717524044215679 -0.05597994104027748 0.03133929520845413 -0.14631733298301697 0.2194329798221588 0.5169821381568909 -0.16780808568000793 -0.028072651475667953 0.23248997330665588 0.22405825555324554 0.3447575867176056 0.007480744272470474 0.07130622863769531 0.020788338035345078 0.28974491357803345 -0.023230301216244698 0.02800535410642624 
u97 -0.6109640598297119 -0.13990545272827148 0.15552550554275513 0.0557335764169693 0.010483719408512115 0.1402917355298996 0.028078919276595116 0.04399361461400986 -0.14531521499156952 0.1081443727016449 -0.007931900210678577 -0.018369991332292557 -0.11931928992271423 -0.029606200754642487 0.017282843589782715 -0.010735542513430119 -0.03117195889353752 0.016280150040984154 -0.16708846390247345 0.22343210875988007 0.49872758984565735 -0.16840143501758575 -0.034168824553489685 0.24664068222045898 0.17408065497875214 0.30440065264701843 0.012394405901432037 0.0866892859339714 0.03651776537299156 0.28915590047836304 -0.02126607857644558 0.007334992289543152 
u98 -0.6517831087112427 -0.1465545892715454 0.17913763225078583 0.06939223408699036 0.0027747787535190582 0.13174521923065186 0.03681352362036705 0.042035363614559174 -0.13019083440303802 0.09551350027322769 -0.015979871153831482 -0.031211525201797485 -0.10623975098133087 -0.050607405602931976 0.015424642711877823 0.009145072661340237 -0.04883747175335884 0.027002019807696342 -0.15229837596416473 0.22056812047958374 0.5117061734199524 -0.16798701882362366 -0.02983040362596512 0.23655520379543304 0.2096772938966751 0.3331466615200043 0.008889911696314812 0.07573132961988449 0.02531389892101288 0.28956252336502075 -0.022662000730633736 0.022046945989131927 
u99 -0.6523231267929077 -0.15152662992477417 0.18251682817935944 0.0696553960442543 -0.0016031228005886078 0.12821334600448608 0.03756546601653099 0.041487690061330795 -0.13443297147750854 0.09567984193563461 -0.012283104471862316 -0.034238651394844055 -0.10267716646194458 -0.04940154403448105 0.013320386409759521 0.013523629866540432 -0.05632615461945534 0.03252705931663513 -0.150466650724411 0.21836890280246735 0.5216786861419678 -0.16762791574001312 -0.030722804367542267 0.23919624090194702 0.2160249501466751 0.335147887468338 0.004343422129750252 0.07113071531057358 0.02407199516892433 0.2931189239025116 -0.01832243986427784 0.024948105216026306 
u100 -0.6256468892097473 -0.14105747640132904 0.16502679884433746 0.06077282130718231 0.006357476115226746 0.13729508221149445 0.030863117426633835 0.0412529893219471 -0.13514980673789978 0.10383670032024384 -0.012230201624333858 -0.023618321865797043 -0.11445450782775879 -0.03550688177347183 0.01729731261730194 -0.001848482759669423 -0.03800163045525551 0.02008696459233761 -0.16154450178146362 0.21886329352855682 0.4994259774684906 -0.16996797919273376 -0.033044736832380295 0.24084123969078064 0.18956930935382843 0.3172720968723297 0.00986243225634098 0.08163464814424515 0.031524885445833206 0.2865830659866333 -0.02121393196284771 0.011492311954498291 
u101 -0.647869884967804 -0.16356047987937927 0.1625301092863083 0.066287562251091 0.022773589938879013 0.1314605474472046 0.0410667285323143 0.07120233029127121 -0.19888710975646973 0.09336955845355988 0.0047645652666687965 -0.02102642133831978 -0.1097707450389862 -0.0721273273229599 0.005884259939193726 -0.017465608194470406 -0.04037969186902046 0.026684323325753212 -0.1569024622440338 0.27120351791381836 0.5669633150100708 -0.14361052215099335 -0.024034596979618073 0.26842838525772095 0.16806192696094513 0.29436546564102173 0.027319999411702156 0.09262185543775558 0.0400901660323143 0.3282209634780884 -0.03041643463075161 0.03678477555513382 
u102 -0.6181482076644897 -0.13652248680591583 0.16338300704956055 0.058600813150405884 0.004156541079282761 0.139072448015213 0.028302490711212158 0.03617025166749954 -0.12529894709587097 0.10678710788488388 -0.014502785168588161 -0.022940892726182938 -0.11642962694168091 -0.027229174971580505 0.01946387067437172 -0.0008609381038695574 -0.036026764661073685 0.017983930185437202 -0.1636631339788437 0.2099313586950302 0.48643046617507935 -0.17462962865829468 -0.035008322447538376 0.23688960075378418 0.19020475447177887 0.3187570869922638 0.007108040153980255 0.08067282289266586 0.0310097374022007 0.27924075722694397 -0.01947603188455105 0.0057569220662117004 
u103 -0.6504020690917969 -0.14363640546798706 0.18052835762500763 0.0692041665315628 9.560957551002502e-05 0.1322028934955597 0.035740941762924194 0.03767796978354454 -0.12043747305870056 0.09645294398069382 -0.018756423145532608 -0.032143883407115936 -0.10633467137813568 -0.04630456119775772 0.016971029341220856 0.012243620119988918 -0.04927234724164009 0.026530859991908073 -0.15231239795684814 0.21297749876976013 0.5026422142982483 -0.17172814905643463 -0.030925393104553223 0.23217859864234924 0.214304581284523 0.3376733362674713 0.006246436387300491 0.07368411123752594 0.023601334542036057 0.28364163637161255 -0.021410642191767693 0.019084207713603973 
u104 -0.6244706511497498 -0.14558084309101105 0.16051314771175385 0.0598994642496109 0.011726561933755875 0.13724632561206818 0.03197181224822998 0.049053773283958435 -0.15355640649795532 0.10330414026975632 -0.006660773418843746 -0.02085542306303978 -0.11543993651866913 -0.04119069129228592 0.01475369930267334 -0.009023421443998814 -0.03568493202328682 0.01996779255568981 -0.1628221720457077 0.23240415751934052 0.5141512751579285 -0.16345497965812683 -0.03150974586606026 0.24939121305942535 0.1783343106508255 0.3068163990974426 0.014798855409026146 0.08618346601724625 0.03550948202610016 0.2969127893447876 -0.023281747475266457 0.015383787453174591 
u105 -0.6157944798469543 -0.13999001681804657 0.15889063477516174 0.057421356439590454 0.008804846554994583 0.13932430744171143 0.028909919783473015 0.04260838404297829 -0.14084874093532562 0.10678321123123169 -0.009679279290139675 -0.020246028900146484 -0.1176808625459671 -0.03115469217300415 0.017449788749217987 -0.007399574853479862 -0.033531684428453445 0.01752067171037197 -0.16521142423152924 0.22108861804008484 0.4980144500732422 -0.16932427883148193 -0.03390268236398697 0.24421700835227966 0.1798136979341507 0.3092363178730011 0.011259470134973526 0.08476205915212631 0.03464653342962265 0.28766369819641113 -0.021117283031344414 0.00843319296836853 
u106 -0.6777285933494568 -0.15474188327789307 0.19092582166194916 0.07767096161842346 0.0021986328065395355 0.12606500089168549 0.04350828379392624 0.04729652404785156 -0.13567431271076202 0.08673185855150223 -0.016611412167549133 -0.03736371919512749 -0.09843729436397552 -0.06923951208591461 0.012061707675457 0.01623540185391903 -0.058547500520944595 0.03397652506828308 -0.14361275732517242 0.23005378246307373 0.5326403379440308 -0.16224214434623718 -0.025678258389234543 0.23708312213420868 0.2237267643213272 0.3433305323123932 0.010724527761340141 0.0723222941160202 0.021268613636493683 0.29850858449935913 -0.025320203974843025 0.0350235179066658 
u107 -0.63853520154953 -0.15192846953868866 0.16535092890262604 0.06419290602207184 0.013498645275831223 0.1340477019548416 0.036151837557554245 0.05504203587770462 -0.16380667686462402 0.09818070381879807 -0.004841537214815617 -0.023221351206302643 -0.11145682632923126 -0.05383767932653427 0.011878926306962967 -0.007853583432734013 -0.04021647945046425 0.023825393989682198 -0.15845869481563568 0.242996484041214 0.5316141247749329 -0.15769833326339722 -0.02858668565750122 0.2530222535133362 0.1818157285451889 0.3084380030632019 0.017751609906554222 0.08604978770017624 0.03479953855276108 0.3059503436088562 -0.02557641826570034 0.024165771901607513 
u108 -0.5644593238830566 -0.14750705659389496 0.1939493864774704 0.03613807260990143 0.09835846722126007 0.15768751502037048 0.007168281823396683 0.07997158914804459 -0.14998061954975128 0.030910437926650047 -0.11752565950155258 0.02778957039117813 -0.13504073023796082 0.0009753406047821045 0.01861444115638733 -0.07856197655200958 0.010030046105384827 -0.03414732962846756 -0.15976233780384064 0.27135714888572693 0.463476300239563 -0.15930406749248505 -0.03416645526885986 0.2447846531867981 0.18748556077480316 0.335710734128952 0.01975291222333908 0.14248666167259216 0.030167412012815475 0.33257627487182617 -0.03877577185630798 0.09942462295293808 
u109 -0.6218512058258057 -0.16298671066761017 0.12053979188203812 0.11630135774612427 -0.022885169833898544 0.2507336735725403 -0.06935244798660278 0.07430590689182281 -0.24614499509334564 0.04186264052987099 -0.026758164167404175 -0.03122372180223465 -0.16021612286567688 -0.11311744153499603 0.024129342287778854 0.010610631667077541 -0.045245829969644547 -0.04427465796470642 -0.13688033819198608 0.20492473244667053 0.5919972658157349 -0.14800283312797546 -0.03583044558763504 0.2968352437019348 0.21556667983531952 0.21430648863315582 0.06578843295574188 0.036610715091228485 0.009356886148452759 0.324174165725708 0.0596105232834816 -0.0016834065318107605 
u110 -0.6021043658256531 -0.15188725292682648 0.13948611915111542 0.05140295624732971 0.02681189402937889 0.14130669832229614 0.030056552961468697 0.06646924465894699 -0.1997663527727127 0.10833316296339035 0.009012479335069656 -0.008769549429416656 -0.12389086186885834 -0.04295460879802704 0.010291241109371185 -0.03384872153401375 -0.022190723568201065 0.014493366703391075 -0.17272303998470306 0.26237383484840393 0.538902997970581 -0.14991283416748047 -0.030383914709091187 0.2723466753959656 0.13728557527065277 0.2707493007183075 0.026923052966594696 0.10112052410840988 0.04937567561864853 0.3185129165649414 -0.026965351775288582 0.016429133713245392 
u111 -0.6696302890777588 -0.14973241090774536 0.18924148380756378 0.07533664256334305 -0.0003003738820552826 0.12799149751663208 0.04071062058210373 0.041623663157224655 -0.12460950762033463 0.08993946760892868 -0.019192315638065338 -0.03668886050581932 -0.10055594146251678 -0.06015068292617798 0.014463119208812714 0.017458496615290642 -0.05645756796002388 0.03170081228017807 -0.14588060975074768 0.22008836269378662 0.5182474255561829 -0.1674313247203827 -0.027838241308927536 0.23261958360671997 0.2246551662683487 0.34516263008117676 0.0076351892203092575 0.07118316739797592 0.02062542736530304 0.2903338670730591 -0.023393331095576286 0.028727121651172638 
u112 -0.6551917791366577 -0.14773127436637878 0.18386535346508026 0.07073810696601868 -0.0016426369547843933 0.1295499950647354 0.03736412525177002 0.038933366537094116 -0.12472865730524063 0.0949254259467125 -0.01674814522266388 -0.03444113954901695 -0.10336492955684662 -0.04948372393846512 0.015210133045911789 0.01501129474490881 -0.05430402234196663 0.03032582439482212 -0.1500086486339569 0.2146410495042801 0.512073814868927 -0.17006061971187592 -0.030486274510622025 0.234122633934021 0.21892811357975006 0.3396506607532501 0.004828177392482758 0.07127754390239716 0.022596418857574463 0.2876409888267517 -0.02002505026757717 0.02302701026201248 
u113 -0.6343002319335938 -0.154612734913826 0.16015803813934326 0.06243250519037247 0.017981696873903275 0.13472327589988708 0.03621914982795715 0.06078721210360527 -0.17823603749275208 0.0988495722413063 -0.00018693972378969193 -0.02017667517066002 -0.1132492870092392 -0.05615932494401932 0.010213136672973633 -0.014640741981565952 -0.03709009662270546 0.022848820313811302 -0.16060249507427216 0.2529246509075165 0.5410729646682739 -0.15307195484638214 -0.02784886211156845 0.25997915863990784 0.17081667482852936 0.2985661029815674 0.021575527265667915 0.09021592885255814 0.038582343608140945 0.3133086562156677 -0.02694014646112919 0.025727607309818268 
u114 -0.6616101264953613 -0.1489139348268509 0.18420542776584625 0.07260331511497498 0.0017469637095928192 0.12964020669460297 0.039135221391916275 0.042809903621673584 -0.1294410079717636 0.09232842177152634 -0.017058640718460083 -0.033918093889951706 -0.10318881273269653 -0.05667519569396973 0.014559432864189148 0.012869059108197689 -0.052799541503190994 0.029613802209496498 -0.14887471497058868 0.2220439314842224 0.5172600746154785 -0.16683746874332428 -0.028518863022327423 0.23545598983764648 0.21660448610782623 0.3385182023048401 0.008824190124869347 0.0737742930650711 0.023205745965242386 0.291324257850647 -0.02333722449839115 0.026283107697963715 
u115 -0.6401852965354919 -0.14243987202644348 0.17423813045024872 0.06573789566755295 0.0025356709957122803 0.13431276381015778 0.03368966653943062 0.038936324417591095 -0.1260056495666504 0.09952544420957565 -0.01621260493993759 -0.02869236096739769 -0.10966876149177551 -0.04167192429304123 0.017178498208522797 0.0066127171739935875 -0.04467146471142769 0.023866066709160805 -0.15609872341156006 0.21502935886383057 0.5008915662765503 -0.17118462920188904 -0.031846605241298676 0.23552224040031433 0.20438222587108612 0.32952338457107544 0.007603244855999947 0.07684671878814697 0.026768825948238373 0.28456568717956543 -0.021270358934998512 0.015829958021640778 
u116 -0.5680198073387146 -0.12781116366386414 0.0450737401843071 0.037699393928050995 0.04414418712258339 0.04364757239818573 -0.005419239401817322 0.0432659275829792 -0.26919540762901306 -0.004819804802536964 0.06599465757608414 0.039937205612659454 -0.08331616222858429 -0.07651430368423462 0.008066587150096893 -0.008965094573795795 0.052121810615062714 -0.017089571803808212 -0.07986769825220108 0.3361072838306427 0.6069595813751221 -0.14811940491199493 1.2344680726528168e-05 0.3351266086101532 0.08971551060676575 0.21805745363235474 0.05930393189191818 0.09673880785703659 0.05924684926867485 0.36644744873046875 -0.008155656978487968 0.046926289796829224 
u117 -0.5944186449050903 -0.15697680413722992 -0.04242318868637085 0.23938022553920746 -0.12339237332344055 0.4231581687927246 -0.3458702266216278 0.051747627556324005 -0.3914535939693451 -0.20251312851905823 -0.055079709738492966 -0.0246189683675766 -0.22544243931770325 -0.2699379324913025 0.06713171303272247 0.12949085235595703 -0.0020749978721141815 -0.2326289564371109 0.024975774809718132 0.12276771664619446 0.7306391000747681 -0.15300217270851135 -0.02626252919435501 0.40023672580718994 0.32088568806648254 0.029037650674581528 0.18964576721191406 -0.12343356758356094 -0.0694875717163086 0.35545340180397034 0.2886129915714264 -0.04350430518388748 
u118 -0.5937375426292419 -0.10271035134792328 -0.006790047511458397 0.03648997098207474 0.033602651208639145 -0.03805691748857498 -0.0427180640399456 -0.0074927774257957935 -0.2636158764362335 -0.10097923129796982 0.0932234600186348 0.07236462831497192 -0.04778767749667168 -0.09419678151607513 0.012233935296535492 0.046204060316085815 0.10207352042198181 -0.04192943125963211 0.0029190797358751297 0.363160103559494 0.6450916528701782 -0.1833818554878235 0.019004639238119125 0.36800000071525574 0.11149716377258301 0.2414286583662033 0.06650136411190033 0.07710766792297363 0.048373810946941376 0.38632839918136597 0.014403747394680977 0.06692592054605484 
u119 -0.6033221483230591 -0.11106623709201813 -0.0012111347168684006 0.039463408291339874 0.03162121772766113 -0.04294780641794205 -0.039317090064287186 -0.003540788311511278 -0.2747671604156494 -0.10424012690782547 0.09766244888305664 0.06858305633068085 -0.042418334633111954 -0.10187345743179321 0.008537232875823975 0.05001043528318405 0.09332117438316345 -0.035041727125644684 0.007153751328587532 0.3691636025905609 0.6652855277061462 -0.17894087731838226 0.020307142287492752 0.3729679584503174 0.11813795566558838 0.24346186220645905 0.06513603031635284 0.07365211844444275 0.04716010391712189 0.3956702947616577 0.016205081716179848 0.07520618289709091 
u120 -0.5801221132278442 -0.08271868526935577 -0.017177125439047813 0.021035252138972282 0.08668358623981476 -0.09582149982452393 -0.09246762096881866 -0.03190484270453453 -0.24235117435455322 -0.24504172801971436 0.025757979601621628 0.1338333785533905 -0.026942111551761627 -0.08014555275440216 0.019445672631263733 0.04983159527182579 0.174689382314682 -0.10260187834501266 0.08313833922147751 0.4096570611000061 0.6352730393409729 -0.21358422935009003 0.03396693244576454 0.3848514258861542 0.153571218252182 0.2985142767429352 0.07304568588733673 0.098025843501091 0.029190856963396072 0.42579373717308044 0.02226806990802288 0.15272891521453857 
u121 -0.611388087272644 -0.08028629422187805 -0.053223617374897 0.034194789826869965 0.02405795454978943 -0.10857532173395157 -0.07604917883872986 -0.05260688439011574 -0.2567082345485687 -0.18444332480430603 0.11653806269168854 0.1016932800412178 -0.016835801303386688 -0.10706169903278351 0.016291383653879166 0.09415791183710098 0.1464366614818573 -0.06457368284463882 0.07494402676820755 0.38494226336479187 0.674696683883667 -0.21481108665466309 0.034949496388435364 0.39492273330688477 0.1297759860754013 0.2621603012084961 0.07210738211870193 0.05984498932957649 0.03873775899410248 0.40137940645217896 0.03411690890789032 0.08344105631113052 
u122 -0.6150182485580444 -0.08389127254486084 -0.05083687603473663 0.03532818704843521 0.022925766184926033 -0.11073470115661621 -0.0747034102678299 -0.05115382745862007 -0.2613375782966614 -0.1856488138437271 0.11856278032064438 0.10000552982091904 -0.014498196542263031 -0.1098385900259018 0.014703579246997833 0.09596632421016693 0.1424712985754013 -0.06148175150156021 0.07669440656900406 0.38702744245529175 0.6832306981086731 -0.21309474110603333 0.035358231514692307 0.3970566391944885 0.13281457126140594 0.26307204365730286 0.0711883008480072 0.058137986809015274 0.0381813608109951 0.4052404463291168 0.03518945351243019 0.08682181686162949 
u123 -0.6213670969009399 -0.15397000312805176 0.1702917069196701 0.06356214731931686 -0.003670971840620041 0.1331176608800888 0.03342558816075325 0.033264487981796265 -0.10311340540647507 0.10541204363107681 -0.014333742670714855 -0.031005021184682846 -0.10498213768005371 -0.028808854520320892 0.01457633450627327 0.014118938706815243 -0.05440354719758034 0.02673892118036747 -0.14846552908420563 0.2046286165714264 0.4794677793979645 -0.17450545728206635 -0.040009647607803345 0.21806350350379944 0.20083798468112946 0.3480178117752075 -0.005881123244762421 0.06873909384012222 0.019922856241464615 0.2655845880508423 -0.015934476628899574 0.01773708313703537 
u124 -0.5983898639678955 -0.0748283863067627 -0.05713701248168945 0.030258549377322197 0.021651554852724075 -0.10603833943605423 -0.0798921287059784 -0.058550331741571426 -0.24700021743774414 -0.1796264499425888 0.11510099470615387 0.10341257601976395 -0.02006145566701889 -0.09490729868412018 0.01880040019750595 0.09388965368270874 0.14962735772132874 -0.06746668368577957 0.07115594297647476 0.3742833137512207 0.6591275930404663 -0.22037576138973236 0.032054413110017776 0.391551673412323 0.12775392830371857 0.2612932622432709 0.068595290184021 0.05921764299273491 0.039093323051929474 0.39301764965057373 0.03688196465373039 0.0754757896065712 
u125 -0.5932126045227051 -0.07178744673728943 -0.0592348575592041 0.028676537796854973 0.02144492231309414 -0.10442327708005905 -0.08153633773326874 -0.060831427574157715 -0.24233421683311462 -0.1777661293745041 0.11385214328765869 0.10460057109594345 -0.021944940090179443 -0.09032352268695831 0.020169399678707123 0.0930604487657547 0.1521792858839035 -0.06957072019577026 0.06935859471559525 0.37040939927101135 0.6511821150779724 -0.22265979647636414 0.031067892909049988 0.3897120952606201 0.12591765820980072 0.26066887378692627 0.06798814237117767 0.059752095490694046 0.03942541778087616 0.3890513479709625 0.03721456974744797 0.07182139903306961 
u126 -0.5557551980018616 -0.06733325123786926 -0.055970802903175354 0.026868240907788277 0.023602360859513283 -0.09679888933897018 -0.07362473011016846 -0.05413531884551048 -0.23493525385856628 -0.16940467059612274 0.10805525630712509 0.09678531438112259 -0.018925810232758522 -0.08490383625030518 0.02148137241601944 0.08715322613716125 0.14470532536506653 -0.06600230187177658 0.06495711952447891 0.35128921270370483 0.6206372976303101 -0.20895512402057648 0.0302782841026783 0.36997413635253906 0.11987054347991943 0.24369923770427704 0.06660628318786621 0.05771198496222496 0.03971238434314728 0.3704102039337158 0.03484820947051048 0.06734377890825272 
u127 -0.5743876099586487 -0.0633443146944046 -0.036462120711803436 0.04029481112957001 0.014780320227146149 -0.10352649539709091 -0.06269572675228119 -0.037866901606321335 -0.24819472432136536 -0.16866888105869293 0.09947564452886581 0.07616260647773743 -0.010592393577098846 -0.10140404105186462 0.02249027043581009 0.08868692070245743 0.13871297240257263 -0.05937609076499939 0.06096680462360382 0.37142688035964966 0.6507169604301453 -0.19702662527561188 0.03901840001344681 0.38197043538093567 0.13867956399917603 0.2429448813199997 0.07027079164981842 0.0430019311606884 0.043417397886514664 0.3818403482437134 0.03843383118510246 0.09728003293275833 
u128 -0.5944404006004333 -0.07932890951633453 -0.039957962930202484 0.04090990871191025 0.029520245268940926 -0.11769422888755798 -0.02420869842171669 -0.02131250873208046 -0.21731668710708618 -0.20287799835205078 0.08502943813800812 0.10947328060865402 0.008031893521547318 -0.1292763501405716 0.061091192066669464 0.12145617604255676 0.08744147419929504 -0.05402962118387222 0.12679030001163483 0.4307520091533661 0.6085812449455261 -0.16377615928649902 0.039738092571496964 0.4168475270271301 0.10165873169898987 0.2454826682806015 0.12507644295692444 0.013102315366268158 0.014978177845478058 0.39353665709495544 0.009593585506081581 0.03733540326356888 
u129 -0.6005529165267944 -0.012654569000005722 -0.08002575486898422 0.05216720700263977 -0.042327363044023514 -0.13922765851020813 -0.09642297029495239 -0.13709577918052673 -0.2038385570049286 -0.24803613126277924 0.079922154545784 0.12964507937431335 0.0014951173216104507 -0.08735515177249908 0.0705442875623703 0.11745443940162659 0.18472251296043396 -0.09171660989522934 0.16799341142177582 0.4524522125720978 0.6413905620574951 -0.22194330394268036 0.06923896074295044 0.4570141136646271 0.1604263335466385 0.2672276496887207 0.1385393738746643 0.015101529657840729 0.011202007532119751 0.41717588901519775 0.035109639167785645 0.002664826810359955 
u130 -0.609330952167511 -0.05406506732106209 -0.09487183392047882 0.027972469106316566 0.01441926509141922 -0.16128025949001312 -0.106559157371521 -0.0954630896449089 -0.2382613718509674 -0.24454504251480103 0.13251644372940063 0.12632113695144653 0.003306068480014801 -0.1030476987361908 0.023099105805158615 0.13123010098934174 0.1862008273601532 -0.08627952635288239 0.12714803218841553 0.3884160816669464 0.676198422908783 -0.24577751755714417 0.04453185945749283 0.41148829460144043 0.14070409536361694 0.27555757761001587 0.0731438398361206 0.04580821096897125 0.031892530620098114 0.4019727110862732 0.05271957069635391 0.08583276718854904 
u131 -0.5735740065574646 -0.05660426989197731 -0.08620622754096985 0.026550522074103355 0.0121341273188591 -0.15488775074481964 -0.09681841731071472 -0.08753075450658798 -0.23699608445167542 -0.23275649547576904 0.13038797676563263 0.11444694548845291 0.00871136412024498 -0.09605775773525238 0.02171194553375244 0.12816095352172852 0.16893258690834045 -0.07577963918447495 0.12177600711584091 0.36740371584892273 0.6577330231666565 -0.23089708387851715 0.04208731651306152 0.39494845271110535 0.14084447920322418 0.26052233576774597 0.06662804633378983 0.03966483846306801 0.031349778175354004 0.3880467712879181 0.05443012714385986 0.08422238379716873 
u132 -0.5766618251800537 -0.052527572959661484 -0.0886177122592926 0.02739759348332882 0.01736513152718544 -0.15174373984336853 -0.0966092199087143 -0.08558468520641327 -0.23434898257255554 -0.23426173627376556 0.12653712928295135 0.11715703457593918 0.005767380818724632 -0.1005401462316513 0.023406729102134705 0.1237480640411377 0.17611363530158997 -0.08099054545164108 0.12088773399591446 0.37223848700523376 0.6506218910217285 -0.22999408841133118 0.04380754381418228 0.3926699161529541 0.13493627309799194 0.25899913907051086 0.07236884534358978 0.04467453062534332 0.03244572505354881 0.38609305024147034 0.04900926351547241 0.08312877267599106 
u133 -0.5747379064559937 -0.0422680638730526 -0.09003368020057678 0.02102269046008587 0.008364815264940262 -0.17380240559577942 -0.1060934066772461 -0.11748632043600082 -0.2358928620815277 -0.21385616064071655 0.12010647356510162 0.11786075681447983 -0.006550588645040989 -0.09286029636859894 0.03213443607091904 0.125658318400383 0.1745191365480423 -0.06606714427471161 0.10995110124349594 0.34869396686553955 0.6377648115158081 -0.2461448609828949 0.04578547924757004 0.39779701828956604 0.1513826847076416 0.24261830747127533 0.07081297039985657 0.03682602941989899 0.030459631234407425 0.4006269574165344 0.05593770742416382 0.0564572736620903 
