4546 64
u1 -0.3399374 0.048641663 -0.004613119 0.5464992 -0.3580254 0.20859554 0.4787662 -0.90850085 0.5149462 0.82909966 0.50765616 -0.5692718 0.081799895 -0.33948845 -0.5666594 0.38814554 -0.058629222 0.6937879 0.109050326 0.7419571 -0.6168151 0.05816268 -0.49624527 -0.74697 0.46227494 -0.6081926 -0.023408182 0.5539915 0.3633366 0.14516893 -0.5491281 0.102781646 -0.5063415 -0.6071173 -0.012497606 -0.00047640176 0.3420112 -0.7029404 -0.0088503035 -0.21006696 0.4160977 0.71696645 -0.75194234 0.68882823 -0.046757665 0.38240713 0.016229609 0.07515884 0.011649551 -0.6190526 -0.19613831 0.38668695 0.09988166 0.14928706 -0.019390792 -0.29966426 0.28789398 0.79398906 0.6977779 0.05338913 0.75764817 -0.0004226074 0.045687716 0.6063253
i1 -0.21410616 -0.23272721 -0.13498533 0.41963506 -0.14794536 0.16382153 -0.29118502 -0.35165623 0.5354725 -0.17376502 0.04627923 0.47346333 -0.25541344 -1.4186696 -0.547803 0.22142617 0.9535632 -1.150021 0.24307656 0.2039711 -0.18297194 -0.4861408 -0.87244695 0.4927715 2.2088468 -0.21279424 -0.05830524 -0.6761028 1.0279707 0.21844232 -0.40848562 0.45289743 0.2151066 -0.10461919 0.7247561 -0.4428606 0.5125226 0.5934519 -0.7322396 -0.35676995 -0.3400106 -0.057947375 0.09952503 0.07354056 0.24707882 0.11898254 -0.35604584 -0.012419614 0.022000771 -0.31212607 0.29355246 0.86888075 -0.6194617 -0.11240203 0.07259475 0.26774967 0.045766458 0.1130455 -0.04544911 0.2161 -0.27657524 0.5632536 -0.3357378 0.30952707
i2 -0.48853165 0.10174013 0.042212844 1.0600204 -0.47728086 0.6615677 1.3686781 -0.56665033 0.70352983 0.9108109 -0.77409554 -0.46905312 0.5480189 0.2596866 -0.6417091 -0.041376077 -0.7319797 0.12709084 -1.021016 1.7455001 -0.17776902 0.50151724 0.83050084 -1.1583 -0.23075673 -0.03523586 0.33268988 -0.3571009 1.0823023 0.22134757 -0.7069329 -0.49393985 0.06245404 -0.48497218 0.11367105 -0.29365644 0.62045574 -0.4181168 -0.13320951 -1.9688524 -0.2684454 0.4559969 -1.4643883 0.3102886 -0.55472815 -0.070550725 0.060128104 -0.31933907 0.036876816 -0.13608377 0.2216278 0.12672572 -0.3525636 -0.44381708 1.2324054 -0.18186252 -0.229734 0.1918103 -0.1533238 0.86684525 0.3948465 0.37442714 0.24842268 0.24432981
i3 -0.6101005 0.16305976 0.25592077 1.374117 -0.8631691 0.939424 2.3447578 0.14464581 0.57283074 0.6089784 -0.46156332 0.11055144 0.43268538 0.51408446 -0.5555906 -0.20663776 -0.87217206 -0.48000216 -1.9106517 0.56250113 0.013605625 0.14552635 0.54042816 -1.3366226 -0.23935047 0.09192882 0.4377481 -0.3026959 1.2933818 0.6408153 -0.23520766 0.12819038 -0.12071692 -0.3006171 0.07223996 -0.6555679 0.25567064 -0.7414633 0.0615114 -1.7487626 -0.38813627 0.08666102 -1.0547928 0.48447755 -1.0596145 -0.25655353 0.14156395 -0.43280268 0.17356123 0.12435653 0.2543041 -0.05379773 0.0005069962 0.4341095 0.699046 -1.0722091 -0.027895465 0.4654794 -0.42292792 0.6965812 0.72241783 0.61434454 -0.04109622 -0.14914404
i4 0.06369585 -0.05089665 0.23232736 1.0104803 -0.28025192 0.5305919 1.8302839 -0.23241651 -0.04775248 0.7432456 -0.58712757 -0.36142808 0.44505054 0.61353123 -0.110791005 0.005224981 -0.7079259 -0.65888774 0.07349197 2.6727738 -0.16899876 0.47031242 0.9438903 -1.4493034 0.36763048 -0.14703655 0.08810652 0.14731736 0.40150797 0.6476553 -0.83441 -0.23155321 -0.04377059 -0.9666761 0.22474998 -0.5589665 1.011294 -0.13614811 -0.075061016 -0.28737596 -0.095059305 0.5917752 -1.6642798 0.5327869 -0.66554433 0.13542086 0.2675505 -0.06665703 -0.1652644 -0.092693344 -0.0002331954 0.33611262 0.14244664 -0.060335606 0.60966444 -0.26854974 -0.18757348 0.38331905 -0.2691252 0.32019827 0.3160699 0.6478471 -0.0006873497 0.2124346
i5 -0.3718065 0.051407315 0.10408081 1.015475 -0.1975253 1.1592157 1.2326213 -0.18175337 0.4560558 0.51064223 -0.69955933 -0.26217723 0.43883145 0.4294266 -0.3206047 0.07750747 -0.94215655 -0.3365394 -0.6775338 2.0247083 -0.6782101 0.43107206 0.9687436 -1.2063183 -0.07121535 0.07276115 0.33489877 -0.35567984 1.1477116 0.4637702 -0.5353697 -0.443224 0.06611736 -0.48660052 0.14475754 -0.38656244 0.8526801 -0.4243769 0.22346175 -1.5927501 -0.21999362 0.6234197 -1.5127779 0.68797326 -0.8541795 -0.2330972 0.27488214 -0.42569983 0.05576305 -0.14538361 0.21170005 0.17561519 -0.14082071 -0.42506355 0.90432805 -0.46853518 -0.11132234 0.4410891 -0.09818324 0.7312147 0.30199096 0.26555836 0.088953294 0.0390142
i6 -0.054920986 0.10387664 0.11566973 0.363975 0.319885 -0.27190584 0.08544945 -0.0027343757 0.117705494 -0.014841278 0.8225359 0.16844545 -1.3850958 0.12467415 -0.16212003 0.08392004 0.40242922 -0.7773299 -0.25337148 0.11567689 -0.30917525 -0.2414597 0.7404855 0.38842973 -0.05133523 0.09935487 0.059311412 0.2831134 1.5088016 -0.22376391 0.08587567 0.91484517 -0.09026088 -0.029614761 -0.05536543 -0.55160856 -0.02430673 0.41486004 -0.62903476 -0.3037108 0.19771762 0.39789033 -0.21365678 -0.28028402 0.03611272 0.27624312 -0.53638345 -0.09909873 -0.14095938 -0.35585892 -0.3229189 0.2777946 0.004765654 0.6645365 0.30766985 0.010727301 0.112728074 -0.01547863 0.2200151 0.24302503 0.27963185 -0.29152352 -0.18899876 0.2156871
i7 -0.48073032 0.23476915 0.071828164 0.12383884 -0.09465868 0.08775408 0.0064388346 -0.7925133 0.26909387 0.61759657 0.1334993 -0.8157361 -0.19695623 0.7455826 0.23095979 -0.2535477 1.0886129 -0.69252235 0.020589601 -0.03751917 -0.25205228 0.29270247 0.5482381 -0.29170355 0.25365955 -0.012312387 0.13794297 0.28996772 1.9209094 0.2672723 -0.48940194 -0.124682374 -0.032390706 -0.34456584 -0.124036424 -0.1243263 -0.057999186 -1.0154574 -1.0389127 0.21729785 0.1963646 0.20493639 0.039862145 0.4663394 -0.30302545 0.047418036 -0.09764592 0.3199013 0.006071762 -0.1947299 0.1204644 -0.15168771 0.21299174 0.43790266 2.5634205 0.4021404 -0.2375784 0.6456407 -0.14170456 0.33142453 0.25778732 -0.19005176 -0.049030807 0.16755185
i8 -0.24675593 0.2144243 -0.2585715 0.2796415 -0.11949425 0.1681338 0.22544609 -0.30632088 0.11275224 0.44058526 0.43737775 -0.33799794 -0.17431295 0.24895696 -0.29871592 -0.09563076 1.0392958 -0.64184797 0.3460845 0.16229539 -0.5036414 0.18227755 0.1797119 -0.05171442 0.20912105 -0.22876596 0.43667606 0.16284505 1.339302 -0.039781787 -0.30667412 -0.16996285 0.067130744 -0.56208754 0.18356322 -0.28799218 0.33678252 -0.14291929 -1.2232249 0.44340417 -0.2216592 0.23324473 -0.34621665 0.25100505 0.03591415 0.19246964 -0.0077741663 -0.5424894 -0.10164893 -0.29367003 0.07909655 0.46090263 -0.019461455 0.92645925 0.6790773 0.31977427 -0.25308067 0.066761486 -0.22178936 0.1946826 0.10301885 -0.10793938 -0.48923627 0.32336932
i9 -0.21310915 0.26425198 -0.22154488 0.24796884 0.05953687 -0.25958982 0.07828968 -0.16387776 -0.18835568 0.34866068 1.1155194 -0.1085738 -1.8445127 -0.23499012 -0.18823084 -0.06613311 1.3673562 -0.741499 0.0048917816 0.069760114 -0.4381161 -0.07638422 0.3773619 0.38073403 -0.1236672 0.023926955 0.2542487 0.35107148 1.6084813 -0.31677613 -0.07142188 0.37731603 -0.06405469 -0.19854727 0.21635583 -0.27409786 0.34316075 0.29511523 -0.6121382 -0.18337443 0.045663558 0.1839166 -0.50366503 0.024463398 0.11474863 0.2822125 -0.4199293 -0.44251418 -0.07315577 -0.18487932 -0.11705976 0.41012493 -0.3519211 1.5422305 0.54091066 0.062227402 -0.14092578 -0.24100907 -0.17226477 0.31293103 0.46593678 -0.5230119 -0.7646038 0.2384092
i10 -0.26392806 0.086674325 0.29681128 1.099795 -0.5017373 0.73671836 1.9087784 -0.15076832 0.45864516 0.68468904 -0.5785239 -0.08301868 0.44070697 0.33903852 -0.0409871 -0.18435538 -0.36288893 -0.40895715 -0.88062006 1.5392523 -0.47744566 0.42131382 0.8674858 -0.7114149 -0.18101929 0.13365169 0.3727059 -0.20169103 0.9764941 0.60626435 -0.32735646 -0.3127242 -0.10197493 -0.8153146 0.107988164 -0.63223046 0.6265736 -0.30566502 0.19100526 -1.080178 -0.37725857 0.67556155 -0.67989093 0.57861805 -1.3000761 -0.13344361 0.3339876 -0.1671154 0.00865856 -0.17374846 0.21591245 -0.060112003 -0.090043835 -0.12515697 0.9747208 -0.44488734 -0.20708404 0.50638646 -0.014337299 0.7267038 0.18427688 0.040132493 0.20739692 -0.058964245
i11 0.14717175 0.17485368 0.62169296 0.81022185 0.16402541 1.6558231 0.3004915 -0.21382113 -0.1596423 0.61126244 -0.023649074 0.19354214 -0.56349176 0.2675892 -0.41890657 0.06850447 1.1326369 0.19816925 0.21020156 0.096224554 -0.6860665 0.24697964 0.2563308 0.2467208 0.41100222 0.036915936 0.46621615 2.316285 2.2608562 0.035400752 -0.3746656 -0.5236392 0.25481334 -0.356822 0.39384013 0.11159344 -0.06113015 0.25912797 0.16228285 -0.43670398 -0.36432907 -0.25716147 -0.005958658 0.2296107 -0.40712208 -0.07961395 0.18194714 -0.49242994 0.0389605 0.009950976 -0.7264646 0.5115961 -0.42379767 -0.38049695 0.934586 -0.74631685 0.15452641 -0.10415955 -0.49905404 -0.096653335 0.05860048 -0.3992757 -1.1679225 -0.009541839
i12 0.04687778 0.10785541 0.35145253 1.0350555 -0.12544301 0.113287635 0.13804546 0.08950839 -0.18134503 0.1534773 -0.28462878 0.32024622 0.07441201 -0.34737226 -0.21478088 -0.20765448 1.1802334 1.6675165 -0.11011779 0.50246495 -0.034576703 0.08271331 0.7288974 -0.9351411 0.39333406 0.34783107 -0.1639816 -0.24548581 2.0638075 0.5598975 -0.50230986 -0.10579623 -0.048236944 -0.7302563 0.3309334 -0.2626756 0.36047262 -0.32305378 0.19809814 -1.616047 -0.010330462 0.0815629 -0.7912362 -0.1792096 -0.34348318 0.19954555 0.08555959 0.029605007 -0.19511242 -0.077163294 -0.2913708 0.4183598 -0.07729651 -0.21122725 1.9499217 -0.28311458 -0.1286235 -0.24193442 -0.011924657 0.15217093 0.34652168 -0.33043802 -0.21354523 -0.084519416
i13 0.24608293 -0.1651233 0.58538157 0.41009843 -0.39409262 0.14611036 1.3297681 -0.12342343 0.055164672 0.43028125 -0.69185793 0.5723397 0.20625477 -0.34865955 0.09359826 0.11397419 0.936756 0.29697213 -0.26327676 2.6210728 -0.3988562 0.23384319 1.0133352 0.29674885 0.11423805 0.16677968 -0.17759125 0.62033784 0.6698795 0.17246038 -0.10323441 0.10766498 -1.131286 -0.60123056 0.48114812 -0.653518 0.341514 0.23000698 -0.18853234 -0.18489417 0.030882478 0.8820345 0.23531334 0.08807267 -1.3385799 0.5176262 0.14689682 0.042464547 0.49914357 -0.22441031 -0.10161172 -0.16830313 -0.80109286 0.9227515 1.9691631 -0.41203722 0.01930898 0.43196428 0.3287233 0.38795158 0.014608698 -0.44443575 0.09058403 -0.03306137
i14 0.08053049 -0.038091313 0.6280898 0.8421859 -0.2947115 0.36077282 1.3811704 -0.04826443 0.29258376 0.66983813 -0.46341118 0.41776025 0.4155841 0.033303093 0.3466509 -0.3445442 0.48036912 -0.22727598 -0.79672176 1.5812825 -0.35328633 0.3181374 0.82570237 0.10705561 -0.055296455 0.27860215 0.20335355 0.048542153 0.9897303 0.29287165 -0.07803334 -0.10635276 -0.74058104 -0.61479336 0.33350444 -0.98245174 0.6441183 0.14031887 0.114055745 -0.9089447 -0.014191119 0.8840376 -0.036802348 0.38985354 -1.4309925 0.309895 0.40924573 0.256969 0.47430587 -0.30810463 0.15787002 -0.21768269 -0.59159434 0.20484494 0.98373467 -0.61513066 -0.14193644 0.30070195 0.7615631 0.89544564 -0.13593857 -0.31241167 0.1694615 -0.20297566
i15 0.048690792 -0.07321703 0.5491955 0.8693755 -0.23953909 0.3017507 1.3889321 -0.16877575 0.29203528 0.6184692 -0.47422853 0.39486614 0.5197563 0.11235708 0.3811259 -0.39317143 0.60238814 -0.32720548 -0.5122908 1.90107 -0.2709395 0.20765059 0.866193 0.22895606 -0.027070694 0.1831738 0.25599486 0.32917938 0.9401355 0.34782916 -0.17715473 -0.07723017 -0.7563358 -1.1870672 0.49788493 -1.139272 0.8161682 0.18648669 -0.08406223 -0.7026734 0.16108637 0.8551944 0.076968715 0.4757531 -1.6392671 0.49596307 0.4253562 0.28053415 0.37083814 -0.43530834 0.12111699 -0.27277246 -0.5460855 0.15323982 1.0917279 -0.5051968 -0.15542376 0.14048322 1.0267167 0.76409453 -0.15087728 -0.30449337 0.028936375 -0.12563753
i16 0.087704554 0.06634667 0.38007182 0.64675593 -0.37315834 0.16678214 1.3110739 -0.054881353 0.26542008 0.646391 -0.391623 0.22223358 0.2662472 0.064598985 0.23037073 -0.3140087 0.2770539 -0.29021046 -0.5335861 1.2439461 -0.4793607 0.26528457 0.5353001 0.0022224684 -0.050444108 0.1825347 0.16124076 0.24031262 0.63435984 0.15612595 -0.050793044 -0.0855877 -0.5277467 -0.5265784 0.23842546 -0.7025581 0.40999871 0.1553159 0.0039480072 -0.4468544 -0.16578665 0.7548352 -0.04359993 0.3651672 -1.2199428 0.2951201 0.34465104 0.16140933 0.2256884 -0.3098699 0.15089163 -0.24594955 -0.43682912 0.25187883 0.659682 -0.41522193 -0.13330178 0.29355413 0.42255223 0.6618272 -0.10962793 -0.19007955 0.11138445 -0.17853081
i17 0.23331207 0.0550595 0.20275056 1.1097128 -0.2646869 0.5268902 0.7335479 -0.47939834 -0.34921888 0.3804421 -0.44739035 0.24045724 0.23852383 0.18519369 -0.49245068 -0.08696092 0.6369534 -0.23026003 0.027156834 1.5567969 -0.411352 0.3093659 0.6639848 -0.29275328 0.5502834 0.12830158 -0.21360035 0.08761232 0.5559921 0.41150886 -0.3888651 -0.26728708 -0.09708935 -0.20307331 0.44159216 -0.30480537 0.4909216 -0.1347359 0.25539663 -1.1763422 -0.15424123 0.17172113 -0.18028104 0.33865336 -0.12694786 -0.062669575 0.0027411347 0.096391104 0.17073892 0.23850846 -0.10421433 0.47431087 -0.04618387 -0.41730693 0.6489054 -0.094940566 -0.22840554 0.09480829 -0.32468075 0.5578494 -0.01938634 0.21005258 -0.29884976 -0.22066563
i18 0.0495896 -0.13275485 0.5839636 0.78954273 -0.31124166 0.28369227 1.4010247 -0.08377387 0.2478146 0.56412065 -0.4003593 0.3319766 0.28530455 0.02409918 0.2804913 -0.29502597 0.3248583 -0.29212475 -0.845465 1.5902128 -0.4532496 0.2975136 0.72967386 0.0929138 -0.011348936 0.26860833 0.14890498 0.013900345 0.9598573 0.27508244 -0.06406638 -0.023145296 -0.74689245 -0.7356649 0.32388285 -0.9744656 0.6389205 0.13860755 0.14158589 -0.69969803 -0.02416538 0.94825375 -0.0010495986 0.42478848 -1.6241716 0.32091394 0.39368644 0.17797944 0.4200581 -0.38734975 0.16776085 -0.2216202 -0.6116035 0.16608208 0.855153 -0.5748369 -0.15407115 0.34535846 0.86928284 0.7812167 -0.09085201 -0.28303307 0.12532221 -0.20218879
i19 0.1152477 0.088415846 0.13418087 0.7960916 -0.22626813 0.7048315 1.2148933 -0.33402005 -0.16981667 1.3107492 -0.57129943 -0.34277326 0.5054497 0.7044068 -0.20019181 -0.03558395 -0.33046818 -0.51292276 0.16239531 2.7641704 -0.26302907 0.509204 1.1668994 -1.3183622 0.4668033 -0.2567184 0.17974345 0.6210423 0.6880837 0.4058589 -1.0194983 -0.38116214 -0.010455082 -1.5116596 0.29028803 -0.43137324 0.8468309 -0.14964813 -0.35587284 0.034845646 0.014564181 0.42711255 -1.4689556 0.4170733 -0.7671858 0.2549892 0.20240355 -0.14237423 -0.1641275 -0.18367878 -0.14096712 0.40641162 0.072687335 0.03094615 0.9041195 -0.08447134 -0.07605387 0.4552517 -0.29210052 0.2482885 0.14266478 0.2504628 -0.32410336 0.23813802
i20 0.19159903 -0.042337455 0.44053823 0.58785695 -0.31992498 0.14847705 1.0515171 -0.20191042 0.13141792 0.57624376 -0.38239822 0.30407298 0.25142297 0.011172434 0.21391946 -0.11532258 0.38082844 -0.13386422 -0.4713715 1.4505852 -0.47032595 0.23410182 0.64605325 0.14354883 0.025776858 0.16910635 0.031683423 0.27573943 0.75208867 0.18292022 -0.06521987 0.010118668 -0.67659277 -0.4072793 0.2858 -0.670082 0.34038016 0.15295534 -0.055504438 -0.3017735 -0.11749025 0.82888806 0.022781359 0.19712012 -0.9865342 0.32674003 0.2554385 0.19329451 0.25935036 -0.29496118 0.09960067 -0.21252006 -0.3761445 0.2769054 0.9584982 -0.47395355 -0.117359646 0.36124024 0.3666199 0.5462245 -0.047143906 -0.16528001 0.16554105 -0.16484834
i21 0.20159414 0.015460087 0.40186185 0.7035707 -0.22945638 0.08634198 0.87252724 -0.02774111 0.00095836044 0.485147 -0.3644549 0.3486843 0.25316414 -0.024422174 0.22207397 -0.3012337 0.61422473 -0.12095809 -0.37881508 1.2644403 -0.47495133 0.22118938 0.5506348 0.11755787 0.044416253 0.2388211 0.039863452 0.17538805 0.77215713 0.2295826 -0.0238881 -0.104333036 -0.55780387 -0.4813754 0.29021788 -0.6535715 0.38283485 0.19326931 0.114362404 -0.4153974 -0.107088566 0.7598486 0.017180212 0.2570092 -0.9767011 0.26150084 0.31569618 0.21429278 0.28173935 -0.27534482 0.03154241 -0.19799581 -0.3209039 0.11708194 0.7602015 -0.35497633 -0.12849286 0.12841065 0.40419346 0.54874015 -0.12201397 -0.25518808 0.01755812 -0.26650032
u2 -0.30287686 -0.035426304 -0.018367464 0.64907193 -0.26429552 0.19586082 0.584325 -0.82445973 0.45793885 0.8240756 0.47443497 -0.4406055 0.07953142 -0.20364167 -0.38864446 0.45839602 -0.21345302 0.5233532 0.09175689 0.5230507 -0.46898147 -0.0042811353 -0.33275956 -0.7103408 0.46693414 -0.70125294 -0.07225612 0.42811555 0.2073773 0.16244996 -0.3669569 0.0742011 -0.5710823 -0.45819739 -0.04831747 0.12859915 0.4597404 -0.5068407 0.014960537 -0.14661793 0.50937533 0.667133 -0.6888241 0.631082 -0.056533724 0.30195326 0.075909436 0.1146247 -0.036144957 -0.5424446 -0.23362997 0.47891396 0.045904044 0.043085273 -0.07421647 -0.48332378 0.3591047 0.7153634 0.6098661 0.049621247 0.4908194 -0.008827997 -0.053801797 0.5502858
u3 -0.38984188 0.015605732 0.017344482 0.51592237 -0.4111275 0.17022265 0.40340418 -0.67866236 0.52498233 0.7676946 0.5752194 -0.5129217 0.10527594 -0.40442884 -0.34516552 0.4783371 -0.018859882 0.62106115 0.11833583 0.47085074 -0.5469771 0.039293922 -0.3817199 -0.6896927 0.38167807 -0.71448326 -0.07145647 0.57239693 0.15096515 0.15980373 -0.36977157 0.054918543 -0.57459944 -0.50269693 -0.030596316 0.10195303 0.3450635 -0.5511015 0.01815545 -0.16283786 0.55633485 0.5716956 -0.6678587 0.5418605 -0.08254211 0.33111867 0.05497923 0.10188073 0.04018164 -0.45484513 -0.20532122 0.41042268 0.05577863 0.20402388 -0.036210347 -0.47940972 0.3766004 0.78328866 0.64739364 0.037748214 0.5328028 -0.025401993 -0.024411447 0.45868662
u4 -0.099162415 -0.08957069 -0.103018515 0.55626047 -0.40175796 0.25689378 0.23959345 -0.5756588 0.40383354 0.9390641 0.60813904 -0.44650462 0.16299202 -0.39291355 -0.32593188 0.25634217 -0.27294022 0.702436 0.053364113 0.7444626 -0.6927634 -0.07627297 -0.5879662 -0.7859143 0.2226785 -0.721681 -0.064813614 0.7121741 0.20929265 0.3106658 -0.38825682 0.036243685 -0.6070488 -0.4850202 0.10278659 0.0032142748 0.19364598 -0.3837465 0.0535882 -0.38872945 0.5895196 0.7409676 -0.5121354 0.6193674 -0.09563425 0.5177697 -0.07251235 0.17271511 -0.023675341 -0.19809633 -0.19516191 0.4434687 0.021132505 0.08498422 0.05241791 -0.48030928 0.24431103 0.74837905 0.6987254 0.12377801 0.6935442 0.106735356 -0.019662347 0.4848245
u5 0.08137475 -0.102568105 -0.12871107 0.6662277 -0.31400868 0.33237788 0.092744 -0.5913521 0.41779432 0.9273248 0.5591295 -0.47774222 0.14524212 -0.339004 -0.13396116 0.31222478 -0.287162 0.63431025 0.106019616 0.46114847 -0.6863987 -0.15431128 -0.32657123 -0.7019777 0.10720535 -0.59573436 -0.036693286 0.6943735 0.09605094 0.20575388 -0.35144883 -0.033632908 -0.5043976 -0.41188255 0.16015357 0.004244416 0.07561917 -0.26500756 0.12407362 -0.46165964 0.6654274 0.6981766 -0.46609277 0.7107679 -0.09759779 0.47711122 -0.05050694 0.18841691 0.054952737 -0.049468827 -0.0809452 0.39418823 -0.00951694 0.2712577 0.09684406 -0.435419 0.24083412 0.72200894 0.5723038 0.14213891 0.72043484 0.09113239 -0.05636268 0.38831267
u6 -0.06687772 -0.09489446 -0.14723617 0.54482406 -0.36592805 0.25795874 0.18655184 -0.339114 0.43107408 0.8665772 0.5214796 -0.45569903 0.13301508 -0.4133582 -0.123677135 0.32679355 -0.109237574 0.6515451 0.03265302 0.39148667 -0.68767726 -0.10019988 -0.3953634 -0.610524 0.122877434 -0.7176688 -0.048516706 0.6304505 0.058546558 0.19012779 -0.3146073 -0.05347732 -0.43757653 -0.6228122 0.049418237 0.030310769 0.07065931 -0.1961578 0.11030572 -0.38145313 0.449426 0.7078325 -0.3534195 0.5833034 -0.11981583 0.41861856 -0.021572571 0.08142245 0.050498642 -0.06993262 -0.05344242 0.4400345 0.031713415 0.34113657 0.03345943 -0.41679713 0.26753902 0.64757746 0.7106943 0.14073326 0.6517858 0.05771228 -0.05337803 0.34087154
u7 -0.035954505 0.041020352 -0.12901576 0.5890883 -0.30303925 0.26229513 0.2307424 -0.54242843 0.5983546 0.99694747 0.62028867 -0.5893047 0.18836609 -0.37077475 -0.07600765 0.4087975 -0.20682001 0.69793665 0.11794377 0.41302916 -0.687322 -0.022655489 -0.45749956 -0.5914398 0.15609561 -0.7634347 0.10515392 0.7006193 0.035590295 0.07819349 -0.28128216 -0.039879356 -0.42768914 -0.39522976 -0.0558925 0.16523863 0.07030913 -0.25818735 0.2054514 -0.5145032 0.57654846 0.57888246 -0.47896153 0.5853469 -0.010046046 0.4561253 0.08654072 0.1773654 0.020255245 -0.07226999 -0.07963445 0.6128983 0.05721675 0.31923342 -0.058562282 -0.5646238 0.256905 0.7574665 0.5716321 -0.023661986 0.7624781 0.010574413 0.06591913 0.32273385
i22 -0.2105815 0.078989364 0.0811338 0.68161565 -0.32664934 0.39206636 1.1558408 -0.11879545 0.30981642 0.517485 -0.44474128 -0.04889533 0.23214895 0.26531819 -0.20877282 -0.1998844 -0.3174582 -0.25982738 -0.697553 0.96054894 -0.22941123 0.27635932 0.45491225 -0.42052335 -0.16326606 0.13722144 0.3119782 -0.19778883 0.60836005 0.168435 -0.24191022 -0.17582585 -0.06859998 -0.3516847 0.028376251 -0.34254873 0.40791842 -0.1353297 0.11758573 -0.748034 -0.33673355 0.39486796 -0.5147719 0.37779224 -0.71509016 -0.17814825 0.27162805 -0.13438877 0.0067412504 0.008310721 0.23416732 0.02454961 -0.044828974 -0.17588365 0.42613667 -0.40501508 -0.16978484 0.22403163 -0.08247592 0.5459288 0.22181557 0.03357691 0.23303662 -0.16275588
u8 -0.029006055 -0.039981306 -0.12048154 0.47782245 -0.28185812 0.2752368 0.18013804 -0.49230367 0.4950308 0.81929153 0.4535156 -0.66840005 0.122181825 -0.42468232 -0.3133469 0.43371397 -0.19386932 0.7462328 0.01315506 0.596759 -0.6689969 -0.043620817 -0.49947736 -0.7331307 0.11107967 -0.68366235 0.00047373647 0.61705786 0.13719359 0.12556975 -0.32652724 -0.10112727 -0.43816435 -0.55913806 0.09198639 0.07084924 0.070562 -0.31045726 0.02739048 -0.49193302 0.6085294 0.64509326 -0.56270915 0.5024457 -0.056460857 0.47162172 -0.022497162 0.06627288 -0.013993613 -0.1474254 -0.0027602639 0.6056154 0.048044607 0.27895683 0.039016936 -0.45025477 0.27883103 0.73918605 0.62949884 0.13580747 0.8091043 0.043749116 -0.056601003 0.32745895
u9 -0.040837955 0.027249286 -0.16319844 0.3233798 -0.40029475 0.29250446 0.16651882 -0.32095975 0.6486091 0.8192155 0.4118813 -0.6933691 0.21659397 -0.5413843 -0.15182607 0.38286737 0.05972288 0.5677269 -0.031866234 0.45535758 -0.6579007 -0.025285456 -0.4615012 -0.6966458 0.004453203 -0.76784563 -0.04161344 0.6242869 0.1404095 0.20316659 -0.27395955 0.009471683 -0.56659895 -0.4127527 0.014993346 -0.0030128767 0.010422358 -0.28178757 0.19985087 -0.47444993 0.37571093 0.43496203 -0.43594593 0.4715315 -0.17662968 0.3557439 -0.012209248 0.008429738 0.13229889 -0.036876537 0.10372205 0.5108075 0.042430732 0.46994597 0.03728732 -0.46186662 0.31414086 0.79582274 0.52845144 0.23345874 0.8124254 0.2288931 0.07632643 0.23957984
u10 -0.040536217 -0.01845017 -0.09150167 0.30713904 -0.4223154 0.32784387 0.19234738 -0.28672725 0.541382 0.71305054 0.4487385 -0.5016963 0.18268904 -0.39090627 -0.24441394 0.3368978 0.08161277 0.43718404 -0.12990645 0.45725688 -0.4957372 -0.0179548 -0.5289762 -0.701277 -0.09578517 -0.6613396 0.037450444 0.5197278 0.21005201 0.14649911 -0.17142276 0.0039936537 -0.5831393 -0.35196155 -0.038495056 0.0024822792 0.045762207 -0.25416586 0.15722565 -0.563779 0.4852245 0.26545805 -0.3909278 0.34243104 -0.16124973 0.41995773 0.017927956 0.009583739 0.075844236 0.10573312 0.035990592 0.62798953 0.017371178 0.28253278 0.011459396 -0.5588619 0.20664495 0.6844781 0.36170518 0.14241318 0.8629397 0.20069672 0.04024107 0.22224312
u11 -0.13505284 0.0139053045 -0.10027397 0.21975055 -0.51902044 0.36325127 0.16942632 -0.4181274 0.59593767 0.7099906 0.45051977 -0.72437346 0.1580742 -0.4605121 -0.17358364 0.49792436 0.08805882 0.5387696 -0.17308617 0.4410185 -0.566804 0.007986344 -0.43613762 -0.56876314 -0.11950979 -0.6469973 0.028756734 0.5529077 0.12622122 0.16041532 -0.18276738 -0.014151829 -0.4649782 -0.53053284 0.013253261 -0.08331919 0.06855427 -0.29078966 0.07424572 -0.66772467 0.38426253 0.3836731 -0.3775031 0.41530955 -0.15642986 0.47870392 -0.014660552 -0.14577697 0.13175322 -0.015739033 0.17172201 0.6802021 0.011111298 0.52640885 0.07087799 -0.54501384 0.20439273 0.66605604 0.5133875 0.1887964 0.94794995 0.1727165 0.08463842 0.33435458
u12 -0.02215062 0.015858619 -0.046414208 0.41072512 -0.48272398 0.22590925 0.17604442 -0.20488799 0.5401963 0.6750427 0.29830933 -0.4895023 0.16117759 -0.4308477 0.010670175 0.28568396 0.0030182505 0.30132782 -0.034174703 0.3283674 -0.5410002 -0.028599093 -0.3919033 -0.5107939 -0.06049746 -0.55554444 -0.025185045 0.56081766 0.09781936 0.2204246 -0.16798416 0.03736103 -0.4188701 -0.47531343 0.004724998 -0.059009537 -0.025968809 -0.15172781 0.16473715 -0.5015793 0.37399647 0.34501648 -0.37497887 0.41327482 -0.24620941 0.2932782 -0.03054262 -0.043785553 0.13194403 0.05836122 0.001501067 0.49660492 0.010212182 0.5287475 0.0043652365 -0.4173183 0.25277328 0.58882123 0.33417743 0.1695038 0.6428308 0.15650208 0.019733911 0.11676206
u13 -0.024575725 0.008113168 -0.07621414 0.3888294 -0.41813645 0.25659484 0.18342894 -0.27502218 0.45323747 0.6130461 0.5693662 -0.60928184 0.14325741 -0.5513892 -0.066247344 0.28700617 0.035823163 0.36401692 0.042703424 0.26655522 -0.50825673 -0.029783206 -0.30459324 -0.6155824 -0.0060317996 -0.63956124 0.03765328 0.5501227 0.05844883 0.19705579 -0.25101706 0.038172375 -0.5044093 -0.47406298 0.01486305 -0.05795889 0.01159883 -0.20359156 0.15517773 -0.47525537 0.43590754 0.40767205 -0.37323943 0.47203532 -0.20079598 0.3070262 -0.02194941 -0.09253312 0.17611413 -0.036551576 0.06613266 0.5064698 0.013377527 0.55102277 0.00026900353 -0.47741365 0.27834517 0.6200712 0.4930146 0.11393933 0.754252 0.08663055 0.034719337 0.19106819
u14 -0.06762947 0.017831115 -0.045300476 0.38799366 -0.43358433 0.21888568 0.1960016 -0.29987404 0.527183 0.72419226 0.46031225 -0.54713976 0.20313476 -0.41580564 -0.10136095 0.3670631 0.009643172 0.36991394 0.054440767 0.29256052 -0.5715059 -0.049397223 -0.2861163 -0.5445184 0.07310562 -0.76235473 -0.051212262 0.5831365 0.06388976 0.25354016 -0.24506178 0.03349166 -0.43565872 -0.46974042 -0.027148908 0.024268987 0.012033682 -0.18558002 0.15841722 -0.33455616 0.33460325 0.44390494 -0.34862626 0.51451737 -0.20324542 0.22996822 0.010345063 0.018753724 0.15082726 -0.11481612 0.011905932 0.42840657 0.082282946 0.5262442 -0.055875994 -0.3879719 0.3218757 0.77234745 0.6497175 0.14404482 0.57014996 0.11982101 0.02681302 0.20187847
u15 -0.011003405 -0.045558095 -0.16123526 0.43433908 -0.53017026 0.2002841 0.05625249 -0.315161 0.34735793 0.72378325 0.4286801 -0.50630796 0.16017495 -0.4596512 -0.25822133 0.14799522 -0.029404037 0.34303764 0.008481348 0.3566457 -0.6054831 -0.058399487 -0.3575568 -0.7137102 -0.04260263 -0.6415932 -0.07760745 0.5554969 0.16103809 0.2836097 -0.2207994 0.08361547 -0.66346014 -0.5579132 -0.012557041 -0.036492 0.055214617 -0.37873316 0.17945674 -0.4340635 0.44677797 0.5094178 -0.28413102 0.48342443 -0.14697002 0.4440966 -0.007154513 0.0632034 0.023367316 -0.042352706 0.12924272 0.4075629 0.030896507 0.44705537 -0.0042052413 -0.3769397 0.22761925 0.7097934 0.6047006 0.19012591 0.764783 0.12249437 0.0529871 0.25290543
i23 0.095643066 -0.085940145 0.5612608 0.79100996 -0.28651324 0.2764075 1.428572 -0.10007967 0.26052618 0.5821784 -0.4527156 0.38428688 0.4623501 0.0060965065 0.30331603 -0.43828404 0.59116715 -0.29912883 -0.8054089 1.6239024 -0.23832081 0.2852467 0.7990464 0.120491825 -0.06358317 0.32439542 0.25685945 0.0996152 0.96852654 0.22270948 -0.10119987 -0.08542992 -0.80315584 -0.8758738 0.37993658 -1.1539475 0.78637266 0.1522129 0.11403967 -0.8767252 0.087639906 0.83675534 0.042612158 0.3771505 -1.6230621 0.34062722 0.40044513 0.27938634 0.41403 -0.4119284 0.21954526 -0.2836171 -0.5657528 0.15730707 0.9590869 -0.52527755 -0.18145616 0.20479935 1.0276873 0.80666536 -0.17404163 -0.2856826 0.13128035 -0.17899938
u16 -0.15913375 0.045581814 -0.05222289 0.25076887 -0.58637655 0.17708269 0.1034108 -0.21802345 0.5477579 0.61622727 0.39947927 -0.5719501 0.16041729 -0.50325733 -0.2595887 0.14026959 0.14171538 0.24314043 -0.0020073415 0.28932032 -0.4766749 0.029757295 -0.38480788 -0.6052111 -0.012839796 -0.70337075 -0.0064728702 0.53672796 0.11638703 0.24060029 -0.17501833 0.03713523 -0.49842885 -0.692619 -0.0098141525 0.008850801 0.022749223 -0.25851288 0.11221409 -0.47886455 0.2630806 0.38703576 -0.24832581 0.47859538 -0.16295451 0.26101395 0.050440136 -0.003855205 0.048766542 -0.11060179 0.14574444 0.37470704 0.08126207 0.5208156 -0.015223409 -0.31701213 0.20559832 0.64149845 0.54975736 0.1463219 0.8823397 0.03691961 0.06269912 0.2190216
u17 -0.071530335 0.0057435273 -0.115205586 0.22042423 -0.6483571 0.20116517 0.13883366 -0.3364663 0.3246418 0.5418703 0.46779302 -0.5667791 0.25397047 -0.625245 -0.29814216 0.18821524 0.08149491 0.368621 -0.081134684 0.33478314 -0.45631483 0.021786258 -0.4519489 -0.729426 -0.0550691 -0.53916854 -0.030916268 0.41927335 0.07254291 0.21672855 -0.18724047 0.063094035 -0.5788531 -0.4663898 -0.03759602 -0.15355113 0.071035266 -0.4097897 0.19323047 -0.64952064 0.42731634 0.3429966 -0.3387095 0.30211684 -0.13767987 0.47719902 -0.024152244 -0.00868241 0.054169454 0.0032568164 0.12677446 0.4864952 -0.01737295 0.42110014 -0.026145207 -0.4177506 0.12118997 0.60574776 0.4761402 0.1608624 0.8576576 0.24989961 0.053653594 0.31488886
u18 -0.1713712 0.04490657 -0.05929259 0.3495281 -0.50239706 0.2414885 0.36989966 -0.36126903 0.5539682 0.64266396 0.61641467 -0.4073122 0.08162032 -0.49090126 -0.6340722 0.35131297 0.28976426 0.5253716 -0.08246859 0.6072492 -0.4918224 0.13829431 -0.42952335 -0.73013645 -0.03388279 -0.56359607 -0.027763596 0.38224527 0.54861057 0.09450855 -0.18654007 0.12179055 -0.5932782 -0.53855 -0.092071906 -0.04066981 0.24510701 -0.40134102 0.049603995 -0.37271178 0.59477496 0.39370236 -0.4485846 0.3012231 -0.11379329 0.52187955 0.17221195 -0.019070163 -0.0882254 -0.08489622 0.12686107 0.5793068 0.14792469 0.09188519 -0.16375993 -0.5465399 0.25701454 0.55677277 0.519727 0.088384695 0.9514493 0.091228545 0.17253955 0.35350853
u19 -0.2580115 0.012290798 -0.026540613 0.32599387 -0.6190736 0.22644617 0.37681428 -0.34458846 0.7054096 0.7077835 0.6302307 -0.5970457 0.119725645 -0.4206646 -0.727215 0.27873996 0.40440562 0.508917 -0.012825857 0.54941815 -0.4106885 0.11553928 -0.38356552 -0.57112515 0.08531074 -0.61398065 0.15410773 0.5246453 0.40099922 0.12040117 -0.22440349 0.15749253 -0.36620086 -0.56769675 -0.092239246 -0.036034875 0.17764257 -0.36683044 0.13998917 -0.5268401 0.38104516 0.3008326 -0.42342192 0.406609 -0.104766704 0.3322124 0.20949091 -0.1026597 0.037324697 -0.14772792 0.09077431 0.65354264 0.08738575 0.36003193 -0.12511207 -0.46997187 0.17976442 0.7125946 0.7344617 0.07969762 0.74275917 0.031483606 0.2861996 0.21836449
u20 -0.44512102 0.060679283 0.013246764 0.1076996 -0.5967138 0.18950991 0.5072251 -0.29448843 0.7131929 0.56495374 0.3520706 -0.59701544 0.18801638 -0.6913474 -0.9102289 0.44584167 0.5180446 0.37085426 -0.32472458 0.73055136 -0.49232885 0.15930605 -0.598311 -0.5905481 -0.025724223 -0.48695365 0.0012181533 0.37323296 0.5651064 0.14390711 -0.18092906 0.20299819 -0.4877148 -0.58644915 -0.057754025 -0.16444856 0.20100154 -0.2929692 0.04931613 -0.7913088 0.17826277 0.28267786 -0.44120982 0.25900236 -0.17678465 0.413973 0.057349626 -0.2703414 0.09072463 -0.113881424 0.13153496 0.68506664 0.022212865 0.45234165 -0.10196627 -0.529199 0.14229952 0.49068767 0.39978233 0.25686035 0.81060326 0.18618943 0.16280788 0.28456363
u21 -0.25087374 0.014867129 -0.010738568 0.2500085 -0.5520438 0.14701991 0.27854115 -0.091865405 0.579932 0.62616843 0.22473952 -0.38511187 0.076966435 -0.4148797 -0.9678212 0.4234212 0.4333812 0.28695738 -0.300397 0.5524206 -0.48255512 0.10533368 -0.42650402 -0.44869307 -0.026501505 -0.46943665 -0.12619518 0.34229213 0.5410989 0.17485243 -0.15102178 0.08282459 -0.47811505 -0.6497319 -0.05429187 -0.102404594 0.1559664 -0.1557583 0.00043002158 -0.60943 0.15963049 0.26792878 -0.2758079 0.25803176 -0.18786034 0.42472017 0.020989673 -0.24121995 0.030947784 -0.05846266 0.10875338 0.6666867 -0.012474042 0.3910033 -0.10744433 -0.47062188 0.18628079 0.40119863 0.4695926 0.23733234 0.7008985 0.13782313 0.0304049 0.19229017
u22 -0.2804036 0.03797447 0.07838148 0.12149163 -0.77094334 0.32450166 0.46718147 -0.33037922 0.7838612 0.48240626 0.8398655 -0.7220009 0.14449255 -0.53811985 -0.8118188 0.43050337 0.6035798 0.09231629 -0.26693705 0.6515203 -0.34147936 0.07670616 -0.6416406 -0.81519294 -0.031291094 -0.6865865 0.14177231 0.44018173 0.65321046 0.21000034 -0.13859615 0.1899626 -0.589951 -0.27321568 -0.11643238 -0.2481583 0.25475976 -0.48523644 0.117914215 -0.85794115 0.4081902 0.032987602 -0.5219852 0.24076001 -0.2819418 0.418855 0.08848105 -0.2178214 0.12330414 -0.0077845887 0.13667074 0.85301715 0.06779759 0.47086567 -0.22421287 -0.9681134 0.21416345 0.6571001 0.33566687 0.11803096 0.9340931 0.3792751 0.14157578 0.2845641
u23 -0.3909566 -0.0063638003 0.17979024 0.17902271 -0.76658285 0.26551917 0.55829865 -0.33170414 0.70448446 0.4862493 0.5465874 -0.57610226 0.098815076 -0.50538933 -0.8010379 0.32410157 0.54815173 -0.014419568 -0.19368222 0.6575696 -0.26700523 0.10925518 -0.5990445 -0.67272455 0.008178303 -0.57123816 0.09524208 0.40333635 0.6481385 0.27689716 -0.19690545 0.22806187 -0.56229454 -0.28957048 -0.062417224 -0.28948963 0.3004488 -0.5016593 0.15083745 -0.71816224 0.42192474 0.03886221 -0.5446851 0.23610094 -0.31588033 0.38348484 0.0356818 -0.266627 0.24213573 -0.10602161 0.062226687 0.59950227 0.0767931 0.51962715 -0.11090332 -0.726721 0.31465814 0.68272 0.25803852 0.24010241 0.82479465 0.33952132 0.06301116 0.24400844
u24 -0.33626166 0.00091940176 0.025582844 0.21579556 -0.5451255 0.36936015 0.46116892 -0.28366655 0.6037556 0.5454802 0.4009501 -0.5650473 0.094921894 -0.54010016 -0.9894969 0.5190249 0.34215236 0.38436 -0.3984999 0.7866227 -0.50935227 0.028669115 -0.48558328 -0.52361876 -0.032885756 -0.48544335 -0.030298976 0.33080387 0.6284325 0.123597674 -0.19401996 0.18371846 -0.53621966 -0.42788503 -0.010530773 -0.19971387 0.2706217 -0.35390186 0.021509474 -0.7303309 0.31061855 0.18613172 -0.43431136 0.33558986 -0.19219787 0.44766936 0.01898112 -0.277777 0.073949374 -0.08168861 0.09141023 0.59140146 -0.0042631505 0.3438285 0.00040825835 -0.6372044 0.16740625 0.5388643 0.38192517 0.21694794 0.7132903 0.31338227 0.05517653 0.3290632
u25 -0.3422442 0.009704015 -0.011078251 0.21967877 -0.64076924 0.17376517 0.34288368 -0.13536674 0.72290146 0.55262613 0.26799354 -0.5442972 0.08900709 -0.48708102 -0.6937216 0.31868225 0.5452413 0.2381823 -0.22189687 0.52902544 -0.4290242 0.10781773 -0.35992286 -0.5226046 0.041159403 -0.53146863 0.034626823 0.2800632 0.5323349 0.17608775 -0.1753762 0.14980264 -0.4569173 -0.5340563 -0.08338708 -0.09868471 0.20387131 -0.21976301 0.04577082 -0.5088366 0.26482877 0.27569664 -0.3593219 0.4181601 -0.19244371 0.34135365 0.05047701 -0.1376735 0.067275494 -0.15066361 0.10418463 0.5781709 0.028076231 0.4196355 -0.061255593 -0.4049194 0.30966726 0.4775331 0.48528096 0.16756102 0.65406114 0.12877163 0.11866261 0.19717711
u26 -0.24719946 -0.021272603 -0.071026474 0.2695717 -0.52915543 0.15362202 0.36892232 -0.23920225 0.5344293 0.5988355 0.3087937 -0.42454073 0.11569041 -0.5978313 -0.56574154 0.30560866 0.30307817 0.23684232 -0.24915315 0.5321076 -0.45552596 0.06809061 -0.38683856 -0.6296944 -0.052703436 -0.47376636 -0.037964508 0.42174378 0.38924748 0.13976945 -0.16061547 0.17648733 -0.55423504 -0.5074899 -0.07355418 -0.14222597 0.14211087 -0.21338531 0.093064345 -0.6117152 0.287225 0.3140124 -0.35976222 0.2929847 -0.15504424 0.4392665 0.0020963552 -0.17410675 0.066629305 -0.03030938 0.08659572 0.48693278 0.009750524 0.40907502 -0.07543359 -0.48753905 0.16491587 0.54449683 0.44228914 0.20584017 0.79729456 0.18862328 0.058318224 0.20854759
u27 -0.2524691 0.07650155 0.018471563 0.25760216 -0.7689063 0.13400884 0.37319905 -0.26207227 0.6315701 0.5643659 0.4488969 -0.40879345 0.1284784 -0.41873464 -0.5568587 0.37479812 0.34851936 0.19747451 -0.09077978 0.5358145 -0.38212976 0.116452895 -0.46283382 -0.61542326 -0.025806552 -0.655238 -0.016406924 0.3670483 0.4685252 0.22773968 -0.15704244 0.23582587 -0.49604234 -0.34941238 -0.13381487 -0.027563982 0.13963205 -0.23937769 0.16772726 -0.46751818 0.33367252 0.19247591 -0.3341901 0.3497463 -0.23527607 0.19914512 0.068877794 -0.09190775 0.033630088 0.020723153 0.07464826 0.6050348 0.0804133 0.23926917 -0.16961814 -0.6568676 0.23668213 0.6044486 0.34133253 0.07164531 0.6709809 0.12391032 0.16499302 0.1789836
u28 -0.2439576 -0.034811813 -0.12228059 0.39312893 -0.715126 0.24199826 0.24696769 -0.17626339 0.50153375 0.6437087 0.34827617 -0.4443095 0.055877335 -0.54815686 -0.5783536 0.3640497 0.27752003 0.2918254 -0.29140964 0.7671804 -0.6101954 0.088980004 -0.49909425 -0.63049936 -0.04866917 -0.4514757 -0.15354136 0.33294815 0.5816865 0.20701323 -0.10353218 0.2151724 -0.67245215 -0.6564845 -0.071087226 -0.14731976 0.2608532 -0.30221775 0.0822338 -0.6494852 0.48529765 0.49851972 -0.376112 0.36263433 -0.23690064 0.4337193 -0.04315584 -0.19286662 -0.0026953085 0.013627481 0.14527127 0.64175415 0.016499456 0.2489182 -0.08225077 -0.6849881 0.29805127 0.41425052 0.566261 0.13630007 0.7208222 0.1765923 0.03417598 0.17189378
u29 -0.22459741 0.06659765 -0.027642874 0.2798475 -0.6422133 0.07291326 0.19551149 -0.09416107 0.5780804 0.5955316 0.28066024 -0.3687305 0.15603323 -0.4672831 -0.44561386 0.14407223 0.34437293 0.07708571 -0.058875743 0.491574 -0.4182365 0.08843534 -0.34775224 -0.55963105 -0.050842024 -0.5632693 -0.109015204 0.4545385 0.38738927 0.25130674 -0.13911356 0.1977005 -0.6028571 -0.42123103 -0.13388626 -0.0026914608 0.08352387 -0.09626584 0.1890243 -0.409689 0.20792125 0.3455926 -0.2191444 0.44607297 -0.26064724 0.18295671 0.0141347125 -0.029872874 0.0940761 0.04486925 0.12850815 0.38869235 0.08425688 0.39954853 -0.1849108 -0.3708409 0.29605848 0.48306936 0.38910007 0.14628787 0.6837854 0.12886533 0.115624614 0.010871705
u30 -0.15858269 -0.041050393 -0.11784909 0.29625008 -0.39760488 0.20697999 0.31106633 -0.26252502 0.4830196 0.4658151 0.40166947 -0.5007657 0.12122216 -0.3694632 -0.5588699 0.35518563 0.36962125 0.28135377 -0.12369502 0.4160176 -0.41249678 0.033166565 -0.38190657 -0.5648146 -0.10397246 -0.53318375 0.008329003 0.41693085 0.4478632 0.16878991 -0.15402994 0.061290067 -0.5210194 -0.5150326 -0.038420826 -0.085475996 0.15767545 -0.35216475 0.12207894 -0.52602774 0.5207087 0.31118447 -0.30166832 0.3299734 -0.19105612 0.3824333 0.020619078 -0.025556458 0.07075381 0.056372795 0.09736874 0.6563816 0.0857253 0.32296816 -0.06026456 -0.4974162 0.19518633 0.48099315 0.35473582 0.09886876 0.8198994 0.13203847 0.059688322 0.25188696
u31 -0.1910839 0.086662255 -0.08431905 0.2698798 -0.47023675 0.10468705 0.20936765 -0.1283319 0.52406776 0.5481107 0.32148722 -0.3871389 0.049254265 -0.35451955 -0.49494419 0.19200315 0.23096025 0.23623025 -0.0045985347 0.53991187 -0.40597218 0.09974012 -0.303319 -0.36926487 -0.0127483085 -0.46760142 -0.068881765 0.28431892 0.3187327 0.13473906 -0.13480975 0.09416191 -0.3499934 -0.58019 -0.11149039 -0.040879797 0.075325795 -0.19357105 0.104690365 -0.35366103 0.1988622 0.31441066 -0.24669585 0.37513238 -0.10958767 0.26342648 0.054588754 -0.06327094 -0.018528337 -0.05703244 0.12113442 0.4224732 0.06971506 0.26288787 -0.080529734 -0.34415084 0.1960634 0.39672574 0.3904689 0.11629051 0.64446753 0.11114302 0.059349164 0.09490158
u32 -0.13320026 0.04719668 -0.09035137 0.41457525 -0.528085 0.0756942 0.17059572 -0.06778977 0.43989617 0.5424812 0.10761989 -0.20110148 0.1339264 -0.41271767 -0.5248847 0.13920853 0.22349732 0.15753207 -0.10230497 0.651572 -0.46092916 0.1267871 -0.29429173 -0.54420066 0.015408164 -0.44588277 -0.19227968 0.35628596 0.55122423 0.2830222 -0.0951959 0.14705995 -0.53621435 -0.549503 -0.13185701 -0.017282154 0.10442254 -0.07825609 0.17110841 -0.38473302 0.29316032 0.54452837 -0.18203548 0.38426885 -0.2196775 0.23972265 0.0068775173 0.0055507636 0.027352659 -0.033215865 0.095939666 0.33942312 0.015160687 0.18436204 -0.115091704 -0.37633067 0.324226 0.4014047 0.45853004 0.1563078 0.5531826 0.09079956 0.02968179 0.06984956
u33 -0.09537324 0.032023415 -0.0744091 0.45516667 -0.5111787 0.10046722 0.14975679 -0.17954619 0.39037958 0.61518335 0.25069225 -0.21968073 0.12837112 -0.41013825 -0.52377 0.2028976 0.18099408 0.23231857 -0.050118644 0.4896066 -0.5159542 0.030289453 -0.39431927 -0.5896575 0.044174254 -0.45088848 -0.16972198 0.40135327 0.39060917 0.2802055 -0.11568996 0.14520755 -0.4823792 -0.42179224 -0.06264334 0.009790792 0.084889024 -0.14212221 0.115488335 -0.28828496 0.31014752 0.42921653 -0.1768123 0.40659907 -0.16910617 0.24346173 -0.073918216 0.0308959 -0.0009638824 -0.10819011 0.07903422 0.27765855 0.06191084 0.20315549 -0.13434729 -0.31928533 0.28819498 0.40614113 0.5410092 0.09914259 0.5182761 0.1287876 0.04138871 0.12403969
u34 -0.03863776 -0.011293234 -0.093247354 0.34775138 -0.5684207 -0.0048336787 0.10859738 0.028528072 0.3639309 0.48065582 0.07127121 -0.15636472 0.124223344 -0.36158618 -0.45959753 0.22420786 0.1833642 0.044523295 -0.21176209 0.3953756 -0.4241853 0.033422068 -0.4306509 -0.43525627 -0.019933697 -0.514138 -0.34395808 0.40055558 0.23009501 0.35343462 -0.13610443 0.23862807 -0.6047296 -0.39446962 -0.11495664 0.004488462 -0.061669275 0.051132295 0.13415578 -0.3491311 0.26533273 0.38621178 -0.043512203 0.32113826 -0.27603647 0.2754842 -0.18376064 0.021602537 0.051434353 0.07848823 -0.011562611 0.34990224 -0.079558 0.20003977 -0.17311682 -0.3064093 0.32717204 0.3347639 0.4210163 0.18778081 0.55560505 0.32191527 -0.017313588 0.019729301
u35 -0.11583101 0.030192565 -0.113630556 0.47823486 -0.48588637 0.016350456 0.12828852 0.01577426 0.4385089 0.5393246 0.13601299 -0.19049118 0.09142794 -0.2996062 -0.4815325 0.08773056 0.22480953 0.12761977 -0.1205605 0.52321666 -0.32672247 0.06576419 -0.3463185 -0.5030512 -0.031402025 -0.43046713 -0.15917124 0.34374535 0.3104392 0.28043875 -0.14420234 0.12337735 -0.5284119 -0.5606088 -0.08324648 -0.041005976 -0.00040954587 -0.032038476 0.11810151 -0.27334815 0.26470014 0.44513407 -0.19440931 0.422171 -0.25043622 0.25903887 0.02366702 -0.0114968065 -0.014295444 -0.051494557 0.037468933 0.35974342 0.016746169 0.14702018 -0.13724269 -0.3034346 0.35089052 0.4090501 0.4694928 0.10909561 0.6591622 0.072824076 0.065977655 -0.04219342
u36 0.010089804 -0.027256282 -0.15395683 0.38414705 -0.45263228 0.067711055 0.14712605 -0.12947409 0.4829793 0.5631261 0.26889703 -0.25720337 0.1695104 -0.40547144 -0.5054426 0.17668332 0.11294146 0.20000052 -0.080850445 0.57405853 -0.4172431 0.0649193 -0.48511788 -0.5926718 -0.061177675 -0.47928536 -0.14348875 0.41559845 0.29434702 0.30248764 -0.12634666 0.10834958 -0.5193074 -0.4180192 -0.09416759 -0.057089895 -0.06272877 -0.10949218 0.16264285 -0.2908687 0.46712306 0.3574781 -0.1493145 0.34405503 -0.21650499 0.28290474 -0.112184495 0.06009875 0.017457856 0.084925175 0.050301075 0.39948627 -0.02696992 0.11238475 -0.10682302 -0.41849592 0.24913935 0.5027083 0.4661591 0.13921049 0.6429972 0.24226685 0.03752056 0.042675983
u37 -0.034643654 0.014550386 -0.19045983 0.3940367 -0.4052543 0.008822221 0.12690589 -0.10372618 0.41690713 0.48104888 0.17238326 -0.2525116 0.15175472 -0.42443606 -0.45856932 0.16023217 0.02313787 0.21175657 -0.110534206 0.40575427 -0.34900707 0.027936645 -0.35048988 -0.48903057 -0.11399941 -0.37973124 -0.16051571 0.35196987 0.24043782 0.12188369 -0.1308996 0.11482476 -0.54663086 -0.42475834 -0.083443806 -0.037161265 0.029202934 -0.03519515 0.18812117 -0.34045592 0.40792263 0.40500867 -0.22745119 0.2522401 -0.17625791 0.37079588 0.004258281 0.0863667 -0.03364525 -0.010682921 0.03680477 0.3837935 -0.07434151 0.2131684 -0.1152164 -0.38192764 0.23079021 0.49652147 0.46759886 0.17028847 0.64583635 0.18594764 -0.024860797 0.034032498
u38 -0.04899896 -0.17809418 -0.13902605 0.4932122 -0.68092126 0.05903945 0.11669133 -0.06819993 0.23537189 0.67866653 0.2038763 -0.08225344 0.108247675 -0.6326309 -0.75229293 0.09935195 0.38760602 0.3354346 -0.33722678 0.8103221 -0.6054175 -0.068847865 -0.45139632 -0.712089 -0.07292176 -0.345716 -0.5322627 0.29204136 0.69271886 0.46801126 -0.10842698 0.17422055 -0.76499075 -0.7878801 0.002930525 -0.29658464 0.069652826 -0.12521036 0.17134677 -0.5754585 0.5411256 0.6199517 -0.09854815 0.26940536 -0.47941768 0.5402275 -0.3550367 -0.037111357 0.016153134 0.034300588 0.027634852 0.47249126 -0.36080143 0.13414627 0.0946709 -0.6035322 0.17877348 0.24838647 0.5605163 0.34227392 0.75005853 0.43320897 -0.2851831 0.08218424
u39 -0.016448582 -0.17873646 -0.1644351 0.528542 -0.80219203 0.0657391 0.026608597 0.008512116 0.3225125 0.63480484 0.20330785 -0.08039618 0.12292755 -0.6728153 -0.8492373 0.13402435 0.31084743 0.31696704 -0.40805167 0.83550924 -0.60616165 -0.083636105 -0.4481958 -0.7197933 -0.11292588 -0.4197858 -0.57100075 0.2752481 0.6764253 0.5058383 -0.07423741 0.23278448 -0.79405314 -0.7940449 0.027541904 -0.29802606 0.07243451 -0.10383836 0.09612939 -0.5661141 0.6038071 0.6721264 -0.041494545 0.2732375 -0.47310492 0.55655235 -0.3492591 -0.11774819 0.0058279163 0.06780092 0.030734433 0.47329816 -0.31052324 0.12676394 0.20245458 -0.64439315 0.20603403 0.14244261 0.53198916 0.38005537 0.72759426 0.47038063 -0.28071257 0.11736594
u40 0.010840506 -0.23320358 -0.15510233 0.5889385 -0.6373943 0.11121329 0.07032643 -0.03760421 0.25832778 0.6051942 0.21258314 0.020770293 0.06218206 -0.7043821 -0.7686473 0.12716375 0.3512556 0.3552435 -0.49842492 0.8635695 -0.5982099 -0.09961795 -0.48300377 -0.7689485 -0.1059619 -0.3577017 -0.525398 0.24468687 0.81360227 0.42819434 -0.14330764 0.18908273 -0.83861375 -0.71814007 0.1049324 -0.32842267 0.097115256 -0.11001594 0.026550334 -0.6267235 0.6907094 0.6825642 -0.05025251 0.2982154 -0.42584264 0.6557199 -0.40239927 -0.10837975 0.011363733 0.058134153 0.0042946828 0.3981153 -0.38023895 -0.010738431 0.15143827 -0.67044634 0.25033006 0.18972419 0.44438195 0.3313304 0.7646402 0.45882487 -0.23966774 0.14404725
u41 0.045912128 -0.1561785 -0.18448345 0.7185639 -0.5832382 -0.09514596 0.0789847 0.059542157 0.102598324 0.7007952 0.10954923 0.14523478 0.15964712 -0.6971665 -0.58737075 0.16745538 0.13865109 0.26072127 -0.25435883 0.86010104 -0.7840499 -0.17678559 -0.50477284 -0.7759405 0.027789036 -0.4965873 -0.75364596 0.3731715 0.5932448 0.5967629 -0.2493003 0.22344899 -1.1611519 -0.56174815 0.03163607 -0.0557976 0.027541209 0.083005935 0.14869249 -0.2512429 0.4258283 1.1319114 9.878331e-06 0.47130504 -0.4330167 0.3722441 -0.41837898 0.013253891 -0.03464278 0.08421106 -0.22999743 0.26246095 -0.26152807 -0.047412954 0.024205465 -0.37832773 0.38296524 0.28511524 0.41572693 0.40222573 0.5100929 0.33970925 -0.34979856 0.033964504
i24 0.19091693 -0.0062515684 0.44330472 0.41984153 -0.23797192 -0.0590167 0.82228404 0.13723788 0.08617774 0.44088164 -0.2798393 0.31865656 0.16828008 -0.15217641 0.18924838 -0.24466315 0.48430216 -0.17037258 -0.30551973 1.0227513 -0.49914807 0.189381 0.2942559 0.16356558 -0.036868405 0.2065243 -0.02328462 0.37642765 0.56391245 0.18418479 0.029862938 0.055380337 -0.98547107 -0.56807214 0.33866283 -0.67638785 0.19228616 0.23122557 -0.019804986 -0.13102123 -0.029187674 0.82052463 0.17614862 0.22206819 -1.1993037 0.50421333 0.21655346 0.21280895 0.37424082 -0.47513682 0.06711814 -0.2768166 -0.6387589 0.4651826 0.674168 -0.25467244 -0.04899563 0.19328126 0.89788544 0.45018777 -0.14177828 -0.20593369 0.12007247 -0.18708935
u42 0.13197374 -0.26158866 -0.13378012 0.5651592 -0.5538959 0.044815302 -0.035060186 0.027952187 0.1271075 0.5389334 0.173755 0.052650724 0.10274662 -0.6761144 -0.67592186 0.13519576 0.20473506 0.3991575 -0.41424578 0.7421922 -0.6002047 -0.16502027 -0.40160498 -0.86951554 -0.093199074 -0.27972797 -0.51905906 0.23368771 0.5914093 0.46626788 -0.10848855 0.21886504 -0.8057488 -0.5800976 0.117270395 -0.30521074 0.022920785 -0.06583195 0.08005808 -0.57049 0.6482551 0.7849055 -0.036027394 0.25599855 -0.43457845 0.540739 -0.40311134 -0.11346645 -0.030540619 0.11425003 -0.065782465 0.4551816 -0.39158064 0.0022934629 0.17740276 -0.6419374 0.19822067 0.15480496 0.3590078 0.36961928 0.6149447 0.34977412 -0.3716055 0.08508268
u43 0.05693308 -0.18665382 -0.1763399 0.63874245 -0.61168075 0.023160165 0.06452474 0.0007688206 0.23603217 0.5987623 0.19588903 0.021749582 0.14505577 -0.6493402 -0.6920828 0.1051438 0.23077027 0.2494659 -0.35180813 0.78062296 -0.6250084 -0.11465237 -0.59287065 -0.7782214 -0.028164178 -0.39898345 -0.6225286 0.30207667 0.6133761 0.5402421 -0.09249213 0.23465413 -0.92650056 -0.5678947 0.10309584 -0.28528056 0.02680185 -0.02287928 0.106428 -0.42687383 0.5321714 0.8464416 -0.05105078 0.2622901 -0.6152159 0.48179013 -0.47195026 -0.06955163 -0.018711068 0.07834975 -0.07030839 0.28684956 -0.3786557 0.080067955 0.13669063 -0.4981276 0.31830993 0.21986862 0.49915206 0.4386297 0.5486068 0.37142572 -0.39947724 0.07603195
i25 0.078013755 0.040165756 0.179227 0.29565287 -0.24481137 0.037880827 0.45696718 0.012965811 0.068569094 0.2935655 -0.13076335 0.16134414 0.1561876 -0.13513565 0.10106 -0.15321685 0.3216576 -0.07399446 -0.10762682 0.6520967 -0.3440622 0.1477763 0.19368991 0.07755623 0.06781938 0.09850094 0.060867216 0.27049875 0.2802196 0.14589493 -0.060867064 0.033645373 -0.51819825 -0.46534544 0.21161163 -0.38506538 0.17893073 0.06848595 -0.00086032663 -0.14134526 -0.074701875 0.4506739 0.06527338 0.19316116 -0.711325 0.44266954 0.124745466 0.15114327 0.1944331 -0.25094846 -0.025118802 -0.09193468 -0.32461253 0.33841544 0.4038397 -0.16377926 -0.058270037 0.12988584 0.54772186 0.24045013 -0.05224917 -0.1367946 0.05030584 -0.13785829
i26 0.13219456 -0.013754698 0.28082624 0.3553286 -0.18278436 0.008888267 0.4574747 0.030702567 -0.03960635 0.30573913 -0.20937811 0.2446835 0.15892157 -0.2343451 0.15717468 -0.19403042 0.44230807 -0.018391564 -0.26512188 0.6695588 -0.32707226 0.1300476 0.2441206 0.009713564 0.021589644 0.17669404 -0.049255032 0.20937152 0.40453726 0.20840606 -0.0041462285 -0.003807284 -0.5811979 -0.62483525 0.22662483 -0.3744108 0.19080716 0.15008396 0.12808838 -0.40311152 -0.10234708 0.49682355 0.005164739 0.13329905 -0.7534616 0.46763927 0.18604457 0.20228364 0.18344495 -0.17288083 -0.02814086 -0.12470894 -0.30816102 0.157496 0.42637494 -0.27876922 -0.048919797 -0.022586018 0.65056795 0.3410435 -0.0028547968 -0.19177131 0.08199606 -0.19764428
u44 0.08841264 -0.17841798 -0.17277887 0.5524353 -0.701339 -0.019287147 -0.006435612 0.021472313 0.16176386 0.5791469 0.14234447 0.010505142 0.15654087 -0.6560154 -0.5628217 0.05328083 0.30765405 0.27863634 -0.36277676 0.7068902 -0.5589559 -0.18585366 -0.48047805 -0.819826 -0.07473848 -0.3301729 -0.60445756 0.31611794 0.5603517 0.57944185 -0.13772862 0.18011497 -0.89502805 -0.6344539 0.13711837 -0.24201933 0.035964053 -0.00010110611 0.1316178 -0.47963768 0.45726302 0.70957327 -0.064150155 0.22164948 -0.74731326 0.44954348 -0.6158153 -0.060515307 -0.022883754 0.13384995 -0.021943433 0.29688403 -0.36040252 0.13397121 0.13251506 -0.44642904 0.24271065 0.16001922 0.43035308 0.46980295 0.6491324 0.46429572 -0.5111311 0.036043987
u45 0.05771789 -0.15675104 -0.1450027 0.6676285 -0.8004855 -0.10130736 0.00018101333 0.09070234 0.18329866 0.6582975 0.04040375 0.07610434 0.12320763 -0.76189405 -0.6180687 0.016769294 0.2009694 0.13566248 -0.2473028 0.8421608 -0.654902 -0.06842645 -0.399223 -0.7676547 -0.015501795 -0.44378415 -0.83386135 0.36753324 0.73794067 0.7239535 -0.11426121 0.27189386 -1.1188558 -0.65178525 0.049731314 -0.19790943 -0.05526637 0.037537873 0.10429581 -0.21509615 0.43934813 0.9283002 0.07351639 0.32707316 -0.742886 0.30091202 -0.60686404 -0.057561714 0.06752751 0.035079654 -0.13799074 0.082024984 -0.22052152 0.08983546 0.0015901169 -0.23031206 0.4081119 0.19761133 0.5105966 0.55289733 0.49828655 0.46408686 -0.5087179 -0.030781025
i27 0.119285926 0.0031805264 0.25289068 0.3716666 -0.14168619 0.032525055 0.41830426 0.014208683 0.083474614 0.33090848 -0.19015136 0.11533731 0.06290255 -0.1285166 0.061749097 -0.12937477 0.1744831 0.032286797 -0.2277571 0.5449234 -0.26123184 0.18261707 0.17958245 -0.025107555 0.014504805 0.094379716 -0.04770485 0.19890195 0.23463124 0.1466356 -0.06903377 -0.013442581 -0.4423218 -0.3963306 0.22342414 -0.32986793 0.15997218 0.08574326 0.08486094 -0.32173076 0.040342644 0.4638187 -0.08224358 0.153719 -0.632837 0.35746077 0.11978005 0.16138385 0.19606216 -0.1732728 0.006044377 -0.058541533 -0.31707418 0.21088101 0.30643716 -0.342214 -0.06379038 0.11713959 0.5077515 0.33779663 -0.0019420561 -0.108908504 0.033530552 -0.057126172
u46 0.08881089 -0.19382945 -0.15318048 0.6141641 -0.7538212 -0.0065645063 0.097075865 0.0506276 0.19592491 0.66825247 0.048873972 -0.0058464482 0.08730236 -0.7230347 -0.69584036 0.06556049 0.22645578 0.16328597 -0.32826164 0.90234995 -0.67729145 -0.11569769 -0.4636625 -0.8500303 -0.08404767 -0.4180245 -0.70902866 0.36955515 0.6989842 0.63447624 -0.08149142 0.2418479 -0.9832252 -0.6878938 0.099610016 -0.23773046 0.022167543 -0.0025379688 0.13607843 -0.36863244 0.47704548 0.82656515 -0.048604097 0.34955812 -0.7962088 0.38380513 -0.56518716 -0.08985904 0.008869873 0.13922845 -0.077628165 0.21597873 -0.32861024 0.14684391 0.091502056 -0.329763 0.3246547 0.22134511 0.5579394 0.5851089 0.578418 0.46801573 -0.44398016 0.07710781
u47 -0.0070776087 -0.122826576 -0.12308418 0.6247362 -0.7747734 -0.00042928083 0.027603066 0.16116609 0.35311574 0.65196013 0.0074053 -0.016031213 0.16069208 -0.72628224 -0.58151525 -0.051374525 0.2674471 0.18041171 -0.30449829 0.7957288 -0.64292514 -0.0018817076 -0.49878016 -0.83165973 -0.03915327 -0.47052366 -0.61612654 0.34275386 0.6723 0.6505188 -0.07579508 0.28523383 -0.89197016 -0.90312004 0.06550005 -0.21553136 0.028235609 0.0334594 0.16165248 -0.45867297 0.47652793 0.7637634 -0.0664166 0.35708347 -0.7317448 0.39118016 -0.4149671 -0.060496226 0.015666129 0.08854578 -0.0517082 0.20705083 -0.2325275 0.2168359 0.10531985 -0.390139 0.34386086 0.1861616 0.63447756 0.4676484 0.5665603 0.35844326 -0.34152862 0.003543614
i28 0.06978205 -0.025582371 0.4331777 0.3495951 -0.18016253 0.07117948 0.68462133 -0.044706758 0.17370574 0.46174234 -0.23297586 0.23574957 0.058818605 0.006491824 0.17058763 -0.17575096 0.371507 -0.296683 -0.2097265 0.6869331 -0.39397675 0.1402043 0.35680377 0.16806655 0.0835856 0.11680037 0.04558221 0.46131468 0.4436112 0.025323363 0.017898802 0.13829856 -0.64985067 -0.48080423 0.2783769 -0.6080076 0.17149656 0.13934648 -0.05480134 -0.10448018 -0.014735425 0.57008725 0.11248435 0.27311206 -0.98025024 0.39013773 0.18989672 0.13339952 0.45068845 -0.43689153 0.055944137 -0.17052895 -0.5863076 0.33671403 0.47955552 -0.16596046 -0.07612404 0.28429842 0.7597661 0.47089112 -0.11227895 -0.16835776 -0.013665747 -0.12605165
i29 0.20082098 -0.032051492 0.4766659 0.49532136 -0.14745994 -0.022175482 0.7825346 0.03325462 0.09981647 0.4921854 -0.27931175 0.25825348 0.16427273 -0.027578361 0.26741022 -0.27262497 0.50552315 -0.21158446 -0.34626186 0.9711115 -0.4834469 0.14302056 0.38028863 0.13697797 0.046619914 0.24401446 0.015669636 0.3864435 0.5735253 0.05116971 0.032543644 0.077707455 -0.82561475 -0.5446375 0.27253368 -0.70375097 0.25114727 0.23521233 -0.0033041327 -0.20424172 -0.006339574 0.73126554 0.0742778 0.26006824 -1.1319963 0.4569324 0.20186016 0.23177062 0.3804568 -0.37397194 0.016005594 -0.25073498 -0.6012748 0.41391885 0.5457787 -0.27834755 -0.096339256 0.18229836 0.962741 0.5253293 -0.17788883 -0.20734182 0.02323325 -0.18855514
u48 0.00598558 -0.14645894 -0.10245577 0.6836147 -0.6213432 -0.16216867 0.031511974 0.120876275 0.20266446 0.6885431 -0.07659013 0.0938742 0.13646176 -0.49144074 -0.41311276 -0.073794015 0.13037013 -0.016944315 -0.21538243 0.7197689 -0.56328547 -0.094220825 -0.33585116 -0.62705797 0.06809459 -0.547998 -0.62114775 0.4141509 0.5506044 0.7724876 -0.1669655 0.2346094 -0.90523326 -0.6591341 0.045662876 -0.093351305 -0.030654503 0.06740658 0.19114338 -0.25279918 0.37931225 0.7223062 -0.015438076 0.44557533 -0.6661772 0.24196222 -0.4766381 0.049874578 0.06386519 -0.05532527 -0.21126193 0.03451109 -0.16630284 0.19027853 0.033989582 -0.31077927 0.4833578 0.23911059 0.51346 0.45143092 0.52436197 0.30245557 -0.3208039 -0.06829606
i30 0.19935092 -0.07587671 0.5613902 0.47114587 -0.23335996 0.06797633 0.9260724 -0.024227917 0.16681999 0.5669793 -0.23478325 0.30243587 0.14824946 -0.020345546 0.29895696 -0.2818026 0.65901005 -0.23276715 -0.29585436 0.89232224 -0.4488157 0.16102593 0.4021134 0.15005523 0.037273854 0.25775138 0.057902895 0.4505736 0.60451454 0.11431506 -0.022375874 0.09781664 -0.9503752 -0.6656517 0.370908 -0.8234762 0.3553776 0.18801814 -0.058059517 -0.27709937 0.048876245 0.9162078 0.10955571 0.28873748 -1.3571285 0.58278984 0.20313805 0.2351872 0.55763775 -0.5933025 0.053394023 -0.27812305 -0.6257631 0.49062622 0.6645545 -0.32833105 -0.09138245 0.2770164 1.1065392 0.58569205 -0.1574374 -0.26516727 -0.016710885 -0.18815193
u49 0.08186632 -0.164039 -0.06976566 0.47866902 -0.6858258 -0.056778148 0.06352782 0.057217803 0.25178215 0.5208915 -0.017190248 -0.033564936 0.06614681 -0.45462683 -0.52504617 0.065369815 0.24500488 0.007993238 -0.26035506 0.6213848 -0.51117504 -0.07218478 -0.3755555 -0.5205653 -0.05082875 -0.39273864 -0.5798754 0.38349226 0.49600574 0.563023 -0.13306051 0.26774025 -0.7745887 -0.6162127 0.052697204 -0.19215089 0.0030504807 -0.0037668422 0.11058525 -0.3170451 0.33478987 0.6277104 -0.016899452 0.2898925 -0.6571557 0.28844953 -0.41483995 -0.1368341 0.1276132 0.13919377 -0.08019049 0.17526805 -0.2112205 0.22936812 0.049053814 -0.27726862 0.33246893 0.19476737 0.49754152 0.48725292 0.56089294 0.37897465 -0.37478623 0.02100435
i31 0.040481742 -0.04533734 0.41356245 0.36128595 -0.29626587 0.090065815 0.7333512 -0.048750326 0.22157566 0.49205124 -0.22946931 0.22503757 0.078572474 0.035506558 0.21146084 -0.18403302 0.4096391 -0.28854686 -0.25841364 0.81238246 -0.37701085 0.22424334 0.40364757 0.24181682 -0.06671548 0.11035779 0.12595999 0.42277557 0.42206517 0.039393168 0.07200832 0.077563345 -0.63383406 -0.46449503 0.3052346 -0.59686977 0.19891013 0.138963 -0.23118164 -0.07162748 -0.025317967 0.63469195 0.16214032 0.2808286 -1.0205566 0.35684365 0.1979201 0.12942028 0.52345514 -0.4761303 0.1050953 -0.1797397 -0.5378384 0.5871279 0.44253808 -0.19208664 -0.07018137 0.33131605 0.6961409 0.5307379 -0.17134129 -0.1890532 0.097518384 -0.12989976
i32 0.08403735 -0.005276986 0.31934643 0.3935821 -0.27386722 0.015570415 0.6467038 -0.07160966 0.15628318 0.4766817 -0.1814463 0.2103694 0.04002819 0.0026655523 0.12329758 -0.14126375 0.3884533 -0.16796322 -0.15207 0.6384765 -0.34897667 0.16474442 0.19688195 0.14843018 -0.0028603114 0.123742096 -0.027654262 0.41370893 0.32489428 0.08867922 -0.024456296 0.06940163 -0.64831436 -0.31373093 0.2698294 -0.55249697 0.20330507 0.0672345 -0.1438794 -0.17668566 -0.04008593 0.5821802 0.09896523 0.33774394 -0.84873384 0.36077368 0.13927674 0.08990823 0.37654173 -0.36967584 -0.012712275 -0.09608617 -0.48974708 0.36499932 0.5042915 -0.22625145 -0.048279867 0.22020638 0.5523817 0.4001439 -0.08394374 -0.1529869 -0.0735916 -0.12574698
u50 -0.23284586 0.046516437 0.0048741675 0.4420707 -0.39024407 -0.14982831 0.1553458 -0.030468337 0.3138072 0.5404988 0.059423395 -0.099608764 0.05106471 -0.3042171 -0.2200991 0.06341676 0.18558194 -0.030495081 -0.048995253 0.34258255 -0.39920276 0.096140124 -0.29348138 -0.273251 0.24851015 -0.5321881 -0.3348406 0.3984919 0.29607466 0.32208887 -0.17536148 0.24991716 -0.5554541 -0.40363932 -0.07063222 0.052039992 0.012800192 0.04537626 0.11865183 -0.10226942 0.11640753 0.37794444 -0.1329918 0.42092076 -0.40172747 0.030980967 -0.058391977 -0.05607759 0.21242285 -0.40454215 -0.25139987 0.09530502 0.035183154 0.37703001 -0.18822046 -0.1136174 0.47057936 0.33940637 0.4841062 0.27350944 0.39621207 0.0698435 -0.10868559 -0.06502892
u51 -0.12566592 -0.03982054 -0.0033862372 0.2979153 -0.5191652 -0.06811923 0.13315089 -0.02197676 0.19848567 0.47012663 0.02112308 -0.097307645 0.12401959 -0.37687168 -0.12411785 0.0063016145 0.016363464 0.00818899 -0.05915879 0.25504255 -0.3930949 0.026922518 -0.075112075 -0.40098846 0.09876665 -0.33055714 -0.29639858 0.48891607 0.08420914 0.29593396 -0.20015253 0.14257076 -0.5789283 -0.4896522 -0.03268865 -0.008934632 -0.024382956 0.024390025 0.12377424 -0.12996615 0.1311416 0.48485428 -0.03280149 0.3598859 -0.37102494 0.06955428 -0.09810609 0.030050678 0.19700104 -0.29212722 -0.07138664 0.071900606 0.015599297 0.3758614 -0.055418625 -0.112148106 0.32718852 0.4228968 0.5149835 0.32704744 0.36273676 0.12139095 -0.061389584 -0.012912204
u52 -0.112246245 0.028462842 0.0013433708 0.48698777 -0.39430514 -0.061475433 0.07523566 0.092625916 0.35612008 0.5743226 -0.007538943 -0.12912884 0.1402284 -0.37403142 -0.1431423 -0.044916905 0.10255927 -0.044989955 0.035307802 0.24174306 -0.39442056 0.093507804 -0.082298145 -0.39022413 0.18496116 -0.51177454 -0.40409276 0.502122 0.18980902 0.40750724 -0.18779211 0.23242776 -0.58315724 -0.48728296 -0.07422017 0.01963309 -0.0008955619 0.05830062 0.13085602 -0.040855754 0.06600772 0.50428754 -0.054884788 0.54316884 -0.46566868 -0.032191653 -0.21660118 0.07247213 0.26231924 -0.34649605 -0.23246028 -0.0016083164 0.01195403 0.48414704 -0.04846424 -0.06522424 0.5164892 0.38395673 0.5433386 0.34089628 0.34326795 0.13101643 -0.17384532 -0.107347846
i33 0.049262285 -0.038089227 0.21466829 0.10481649 -0.18117009 0.030407691 0.25869623 -0.043007452 0.039112616 0.2560759 -0.0925433 0.05371052 0.07425401 -0.1429731 0.036732443 -0.04564638 0.13839667 -0.06971428 -0.10894246 0.3390443 -0.19932978 0.050538097 0.020628268 0.04159162 0.05766259 -0.0031171963 -0.009186206 0.30800408 0.103335984 0.083875835 -0.0020173434 0.056095876 -0.33439165 -0.24654135 0.13471195 -0.29483166 0.10105899 0.084502846 0.024372526 -0.07658256 -0.0012551777 0.32322732 0.025722254 0.14642233 -0.39701098 0.22302823 -0.006405966 0.033011228 0.21218456 -0.2732438 -0.07492544 -0.102250904 -0.29565433 0.26607686 0.12733705 -0.09925772 0.0036639685 0.12451035 0.38289168 0.20099574 -0.011938144 -0.05624738 -0.077336095 -0.040364653
u53 -0.26372546 -0.0004701533 0.16514546 0.430583 -0.44251388 -0.10487556 0.19653547 0.070496894 0.3566119 0.5414034 -0.0010120566 -0.13491379 0.07263802 -0.40612552 -0.14340308 0.058774244 0.11638302 -0.101799145 -0.08723122 0.31818658 -0.44642034 0.023956286 -0.0837152 -0.3271481 0.42309603 -0.4631872 -0.49170783 0.45496494 0.22859658 0.50814813 -0.24541047 0.3006234 -0.5780302 -0.45177495 -0.013671142 0.0060138768 0.076831646 0.058596104 0.09154531 -0.09599879 0.08653208 0.57422316 -0.108209856 0.6890452 -0.58887774 0.0757058 -0.22641762 -0.15414529 0.3462514 -0.4901713 -0.32849178 0.034424935 -0.10586934 0.4999261 -0.0815058 -0.14750136 0.51902586 0.47558513 0.5006214 0.48501378 0.37091783 0.10498627 -0.29199806 -0.0768404
u54 -0.08752622 -0.013569473 0.07797593 0.57154894 -0.3761171 -0.1211519 0.11687317 0.11837601 0.30375615 0.5790034 -0.0103852805 -0.063410364 0.12966278 -0.47652727 -0.14643928 0.069019474 0.16619249 -0.050640907 -0.090242915 0.2437263 -0.4595481 0.055088375 -0.1332422 -0.44831952 0.275955 -0.5333794 -0.5792811 0.5551425 0.1842028 0.5179471 -0.14457174 0.31319585 -0.8350962 -0.42759165 -0.045469843 -0.020708576 -0.15701811 0.19706953 0.20619832 -0.13679814 0.10816622 0.71204156 0.0068087266 0.5134841 -0.5319728 0.034099966 -0.23774229 -0.017481802 0.21286157 -0.3989241 -0.31576452 0.114543185 -0.10731721 0.4619302 -0.05780654 -0.14911789 0.57646626 0.47969574 0.5747665 0.3901436 0.49281877 0.090449624 -0.21117577 -0.078330986
u55 -0.20248508 0.006244429 0.069779165 0.42702886 -0.54458374 -0.13021676 0.16312066 0.09543745 0.30580005 0.5155477 0.03651154 -0.19185126 0.076187216 -0.5859015 -0.15784192 0.019414147 0.1486667 -0.100568034 -0.023528416 0.33620182 -0.46983698 0.024642544 -0.12784454 -0.40794373 0.3264167 -0.5101326 -0.44770837 0.60965836 0.26750943 0.5113671 -0.17430075 0.40960452 -0.77350444 -0.49561703 -0.05633292 0.002434587 -0.052893993 0.076486036 0.15868253 -0.031184018 0.092765816 0.5647507 -0.050435603 0.44054756 -0.64187735 0.015248622 -0.20710881 -0.09880948 0.3008763 -0.4762853 -0.32181078 0.069619246 -0.017880464 0.5904975 -0.09353884 -0.05240098 0.5240082 0.5429476 0.605116 0.45938316 0.46809173 0.1376506 -0.14607605 -0.093071245
i34 -0.025045106 -0.04732101 0.16649598 0.12364338 -0.13833158 0.019464282 0.33606175 -0.041069563 0.10966079 0.26114795 -0.021528726 0.059558086 0.057871427 -0.06234304 0.073744915 -0.0065216655 0.18855724 -0.08975084 -0.15399143 0.39236492 -0.25539714 0.014815719 -0.003783358 0.034711648 0.0013432646 0.015353441 0.042884935 0.29326406 0.14552861 0.050190754 -0.053314608 0.06977871 -0.34224126 -0.17203301 0.15017742 -0.2522213 0.14436552 0.06359908 -0.1467213 -0.017252732 -0.03791284 0.26640147 -0.026810266 0.17116648 -0.38831037 0.24232978 0.0425306 0.063226886 0.16343787 -0.27526626 -0.04611885 -0.09413859 -0.26140726 0.31719962 0.17800055 -0.14007151 0.018776344 0.12110194 0.26669353 0.09202589 -0.017556973 -0.069307566 0.014770383 0.04987503
u56 -0.1418448 0.04794491 0.026285693 0.53887147 -0.4997421 -0.030370018 0.1380966 0.075446896 0.39065713 0.61197096 -0.010649937 -0.20691085 0.10917757 -0.404655 -0.068100594 -0.031563453 0.0330791 0.045467306 -0.055788796 0.34857008 -0.5456564 -0.054870214 -0.19227155 -0.3833244 0.31360322 -0.55170107 -0.47011155 0.52450794 0.2418134 0.5346536 -0.3210403 0.1681384 -0.6449445 -0.59122396 0.041715547 0.016848706 -0.013493237 0.07074242 0.18346779 -0.17414623 0.09745895 0.59748876 -0.1886494 0.72360504 -0.614526 0.060711548 -0.25398242 -0.022813452 0.39718503 -0.4315954 -0.3421836 0.07161815 -0.0045243828 0.6288988 -0.035146806 -0.14616175 0.4747915 0.5333287 0.6462088 0.44637164 0.42921582 0.10422336 -0.26187426 -0.10737501
u57 -0.21695817 0.008973691 0.124125354 0.62333 -0.6209069 -0.12206234 0.21067284 0.14128356 0.5639101 0.7016827 -0.054573268 -0.04068475 0.04325956 -0.40591884 -0.19620027 -0.052693207 0.2911578 -0.061648678 -0.07311681 0.4554186 -0.5444337 0.038920768 -0.16631664 -0.33362335 0.3251291 -0.5311149 -0.4751105 0.59628135 0.40841052 0.46775058 -0.17192243 0.38245052 -0.7368651 -0.5833497 -0.037626747 -0.008121894 -0.01370631 0.11054315 0.14516324 -0.050851904 0.14097841 0.7506985 -0.0608562 0.71555805 -0.6693239 0.068280265 -0.21238993 -0.017007524 0.34199777 -0.47582597 -0.380854 0.03444771 -0.029336436 0.47725785 -0.12606326 -0.0779197 0.5202634 0.5253592 0.63597566 0.4330768 0.37942863 0.099603064 -0.24570805 -0.15325749
i35 0.09838718 -0.043055244 0.21712177 0.23340529 -0.11544601 0.044314906 0.47818953 -0.051051844 0.1989567 0.35903198 -0.15011458 0.10065922 0.03022175 0.017600395 0.15492392 -0.10394989 0.2338294 -0.12446838 -0.0639602 0.45349768 -0.27924734 0.06855791 0.13667351 0.09772549 -0.00827405 0.08217248 -0.018113643 0.36887664 0.13584289 0.076470725 0.028200574 0.058781486 -0.48141345 -0.30733624 0.16809268 -0.49564546 0.08905799 0.15795718 0.022950089 0.0149946455 -0.015648002 0.5024491 0.102961294 0.22367062 -0.70846593 0.32930565 0.13301839 0.117452696 0.38213673 -0.3927322 0.034075696 -0.09772487 -0.5195887 0.29803088 0.2930592 -0.21356614 -0.060502123 0.2195497 0.5064359 0.3733665 -0.034276016 -0.06251891 0.013733924 -0.0550547
u58 -0.18742365 0.011568467 0.07576348 0.58478177 -0.32951465 -0.17805378 0.16575316 0.15303199 0.3677347 0.5071747 -0.06025248 -0.15931931 0.12459504 -0.40162513 -0.12269676 -0.014558239 0.16444565 -0.040071703 -0.012350933 0.22965233 -0.5032432 0.0053774854 -0.17415996 -0.30869165 0.36003387 -0.63899654 -0.5866571 0.52921623 0.2846144 0.5987554 -0.29043803 0.26486683 -0.72128546 -0.4393576 0.021189433 -0.04767153 -0.019892847 0.105769776 0.12463534 -0.0525672 0.23965971 0.6785323 -0.19319935 0.567313 -0.5095273 0.077303566 -0.32858822 -0.095747076 0.35496306 -0.4765594 -0.39879987 0.14799534 -0.060166538 0.4881941 -0.07336798 -0.06985543 0.56693983 0.4841246 0.589388 0.43143925 0.47556406 0.18900046 -0.34363118 -0.14484273
u59 -0.19792275 -0.067598335 0.1790143 0.5629301 -0.4678116 -0.15287228 0.23888682 0.115857765 0.44860166 0.52650625 -0.045315765 -0.038561247 -0.006020018 -0.39412382 -0.1689595 -0.030830646 0.21662644 -0.12584943 -0.051502984 0.40057808 -0.4834343 0.04662015 -0.19047351 -0.31915572 0.3312235 -0.60154045 -0.59690887 0.5600136 0.31572118 0.5671949 -0.2177998 0.32503128 -0.7451602 -0.5560517 -0.0024229216 -0.09054218 0.03278007 0.1803115 0.10808687 -0.092129275 0.14751193 0.6455245 -0.10571448 0.57690245 -0.54123425 0.10285172 -0.24872626 -0.13106953 0.3966689 -0.4320269 -0.45946136 0.09400668 -0.07039314 0.50295776 -0.08382173 -0.11750276 0.542135 0.45737678 0.5545821 0.44958606 0.4093317 0.1278654 -0.3009017 -0.12542646
u60 -0.14747684 -0.01957995 0.00016367937 0.5899441 -0.5605793 -0.18944652 0.08638248 0.15556726 0.41641372 0.59484917 0.029185023 -0.14217407 0.1101456 -0.48547482 -0.107448526 -0.09419373 0.13233513 -0.035896562 -0.050033007 0.40821254 -0.565873 0.033767443 -0.10310749 -0.40807503 0.32852954 -0.66492665 -0.5509092 0.6412906 0.3547677 0.6076198 -0.24819663 0.2305857 -0.7795769 -0.58697414 -0.033213846 -0.028621893 -0.02440348 0.039609667 0.1364078 -0.122081906 0.11920615 0.7994365 -0.030553836 0.6839577 -0.48145822 0.01207486 -0.28533283 -0.023766797 0.29814836 -0.3782096 -0.2528719 0.013927074 -0.06625214 0.51425576 -0.10469217 -0.09915526 0.5288218 0.45287678 0.5912544 0.3721855 0.3900485 0.1474722 -0.25356343 -0.082442455
u61 -0.16189626 -0.046181377 0.07416984 0.67079455 -0.3819863 -0.1615881 0.14964302 0.11550136 0.4247601 0.57401407 -0.13779642 0.023427017 0.053813435 -0.46095154 -0.25630382 0.020672886 0.07497453 -0.1709065 -0.15279116 0.3908704 -0.38965112 0.10202125 -0.2466944 -0.34385672 0.29948524 -0.55804473 -0.62154263 0.5326811 0.28571913 0.53373975 -0.16529155 0.41640052 -0.82227784 -0.5303462 -0.04452138 -0.06559863 -0.004410869 0.21631101 0.12610872 -0.092541315 0.26047182 0.6217483 -0.031513214 0.4152232 -0.7466353 0.1609429 -0.3264545 -0.11924422 0.29346403 -0.3753732 -0.37956926 0.17367208 -0.15165502 0.4059595 -0.18496454 -0.2444789 0.6281991 0.33927584 0.67591137 0.44660932 0.46322393 0.2844775 -0.37323892 -0.097252056
u62 -0.527771 0.10243926 0.15373239 0.6061529 -0.89304215 -0.14209084 0.18990928 0.17148432 0.39233854 0.6276736 -0.036952056 -0.114184946 0.11136434 -0.536485 -0.16210824 -0.1582144 0.28582603 -0.23625325 -0.08552274 0.4304161 -0.48172125 0.05540267 -0.2636486 -0.5373406 0.41869047 -0.68007106 -0.47677335 0.5786715 0.3948223 0.71608955 -0.25944752 0.5639759 -0.72653764 -0.7862638 -0.019528255 -0.09925378 0.07765195 0.078823805 0.06585042 -0.13758011 0.05866618 0.52545136 -0.10053453 0.68182284 -0.7651097 0.0009200865 -0.2675676 -0.12533021 0.4590523 -0.6389506 -0.31799036 -0.076126635 0.0407159 0.64046097 -0.14226224 -0.00933186 0.6135607 0.38392383 0.70513934 0.5838746 0.4208688 0.14662246 -0.2251404 -0.1490056
u63 -0.11721081 0.07040197 0.096545294 0.59123063 -0.34487855 -0.17537244 0.21934864 0.084189035 0.54839855 0.6430281 -0.16409957 -0.05913551 0.030414598 -0.31874612 -0.2025543 -0.0020664872 0.18699138 -0.032143436 -0.13331431 0.50772464 -0.53814036 0.067891106 -0.2984429 -0.28980663 0.3716244 -0.5769016 -0.565413 0.5607954 0.399161 0.46487048 -0.20570566 0.37594706 -0.6727103 -0.33392343 -0.02087084 0.01865501 0.0065994696 0.17566969 0.08047442 -0.17141113 0.18417606 0.6379183 -0.105030105 0.73141336 -0.65329045 0.02695162 -0.28085098 0.010788711 0.3296512 -0.44727486 -0.58964443 0.06922033 -0.100555636 0.3702358 -0.13135956 -0.16561644 0.59460634 0.4028521 0.46152982 0.36589205 0.41606525 0.16811137 -0.32654083 -0.17411683
u64 -0.20986605 0.055557888 0.10840937 0.6170666 -0.42906803 -0.16523941 0.16338515 0.073541366 0.2971704 0.59246683 0.033277865 -0.1868823 0.09984952 -0.4081838 -0.17084466 -0.012454104 0.07538468 0.019980589 -0.05701862 0.28235644 -0.42158756 -0.018590424 -0.23122872 -0.3218724 0.24457338 -0.47921303 -0.408396 0.52952456 0.23992196 0.29571155 -0.1859225 0.28612214 -0.7107591 -0.55202323 -0.09451287 -0.022999426 -0.04630716 0.17658071 0.15282889 -0.1470371 0.19301979 0.5227103 -0.17485023 0.5526746 -0.5100146 0.11847046 -0.29821607 -0.14932314 0.29667085 -0.355919 -0.28984135 0.19254021 -0.050111156 0.45185056 -0.11597498 -0.185834 0.4455829 0.34427962 0.47422367 0.39535838 0.5189091 0.17086928 -0.25515953 -0.1326779
u65 -0.26309648 0.0005452505 0.2204985 0.5291204 -0.6300889 -0.07596727 0.21908481 0.05837912 0.37409124 0.67454123 -0.010530427 -0.24704331 0.09654674 -0.5456981 -0.11262028 0.042036444 0.20027654 -0.07563849 -0.04295109 0.5563005 -0.614487 -0.008478912 -0.122329764 -0.3436282 0.53325343 -0.6498261 -0.5598195 0.711559 0.40617642 0.581136 -0.32066432 0.4743019 -0.8222218 -0.5425368 0.01016984 -0.02644598 -0.028278181 0.05261617 0.18152028 -0.01870477 0.058531202 0.66586244 -0.10850607 0.8213017 -0.82761997 0.0802784 -0.3872732 -0.16379626 0.61872375 -0.69651324 -0.477336 0.059664764 -0.060907353 0.66013247 -0.042088557 -0.12554589 0.6884681 0.6942371 0.6630118 0.6482147 0.35745415 0.18838274 -0.30115244 -0.050551206
u66 -0.32685506 -0.05058535 0.26179707 0.5403221 -0.6773384 -0.07497469 0.30894524 0.036904234 0.4037695 0.74268156 -0.038804404 -0.16111763 0.042640638 -0.708683 -0.23105419 0.079903916 0.32546484 -0.06399309 0.004308569 0.75879645 -0.74365807 -0.062129747 -0.058756728 -0.45307195 0.7597656 -0.5839751 -0.83419394 0.91030693 0.5202795 0.73767525 -0.2909506 0.6136802 -1.0420898 -0.50606775 0.03787024 -0.06362019 0.003392424 0.0564477 0.127332 0.059814047 0.086463675 0.88022697 -0.015888738 0.788096 -0.9033065 0.08433064 -0.44147184 -0.19088238 0.6156042 -0.84530663 -0.6886555 0.0029994277 -0.08274281 0.8430665 0.0023059666 -0.031158902 0.7997176 0.6062211 0.7349248 0.76343966 0.29054385 0.16426587 -0.4064125 -0.022203581
u67 -0.24672025 -0.11950605 0.30987078 0.59107053 -0.5137515 -0.024661241 0.33571842 -0.032961305 0.3213339 0.6210173 0.017064704 -0.15570106 -0.02682827 -0.73313576 -0.20839278 0.1981355 0.2574165 -0.052844096 -0.102461316 0.71678877 -0.7705936 -0.07870739 -0.01396355 -0.22010046 0.7140579 -0.57572025 -0.92309034 0.9634996 0.46301693 0.76573575 -0.28658277 0.5585107 -1.0664853 -0.3410645 0.12935403 -0.10434847 0.056717385 -0.0071850363 0.09458812 -0.023528663 0.16244993 0.9291384 -0.12569049 0.69727474 -0.9054121 0.12845159 -0.44384363 -0.20757507 0.6398792 -0.82802236 -0.6298547 0.08912294 -0.12733397 0.8090545 0.027518336 -0.147754 0.70016915 0.6862819 0.7153559 0.75492215 0.33868235 0.16639754 -0.45143387 0.016387213
u68 -0.2263309 0.018842563 0.11371118 0.5491597 -0.6070791 -0.09541689 0.19577967 0.11156039 0.31356594 0.62880397 -0.045988694 -0.12105844 0.022044357 -0.50593036 -0.11624487 0.07105713 0.22651781 -0.063643366 -0.0050759013 0.47101957 -0.6340721 -0.007505798 -0.12539075 -0.39406237 0.53990203 -0.59848857 -0.62894917 0.7028725 0.3139192 0.67446023 -0.29057667 0.35187814 -0.82915086 -0.43716216 -0.0114369355 0.0060854754 0.0117831025 0.047237474 0.14621356 -0.024944965 0.020755766 0.7915399 -0.058999334 0.7890719 -0.7313968 -0.014460305 -0.41891488 -0.09122663 0.4846536 -0.67144376 -0.42760107 -0.062303517 -0.0047906605 0.59255254 -0.008183157 -0.038347617 0.62400013 0.53476834 0.5699193 0.48507643 0.36519498 0.1399418 -0.27886215 -0.09146019
i36 -0.042020593 -0.050327495 0.06967758 0.06395764 -0.11943877 0.067383066 0.07151873 -0.075048745 0.08011948 0.1066136 0.017701019 -0.015523692 -0.0055888183 -0.012569636 -0.011884803 0.068196654 0.024819247 0.06088058 -0.044395622 0.06650261 -0.11484009 0.057534903 -0.020682177 -0.024531916 0.039227672 -0.031774376 -0.057276655 0.10162163 0.055305533 0.026630484 -0.040250458 0.10961927 -0.056185644 -0.06980573 0.049870275 -0.0898541 0.07122247 -0.052096277 -0.02727958 -0.03194365 0.025625626 0.058265902 -0.016271753 0.08654929 -0.126482 0.09366351 -0.012013258 -0.041225918 0.079781964 -0.10870496 -0.07610149 0.06124414 -0.08116372 0.092467144 0.011607164 -0.048467927 0.04144748 0.13164134 0.10191187 0.05007014 0.013400099 0.031691678 -0.04702273 -0.013337349
u69 -0.37431887 0.06158233 -0.0049369847 0.52675176 -0.33458635 0.23108451 0.5110406 -0.87344533 0.60180247 0.7917866 0.50549334 -0.68447053 0.12321517 -0.3821589 -0.6536955 0.3747261 0.06260335 0.6368878 0.07623466 0.7778553 -0.6218107 0.11366818 -0.5309197 -0.76126766 0.47864786 -0.67719835 -0.035151158 0.6364464 0.4127391 0.190025 -0.49776468 0.08204951 -0.4175608 -0.6280759 -0.012245388 0.063082814 0.31801397 -0.66811913 0.021029683 -0.3266919 0.44019443 0.5946955 -0.78949225 0.7514266 -0.0819301 0.30204207 0.09788254 0.03099928 -0.035900258 -0.5375976 -0.14219786 0.5067936 0.07578335 0.17711696 -0.0683381 -0.36052403 0.22393583 0.76015127 0.6797646 0.065558255 0.82960707 0.029976515 0.07863934 0.55257034
u70 -0.38036376 -0.027281493 0.017730255 0.5782152 -0.34428915 0.301889 0.45468593 -0.81872576 0.49274087 0.8034854 0.43815476 -0.37831038 0.016547572 -0.29474944 -0.44329828 0.51051366 -0.034476135 0.562046 0.009646571 0.588367 -0.62494266 0.016986005 -0.3791182 -0.5368805 0.45551324 -0.6802746 -0.10025335 0.51333904 0.23914553 0.19025056 -0.55897063 0.10647359 -0.5500997 -0.5993748 -0.00052348594 0.110150196 0.45695534 -0.5323855 -0.076100245 -0.1313477 0.5164155 0.52776366 -0.6738465 0.668489 -0.07153464 0.41918746 0.02247723 0.10451824 -0.009461466 -0.46533608 -0.22032219 0.49085563 0.035326134 0.06666772 -0.05655672 -0.4722291 0.35991746 0.69790435 0.67031294 0.059599113 0.5623867 -0.031488687 -0.051607735 0.63432306
u71 -0.19932242 0.022915754 0.0046141064 0.60603994 -0.41178414 0.19819476 0.42468584 -0.7315131 0.34618512 0.8125865 0.48179054 -0.4271801 0.11861653 -0.26175347 -0.28427586 0.3789369 -0.24559209 0.47737035 0.16630694 0.6420339 -0.61931825 -0.037874058 -0.47877756 -0.7346125 0.49667054 -0.6649292 -0.07157806 0.67778283 0.17780495 0.23358022 -0.4677258 0.079718314 -0.50606287 -0.4552787 0.008096774 0.12911561 0.29208678 -0.5064368 0.04777248 -0.19895321 0.4770181 0.63244224 -0.6095216 0.6711006 -0.091227114 0.30063558 0.016699972 0.22600682 0.0063922564 -0.50310236 -0.2591912 0.31021953 0.078959994 0.16130084 -0.04859872 -0.4334662 0.3634213 0.768881 0.696581 0.0050229323 0.4240067 -0.0053292294 -0.037945308 0.38872716
u72 -0.038790394 -0.047890216 -0.04694631 0.6456658 -0.28168774 0.29872757 0.31882307 -0.64643365 0.45007172 0.98639214 0.6604465 -0.47089428 0.15119329 -0.3253176 -0.34744734 0.36108905 -0.22259407 0.80442125 0.05626346 0.75300634 -0.6755768 -0.07206764 -0.6477571 -0.78247017 0.19923778 -0.69414854 -0.021882 0.72009635 0.24549673 0.22813228 -0.39608434 -0.044630777 -0.50784886 -0.42432916 0.09640234 0.06699166 0.15171784 -0.36222926 0.08672487 -0.34282255 0.73467994 0.68434244 -0.52390623 0.58815473 -0.10287154 0.50818896 -0.049773496 0.11508011 0.040741663 -0.20673032 -0.12731564 0.46448264 0.02417966 0.1010168 0.042695828 -0.5451143 0.1773196 0.78403205 0.6289348 0.10680082 0.7080501 0.089837454 -0.11697058 0.4591968
u73 0.03908876 -0.011607723 -0.11703423 0.61893606 -0.2677153 0.2753226 0.12772399 -0.33278897 0.4142276 0.8325912 0.43356162 -0.4213846 0.18306719 -0.34430644 -0.11166389 0.33299673 -0.06753577 0.5924535 0.01171287 0.41488364 -0.6674106 -0.10099971 -0.39182305 -0.63771015 0.12212416 -0.65860116 -0.040836345 0.5741339 0.13562346 0.21136686 -0.38794363 -0.09106743 -0.53116566 -0.40198213 0.045372963 0.09873852 0.037752196 -0.13797016 0.07439339 -0.37682757 0.5182742 0.67597073 -0.35455143 0.57481986 -0.08551567 0.35973805 -0.057320625 0.089950256 0.022876859 -0.11314441 -0.12599547 0.43882918 0.029580923 0.20954162 0.016108666 -0.42103377 0.2935205 0.6542773 0.53651667 0.07819526 0.7001089 0.023635263 -0.09187546 0.26792833
u74 0.026679827 -0.0820686 -0.11857094 0.55881166 -0.3478915 0.28886425 0.10578269 -0.3335328 0.39245448 0.77493453 0.3751201 -0.47452822 0.15795398 -0.38397133 -0.10361538 0.29249328 -0.18136966 0.46439114 0.088376805 0.382339 -0.56498075 -0.108360365 -0.3161855 -0.6723219 0.0986697 -0.58040243 -0.10120954 0.5943113 0.07244743 0.2971035 -0.31608456 0.05118234 -0.5527222 -0.5324413 0.05558973 0.037841044 0.03396779 -0.22205551 0.18213202 -0.37902167 0.48899096 0.6834634 -0.2872925 0.6172595 -0.18786515 0.360889 -0.038057435 0.055147175 0.0667355 -0.06186554 -0.056164544 0.42402768 -0.004725808 0.42794615 0.075320296 -0.46193925 0.31474534 0.66378415 0.57913095 0.14429332 0.69771945 0.11947162 -0.0067129917 0.27527243
u75 0.0150483595 0.0021697525 -0.06268275 0.62613744 -0.2739422 0.2805423 0.27141958 -0.39266506 0.6064314 0.82816064 0.43716103 -0.38691482 0.11720109 -0.2771161 -0.1955898 0.29723418 -0.025245307 0.54735994 0.032291543 0.5714353 -0.58324707 -0.0274469 -0.4408568 -0.5624078 0.16153662 -0.57602394 -0.032465953 0.60936546 0.23053183 0.16788894 -0.27065578 -0.01626399 -0.4701696 -0.39319608 0.027276598 0.041895386 0.13451514 -0.17657483 0.098989844 -0.3929516 0.5408633 0.54943985 -0.36642343 0.6253638 -0.11096788 0.37943506 0.022576718 0.12090515 -0.048475035 -0.14416392 -0.08339408 0.46586955 0.012058736 0.17945631 -0.057394408 -0.4960354 0.24194533 0.68449205 0.5812655 -0.0108429175 0.80664176 -0.0046189465 0.040134575 0.28307104
u76 -0.07083153 0.023158226 -0.11135937 0.52697146 -0.36269018 0.26537076 0.19538312 -0.4370009 0.50932807 0.94452363 0.49222854 -0.5622785 0.14270037 -0.3734351 -0.22575782 0.4111794 -0.12989159 0.60778695 -0.002901482 0.6211246 -0.66433406 -0.005217891 -0.42343187 -0.7042856 0.18067312 -0.69130546 -0.036535904 0.66203135 0.18074012 0.11710895 -0.31205827 -0.019988492 -0.487307 -0.54183507 0.057956412 0.07758244 0.07976132 -0.30997404 0.068095796 -0.40629452 0.49300042 0.6326459 -0.48591924 0.58912617 -0.1411552 0.40001714 0.0024707762 0.053965967 0.11214507 -0.20100157 -0.055322092 0.4094762 0.027367739 0.321701 0.06484993 -0.43099052 0.284199 0.74510384 0.6314925 0.12883389 0.65097606 0.050820436 -0.059793912 0.26177233
u77 -0.1155045 0.05966632 -0.06524125 0.3751246 -0.4525544 0.24137922 0.22929467 -0.27329668 0.5489566 0.78531945 0.4243741 -0.6057152 0.18303823 -0.49796763 -0.21403952 0.36476266 0.022896696 0.47462422 -0.13461395 0.43347856 -0.60412306 0.04806452 -0.4256231 -0.703383 0.06233561 -0.7030452 -0.060851924 0.5497725 0.09317966 0.19069357 -0.23030451 -0.08181855 -0.5905914 -0.43610024 0.0073969136 8.915385e-05 0.10388124 -0.23338334 0.10178937 -0.46585965 0.34896296 0.52384925 -0.41654697 0.48641738 -0.14617816 0.35302994 0.006651254 -0.042971577 0.062889405 -0.087225474 0.048976876 0.50370854 0.018723955 0.32895786 -0.04043893 -0.45815152 0.2866817 0.64163625 0.48801625 0.20629804 0.73784757 0.17703182 -0.029918922 0.23180284
u78 -0.1244473 0.01692701 -0.09042101 0.30269706 -0.38194492 0.33273494 0.237581 -0.37311003 0.57337075 0.7336522 0.4978534 -0.6162099 0.18522672 -0.40368736 -0.20377173 0.41457352 -0.0063373153 0.51159173 -0.07282751 0.4415958 -0.50242215 -0.002224719 -0.38477266 -0.69002956 -0.042717304 -0.6230961 0.04362863 0.53494865 0.094566435 0.101796076 -0.18732536 -0.027387427 -0.5121486 -0.41016734 0.008446986 -0.05847208 0.12870803 -0.22580163 0.11284826 -0.61021286 0.4657649 0.3192467 -0.42556754 0.31730244 -0.13204038 0.53644145 -0.0052069537 -0.026364723 0.0833447 -0.03295846 0.08983233 0.6318886 -0.0589299 0.33537757 0.0079627605 -0.62316376 0.16278093 0.6867425 0.49782506 0.15717387 0.9149793 0.16444428 0.06283847 0.24177624
u79 -0.12346725 0.022907086 -0.086935766 0.2703663 -0.4346347 0.3195074 0.23621827 -0.31744415 0.6090847 0.64673436 0.38533765 -0.67426133 0.1884908 -0.5489713 -0.13613097 0.48446283 0.13923147 0.54375654 -0.07303056 0.41794524 -0.62176555 0.03479253 -0.42478016 -0.51868254 -0.07921038 -0.657007 -0.06600304 0.44455463 0.057584293 0.1881431 -0.18333408 0.014405958 -0.5075339 -0.490935 -0.0037341025 -0.100863285 0.06408219 -0.20621805 0.15399574 -0.61144185 0.3290981 0.3539802 -0.39251888 0.37300503 -0.15672435 0.4778213 -0.014124353 -0.121728964 0.12215115 0.03575801 0.12668516 0.72189677 -0.066952094 0.5094381 0.045451283 -0.5860896 0.24420919 0.5843702 0.4458645 0.1947861 0.8470477 0.20453128 0.016246969 0.25012428
u80 -0.10516037 -0.056224562 -0.1364773 0.2924835 -0.44457707 0.3564287 0.22096105 -0.35800073 0.5508191 0.62012243 0.36112103 -0.5660028 0.1547724 -0.40946075 -0.107430935 0.40173072 0.03413182 0.4205801 -0.16396505 0.27225623 -0.5165123 -0.070004195 -0.35497436 -0.50532186 -0.040840898 -0.52858853 -0.028366521 0.49285376 0.031871393 0.25084406 -0.20445204 0.09839148 -0.44851995 -0.37789395 0.032251388 -0.091443546 0.020450428 -0.2334167 0.1796295 -0.5749694 0.3327148 0.32395908 -0.32098576 0.4313335 -0.25954995 0.34349355 -0.111343026 -0.05285396 0.16153525 0.009749737 0.1521612 0.5883794 -0.06334531 0.4818408 0.009040576 -0.51897657 0.18329929 0.6471145 0.4509471 0.26118788 0.6775924 0.26972488 0.04132688 0.25845474
u81 -0.07234008 0.027586123 -0.04987426 0.37289312 -0.31226766 0.27059418 0.2535559 -0.287935 0.66802824 0.74503624 0.5843259 -0.64069116 0.14469363 -0.41110647 -0.030810317 0.34484816 0.11187298 0.47444862 0.04631193 0.30728388 -0.47913042 -0.06370697 -0.34336683 -0.5381933 0.02062095 -0.7157566 0.10460074 0.62351257 0.11784727 0.06252605 -0.2686701 -0.030886594 -0.3675262 -0.42092654 0.0059856595 0.04581147 0.025663655 -0.17841159 0.16200967 -0.46411163 0.32960615 0.26650378 -0.4214105 0.5390076 -0.18580788 0.23281525 0.112006746 -0.016415522 0.10996848 -0.06037371 0.05542934 0.5087537 0.06099439 0.45891994 -0.024905488 -0.42811078 0.2720786 0.7880239 0.61608696 0.0857126 0.65649074 0.025372585 0.06876015 0.17628102
u82 0.044732127 -0.06900434 -0.11490205 0.50163794 -0.35465124 0.25015002 0.16341792 -0.32374474 0.50266314 0.7731197 0.38173553 -0.43228394 0.17547043 -0.4289841 -0.13238372 0.37727103 -0.121088944 0.35896176 -0.098007865 0.37158793 -0.5584367 -0.015101342 -0.46786818 -0.6030262 -0.04012519 -0.66798955 -0.07056379 0.5415891 0.06515974 0.25228146 -0.17776057 0.028326742 -0.6525943 -0.42628822 0.039224744 -0.019428153 -0.013915205 -0.09250858 0.14462298 -0.55255234 0.59425807 0.42727405 -0.34970045 0.4497183 -0.21938688 0.5494841 -0.04008064 0.074122325 0.065054476 0.093600556 0.050051797 0.5081601 -0.0031226592 0.29422355 -0.05911212 -0.5911843 0.25035566 0.5959851 0.41695026 0.0846649 1.0103078 0.22048256 -0.023477882 0.18821308
u83 -0.09995441 0.01500606 -0.04175362 0.32061073 -0.62860376 0.18961298 0.19175057 -0.30215672 0.42372215 0.69082385 0.45679438 -0.39319178 0.079401836 -0.37074637 -0.25558105 0.19048929 -0.036235884 0.3659196 -0.019382212 0.40659428 -0.46182376 -0.051736828 -0.31427702 -0.5412747 0.070159405 -0.6170559 -0.04549385 0.5450547 0.22152595 0.2733423 -0.30295357 0.155127 -0.51762235 -0.6059702 -0.08269416 0.013078903 0.07299161 -0.31897107 0.094121926 -0.3699415 0.3809305 0.39918575 -0.3363197 0.46997303 -0.1432613 0.33055735 -0.045834925 0.001461239 0.07129875 -0.14186008 0.024897546 0.30004698 0.0537936 0.35662934 -0.06310642 -0.33079168 0.263534 0.5912434 0.6304115 0.13026828 0.6763426 0.08662149 0.0347339 0.25560036
u84 -0.11875062 -0.009983412 -0.12732564 0.36788893 -0.4628226 0.20586316 0.117528506 -0.3064123 0.480902 0.79230934 0.49008274 -0.46057287 0.13568303 -0.61476177 -0.21377814 0.21370491 0.10141601 0.46524197 0.006237846 0.31088564 -0.55895203 -0.07882855 -0.33883196 -0.63908416 0.049879618 -0.6420479 0.034564607 0.5804363 0.082324535 0.102002636 -0.22444478 -0.043888737 -0.5165897 -0.56800175 -0.011216084 0.0190534 0.049487345 -0.27649963 0.1356334 -0.40783006 0.41297024 0.45947286 -0.3818303 0.45441273 -0.087135196 0.3553162 0.038224377 0.06522066 0.05980214 -0.078218855 0.011416432 0.40512782 -0.004956721 0.39887804 0.008233471 -0.38487023 0.22167067 0.65734166 0.64191824 0.1517496 0.71893156 0.029417902 0.01762374 0.29200587
u85 -0.21562757 0.003195042 -0.06194901 0.3076074 -0.68149436 0.12538145 0.17339467 -0.22608851 0.43767402 0.6278755 0.39882153 -0.4684418 0.18232006 -0.57343173 -0.29551294 0.03957611 0.22551037 0.25564712 -0.042695373 0.41266522 -0.48569682 0.039149277 -0.4481092 -0.7137351 -0.044700652 -0.623063 -0.060526546 0.5090971 0.22500595 0.29457763 -0.16713394 0.116169766 -0.6143118 -0.6212166 -0.025268007 -0.0058834623 0.028381558 -0.34379518 0.17176834 -0.46124366 0.25544512 0.35165182 -0.3137483 0.42222604 -0.17532487 0.27902627 -0.0046870983 -0.017722422 0.077218264 -0.15071332 0.10990758 0.35920498 0.05792452 0.4969216 -0.016970271 -0.2645479 0.22782052 0.63198715 0.5073553 0.2393035 0.77500355 0.15422782 0.07575907 0.18169673
u86 -0.23830712 -0.00408894 -0.020817582 0.3701075 -0.5334006 0.17150164 0.2141396 -0.21925917 0.54729444 0.68511766 0.29466268 -0.28407392 0.06299534 -0.4207717 -0.77727497 0.16594581 0.20833702 0.30680758 -0.169404 0.5888119 -0.4410362 0.05478622 -0.5039507 -0.54771465 0.02614733 -0.57179916 -0.06754129 0.46543685 0.53439265 0.24221927 -0.2307766 0.16218996 -0.5366392 -0.50135756 -0.039379396 0.009929897 0.16137923 -0.22047679 0.049360592 -0.43454164 0.2745217 0.38711408 -0.30562127 0.35834986 -0.19043988 0.35591498 -0.039342374 0.008077654 0.0070230267 -0.16541155 -0.019983046 0.40364814 0.00873231 0.19556575 -0.12570244 -0.3987698 0.27025872 0.3916099 0.4909705 0.17933995 0.6537286 0.17392011 0.020472046 0.21062757
u87 -0.19901161 -0.004642744 -0.02663891 0.4102002 -0.53793806 0.22559017 0.39983755 -0.27911365 0.59479374 0.754589 0.3637214 -0.42986572 0.09611447 -0.39668363 -0.7728315 0.29987872 0.23676553 0.25067744 -0.22924607 0.6169058 -0.52321744 0.15560576 -0.45842737 -0.5025301 0.047171872 -0.55409807 -0.06086664 0.4007168 0.46482503 0.1719592 -0.16228384 0.2108366 -0.4611785 -0.5937274 -0.12422126 -0.029692614 0.2527297 -0.26158744 0.07465012 -0.5405817 0.38186508 0.41110286 -0.36787665 0.313458 -0.17193235 0.43764997 0.09555832 -0.06386308 0.031509712 -0.13099545 0.024046175 0.6177262 0.006398471 0.23949055 -0.16030285 -0.51463896 0.19722791 0.4859145 0.5486384 0.105923474 0.78420335 0.14214964 0.12360387 0.2379196
u88 -0.45248875 0.046821993 -0.0076632453 0.2456229 -0.60478795 0.24847344 0.4796994 -0.2586539 0.7615708 0.6749877 0.26274514 -0.62351453 0.09918945 -0.59539986 -0.8829458 0.39804325 0.41628832 0.45960578 -0.3131005 0.59630233 -0.57649314 0.09894398 -0.50880474 -0.51763994 0.03836624 -0.61899686 -0.06377229 0.44605106 0.5723306 0.12055357 -0.2523569 0.19540603 -0.4466898 -0.644132 -0.062222827 -0.101926096 0.1768872 -0.28547373 0.050696258 -0.64378685 0.104124725 0.2767271 -0.4670097 0.4248565 -0.15160857 0.32038397 -0.02056308 -0.24799019 0.10161808 -0.21546862 0.096818246 0.6388504 -0.031937294 0.3899038 0.015599857 -0.35767567 0.28169867 0.5984582 0.56816614 0.26498264 0.79294294 0.15130764 0.10939685 0.24730009
u89 -0.22388622 0.051864587 -0.014301695 0.18988466 -0.6381412 0.23445374 0.32811347 -0.256636 0.6533816 0.66130424 0.4166364 -0.56201756 0.08730862 -0.4812968 -0.71472067 0.40411636 0.464039 0.4275476 -0.27525097 0.5969978 -0.40525812 0.058208685 -0.42327324 -0.45437682 -0.001646451 -0.5923545 0.022070589 0.40045378 0.45856154 0.091040954 -0.25210673 0.12031022 -0.41078922 -0.5248175 -0.09923688 -0.026888555 0.12662815 -0.26391163 0.114587985 -0.53890795 0.2064931 0.24538335 -0.33508 0.37046066 -0.09141383 0.31082708 0.07813193 -0.11685998 0.011220688 -0.092911 0.07106618 0.58665466 0.009041197 0.31379494 -0.107774 -0.398165 0.16666867 0.6017408 0.50243586 0.09680431 0.6746795 0.12121494 0.13115765 0.24250145
u90 -0.37920967 0.00091543293 0.16636145 0.15988255 -0.7742952 0.32969794 0.51159805 -0.28329152 0.5723826 0.3811451 0.7053709 -0.6619754 0.14011818 -0.55275404 -0.4966455 0.31421775 0.5280816 -0.088671684 -0.27277756 0.5481176 -0.26611668 0.019121073 -0.6341641 -0.7229446 -0.0015615576 -0.48799133 0.07021227 0.37330687 0.6050146 0.25207198 -0.18178529 0.29836243 -0.6618393 -0.25312236 -0.061772883 -0.30830163 0.31740645 -0.48534307 0.15408897 -0.82280886 0.40924767 -0.029711764 -0.5828375 0.24471375 -0.39040643 0.36040232 -0.021106122 -0.28257665 0.21099626 -0.10056511 0.12071284 0.72262746 0.042747434 0.5171649 -0.07774164 -0.8267891 0.2771274 0.61510295 0.15321496 0.18084957 0.9625658 0.3721904 0.088852 0.22930755
u91 -0.38599154 0.013127227 0.124031484 0.24640535 -0.77155316 0.23999372 0.4551042 -0.165576 0.5805358 0.48771396 0.58103544 -0.5163047 0.120268874 -0.5044681 -0.637279 0.29749173 0.42791778 -0.13262978 -0.21206011 0.64128155 -0.30542153 0.05878021 -0.5874548 -0.84318554 -0.00534706 -0.60116863 0.049230557 0.37786576 0.647884 0.33862552 -0.117387384 0.30030695 -0.6863644 -0.25801647 -0.051107235 -0.2658333 0.24864309 -0.43645528 0.15996943 -0.6017482 0.52212167 -0.0018927208 -0.48460075 0.1825534 -0.3366751 0.34498492 -0.026820613 -0.25193444 0.17122713 -0.06319278 0.028681124 0.57238996 0.07417116 0.42806607 -0.098881885 -0.6829932 0.30381298 0.5807543 0.24277583 0.1564034 0.89832324 0.40014446 0.045949925 0.13235337
u92 -0.47838858 0.04869744 0.06918497 0.15931445 -0.72532064 0.28175825 0.44894776 -0.21094681 0.84270537 0.58172613 0.44013056 -0.67467284 0.13175078 -0.6092892 -0.8183237 0.36825722 0.66756326 0.26459646 -0.26631844 0.65842515 -0.4558478 0.13712682 -0.55662715 -0.6546067 -0.06468873 -0.55471224 -0.029349076 0.28309524 0.594089 0.23609048 -0.14826302 0.23552424 -0.53498465 -0.44623533 -0.080962166 -0.17113562 0.22132996 -0.30365536 0.09339002 -0.77306396 0.32335502 0.1478043 -0.45721966 0.349145 -0.2096715 0.3082023 0.08684037 -0.23552474 0.13487758 -0.08293214 0.1408189 0.7033399 0.070879966 0.4621146 -0.13102551 -0.58397216 0.28082025 0.6172185 0.3521918 0.1628863 0.9071665 0.30109513 0.14149237 0.21680129
u93 -0.20578471 0.036137242 -0.0077039204 0.23862013 -0.48772088 0.14493771 0.32738933 -0.10191438 0.5079457 0.5603252 0.4345018 -0.4837862 0.13247938 -0.63309747 -0.5861463 0.27941114 0.48513559 0.21322936 -0.2367851 0.48766285 -0.5307453 0.072975755 -0.4694052 -0.64620394 -0.115086004 -0.49348342 -0.049474098 0.33062136 0.36051798 0.09819913 -0.102806106 0.104339585 -0.6004697 -0.48471618 -0.09050328 -0.00097261544 0.22070128 -0.2399761 0.113937475 -0.5799784 0.4229374 0.36774367 -0.3621209 0.23845512 -0.1895165 0.46377409 0.016321126 -0.15825331 0.008945537 -0.025377685 0.091653995 0.6718137 -0.044595763 0.33299452 -0.120965295 -0.5665944 0.2244736 0.41179556 0.36101493 0.1581173 0.8623651 0.096886575 0.03047229 0.1787808
u94 -0.34712192 0.02143275 -0.054849494 0.21543217 -0.6889543 0.21953349 0.35013318 -0.19796573 0.68532664 0.59027123 0.39062554 -0.49032465 0.05618231 -0.53253067 -0.61342037 0.3096139 0.3618524 0.3863047 -0.2400714 0.68414986 -0.48166776 0.09578718 -0.51331687 -0.5508244 -0.08722113 -0.593321 -0.0102627445 0.44751897 0.504368 0.21251822 -0.1150816 0.1834949 -0.5859415 -0.4580211 -0.07830427 -0.063492484 0.16294865 -0.22862287 0.14248617 -0.5308995 0.28045988 0.16675374 -0.33683676 0.31351534 -0.23795402 0.41244358 0.056686614 -0.14506517 0.089700274 -0.061579254 0.09649148 0.5638587 -0.0055306912 0.38398188 -0.10038647 -0.56655777 0.28716522 0.61320865 0.50165075 0.18025808 0.7915829 0.26519173 0.09883871 0.18875964
u95 -0.22175735 -0.01915987 -0.005927023 0.31426764 -0.68344975 0.30904695 0.31360462 -0.12666959 0.6214928 0.53882474 0.45563257 -0.548137 0.14058681 -0.5013872 -0.63911915 0.31182772 0.4052662 0.2160719 -0.22319682 0.5769684 -0.40728652 0.11473551 -0.46322677 -0.5643177 -0.121975504 -0.5173505 -0.048785694 0.37277746 0.45699766 0.24864393 -0.13919592 0.21045573 -0.5637398 -0.55241394 -0.098850146 -0.16531037 0.17586347 -0.3581772 0.15742278 -0.6635435 0.38799044 0.25698906 -0.34230992 0.31019267 -0.28299397 0.40896833 0.07104393 -0.18600395 0.074898265 0.035056885 0.14017686 0.7231768 0.009015361 0.37269315 -0.15344784 -0.5639022 0.22349206 0.52382934 0.46413627 0.19125994 0.85167474 0.18544008 0.11516254 0.20781007
u96 -0.36507314 0.06562288 -0.03467458 0.22367187 -0.64230424 0.22354226 0.42154282 -0.18369108 0.6716781 0.5338482 0.3476317 -0.6586312 0.07649913 -0.6262595 -0.6946199 0.47620076 0.40893778 0.31343576 -0.19604997 0.68805325 -0.5300667 0.1075919 -0.44414198 -0.5504676 -0.05226637 -0.56831294 -0.0028434088 0.36370322 0.5147798 0.1210738 -0.107627995 0.21609716 -0.5020532 -0.59379417 -0.100096956 -0.1185011 0.23475236 -0.2852026 0.09100044 -0.6951204 0.33980122 0.25759098 -0.4270826 0.33414802 -0.134904 0.27348065 0.020474568 -0.21107411 0.042480066 -0.08955754 0.16687591 0.6701578 0.062438678 0.45240787 -0.09060684 -0.55846816 0.29492277 0.50490844 0.411232 0.1448043 0.70082706 0.10392712 0.1343416 0.1546722
u97 -0.15770863 0.05650985 -0.07643068 0.31424347 -0.5936534 0.049579337 0.18888356 -0.03460934 0.54922867 0.51545566 0.12241399 -0.27087647 0.12253337 -0.37279359 -0.43623465 0.23240843 0.34965736 0.039830394 -0.15001751 0.47406718 -0.39361772 0.17648453 -0.34522548 -0.5075868 -0.098303154 -0.56124294 -0.107372865 0.39709687 0.40480408 0.26213577 0.012483999 0.24908425 -0.64990604 -0.47978 -0.09709192 -0.13888413 0.035148095 -0.071410455 0.14359297 -0.39909792 0.3686706 0.2928586 -0.19780558 0.27750605 -0.2424268 0.30198097 -0.010913397 -0.08786765 0.09545582 0.0011647785 0.17532523 0.53209853 0.033153836 0.33053076 -0.17080855 -0.5448615 0.29009297 0.41100645 0.34593323 0.19012487 0.77575594 0.21959344 0.050313987 0.028490618
u98 -0.16541003 0.07287755 -0.10249528 0.36121294 -0.5812479 0.06919236 0.15708189 -0.020691928 0.5246931 0.55266404 0.29659986 -0.31052455 0.1649668 -0.5100294 -0.59627295 0.22508095 0.43062454 0.22173105 -0.06930739 0.5200626 -0.43632048 0.08939424 -0.406972 -0.5671292 0.0044885357 -0.6479678 -0.06737371 0.38909763 0.42578194 0.2493399 -0.144065 0.15124005 -0.5788246 -0.6095057 -0.14510508 0.014963941 0.065019794 -0.13087493 0.12554139 -0.46946844 0.3050935 0.35915115 -0.15874448 0.2936892 -0.18243076 0.2846502 0.030019922 -0.071328625 -0.012971936 -0.06436468 0.075416066 0.46240208 0.1523852 0.29177222 -0.14613786 -0.39154014 0.24121381 0.48422462 0.553051 0.070040755 0.6664661 0.08039096 0.10505981 0.09664216
u99 -0.061000224 0.020873182 -0.1416598 0.35386196 -0.4270692 0.041416224 0.109260686 -0.089833595 0.3796938 0.6582833 0.09946484 -0.280367 0.15278845 -0.41356766 -0.46214637 0.27234495 0.13405432 0.21961068 -0.13392133 0.55726016 -0.49303505 0.017955553 -0.4303077 -0.5982363 -0.016068978 -0.49131966 -0.15171032 0.37236106 0.31828138 0.15522124 -0.12324459 0.07099027 -0.5189326 -0.5086083 -0.060476106 0.044331547 0.03258736 -0.033237528 0.116827354 -0.33251655 0.25395495 0.45950478 -0.21653081 0.3943109 -0.15011631 0.2762537 0.018417396 0.0029795344 -0.038769685 -0.04896521 0.10222117 0.3186643 0.023817584 0.25236756 -0.14311622 -0.31371588 0.26206145 0.41756183 0.4481934 0.09083721 0.5727631 0.13204215 -0.0064237067 0.1057005
u100 -0.113396555 0.0077210027 -0.14291996 0.4524846 -0.5114233 0.05893092 0.122622766 -0.15963112 0.4970848 0.72267205 0.24915144 -0.33027232 0.14946088 -0.40879875 -0.6398375 0.23158737 0.13177821 0.26415163 -0.15721631 0.5678083 -0.62206054 0.072617225 -0.3840031 -0.5827455 -0.012264316 -0.58410007 -0.07902063 0.45185468 0.27433538 0.20337506 -0.16085155 0.1070255 -0.4558029 -0.5238411 -0.08151919 -0.036932375 0.05422773 -0.056163076 0.1283754 -0.37200075 0.3178373 0.3829329 -0.20067565 0.39235702 -0.22830671 0.29309812 -0.0028834038 -0.057023495 -0.048659522 -0.025100838 0.1167446 0.4463995 0.010700463 0.1972864 -0.14685509 -0.3358062 0.25342914 0.43737495 0.5677565 0.118389405 0.5739593 0.2532598 0.046738353 0.09847828
u101 -0.23312502 0.038942482 -0.066528976 0.27546364 -0.63121563 0.044637177 0.120951764 0.04659228 0.41259405 0.45936573 0.09122308 -0.28311875 0.11774361 -0.44570857 -0.52886695 0.23589885 0.37440768 0.06052875 -0.17409192 0.44249657 -0.4326936 0.014164098 -0.25994763 -0.47588667 -0.003872355 -0.51841867 -0.17763945 0.32845002 0.42393404 0.29146725 -0.099440925 0.15225568 -0.5819353 -0.5609718 -0.0815653 -0.050552767 0.07388522 -0.045612898 0.17050336 -0.41716644 0.11639154 0.38919926 -0.087786004 0.39779258 -0.224298 0.19412446 -0.056453675 -0.13826063 0.072092354 -0.014769288 0.111801565 0.38896126 -0.022388887 0.44994834 -0.071023926 -0.3289048 0.311896 0.33682355 0.44042218 0.13961263 0.6310885 0.18700293 0.041212168 -0.0021900164
