4546 16
u1 1.3375248 0.029655177 -0.8731597 1.5975631 -0.86019486 0.60376674 0.32077986 -1.6478583 -0.1238158 0.3804356 -0.19533817 -0.8009031 -0.815651 0.19991475 1.3631974 -0.20462611
i1 -0.5011642 -0.028642239 -0.17998159 -0.017302796 0.48900303 0.62725985 1.1446551 0.46390426 -2.0433724 0.17669769 0.77597654 -0.56903374 -0.2407537 0.006704672 0.985453 -0.3853094
i2 2.0029795 0.41342092 -1.606337 0.8881363 1.0184729 -0.7156001 2.513195 -0.08448712 0.598225 -0.23497342 -0.7266227 -2.1438568 -0.57903844 -0.35913613 0.081251614 -1.2909935
i3 1.9790351 0.49166632 -2.010619 1.3961303 1.0244454 -0.47561467 1.9350845 0.6457376 -0.47287402 -0.395788 -0.79125464 -2.2162704 -0.20456412 -0.5250557 -0.5111282 -1.7464999
i4 2.379272 0.4537173 -1.7293667 1.9756947 0.9455872 -0.6022633 2.723914 -1.0199262 0.7236598 -0.08373009 -0.6835503 -0.23951876 -1.0047113 -0.14475152 0.19225134 -0.038531486
i5 1.7287775 0.5750207 -1.7196033 1.2174271 0.9194008 -0.7618757 2.23833 -0.12599562 0.5888349 -0.19507489 -0.71001464 -1.5949599 -0.6341214 -0.309552 -0.11055054 -0.8524276
i6 -0.115021326 -0.05733166 -0.064014584 0.1924752 -0.45678163 0.23263355 0.5027501 -0.39637846 -0.39131093 -0.730179 0.6933908 -0.5231723 -1.0785164 0.07935697 0.01630104 -0.5212289
i7 0.86421293 0.45802492 0.32204098 0.37379074 0.18143672 0.00913664 0.94783515 -0.87248385 -0.46369192 -0.8067273 -0.018053245 0.009239348 -0.49233237 0.60142684 1.2844915 -1.0930382
i8 0.88560456 -0.0749415 -0.016743368 0.40172225 0.07618284 -0.14882678 1.0149791 -0.49146593 -0.6760831 -0.40828764 0.33110955 -0.077123255 -0.5792884 0.48520634 1.0297024 -0.6059272
i9 0.10100444 -0.10880624 0.014635859 0.45673192 -0.52070594 0.22462158 0.621995 -0.42785183 -0.7368823 -0.85197365 1.2398484 -0.64276963 -0.97463506 0.62379134 0.22504017 -0.6355447
i10 1.0660901 0.6811765 -1.2723619 1.3825693 0.7103909 -0.8423323 1.9072683 -0.183666 0.42281103 -0.13510631 -0.6930397 -0.9767607 -0.40045714 -0.21884532 0.13135764 -0.4652548
i11 -0.5057884 0.5199182 -0.19356903 0.48779327 0.911682 -0.4643255 -0.011245017 0.4636037 -0.070132 0.45087376 0.4712597 -1.2570958 -1.0600559 0.3926113 1.594891 -2.029127
i12 -0.11624126 0.53006834 -1.5886157 0.036975764 0.4371093 -0.69531476 1.221476 0.052905384 0.71752477 -0.31459785 1.2018731 -1.5729835 -1.2283502 0.3642148 1.8978604 0.09081178
i13 -0.19609064 1.3928308 -0.27514476 1.2563497 -0.9837616 -1.2291151 1.845883 -1.0665836 0.23635507 2.2423503 -0.6408929 0.48070937 -0.4568785 -0.25005096 1.7849745 0.009069265
i14 -0.22126448 1.2447655 -0.50361174 1.2406937 -0.45191917 -1.1481669 1.4135852 -0.63097966 0.17509201 1.2114774 -0.8283082 0.24415152 -0.32333067 -0.26372072 1.0395547 0.08016974
i15 -0.28322285 1.2092673 -0.48196894 1.3924944 -0.54449195 -1.155197 1.6349158 -0.79254675 0.14789534 1.3934007 -0.7889724 0.39787215 -0.36187682 -0.2747844 1.4980927 0.15868519
i16 -0.026579235 0.79317945 -0.18810374 0.96752095 -0.25587818 -0.5341239 0.79637665 -0.41576886 0.0039340504 0.7161727 -0.4051232 0.08067864 -0.14130926 -0.16673812 0.5304378 0.042808868
i17 -0.019678388 0.79228646 -1.2976626 0.78574413 0.36180195 -0.30826434 0.72099745 0.08614081 0.31124225 -0.24034214 -0.3050752 -0.7129013 -0.62666786 -0.0037459235 0.3654401 0.14727351
i18 -0.25248888 1.1686412 -0.33264765 1.2351239 -0.57409847 -1.0075445 1.1939007 -0.5990202 0.07293883 1.1837033 -0.66536385 0.26027432 -0.27918926 -0.20815933 0.9543713 0.09230925
i19 2.580788 0.553025 -1.5588841 2.1876163 0.8691969 -0.6553839 2.8883271 -1.3191292 0.7913739 -0.051787518 -0.6011713 -0.013597565 -1.2457554 -0.0023366408 0.7282814 -0.00614563
i20 -0.07906347 0.93873334 -0.12847148 1.0199718 -0.33947948 -0.6219207 0.8095594 -0.43753868 -0.0022200278 0.83718073 -0.52926654 0.26101372 -0.16970317 -0.1888456 0.68475056 -0.034002483
i21 -0.104741834 0.7508667 -0.32048184 0.8191778 -0.25449052 -0.49925026 0.7066556 -0.40120772 0.082949355 0.69808275 -0.3563906 0.031065071 -0.21642502 -0.12532881 0.65907407 0.124050155
u2 1.2062691 0.03334671 -0.9786027 1.4763685 -0.74298906 0.6184453 0.21461262 -1.325845 -0.0073194792 0.3695638 -0.17578322 -0.70501256 -0.41813818 0.14744402 1.1470557 -0.16535538
u3 1.1044235 0.13835548 -0.78781104 1.4829037 -0.7812487 0.5097958 0.26094022 -1.5004739 -0.12258628 0.32690066 -0.16122742 -0.6629526 -0.49584454 0.13670906 1.215965 -0.18166403
u4 1.3973504 0.24318194 -1.1446764 1.6329978 -0.99537987 0.65756875 0.12183823 -1.0824332 0.113304906 0.5136144 -0.038033582 -0.7154919 -0.57122934 0.13645063 1.3546697 -0.22201903
u5 1.0675589 0.31826487 -1.0451591 1.2890762 -0.72760165 0.5412694 -0.09044932 -0.62545407 0.17806254 0.45327756 0.040298183 -0.46172577 -0.2688209 0.017940266 1.0573831 -0.21107899
u6 0.98154175 0.28518397 -0.9220214 1.324496 -0.726032 0.39199433 -0.1411572 -0.7257885 0.13691194 0.56799275 0.008851812 -0.6277424 -0.31644443 0.09665742 1.1692853 -0.10767489
u7 1.0187706 0.21702518 -0.8009525 1.4562835 -0.74592817 0.3176826 -0.08936005 -0.8932946 0.046782285 0.51964015 -0.05349472 -0.5940892 -0.3431097 0.15768015 1.1190094 -0.089144826
i22 0.47889563 0.39727536 -0.7703286 0.6175087 0.24346104 -0.2795374 0.7329446 -0.13506843 0.26591596 -0.0455561 -0.16643906 -0.6928093 -0.23732406 -0.12891817 0.09683289 -0.16486973
u8 1.2986864 0.19765963 -1.1388515 1.5376488 -0.6195727 0.58424854 0.04965133 -0.9764343 0.016253011 0.58383226 -0.033486553 -0.66701615 -0.4451672 0.1124024 1.0895265 -0.35154167
u9 1.2068915 0.2510962 -0.9925052 1.2437003 -0.31972003 0.3551551 -0.13115038 -0.8069304 -0.0068121683 0.8073317 -0.05527588 -0.77111244 -0.34510052 0.12862422 0.984935 -0.44535035
u10 1.0788592 0.1792761 -1.1246154 1.1909463 -0.15014873 0.45609748 -0.23903301 -0.64051616 0.018500092 0.69952095 -0.1290416 -0.76282376 -0.2964106 0.11626397 0.89357936 -0.38280302
u11 1.1464412 0.19191298 -1.1137999 1.1225183 -0.26201525 0.4251679 -0.07694885 -0.74228585 -0.027027631 0.72473013 -0.059065897 -0.7711681 -0.3546538 0.10233525 0.9493001 -0.38139775
u12 0.88084924 0.24376337 -0.83911943 1.059604 -0.3187326 0.2739809 -0.21210034 -0.53458345 0.008260755 0.66032076 -0.07857225 -0.6105045 -0.24173637 0.060042575 0.69110477 -0.233155
u13 0.9939499 0.24423248 -0.89774084 1.0521281 -0.22702461 0.35087723 -0.17663144 -0.5305677 0.018093398 0.6330337 -0.12955979 -0.6898134 -0.25508204 0.04356422 0.7342353 -0.25317684
u14 0.84988445 0.18158992 -0.67511845 1.2989763 -0.4359604 0.24260496 -0.10554856 -0.68232447 -0.020851305 0.40644446 -0.08668802 -0.53423905 -0.30943978 0.1290241 0.90919644 -0.21726742
u15 0.9318242 0.2450405 -0.71311015 1.1778988 -0.41792932 0.32634503 -0.100330554 -0.8661853 0.07948973 0.43109548 -0.077076316 -0.6376306 -0.31997797 0.129259 0.9053623 -0.15288357
i23 -0.28295913 1.2746452 -0.42735237 1.3265781 -0.5971465 -1.1296902 1.4964662 -0.69213176 0.09425377 1.3462644 -0.7515402 0.3291217 -0.27296728 -0.28051752 1.2609743 0.10638694
u16 0.8303566 0.27885967 -0.69136757 0.97787774 -0.44689804 0.28012997 -0.15250735 -0.7603242 -0.01611378 0.4658456 -0.019898616 -0.674171 -0.25215927 0.14248872 0.8434994 -0.08493282
u17 1.0405368 0.17833154 -0.92243314 0.99014866 -0.1554163 0.3296191 -0.16796441 -0.79229 -0.09825266 0.7347763 -0.12374092 -0.8882994 -0.30424145 0.15402803 0.81319946 -0.32741758
u18 0.947642 0.13814402 -0.8192529 1.0266412 -0.27482003 0.41617838 -0.071640044 -0.7918217 -0.058935393 0.6579323 -0.1563124 -1.0005821 -0.67293334 0.11070455 0.7678201 -0.13189334
u19 0.80399114 0.13770811 -0.68363506 1.1602504 -0.33831814 0.20159599 -0.1029784 -0.85476124 -0.16108783 0.61999935 -0.18673481 -0.95555294 -0.7200166 0.25434667 0.83517313 -0.06245471
u20 0.97666454 0.1693937 -0.85445887 0.97201 -0.038992703 0.16959518 -0.1047851 -0.7852127 -0.40781134 1.1151743 -0.12865035 -1.3408067 -0.9824663 0.16503705 0.8344721 -0.33078825
u21 0.9074745 0.10839077 -0.8213369 0.825345 -0.08860137 0.32374826 -0.09160357 -0.7156981 -0.079552 0.80446064 -0.15786436 -1.1155196 -0.57476634 0.12924139 0.7130739 -0.20633143
u22 1.1205214 0.20205776 -1.3228995 1.1315849 0.2202136 0.42439577 -0.20510167 -0.70951617 -0.72746927 0.68389267 -0.24500768 -1.4370416 -0.75552475 0.02904854 0.5789889 -0.67949003
u23 1.1002842 0.20577113 -1.2103566 1.1395277 0.16143629 0.51619387 -0.19020185 -0.681771 -0.7224727 0.5890272 -0.2421 -1.4338305 -0.72534 -0.0308636 0.6238091 -0.59747636
u24 0.95588213 0.18738659 -1.0522114 0.9687954 -0.016223846 0.2672474 -0.15644428 -0.7501309 -0.3469275 0.7911914 -0.117506504 -1.1213274 -0.6938796 0.08278504 0.8105896 -0.46526536
u25 0.8478679 0.24854566 -0.85724425 0.78532815 -0.17086092 0.21230228 -0.12055699 -0.6409937 -0.28714338 0.7162605 -0.08977812 -1.0610034 -0.7303071 0.09098142 0.7161553 -0.31593972
u26 1.0265443 0.11268896 -1.0752547 0.9112121 -0.0063065304 0.30653545 -0.21355338 -0.6404931 -0.26570433 0.9432269 -0.11379375 -1.1459277 -0.64129955 0.14979894 0.7294073 -0.34280306
u27 1.0205978 0.13966756 -0.9435118 1.0345739 -0.14789777 0.38400933 -0.10914156 -0.80977184 -0.18476054 0.78414196 -0.17927189 -1.0315459 -0.7366054 0.1879273 0.64492565 -0.2789033
u28 1.0758392 0.114935845 -0.879579 1.1778246 -0.17839381 0.30016306 -0.11655902 -0.95696324 -0.24160483 0.96244043 -0.23597734 -1.1628277 -0.7274707 0.26573423 0.72418857 -0.24199602
u29 0.5696107 0.17710632 -0.57273674 0.73623234 -0.08105306 0.14940879 -0.11104875 -0.5287452 -0.19491819 0.58206165 -0.10658162 -0.74238545 -0.36705855 0.09965107 0.453795 -0.10588627
u30 0.7350981 0.10203853 -0.7264807 0.76587695 -0.13204354 0.25905347 -0.12616408 -0.5366541 -0.17116058 0.5322347 -0.17174976 -0.85603976 -0.59386665 0.15207475 0.5749843 -0.07865997
u31 0.4740158 0.17553683 -0.4125808 0.7378432 -0.33332998 0.11606622 -0.12872365 -0.57073057 -0.079427056 0.5647244 0.0021205973 -0.6998236 -0.564413 0.109161824 0.58472043 -0.064337954
u32 0.52193934 0.25130472 -0.53486186 0.97402835 -0.30747434 0.01546163 -0.19591007 -0.66464585 -0.12693429 0.62509286 -0.118918635 -0.7665382 -0.45024642 0.14290589 0.7463718 -0.05060588
u33 0.73495966 0.10048543 -0.567856 0.81742686 -0.21726985 0.26250917 -0.08165512 -0.66122746 -0.17161548 0.6013073 -0.08264321 -0.7213794 -0.49963647 0.1726328 0.50198257 -0.118843175
u34 0.3768942 0.40767723 -0.33415794 0.7370481 -0.4846682 0.06721864 -0.22234914 -0.46276733 0.0027248196 0.4151542 0.06560679 -0.62667793 -0.31450617 0.035432648 0.5363792 0.086876184
u35 0.2882357 0.32480806 -0.4008121 0.70015275 -0.3178489 0.14006846 -0.20895647 -0.4650478 -0.15684958 0.40773183 0.0048202607 -0.5790898 -0.28911492 0.067731336 0.6520504 0.01719993
u36 0.33728048 0.30302373 -0.3424276 0.71191037 -0.4847086 -0.022939894 -0.17689225 -0.51179737 -0.09643215 0.46839374 0.018566225 -0.7591299 -0.46096304 0.0893349 0.632154 0.12471871
u37 0.31212223 0.30665597 -0.35754177 0.7210451 -0.58928704 0.13062479 -0.10520498 -0.52688533 -0.037581377 0.40707463 0.02282487 -0.5683035 -0.4165165 0.025759365 0.6466026 0.108269915
u38 0.55936337 0.84570473 -1.1465995 0.9847229 -0.6852023 0.5227065 -0.27107254 -0.5595509 0.15109481 0.53911626 0.5504838 -1.0917616 -0.94895667 -0.1482666 1.061388 0.104674935
u39 0.5441204 0.84506166 -1.1727514 0.94035035 -0.6231597 0.45344505 -0.24698804 -0.5902682 0.16598141 0.6172058 0.5210386 -1.1177828 -0.9372843 -0.15822218 1.0616541 0.068766765
u40 0.5327489 0.8641544 -1.1944302 0.9836148 -0.64368373 0.55199856 -0.24742588 -0.5605162 0.1902549 0.47592548 0.54668915 -1.0443494 -0.887194 -0.16227807 1.170815 0.02718388
u41 0.27458963 1.1466727 -0.5112952 1.262595 -0.9167912 0.1515449 -0.21229962 -0.6085673 0.032073397 0.6791419 0.45544645 -1.034583 -0.86820155 -0.13423355 1.1560786 0.14896834
i24 -0.09694028 0.74550533 -0.08195547 0.82127607 -0.5999722 -0.33098418 0.5221782 -0.47026923 -0.11202565 1.0334351 -0.27740565 0.19003758 -0.021065835 -0.15424265 0.6503447 0.057302244
u42 0.32890114 1.1242486 -0.8648345 1.0540601 -0.7311176 0.30778664 -0.19522794 -0.5812852 0.16195197 0.61386377 0.6822236 -1.0941205 -0.9543481 -0.16537909 1.1181792 0.058226112
u43 0.28669485 1.3376458 -0.75344145 1.0357505 -0.9287703 0.35375652 -0.23853256 -0.44845772 0.14281212 0.7451959 0.9014012 -1.107402 -0.9696737 -0.18410519 1.1676702 0.11095112
i25 -0.008533021 0.5198526 -0.17751332 0.44031364 -0.27370432 -0.070336446 0.3291962 -0.25789022 -0.10199906 0.5294869 -0.039609667 -0.09684316 -0.10956601 -0.19547491 0.28018168 -0.07648468
i26 0.006189262 0.5166119 -0.27934742 0.49447227 -0.3621639 -0.095419 0.1849106 -0.19845706 0.028887492 0.53862864 0.026632736 -0.11668028 -0.22983548 -0.16478874 0.45235342 0.0075595374
u44 0.44661853 0.9649627 -0.8306711 1.1059321 -0.7515495 0.31896976 -0.21306585 -0.57997936 0.096272774 0.55120283 0.49262404 -1.1549096 -0.89684784 -0.13792972 1.1189563 0.15050197
u45 0.2550155 1.3276789 -0.5922204 1.0418886 -0.91146916 0.13641404 -0.2748265 -0.6030382 0.025870021 0.6904091 0.54937094 -1.1303691 -0.8607383 -0.13080694 1.1874044 0.13589941
i27 0.14890765 0.4016275 -0.2068378 0.4082399 -0.3574048 -0.044169538 0.2622384 -0.19310836 -0.051262766 0.40531284 0.07009361 -0.13575196 -0.19109416 -0.104674175 0.42506987 -0.023473091
u46 0.1926874 1.5749447 -0.4883751 1.173814 -1.0424958 0.17956655 -0.21056347 -0.53726053 -0.024316357 0.7949043 0.7755671 -1.1052972 -0.9582223 -0.16943975 1.2800846 0.18557031
u47 0.27525872 1.4652361 -0.8548288 0.9525544 -1.0129523 0.32031053 -0.2424795 -0.5633427 0.14221305 0.6082174 0.89901763 -1.0451852 -0.8462672 -0.2301424 1.186704 0.121874236
i28 0.012279713 0.54338765 -0.14477536 0.5752742 -0.45245555 -0.19627883 0.397205 -0.35243016 -0.18742205 0.79253083 -0.13812767 0.06766675 -0.1110706 -0.1925751 0.47232014 -0.095447965
i29 -0.12534118 0.7272742 -0.12098903 0.7898787 -0.57044154 -0.34294704 0.5891694 -0.4019689 -0.053523827 1.01384 -0.2804113 0.13911502 -0.072917305 -0.13079198 0.6523791 0.042038843
u48 0.1990322 0.8112126 -0.52717006 0.9842463 -0.72714144 0.11794472 -0.19384217 -0.5119343 0.0759502 0.67196333 0.40399078 -0.9473351 -0.6698568 -0.004979204 0.95730454 0.17917323
i30 -0.12642887 0.93232346 -0.009506618 1.0485717 -0.8362866 -0.43873814 0.71731365 -0.5194044 -0.14795871 1.2714666 -0.39071614 0.21035767 -0.05977518 -0.21446712 0.77692163 0.042626224
u49 0.1351195 1.1406813 -0.5098909 1.0054375 -0.8647493 0.07072319 -0.30720136 -0.43392146 0.061671972 0.62378746 0.51083547 -0.8291519 -0.5666968 -0.07165988 1.0156448 0.22804871
i31 0.05773094 0.64146423 -0.054109395 0.83242494 -0.5961464 -0.23577866 0.46335924 -0.3832194 -0.10682317 0.93397903 -0.2055748 0.07785329 0.006651921 -0.20477535 0.47847196 -0.03421615
i32 0.045161188 0.57066065 -0.09767308 0.60826325 -0.482579 -0.23437922 0.3577725 -0.36238703 -0.08302049 0.71260136 -0.16354737 -0.015655817 -0.11299532 -0.23052317 0.45441723 -0.017831014
u50 0.19272989 0.49856642 -0.18854856 0.8197688 -0.5218966 -0.1011947 -0.22906928 -0.46862626 -0.30992824 0.55679685 0.13677864 -0.5253294 -0.35994837 0.03624677 0.7086319 0.102174625
u51 0.27390954 0.35823202 -0.22605512 0.6947634 -0.300023 -0.04201641 -0.16200791 -0.54785794 -0.28837565 0.42622727 0.041641526 -0.37410185 -0.09544906 0.02823433 0.57255375 -0.07021624
u52 0.103886075 0.7623686 -0.20945904 0.8497432 -0.72168094 -0.0786394 -0.19126049 -0.44781014 -0.17312084 0.6197891 0.14511639 -0.4717315 -0.2246473 0.091052435 0.7175721 0.12706047
i33 0.09461403 0.3279251 -0.12704766 0.3698946 -0.3421236 -0.012797907 0.10164381 -0.25353646 -0.1131889 0.2866886 0.0019728143 -0.03659576 -0.08936272 -0.07382713 0.2211128 -0.042292375
u53 0.13298903 0.7164727 -0.24165784 0.88529235 -0.8058024 -0.084178455 -0.10210363 -0.49980336 -0.4284447 0.90919745 0.17907965 -0.6007115 -0.3317576 -0.022238094 0.73684704 0.13639206
u54 0.039600156 0.88709617 -0.16987666 0.8506742 -0.7550207 -0.08924439 -0.09469051 -0.575376 -0.49568993 0.752349 0.29385597 -0.553314 -0.3018627 -0.052660193 0.65184456 0.10673493
u55 0.13729106 0.77970254 -0.13065396 1.026594 -0.81053144 -0.1099818 -0.115027085 -0.72002447 -0.42831513 0.80402195 0.14761797 -0.6762503 -0.34268996 0.06517454 0.81986165 0.21304284
i34 0.09841292 0.35490993 -0.09466887 0.47190386 -0.43969506 0.06415401 0.22857952 -0.28112358 -0.13051553 0.46468762 0.05078576 -0.0698401 -0.15890595 -0.19930018 0.2805456 -0.09089196
u56 0.039940953 1.0613945 -0.13067834 0.9943283 -0.7909345 -0.12582757 -0.097429365 -0.6491986 -0.6164228 0.90924245 0.36598223 -0.71744895 -0.49306497 -0.0023582876 0.8592442 0.14832209
u57 0.025451133 0.98998624 -0.080118775 1.1798968 -1.058305 -0.09317035 -0.20210826 -0.7488466 -0.51894903 0.9511743 0.27250007 -0.7118563 -0.2953737 -0.058138948 0.91642284 0.21071064
i35 0.110212736 0.41604808 -0.054441873 0.44579363 -0.50669074 0.036837135 0.19548997 -0.25907117 -0.24165685 0.5570647 0.01802458 -0.04774477 -0.053931326 -0.10962753 0.3688002 -0.062165927
u58 0.0025958533 0.9533899 -0.14053835 0.9849241 -0.8866102 -0.03690485 -0.18673794 -0.6022226 -0.57911885 0.8362237 0.23371038 -0.8186944 -0.41129524 -0.05761825 0.7852137 0.13475952
u59 0.105874635 0.96510094 -0.2044911 1.006708 -0.7943672 -0.09946271 -0.10519416 -0.5176617 -0.5461024 0.84829843 0.42996362 -0.57722515 -0.47547317 -0.045553513 0.84741914 0.008261784
u60 0.10938768 1.0205395 -0.108354 1.0915327 -0.88294256 -0.08720828 -0.18648797 -0.5881333 -0.4056198 0.9107785 0.27904457 -0.5021571 -0.21157412 0.023484634 0.84847224 0.12102079
u61 0.15583445 0.96906143 -0.05908522 1.0395138 -0.8977638 -0.19548121 -0.15134622 -0.69193685 -0.5141848 0.66603535 0.25635815 -0.50398713 -0.24460407 0.04359118 0.8303055 0.14334385
u62 0.1187175 0.87260246 -0.1942952 1.1385828 -0.95266515 -0.061261337 -0.1424446 -0.8119644 -0.6187416 0.6765526 0.27149957 -0.6471579 -0.4502776 -0.036935464 1.0231181 0.10630463
u63 0.16687237 0.84330463 -0.13201685 1.0427307 -0.91995966 -0.10888753 -0.17769693 -0.6970937 -0.49436045 0.6934397 0.184546 -0.58294326 -0.3266326 0.07971779 0.9710526 0.12503314
u64 0.13754605 0.9209127 -0.10524739 1.1017352 -0.82387906 -0.106284805 -0.17677118 -0.7778719 -0.4591074 0.6357306 0.15822944 -0.5476671 -0.21698625 0.0048334245 0.8580961 0.14522791
u65 0.14741547 1.2419646 -0.055678148 1.3627534 -1.0267446 -0.15919416 -0.079618074 -0.8851673 -0.9030124 1.050961 0.3185237 -0.84872895 -0.40333128 -0.09424552 1.0707045 0.13246351
u66 0.1973504 1.6113598 -0.06899174 1.5474013 -1.3573093 -0.10561743 -0.05321442 -1.1778775 -1.2631421 1.2475191 0.51097906 -0.9109027 -0.5510166 -0.19845887 1.3240653 0.09081349
u67 0.25799346 1.4562558 -0.13968663 1.515743 -1.237522 -0.05766684 -0.0272726 -1.1118634 -1.1616559 1.1871275 0.34383658 -0.80667347 -0.5277862 -0.21718504 1.2558645 0.011742964
u68 0.24964857 0.9814146 -0.117014244 1.322157 -0.8070517 -0.09717457 -0.25303614 -0.92188996 -0.6715342 0.95085484 0.21575873 -0.65926766 -0.23210289 0.057137765 0.98774976 0.15605496
i36 -0.03436498 -0.008621311 0.01976762 -0.0018259474 0.034946516 0.019648349 0.0009746254 0.015317945 -0.012010324 -0.028175652 0.034840114 -0.020700278 -0.0009729827 0.020337999 0.019990437 -0.002422744
u69 1.3258727 0.08954169 -0.8526333 1.4194874 -0.84689784 0.7283358 0.28552604 -1.508247 -0.091302596 0.36746794 -0.13534573 -0.7150493 -0.6662976 0.16090854 1.1798102 -0.18483743
u70 1.104447 0.112551905 -0.7149005 1.5712237 -0.87031 0.46500975 0.23806669 -1.5920354 -0.11489096 0.23270792 -0.14040014 -0.5952949 -0.46646976 0.14252003 1.2094405 -0.14631692
u71 1.3000902 0.05730474 -0.9359754 1.4835775 -0.7522296 0.5578156 0.16487935 -1.4319596 -0.18318075 0.48224843 -0.21912338 -0.7282022 -0.4769945 0.2133708 1.0517423 -0.23190093
u72 1.2737377 0.1903808 -1.1390947 1.6330667 -0.9771832 0.7372121 0.07546909 -1.0904567 0.14205784 0.4389091 -0.021250239 -0.67012566 -0.58302903 0.1344847 1.4116338 -0.12795804
u73 0.99616355 0.29631513 -0.9630896 1.4598727 -0.9693154 0.51093006 -0.059610665 -0.7045585 0.19605438 0.38591045 0.03546104 -0.539823 -0.2539668 0.06678789 1.1105759 -0.17458078
u74 1.0049263 0.33563635 -1.0155857 1.3758307 -0.77485895 0.47505322 -0.08698546 -0.80238163 0.162217 0.42802727 0.015966788 -0.54963297 -0.3294323 0.034335397 1.1221149 -0.13822196
u75 0.9900476 0.21261317 -0.8574118 1.3335674 -0.7758043 0.43313435 -0.090431616 -0.7625821 0.08757438 0.5086838 -0.039483897 -0.58616734 -0.38760734 0.18140832 1.0289354 -0.10213007
u76 1.2895409 0.20165189 -0.97491896 1.4766611 -0.5504606 0.46051517 0.06870463 -0.9982173 -0.0049142637 0.6685132 -0.1026316 -0.6690371 -0.4785128 0.07170741 1.2164184 -0.29801753
u77 1.1438733 0.1625629 -0.9857047 1.3414447 -0.385995 0.45588645 -0.06464805 -0.87090206 0.0014854479 0.6534312 -0.12708461 -0.74346286 -0.314406 0.1711694 1.0152243 -0.33076334
u78 1.2170781 0.14350808 -1.17609 1.2159827 -0.28562492 0.5061592 -0.13873085 -0.73950624 0.025947668 0.6024449 -0.16133209 -0.6949415 -0.29868957 0.12861457 0.9690758 -0.4148504
u79 1.1374182 0.19868967 -1.0630028 1.2076756 -0.3075044 0.40467685 -0.12832956 -0.81572944 -0.033205442 0.79309255 -0.0837993 -0.7226844 -0.34182486 0.12610206 1.0635664 -0.35022956
u80 0.78843105 0.23870052 -0.8904958 1.0754957 -0.2633905 0.287967 -0.16512345 -0.5111154 -0.02159023 0.59953934 -0.0452688 -0.61231756 -0.2301127 0.10035649 0.8140059 -0.24863133
u81 1.0240023 0.1802964 -0.8559827 1.1546214 -0.3626729 0.4413615 -0.11572778 -0.57517636 0.10684117 0.5501253 -0.029414812 -0.61816317 -0.15702449 0.11028107 0.74134916 -0.2578947
u82 1.0427357 0.1882512 -0.9789879 1.2035315 -0.4132029 0.45013055 -0.06681449 -0.65201116 0.101588875 0.5541272 -0.046743967 -0.569065 -0.25417194 0.12862366 0.8722134 -0.3041187
u83 0.85822237 0.22371152 -0.8648978 0.9837701 -0.35442817 0.3609585 -0.17699885 -0.7115276 0.003764364 0.4846189 -0.014916225 -0.7005471 -0.38262415 0.115126565 0.7714079 -0.1022111
u84 0.8440486 0.20008078 -0.63762736 1.0661156 -0.3907899 0.21609966 -0.1385521 -0.7947895 0.01903961 0.5058704 -0.10215191 -0.7118886 -0.28874913 0.12546164 0.8240534 -0.056587085
u85 1.0376363 0.17038211 -0.8485385 0.9439463 -0.16084641 0.28799996 -0.2297279 -0.8733706 -0.23681693 0.7041891 -0.13724983 -0.834025 -0.32664266 0.13224064 0.9036715 -0.3388178
u86 1.0602598 0.08607029 -0.94312817 1.0047183 -0.20091552 0.47456482 -0.13933198 -0.7966067 -0.040235333 0.53248346 -0.13732718 -0.94071275 -0.6603093 0.19653378 0.83920425 -0.18801703
u87 0.787971 0.13994063 -0.77673 0.9457108 -0.3193569 0.26913843 -0.06861077 -0.8439663 -0.1778312 0.6151696 -0.11283919 -0.90774024 -0.7213464 0.163203 0.77359706 -0.1488967
u88 0.99969333 0.1384006 -0.9776929 0.942803 -0.061449584 0.32423034 -0.07922596 -0.8687893 -0.31951863 0.98762184 -0.09415723 -1.1677625 -0.86578894 0.020128014 0.85935456 -0.50501996
u89 0.8026537 0.19710658 -0.82392126 0.74069655 -0.08759864 0.2573909 -0.13074335 -0.6328032 -0.1742455 0.8575377 -0.048107967 -1.0258025 -0.65311337 0.1475498 0.7111758 -0.28490797
u90 1.0269376 0.1268732 -1.0629741 1.190427 0.17747173 0.4426998 -0.17182072 -0.79972166 -0.61206466 0.4603035 -0.26734313 -1.2518917 -0.6588825 -0.013851011 0.6007538 -0.625434
u91 1.0263332 0.1833586 -1.2434832 1.1378636 0.18110016 0.48593083 -0.19591384 -0.7718932 -0.71583736 0.500219 -0.23240483 -1.358228 -0.7772824 -0.0514828 0.5383706 -0.6667692
u92 1.0200458 0.1849301 -1.0282888 1.0060561 -0.022921832 0.32598794 -0.18011917 -0.81527007 -0.44650152 0.81166226 -0.18052973 -1.2466109 -0.62491053 0.08105332 0.7272278 -0.50453264
u93 1.004325 0.09395852 -0.8168053 0.9936357 -0.04659268 0.21906617 -0.13784786 -0.8813226 -0.33911875 0.81552297 -0.20655887 -1.0802613 -0.65136546 0.18812673 0.6788343 -0.27735025
u94 0.88301617 0.15176189 -0.8132575 0.9421509 -0.008511119 0.19044827 -0.18321948 -0.68973607 -0.31369838 0.8571736 -0.121484846 -1.2033027 -0.7387352 0.10715665 0.63695025 -0.23630592
u95 0.8473903 0.093780495 -0.80387056 0.9947561 -0.09035902 0.3250339 -0.11901652 -0.71321523 -0.27155992 0.6221059 -0.15311436 -0.9745734 -0.6353884 0.15559548 0.57361466 -0.26650637
u96 0.8461034 0.21145351 -0.7728128 1.093218 -0.12092395 0.109762445 -0.16046193 -0.7424107 -0.42422834 0.86043483 -0.09616666 -1.1635728 -0.8991263 0.23631726 0.6052719 -0.29157022
u97 0.617598 0.2352357 -0.5961107 0.9076975 -0.16343744 0.113659166 -0.18566985 -0.64966863 -0.25054562 0.5957319 -0.15133438 -0.8309898 -0.6082769 0.10973063 0.6091514 -0.16793703
u98 0.5622776 0.2055395 -0.623123 0.8799841 -0.23625927 0.2020196 -0.17366387 -0.6139194 -0.10058958 0.5695071 -0.09627857 -0.8413809 -0.49172178 0.09385314 0.59872466 -0.118079536
u99 0.7323663 0.12174385 -0.567371 0.83338666 -0.19602342 0.17926165 -0.14984514 -0.71909076 -0.10643165 0.5715343 -0.16493966 -0.8256073 -0.53322303 0.1420402 0.65770555 -0.017214974
u100 0.5588511 0.20330033 -0.71324086 0.7537839 -0.25331503 0.19413765 -0.15439577 -0.5042314 -0.054871805 0.6309765 0.007304759 -0.83156717 -0.47544104 0.11894989 0.6033142 -0.10071738
u101 0.5207957 0.21930526 -0.5037945 0.7704166 -0.306954 0.06777841 -0.11421109 -0.56732583 -0.12195429 0.67170876 -0.031756304 -0.7870145 -0.6495329 0.09109216 0.5387013 -0.015695045
u102 0.32316267 0.29768676 -0.3179779 0.6705727 -0.3990748 0.11193302 -0.14871365 -0.45845795 -0.021904344 0.37322092 0.014513207 -0.51565135 -0.26991704 0.0037042804 0.59255254 0.050388247
u103 0.48307446 0.24629933 -0.34238246 0.7575208 -0.49451724 0.08164382 -0.1845968 -0.5215965 -0.109005086 0.47369024 -0.014965902 -0.7788484 -0.53840804 0.17359358 0.64918745 0.061818384
u104 0.29423785 0.3043022 -0.34085846 0.7823457 -0.5416291 0.065509744 -0.24037947 -0.52263576 -0.080837645 0.37869433 0.030290369 -0.6672127 -0.36579287 0.1294313 0.63741434 0.07019731
u105 0.27755913 0.29832047 -0.3544032 0.68386406 -0.4487176 0.15816805 -0.11671037 -0.50859594 0.032173216 0.4590014 0.05369464 -0.47681835 -0.2616758 0.051912244 0.5573557 0.018050168
u106 0.5567332 0.87576425 -1.1512479 0.87305856 -0.72972894 0.4613714 -0.287946 -0.5230179 0.11961397 0.58342254 0.5087594 -1.1347922 -1.0028921 -0.11702562 1.1661355 0.09547854
u107 0.48125213 0.9501049 -1.0958588 0.94690555 -0.76327085 0.3726091 -0.29680356 -0.5474299 0.18766361 0.61855316 0.5548071 -1.1416355 -0.929028 -0.09839634 1.11796 0.13536549
u108 0.41912585 1.0788234 -1.1241248 0.94356376 -0.6666167 0.44718146 -0.1858398 -0.50214905 0.15436238 0.50705546 0.6557517 -1.1403807 -0.9529092 -0.1559649 1.1138488 0.08296229
u109 0.27361846 1.1933954 -0.547171 1.1456199 -1.0352339 0.18933512 -0.18990205 -0.6197301 0.05687708 0.6890104 0.5503902 -1.1972355 -0.9510328 -0.1018174 1.1966571 0.18520853
u110 0.33487675 1.2639632 -0.85163045 1.0509509 -0.90108687 0.34105733 -0.2579057 -0.48550734 0.16496155 0.62993705 0.78051835 -1.0634965 -0.8346309 -0.13904351 1.136148 0.13365448
u111 0.2917257 1.338002 -0.85347146 1.0170884 -1.0139091 0.29327637 -0.21417588 -0.54365975 0.17869313 0.5417024 0.76994544 -1.0775666 -0.7735961 -0.19414267 1.1859397 0.20721145
u112 0.25942317 1.4560592 -0.7197536 1.022397 -0.9471611 0.29421708 -0.23546508 -0.44046465 0.1604926 0.7356236 0.9044658 -1.0869244 -0.8498662 -0.17216426 1.127989 0.10164023
u113 0.18741715 1.5615588 -0.52042645 1.1649375 -1.0480942 0.18256284 -0.18847826 -0.54174846 0.024942202 0.7237893 0.86689484 -0.9867963 -0.5788093 -0.23004949 1.2184484 0.14457217
u114 0.22880478 1.3871 -0.59699756 1.0126191 -0.9990117 0.21685682 -0.21246031 -0.62147486 0.08522047 0.69107825 0.7908429 -1.1009792 -0.8735435 -0.17172424 1.1958026 0.16876012
u115 0.26074627 1.4950702 -0.7161202 0.9305873 -0.9145481 0.21152452 -0.21209313 -0.60815275 0.083434805 0.6337317 0.79095644 -1.108005 -0.90463346 -0.16260763 1.1673962 0.15798174
u116 0.3065855 0.8604167 -0.55004156 0.82624614 -0.7576163 0.15239134 -0.20858711 -0.4620754 0.056924544 0.55662185 0.37763774 -0.84977484 -0.67472786 -0.035768766 0.9427689 0.12207667
u117 0.1512813 0.9612203 -0.4661272 0.9051097 -0.8199624 0.1434962 -0.1810586 -0.41218632 0.07257916 0.54981524 0.45324937 -0.864092 -0.60525936 -0.06849496 0.9827961 0.09302018
u118 0.15411204 0.58469087 -0.11397458 0.6308189 -0.56027365 -0.016675474 0.007559372 -0.42733285 -0.41634744 0.6436943 0.11635393 -0.58049625 -0.41326463 0.021424156 0.43431863 0.17130788
u119 0.08494461 0.6792645 -0.14601475 0.7362226 -0.6678728 -0.011693636 -0.17307061 -0.44681013 -0.33982238 0.5989391 0.13682379 -0.4332412 -0.12061969 -0.022502834 0.6298399 0.103367135
u120 0.1787549 0.8084217 -0.19139427 0.9158754 -0.7711004 -0.101279594 -0.25974262 -0.46078885 -0.2643573 0.6792441 0.1973763 -0.5307724 -0.24023198 0.07228792 0.7286974 0.17333925
u121 0.082993776 0.72073627 -0.108724415 1.0482023 -0.73429483 -0.103528544 -0.21988839 -0.59803784 -0.37934625 0.75540376 0.10387474 -0.66954404 -0.38866746 0.09705256 0.98641884 0.15878882
u122 0.06074446 0.8663822 -0.16033663 1.0514969 -0.738209 -0.12325551 -0.15901957 -0.5467383 -0.56512505 0.96172786 0.2990538 -0.6622043 -0.3970095 0.008946474 0.93781495 0.10885325
u123 0.17748165 0.7298928 -0.15837376 1.0246923 -0.6725131 -0.10181888 -0.13157499 -0.60366356 -0.59865975 0.70840687 0.24442837 -0.62832063 -0.38113078 -0.0059491815 0.6939982 0.08356282
u124 0.06616916 1.0195276 -0.06354025 1.0316467 -0.9333903 -0.10914192 -0.15492386 -0.74364525 -0.61090475 0.94439226 0.22916225 -0.63273317 -0.43047464 0.044480145 0.8329396 0.21694516
u125 0.12994146 0.72421354 -0.13300097 1.0637981 -0.8356023 -0.10474202 -0.10473455 -0.66394895 -0.61734384 0.89222187 0.17359938 -0.64639443 -0.45685232 -0.05416922 0.9359489 0.101346925
u126 0.18615198 0.7595179 -0.19799004 0.97753847 -0.73914033 -0.025860919 -0.064185776 -0.66559345 -0.519213 0.78157103 0.17183211 -0.6241488 -0.5402093 -0.008068697 0.7626901 0.047612265
u127 0.14838882 0.68046373 -0.20738009 1.1548241 -0.69751537 -0.08992086 -0.09793246 -0.7208222 -0.45035586 0.7844768 0.18811545 -0.5941938 -0.3017436 -0.006337029 0.72283983 0.13315786
u128 0.058709286 1.0809526 -0.098215185 1.0650461 -0.9326275 -0.15031725 -0.1304304 -0.59913456 -0.5508305 0.862066 0.39809614 -0.5950702 -0.31458643 -0.033453792 0.7035692 0.080372185
u129 0.15944597 0.81292516 -0.16848095 1.1059734 -0.85294265 -0.077642836 -0.1624789 -0.49555528 -0.5071866 0.8088484 0.19426748 -0.52953243 -0.38223383 0.022258947 0.8535136 0.15406333
u130 0.15838747 1.0351472 -0.20094538 1.14402 -0.85238034 -0.105848275 -0.118406944 -0.78671473 -0.6891499 0.8665669 0.20420596 -0.7565653 -0.36796328 -0.024466343 0.9182893 0.09203782
u131 0.13400824 0.83376795 -0.16118197 1.0522523 -0.81033295 -0.15182301 -0.17902787 -0.6779612 -0.5848064 0.8818189 0.21173936 -0.7637676 -0.37042615 0.037165713 0.8816486 0.18754455
u132 0.2171022 0.71116334 -0.13471834 1.1108363 -0.76995623 -0.07846204 -0.13658161 -0.7507442 -0.37212473 0.6792975 0.2052421 -0.53639203 -0.1902504 -0.019218758 0.6646082 0.122781634
u133 0.19484116 1.2100388 -0.055396035 1.3732378 -1.0603931 -0.06471465 -0.048606128 -0.93902975 -0.88791764 1.0554001 0.32464853 -0.7129264 -0.31790152 -0.094686575 0.9542855 0.057092775
u134 0.22517623 1.4054214 -0.07460232 1.4891796 -1.2270817 -0.04122406 0.004116713 -1.1065398 -1.1939389 1.184704 0.4233008 -0.8833746 -0.46916437 -0.16749772 1.2251432 0.021969577
u135 0.20830165 1.5641279 -0.083912134 1.5165632 -1.2416652 -0.07604901 -0.008091545 -1.1079265 -1.2059765 1.2766871 0.5152373 -0.82116663 -0.51059586 -0.21807858 1.232475 0.015701322
u136 0.20034005 0.98034734 -0.16989984 1.2629443 -1.0491618 -0.082419746 -0.1511318 -0.6639254 -0.5962331 0.9150662 0.18728058 -0.68948185 -0.29333872 -0.05080581 0.9973501 0.13166733
u137 1.2663043 0.08974249 -0.85798895 1.4662519 -0.91815615 0.66233635 0.3204431 -1.4259242 -0.12322862 0.3978801 -0.07282023 -0.88503903 -0.90574425 0.1033942 1.205257 -0.272837
u138 1.1790779 0.0893446 -1.0208873 1.4391329 -0.7034951 0.6807179 0.22462375 -1.3287808 -0.056274585 0.35836926 -0.08898584 -0.65469664 -0.45902517 0.09036525 0.9736684 -0.24022885
u139 1.0834073 0.11545671 -0.7245574 1.3951825 -0.8376087 0.48275256 0.21592097 -1.3578929 -0.14905906 0.3650519 -0.13654529 -0.68161285 -0.51496756 0.17077431 1.1385976 -0.14015007
u140 1.3001491 0.2737685 -1.2251635 1.6951196 -1.0716294 0.6850314 0.07093301 -1.0275359 0.12007406 0.5488746 -0.029168691 -0.685649 -0.5681905 0.14725962 1.4476671 -0.22275874
u141 0.9213042 0.26588354 -0.89870065 1.4516762 -0.74340254 0.43405938 -0.16175936 -0.7260558 0.12598862 0.39178526 -0.03614034 -0.6098076 -0.3226677 0.09517646 1.1264448 -0.104899034
u142 0.9955889 0.26656494 -0.969564 1.2349893 -0.87873405 0.54615796 -0.077038646 -0.75867623 0.15404451 0.369402 0.02497196 -0.44913754 -0.2961679 0.08157923 0.95727813 -0.1513903
u143 1.0455074 0.21258688 -0.9812163 1.2813725 -0.86088496 0.5351514 -0.08327402 -0.81627214 0.085193746 0.42522174 8.219047e-06 -0.5580826 -0.33037174 0.08084737 1.0170743 -0.17784032
u144 1.2127376 0.20619194 -0.9016104 1.4472598 -0.620887 0.5107755 0.039314207 -0.9854028 0.010013739 0.7094119 -0.10063947 -0.8031145 -0.39850548 0.14102748 1.1481625 -0.2539364
u145 1.1502489 0.19921157 -0.911174 1.2768152 -0.40040517 0.3821426 -0.14225927 -0.7315842 0.028052121 0.64095867 -0.09057697 -0.78083575 -0.40092924 0.1195643 1.0852135 -0.35334727
u146 1.1929798 0.20455036 -1.1749053 1.1568398 -0.15405057 0.4743128 -0.22668846 -0.7070758 -0.011501045 0.71495193 -0.15554993 -0.828615 -0.29553062 0.107993975 0.8000308 -0.37152553
u147 0.9797944 0.2764459 -1.0390819 1.0471987 -0.31358114 0.41475278 -0.0840466 -0.6193489 -0.047111236 0.81967723 -0.012914442 -0.7170117 -0.40970403 0.036094476 1.0152433 -0.3633035
u148 0.9482953 0.23154171 -1.0109388 1.0561272 -0.27816257 0.24597204 -0.17393875 -0.5350435 0.023397785 0.63615334 -0.09334842 -0.563281 -0.2455657 0.14763708 0.86013305 -0.22570378
u149 0.92919075 0.24939178 -0.87096906 1.2350227 -0.33758318 0.32303452 -0.23550476 -0.5780224 0.078717604 0.62940514 -0.07516741 -0.6692618 -0.29086995 0.13153534 0.89992124 -0.15238054
u150 1.0802549 0.12020837 -0.8843146 1.2529124 -0.4020021 0.36553842 -0.08105964 -0.77793235 0.05011255 0.54609686 -0.17038126 -0.676909 -0.23113558 0.12519404 0.8888139 -0.26741135
u151 0.87323964 0.26806784 -0.70038396 1.0768081 -0.36689848 0.26991725 -0.15843543 -0.75741863 -0.05699633 0.4043696 -0.09215364 -0.6323768 -0.25005108 0.17057897 0.85090816 -0.25562048
u152 0.8813875 0.2238424 -0.7724825 1.021952 -0.3890431 0.40454015 -0.14841536 -0.7864751 0.06254778 0.40712848 -0.06390578 -0.6095352 -0.17263503 0.097266346 0.86585355 -0.24547677
u153 1.0753154 0.2613385 -0.8109577 1.0421377 -0.16732983 0.3361236 -0.24932404 -0.78211915 -0.16734748 0.77796286 -0.10407434 -0.8336133 -0.28016862 0.0894979 0.88597536 -0.27877656
u154 0.9423404 0.07348734 -0.83385885 1.018674 -0.25718802 0.38532898 -0.114940725 -0.8367443 -0.04494353 0.65274566 -0.1855154 -0.99073917 -0.6991133 0.15579322 0.77534413 -0.12552997
u155 0.7900451 0.17608659 -0.73122877 0.99163693 -0.2647764 0.2771026 -0.060147386 -0.765499 -0.18005209 0.51712126 -0.14617273 -0.89320457 -0.6567951 0.12936497 0.71942055 -0.16152105
u156 1.0049864 0.1555899 -0.9758453 0.93965435 -0.02602419 0.25436294 -0.0396984 -0.8535077 -0.45170024 0.92628044 -0.09675607 -1.2403749 -0.9551909 0.08902771 0.6954886 -0.45807934
u157 0.8718281 0.12990268 -0.7410009 0.83072555 -0.11074246 0.23395708 -0.12646064 -0.70349735 -0.23955959 0.73458374 -0.117757484 -1.1123216 -0.5663696 0.17799398 0.7011181 -0.22980906
u158 1.1532251 0.14968157 -1.1459464 1.1406106 0.1221411 0.481125 -0.2099453 -0.8565033 -0.7777803 0.75304693 -0.29986358 -1.5068141 -0.8685127 0.039579906 0.5809239 -0.6835565
u159 1.0064893 0.1956761 -1.0989865 1.2352839 0.11425198 0.36494434 -0.25067917 -0.78319293 -0.783004 0.5929022 -0.21279009 -1.3166717 -0.7741641 -0.014690681 0.5717978 -0.5546621
u160 0.9748251 0.10264958 -1.0398425 1.1011577 0.031314373 0.2726685 -0.13729823 -0.7993308 -0.35243186 0.9523367 -0.16406864 -1.2613137 -0.8605606 0.10343447 0.64340407 -0.45346183
u161 0.8117431 0.14416175 -0.731231 0.91177905 -0.12216712 0.25168124 -0.14772467 -0.6145537 -0.18620567 0.7452926 -0.10024616 -1.0024042 -0.6940891 0.13945322 0.6843105 -0.21224225
u162 0.84709495 0.18512659 -0.8836676 0.82669955 -0.008860612 0.25600448 -0.053086057 -0.634264 -0.34248537 0.7752143 -0.07112095 -1.0472839 -0.62481534 0.048599463 0.60192436 -0.40106413
u163 1.0879673 0.1534676 -0.89586455 1.0744963 -0.20449004 0.30197304 -0.12767914 -0.83973867 -0.28382087 0.69546705 -0.1945766 -1.1014087 -0.7323697 0.1752819 0.73183936 -0.31906557
u164 0.87971026 0.2739535 -0.89845955 0.9803096 -0.022248847 0.22783987 -0.054332957 -0.6718746 -0.3155008 1.0020882 -0.03669218 -1.1462697 -0.9194683 0.16363975 0.57192874 -0.31409234
u165 0.59644777 0.20931765 -0.66857564 0.7006271 -0.013935612 0.16646518 -0.18755281 -0.53655046 -0.17504252 0.6671281 -0.11172147 -0.876581 -0.52672654 0.09977234 0.45507035 -0.19075637
u166 0.8064682 0.10992173 -0.7964711 0.8349464 -0.22440012 0.29294863 -0.18932727 -0.6501899 -0.080325484 0.5772357 -0.12293239 -0.8982434 -0.5981338 0.12565085 0.51819694 -0.2035131
u167 0.47412515 0.25626498 -0.55637443 0.7882255 -0.30099156 0.17102605 -0.17755261 -0.57864183 -0.056387957 0.5707047 -0.07711901 -0.8041482 -0.46586555 0.13712098 0.6643658 0.095872834
u168 0.5787048 0.23351139 -0.5948905 0.8805757 -0.41320524 0.09864416 -0.21844402 -0.5959631 -0.038327627 0.63310874 -0.009786574 -0.75821805 -0.5070514 0.16399577 0.61849344 -0.035948616
u169 0.61457384 0.22325853 -0.53453773 0.8143597 -0.3384576 0.18545824 -0.163701 -0.54233193 -0.030994652 0.6702504 -0.08386635 -0.76178944 -0.4894523 0.12885584 0.57655543 -0.086486444
u170 0.30994582 0.28919494 -0.32606146 0.6977833 -0.45626968 0.12774049 -0.1839982 -0.4318986 -0.01896678 0.43934458 0.07470634 -0.5640738 -0.34676993 0.073103845 0.62342435 0.0077068917
u171 0.34101462 0.3268671 -0.35524577 0.6203071 -0.371724 0.10170418 -0.23123612 -0.4544553 -0.032898683 0.30078572 0.0851434 -0.3671285 -0.24470666 0.08675354 0.54636544 0.062389947
u172 0.27375323 0.27018648 -0.3609572 0.77004415 -0.37376714 0.059037603 -0.21392886 -0.45253125 -0.14416078 0.31941083 0.044563558 -0.59538466 -0.3988267 0.08160585 0.6605183 0.08351773
u173 0.4196264 0.35263652 -0.38886693 0.87593776 -0.48603678 0.11503919 -0.24085915 -0.52534425 -0.06628695 0.50823814 -0.066311695 -0.7864158 -0.43041745 0.0903991 0.7210891 0.19380073
u174 0.523929 0.76512694 -1.0477754 1.0644823 -0.7755859 0.5195228 -0.33198395 -0.5351201 0.19427 0.5631948 0.50384 -1.141337 -0.90707517 -0.028133804 1.1587125 0.12138843
u175 0.6034361 0.82902324 -1.1835108 0.94157356 -0.58530265 0.47006193 -0.2029395 -0.6252572 0.1914695 0.591659 0.44477266 -1.1730577 -0.9793624 -0.10777474 0.97682595 0.024940297
u176 0.4525918 0.9159887 -1.1722069 0.8870585 -0.71413076 0.5373675 -0.23778744 -0.5679939 0.17044541 0.5411652 0.55152136 -1.1922724 -0.91770375 -0.112104654 1.2332866 0.09840708
u177 0.3037983 1.0685574 -0.5245437 1.1329335 -1.0432576 0.18504065 -0.18525767 -0.5934689 -0.0032735607 0.56528616 0.4606993 -1.1615053 -0.9747453 -0.14478114 1.1406745 0.15501495
u178 0.34304428 1.4679412 -0.8919769 0.96743745 -1.0026624 0.36395434 -0.19432423 -0.4905277 0.07974527 0.48599645 0.8810969 -1.1875309 -0.9659017 -0.24137962 1.1295578 0.1833635
u179 0.40830576 1.0632688 -0.861926 1.016213 -0.8194194 0.3319648 -0.1748424 -0.54652905 0.08221433 0.5203182 0.60712606 -1.0703349 -0.7554999 -0.15465362 1.0437028 0.1721353
u180 0.36499852 1.2705032 -0.8581663 0.99538326 -0.78315675 0.38139966 -0.26710215 -0.45493898 0.15109079 0.75678957 0.74529064 -1.0981921 -0.7471363 -0.18761858 1.1018393 0.12587345
u181 0.28041536 1.250808 -0.5970981 1.149829 -1.0688382 0.2676014 -0.17333211 -0.62707233 0.043995377 0.59384644 0.61535 -1.0109785 -0.7432521 -0.1688474 1.2370632 0.08749937
u182 0.10536309 1.5446688 -0.4991755 1.0291153 -1.0716803 0.14849618 -0.2108703 -0.5250267 0.009704603 0.69061196 0.7763159 -1.1195047 -0.96835524 -0.18571194 1.2008588 0.16995355
u183 0.32133964 1.2103441 -0.80849737 0.999475 -1.0226873 0.37953463 -0.18447864 -0.56155586 0.16342673 0.5623771 0.6857174 -0.97769916 -0.8938094 -0.17358927 1.058502 0.07694903
u184 0.19692244 1.0870945 -0.47516096 0.94431686 -0.9273028 0.08661856 -0.19913267 -0.514471 0.02304441 0.5001074 0.5539714 -0.82608414 -0.62397903 -0.078610994 0.9714766 0.21445896
u185 0.25673962 0.8837753 -0.55869997 0.9360778 -0.8325035 0.19671623 -0.2374907 -0.48195666 0.09171295 0.58606505 0.43719998 -0.88051164 -0.5391194 -0.11749733 0.89733666 0.12904038
u186 0.10218894 0.55252826 -0.21645214 0.5291086 -0.48799318 -0.06512398 -0.13941461 -0.3756654 -0.48024282 0.49597704 0.18753879 -0.34744704 -0.28961277 0.032507773 0.5722458 0.039966658
u187 0.2061523 0.57833457 -0.1639327 0.7487604 -0.5198874 -0.03020233 -0.15754852 -0.5010428 -0.19232893 0.4284969 0.051091965 -0.4598806 -0.13331111 0.011792574 0.61473346 0.09104392
u188 0.031082 0.67475414 -0.1454912 0.8981452 -0.7281068 0.007316294 -0.13050899 -0.46916658 -0.26163638 0.60086036 0.19268602 -0.5235675 -0.22377947 -0.06227202 0.5350613 0.18107483
u189 0.1394361 0.9015657 -0.23404363 1.0484234 -0.8949201 -0.07730875 -0.25092256 -0.50855005 -0.37164956 0.85367 0.23754588 -0.56582516 -0.16223799 -0.056663617 0.79793334 0.124259055
u190 0.1148396 0.86840343 -0.13374344 0.89245826 -0.7313008 -0.05150517 -0.07734631 -0.5185692 -0.5281646 0.695057 0.3183689 -0.57076997 -0.41598535 -0.090998836 0.63403505 0.112592265
u191 0.1176928 0.9344548 -0.07965605 0.96208644 -0.86509395 -0.041558273 -0.11886365 -0.60877895 -0.52934 0.648978 0.31232184 -0.5446947 -0.313076 -0.06811174 0.82749045 0.14392686
u192 0.10966671 0.84473455 -0.1557488 0.9255292 -0.7194805 -0.116169445 -0.039617106 -0.7017387 -0.47985706 0.7147789 0.2372156 -0.48699766 -0.30712745 -0.02785874 0.7284135 0.06856486
u193 0.18571767 0.7172144 -0.13855977 1.0054547 -0.69144076 -0.043782733 -0.057091773 -0.7175177 -0.6675221 0.77481335 0.17182648 -0.63700175 -0.47529566 -0.031983167 0.7613571 0.07283442
u194 0.066358194 0.93213993 -0.16208345 1.0164707 -0.9295443 -0.11295938 -0.12752053 -0.6137586 -0.3768474 0.7992834 0.27876124 -0.67215544 -0.3731145 0.030331697 0.77249855 0.1615191
u195 0.057839304 1.0219702 -0.25069234 1.048265 -0.8803172 -0.14070214 -0.17751588 -0.65970314 -0.7242722 0.9444582 0.21098055 -0.7734419 -0.4645568 0.03561139 0.9634134 0.14314362
u196 0.17882921 0.9790382 -0.27628857 1.1401497 -0.86916924 -0.056174334 -0.2448852 -0.7544819 -0.44978395 0.8060345 0.36656818 -0.57992786 -0.21325178 -0.027421482 0.83531976 0.1816079
u197 0.15513465 0.84034854 -0.14503756 1.0482545 -0.74857193 -0.14247267 -0.2009481 -0.61405987 -0.42030406 0.86470866 0.23543839 -0.6154939 -0.30929402 0.022085821 0.94706094 0.16484925
u198 0.12818965 0.8806816 -0.25349972 0.9886425 -0.8025167 -0.09251561 -0.1017695 -0.7340161 -0.6909687 0.83554125 0.22585048 -0.7024347 -0.5100732 -0.04469901 0.87141246 0.072770506
u199 0.09602848 1.0538718 -0.16050191 1.0756826 -0.867873 -0.20261696 -0.16949636 -0.79388696 -0.5485641 0.7692098 0.34257528 -0.6284433 -0.26239458 -0.0060126595 0.9238653 0.20642631
u200 0.12934673 0.93922704 -0.12234868 1.0305967 -0.87378055 -0.11327883 -0.14768542 -0.697314 -0.421523 0.778633 0.28527126 -0.49903002 -0.14622109 -0.0283821 0.6258224 0.098615356
u201 0.08903466 1.178779 -0.12241481 1.4549841 -1.0170487 -0.15102409 -0.10578075 -0.893205 -0.8696693 0.93979776 0.32791746 -0.76892394 -0.27341133 -0.07286944 1.0364233 0.1701098
u202 0.2569488 1.3547045 -0.08701889 1.5159874 -1.1825203 -0.023937106 0.004145432 -1.0444783 -1.2056391 1.2124376 0.3532265 -0.7925431 -0.43013057 -0.22701222 1.2733895 0.010440874
u203 0.2680586 1.4126217 -0.06715096 1.5340362 -1.1943105 -0.041382127 -0.007965129 -0.98197365 -1.3405125 1.3216137 0.3805082 -0.90124834 -0.6420673 -0.22674416 1.2244884 0.032279868
u204 0.13040745 1.1186899 -0.06404923 1.201309 -1.0376675 -0.112152524 -0.10358444 -0.8118642 -0.6856667 1.0012847 0.26721898 -0.6221265 -0.3882638 -0.08462208 0.9096146 0.094507985
u205 1.2752329 0.13232489 -0.8732496 1.4718915 -0.70912594 0.60538834 0.25300175 -1.4565692 -0.12655683 0.50126064 -0.11385215 -0.86035985 -0.7233154 0.18888405 1.1792458 -0.12536165
u206 1.2321457 0.18658154 -0.8091154 1.3018302 -0.8145029 0.57161254 0.27943322 -1.2792981 -0.15752088 0.40397686 -0.12741272 -0.64183205 -0.4388819 0.13786462 0.9719577 -0.20744672
u207 1.0698824 0.11623046 -0.7351745 1.3762598 -0.74680007 0.45230764 0.21549967 -1.2898818 -0.10437321 0.44118047 -0.17374748 -0.81231076 -0.50134254 0.14995733 1.0077276 -0.18544175
u208 1.2937979 0.26312685 -1.2361716 1.6550865 -0.9026821 0.6738658 0.12890232 -1.0465069 0.102384344 0.43419993 0.016065262 -0.6397992 -0.5740831 0.05221154 1.4970711 -0.22803429
u209 0.9511458 0.3213833 -0.78086895 1.2703431 -0.9365568 0.34953335 -0.15584272 -0.7719445 0.1105023 0.5120051 0.06045527 -0.6493374 -0.34033045 0.08784866 1.1489118 -0.12677003
u210 0.8637774 0.29773772 -0.8667117 1.3552136 -0.94038427 0.46006206 -0.08903804 -0.7650145 0.12376998 0.48232576 0.048624434 -0.5492432 -0.29592252 0.043817982 1.0630049 -0.14982389
u211 0.9854737 0.22174494 -0.8319346 1.3349626 -0.876836 0.4643359 -0.08833605 -0.7907826 0.08697988 0.40103936 -0.04110871 -0.5675889 -0.29030842 0.16466996 1.057079 -0.08510354
u212 1.2234422 0.20002761 -1.0203924 1.3932893 -0.6908479 0.58138615 0.007348362 -1.0710585 0.0003749084 0.6225238 -0.12348555 -0.70199007 -0.4389844 0.0925275 1.2211176 -0.3079257
u213 1.0914502 0.10923957 -0.96942925 1.2983984 -0.31050777 0.36493224 -0.06892063 -0.7995498 0.019504014 0.6158517 -0.074414305 -0.6752195 -0.33175534 0.15926938 1.0167968 -0.29897195
u214 0.99339944 0.20391807 -0.999999 1.1306763 -0.16843072 0.46170893 -0.13610451 -0.6675661 -0.09617056 0.68550533 -0.07042477 -0.7407523 -0.2587365 0.10043269 0.8961346 -0.38292763
u215 1.1801457 0.15934937 -1.0347252 1.2161129 -0.2732225 0.39841592 -0.16609722 -0.70146334 -0.07235765 0.79617345 -0.11712217 -0.7292758 -0.3111681 0.10870176 0.96328086 -0.34961188
u216 0.83448374 0.22718804 -0.8676648 1.133039 -0.3755897 0.3001825 -0.19948377 -0.5111564 0.09528515 0.5701943 -0.0211126 -0.59440434 -0.15356104 0.08045767 0.7839 -0.22527859
u217 0.85743445 0.22784209 -0.78531986 1.0499021 -0.34016043 0.29810098 -0.20467362 -0.4507362 0.07819134 0.56464136 0.0149753895 -0.53731644 -0.15841328 0.069576554 0.8255895 -0.3201999
u218 0.8746323 0.1928123 -0.7943142 1.2096183 -0.401856 0.30956644 -0.14477219 -0.7102848 0.102301404 0.48927128 -0.07345039 -0.56388694 -0.17519374 0.095766805 0.97436583 -0.26062196
u219 0.7796351 0.20752625 -0.5379931 1.1389513 -0.36826786 0.18382846 -0.22122599 -0.832426 -0.011783628 0.51827985 -0.113615796 -0.78415334 -0.26247638 0.13650438 0.93345994 -0.047518723
u220 0.84947115 0.25210103 -0.5980314 1.1151123 -0.45879248 0.3092799 -0.117396265 -0.8217902 -0.027951835 0.49349606 -0.06007399 -0.620167 -0.27518177 0.10514913 0.85458523 -0.09401551
u221 1.0620867 0.17315902 -0.95946413 0.98340255 -0.06773697 0.34211022 -0.18767181 -0.8557956 -0.12576503 0.63644725 -0.14571752 -0.8681224 -0.37077984 0.08705306 0.7460238 -0.2157848
u222 0.75758886 0.18786062 -0.7584441 0.9124087 -0.20176548 0.36573523 -0.1092001 -0.7530575 -0.13516128 0.68683606 -0.059876107 -1.0378759 -0.7097192 0.091986895 0.71875966 -0.16310811
u223 0.9926149 0.112915605 -0.7998248 0.89701873 -0.1277165 0.2373559 -0.077623546 -0.8189252 -0.22046524 0.7389293 -0.18559264 -1.0652483 -0.7144003 0.18336958 0.6429867 -0.1644198
u224 1.0217967 0.19302183 -0.99369615 0.8143869 -0.10733667 0.3549652 -0.050735593 -0.82973254 -0.26871735 0.98324823 -0.11109636 -1.2575618 -0.8914108 0.059158314 0.7739994 -0.47449356
u225 0.92683685 0.16238691 -0.85113806 0.8021243 -0.061031062 0.25372174 -0.18692385 -0.68553495 -0.17229912 0.776288 -0.065002374 -0.98850375 -0.5845308 0.097169295 0.73500735 -0.291968
u226 0.9378492 0.19344594 -1.1429334 1.1823871 0.1672029 0.36039037 -0.11972816 -0.7457989 -0.826694 0.47961217 -0.24740516 -1.2953705 -0.892595 -0.058490083 0.5449758 -0.6005962
u227 1.1095047 0.2047253 -1.1806473 1.0409768 0.13182388 0.39623144 -0.18108703 -0.7424218 -0.7918891 0.6072073 -0.202114 -1.2905396 -0.761118 -0.025190424 0.64397293 -0.73033327
u228 1.0892514 0.15803619 -1.1291777 0.942084 0.1024105 0.3176208 -0.17086576 -0.80825526 -0.4537614 0.88957745 -0.16512814 -1.3131568 -0.83587515 0.09117173 0.67239887 -0.4715944
u229 0.9172297 0.05067721 -0.92253655 0.8961048 -0.14735278 0.37877148 -0.16545072 -0.7151366 -0.23422159 0.6937113 -0.16885266 -1.0202618 -0.735927 0.14413212 0.61592346 -0.29014197
u230 0.8671879 0.18570265 -0.8869615 0.9126669 0.030107157 0.17585213 -0.20683639 -0.6409515 -0.3590529 0.9476429 -0.1679477 -1.3718481 -0.76907593 0.16453044 0.6277995 -0.33172703
u231 0.73983896 0.19309536 -0.7075843 1.0166 -0.1521673 0.20857893 -0.16661341 -0.76059455 -0.30526102 0.63290554 -0.10051577 -1.0053159 -0.69754034 0.17183371 0.68923336 -0.22452189
u232 0.84144336 0.23168653 -0.8571169 1.077275 -0.10795925 0.124307215 -0.09707763 -0.7729834 -0.31716985 0.8880718 -0.13588046 -1.0335916 -0.83315367 0.17026812 0.5517432 -0.262228
u233 0.57194823 0.18838453 -0.6528263 0.8836226 -0.079618625 0.1468874 -0.16874783 -0.60261977 -0.14482073 0.46440008 -0.069964394 -0.7739484 -0.5086485 0.09379579 0.592525 -0.15102303
u234 0.675977 0.14299072 -0.687585 0.78843 -0.13707578 0.18369041 -0.12553114 -0.5871777 -0.13109282 0.5344853 -0.08722372 -0.7104002 -0.46507937 0.13782775 0.6553762 -0.1533449
u235 0.4967917 0.22882451 -0.46364072 0.8380055 -0.34739646 0.095253274 -0.14280257 -0.589594 -0.034245197 0.60243154 -0.038130593 -0.7181438 -0.4970458 0.12202158 0.60855407 0.020748805
u236 0.57930857 0.20210734 -0.53974336 0.8099479 -0.2662697 0.17554587 -0.008595772 -0.5738654 -0.08816526 0.5285424 -0.12011722 -0.64845717 -0.5255532 0.13552661 0.47698334 -0.0724636
u237 0.46124452 0.25298607 -0.49500743 0.82969093 -0.3977441 0.10803257 -0.16093674 -0.58361304 -0.11039806 0.57403773 -0.041429203 -0.7156442 -0.6034493 0.18310782 0.6787819 -0.029953798
u238 0.31279776 0.302308 -0.38502067 0.66325897 -0.34280154 0.050161738 -0.17543274 -0.42696685 -0.060244177 0.46044454 0.08805234 -0.53910196 -0.3757604 0.061478022 0.58021677 0.069454856
u239 0.24347101 0.23686455 -0.29965204 0.60563767 -0.19368097 0.102939054 -0.02474353 -0.35761982 -0.10938381 0.32348415 0.042073682 -0.47697338 -0.3659382 0.009615654 0.3154282 0.029928196
u240 0.3070679 0.245342 -0.28288668 0.7398182 -0.45024812 0.08382242 -0.06720574 -0.45898038 -0.057955913 0.38707814 0.064083196 -0.5644734 -0.4385838 0.124307625 0.6457334 0.051712804
u241 0.26938918 0.34229705 -0.43007076 0.66236645 -0.36246884 0.14743485 -0.17261282 -0.3564912 -0.07152232 0.48741895 -0.010930848 -0.6362113 -0.3442608 0.054676086 0.58493894 0.11948991
u242 0.48638308 0.885392 -1.1437091 0.9146663 -0.6825384 0.49521267 -0.23586443 -0.53935426 0.19978216 0.52363616 0.5839211 -1.1201671 -0.8875596 -0.1934546 1.0557369 0.031376727
u243 0.5400719 0.93875504 -1.0944799 0.8870027 -0.74865305 0.5175583 -0.21835817 -0.47842282 0.3072749 0.5345254 0.6172212 -1.1071899 -0.94786805 -0.09939301 1.0372229 0.087884665
u244 0.5748955 1.1084596 -1.2372156 0.90076303 -0.8310937 0.54111713 -0.22635563 -0.48983505 0.17903286 0.39729035 0.79099035 -1.0535762 -0.898654 -0.1457565 1.0841808 0.08521208
u245 0.19848873 1.3378142 -0.5033859 1.1562555 -1.0560218 0.11182666 -0.23594256 -0.6500714 0.0904275 0.69539607 0.61147964 -1.1867449 -0.8404007 -0.13330837 1.201256 0.1940869
u246 0.31042624 1.2883693 -0.8020287 0.9917606 -0.8872128 0.39244643 -0.20278966 -0.5045908 0.12628374 0.53778374 0.69588995 -1.0507406 -0.6422804 -0.17784679 1.0649459 0.10026677
u247 0.25673765 1.3335501 -0.8838736 0.92796683 -0.73708516 0.35368434 -0.22630002 -0.47361967 0.14744192 0.6679389 0.9922653 -1.0456783 -0.78992957 -0.23742463 1.125799 0.13244267
u248 0.26062927 1.2164791 -0.854777 0.9272721 -0.7405574 0.34006378 -0.22385563 -0.4545001 0.12784864 0.6764082 0.6524178 -1.1710675 -0.84915453 -0.14821993 1.1684662 0.16609256
u249 0.2142286 1.4291784 -0.60456514 1.0463353 -0.94594514 0.13908565 -0.24050888 -0.55188304 0.11201472 0.7607065 0.77177334 -1.0738463 -0.872621 -0.21993314 1.2367244 0.10169041
u250 0.25123513 1.2090294 -0.563711 1.1542363 -0.87426925 0.13181596 -0.29015556 -0.68434095 0.03263703 0.7688695 0.558222 -1.1969882 -0.91498744 -0.07449005 1.2656312 0.12801053
u251 0.29017037 1.3012662 -0.81536496 1.1308424 -0.9941964 0.25794473 -0.26188618 -0.4921324 0.15952641 0.70617926 0.6598677 -1.1145828 -0.8624837 -0.14477958 1.1966112 0.19898036
u252 0.21242559 1.1274394 -0.48124617 0.9363465 -1.0021263 0.19234544 -0.3032654 -0.43661588 0.17195979 0.6519095 0.56963897 -0.8763521 -0.6573486 -0.07414917 0.94304496 0.14856914
u253 0.16248024 0.8517257 -0.49194732 0.82360274 -0.7894311 0.17748569 -0.24898304 -0.47361934 0.043538634 0.59764767 0.38147673 -0.8257018 -0.5843509 -0.08765291 0.98864394 0.16536866
u254 0.11104758 0.5421934 -0.09148615 0.60316664 -0.6213451 -0.020191196 -0.07066201 -0.42200598 -0.3882539 0.4922383 0.11223773 -0.5047157 -0.3352596 -0.036294494 0.54174846 0.16965069
u255 0.16625607 0.49658096 -0.24099834 0.69035906 -0.50281185 0.0067878547 -0.07896429 -0.4549083 -0.16422097 0.43682083 0.088356026 -0.35913423 -0.115176156 -0.024949301 0.4995085 0.056925926
u256 0.16543725 0.568848 -0.15103379 0.8094679 -0.7276725 -0.08876385 -0.13243507 -0.49933776 -0.28175828 0.58433324 0.14291543 -0.5610662 -0.29158646 0.0016735558 0.57421523 0.13036714
u257 0.15587372 0.72172725 -0.17085369 1.0427303 -0.81887925 -0.12561592 -0.17693709 -0.6906572 -0.42882285 0.74891895 0.15499134 -0.6641315 -0.29633293 0.011264955 0.72538686 0.11799299
u258 0.06766765 0.84758127 -0.11050127 0.9620085 -0.7919937 -0.09497979 -0.123443305 -0.5562364 -0.44341856 0.81250775 0.25488532 -0.5245385 -0.23396632 -0.017682498 0.60089517 0.090943955
u259 0.13903734 0.7158423 -0.124353446 0.98128116 -0.86408275 -0.07580316 -0.17566967 -0.7102057 -0.56885606 0.8799288 0.10858252 -0.64091563 -0.39920214 0.052919008 0.8843931 0.12018709
u260 0.110503085 1.0321028 -0.17465627 1.013388 -0.9346292 -0.08483801 -0.10462724 -0.54343283 -0.4334339 0.7293916 0.41293642 -0.427634 -0.21188092 -0.1107708 0.70973194 0.050327048
u261 0.22600414 0.6971335 -0.18188184 1.1019953 -0.7434451 -0.040721424 -0.19347212 -0.81117517 -0.56912166 0.91151035 0.12637363 -0.68014693 -0.33076286 0.0010249557 0.8296003 0.10880143
u262 0.19897975 0.6971031 -0.1981866 0.96507144 -0.6900669 -0.087193415 -0.040020593 -0.7840446 -0.5815822 0.7434665 0.12253946 -0.5584283 -0.52801764 -0.017048078 0.6827462 0.032160383
u263 0.074876 0.85226136 -0.1861737 0.96722037 -0.8758728 -0.0794204 -0.10356146 -0.6400002 -0.5421689 0.8032902 0.2041786 -0.7173861 -0.5032898 0.0074697365 0.75509185 0.16768545
u264 0.15105397 0.97548795 -0.082362354 1.1355293 -0.684619 -0.14893223 -0.12087676 -0.7641148 -0.64928854 0.7993362 0.19031237 -0.70639724 -0.30931088 0.05686588 0.70886564 0.14606111
u265 0.16572788 0.7784965 -0.15792806 1.137388 -0.8582353 -0.13823138 -0.14114586 -0.7056952 -0.5177403 0.7236043 0.23280235 -0.5825622 -0.28448185 -0.0037941341 0.9074627 0.15433958
u266 0.06884797 1.0334892 -0.16337393 1.2334794 -0.97109854 -0.1639577 -0.13616922 -0.6521411 -0.590339 0.9376449 0.2679745 -0.6437858 -0.3819362 0.017781973 0.9447816 0.119976535
u267 0.0928424 0.9327933 -0.24747163 0.9005717 -0.88297063 -0.102142446 -0.15680705 -0.6320546 -0.55006105 0.8137079 0.3121092 -0.6508156 -0.41500336 -0.029834524 0.75677204 0.12172275
u268 0.16158603 0.96045643 -0.16334982 1.0621974 -0.9514305 -0.05944068 -0.27454698 -0.54009503 -0.3890556 0.70746666 0.21556485 -0.50227004 -0.17918938 0.029192245 0.89284587 0.15494192
u269 0.18586467 1.1569093 -0.15015848 1.2839807 -1.2309105 -0.06611716 -0.10667371 -0.76185757 -0.7947651 1.0672481 0.28833568 -0.7194583 -0.39350542 -0.17130843 1.1579323 0.0971935
u270 0.24371639 1.4599446 -0.13602528 1.5930899 -1.2131882 -0.06175569 -0.081157096 -1.0378299 -1.1968334 1.3101656 0.4016166 -0.9070997 -0.47696263 -0.20568098 1.3871567 0.04565407
u271 0.1891258 1.4065078 -0.031786874 1.5728954 -1.1879381 -0.09280136 -0.022100467 -1.013259 -1.2986774 1.3029891 0.35001332 -0.90667015 -0.4913331 -0.17538829 1.2874038 0.030123193
u272 0.13367 1.3410901 -0.012682471 1.1858951 -1.046514 -0.116980255 -0.10461761 -0.8094573 -0.7169573 0.8753745 0.5555889 -0.61297196 -0.27326438 -0.030105796 0.9026894 0.15110363
u273 1.2616098 0.08719416 -0.8919045 1.4524403 -0.7997336 0.6053313 0.23856294 -1.4441261 -0.18782668 0.5064493 -0.15781744 -0.87509775 -0.7609277 0.1574888 1.2282469 -0.12872808
u274 1.1469188 0.08250334 -0.6780273 1.4869126 -0.8123061 0.44418666 0.11875947 -1.3534446 -0.13792133 0.41271564 -0.18245271 -0.8010866 -0.4640346 0.16751243 1.0388972 -0.12409061
u275 1.3302891 0.008301603 -0.9626305 1.4474479 -0.7472666 0.6755123 0.18448597 -1.4236813 -0.08047805 0.364424 -0.16864125 -0.67954427 -0.43855992 0.1765667 1.0763286 -0.22900952
u276 1.3881924 0.31467205 -1.1750466 1.5140215 -0.9587868 0.7695984 0.057310916 -1.0649701 0.101798624 0.45401952 -0.05350436 -0.6835584 -0.5310819 0.12198794 1.3346436 -0.19986507
u277 1.0185612 0.26220632 -0.78909856 1.4838203 -0.7449225 0.43916738 -0.0692068 -0.7812024 0.069930635 0.40968403 -0.0604993 -0.57020366 -0.31312937 0.09780879 1.1203218 -0.1658321
u278 1.0244644 0.2644436 -0.97914666 1.4035233 -0.77805024 0.5147013 -0.076662496 -0.7053662 0.17760122 0.4417551 -0.030192118 -0.5690349 -0.33453417 0.11285089 1.1165471 -0.16033997
u279 1.1352929 0.13935041 -0.9503836 1.3809474 -0.69427484 0.421586 -0.11808428 -0.82105243 0.03303442 0.52329826 -0.07604428 -0.5672549 -0.405669 0.13590708 1.0618114 -0.20064151
u280 1.18256 0.21517935 -1.0375762 1.3759685 -0.5766428 0.48895213 0.062824935 -0.9616912 0.027755296 0.6319501 -0.08702715 -0.7766367 -0.5059416 0.109101206 1.1536043 -0.24936786
u281 1.2155821 0.15389298 -1.1255965 1.218922 -0.42679417 0.4339476 -0.2136064 -0.76121974 -0.009185745 0.6648249 -0.08192888 -0.7149655 -0.2901622 0.17708537 1.0187992 -0.32681865
u282 1.0429268 0.19210838 -1.0599174 1.1099148 -0.079534024 0.44212943 -0.16034125 -0.64913106 -0.073841855 0.73475575 -0.14739604 -0.9497578 -0.39004618 0.017455334 0.7468403 -0.37160417
u283 1.164257 0.09695209 -1.0349007 1.1751004 -0.2899935 0.39815536 -0.11209006 -0.7628026 -0.034797855 0.75065225 -0.110870875 -0.73459876 -0.29277107 0.14054067 0.9817242 -0.44658083
u284 0.78401345 0.32156232 -0.753597 1.0418828 -0.27994135 0.25756973 -0.20683114 -0.5082052 0.0726753 0.57522243 0.008536194 -0.5747071 -0.20342055 0.01686806 0.741369 -0.2805284
u285 0.937586 0.28604692 -0.86491334 1.0987 -0.26719904 0.34668168 -0.17195354 -0.5649467 0.07092166 0.5206548 -0.007490633 -0.5322942 -0.10172747 0.095615655 0.80233085 -0.3118864
u286 1.0722396 0.17838313 -0.8965893 1.3477007 -0.4237502 0.3900091 -0.20431085 -0.6874109 0.09546686 0.67376405 -0.18754506 -0.6358184 -0.2930721 0.18599693 0.990599 -0.1722294
u287 0.90275675 0.13553834 -0.7880134 1.0430236 -0.34333986 0.3100354 -0.13277113 -0.89146304 0.03198566 0.4256748 -0.07002481 -0.65366703 -0.26378372 0.11126823 0.85997975 -0.13705952
u288 0.8849565 0.20821008 -0.80471516 0.9392388 -0.28296086 0.36030236 -0.12766035 -0.6892263 -0.032358855 0.4998746 -0.09597497 -0.672435 -0.29446208 0.08547213 0.6386466 -0.13777211
u289 0.9459959 0.22785266 -0.9403389 1.0307755 -0.15484159 0.19687474 -0.16045265 -0.8736979 -0.18439278 0.6805863 -0.09284482 -0.85328555 -0.3791928 0.06910302 0.82840776 -0.2330394
u290 0.86662346 0.10591427 -0.781053 0.92542374 -0.23365745 0.35572955 -0.065272756 -0.83923185 -0.12646323 0.629566 -0.10143464 -0.98334706 -0.76618433 0.120380476 0.67700434 -0.168158
u291 0.9059776 0.097069345 -0.836581 1.0184546 -0.24979065 0.38493603 -0.02824702 -0.7599741 -0.06839657 0.5880273 -0.085734524 -0.8745329 -0.75042605 0.15596089 0.70310974 -0.21618718
u292 1.0918665 0.15875818 -0.8912102 0.986433 -0.039609976 0.25160587 -0.09412856 -0.87883663 -0.35127726 0.9765382 -0.16310151 -1.1986018 -0.8068108 0.11559121 0.8886894 -0.39409003
u293 0.8197206 0.11472365 -0.95193934 0.89510435 -0.14989911 0.36422938 -0.15528509 -0.75625277 -0.053634938 0.6984608 0.010467813 -0.9110383 -0.560612 0.077359244 0.7886233 -0.28652865
u294 1.0358603 0.26038685 -1.1866485 1.0644389 0.12775633 0.3552561 -0.22290105 -0.7679772 -0.6638814 0.61732864 -0.17047124 -1.3310443 -0.83938 -0.0375499 0.62689304 -0.6533209
u295 1.1001214 0.16272424 -1.2101344 1.146315 0.23885356 0.3667075 -0.21791358 -0.80329734 -0.73447245 0.6384144 -0.26485792 -1.3845351 -0.82698077 0.047697812 0.5627067 -0.62281877
u296 0.98733455 0.13157979 -1.0307866 0.97256917 -0.028239112 0.32074782 -0.117544375 -0.7730682 -0.42499772 0.80195594 -0.13192968 -1.192083 -0.85816365 0.046452958 0.73075473 -0.4909587
u297 0.91328037 0.13562536 -0.8884517 0.8201582 0.02701527 0.21889329 -0.16034797 -0.6739397 -0.26381886 0.73639536 -0.13101307 -1.037471 -0.73803544 0.13644911 0.5343332 -0.27492526
u298 1.1506839 0.10158439 -0.9136319 0.89229935 -0.022837715 0.4005416 -0.13546194 -0.75843483 -0.32954302 1.0176162 -0.1619097 -1.2862483 -0.7537462 0.13542104 0.5867757 -0.40353912
u299 1.0039884 0.10615329 -0.8208009 1.0006039 -0.11074201 0.2730668 -0.06881726 -0.78366864 -0.23641446 0.63789093 -0.193122 -1.0752827 -0.8274012 0.18573113 0.66841066 -0.2724878
u300 0.91265374 0.27547228 -1.004638 1.0507607 -0.12911724 0.24388698 -0.118272625 -0.6080072 -0.2473382 0.7962982 -0.043028552 -1.0612828 -0.8933411 0.122373044 0.6396305 -0.25003934
u301 0.6825786 0.16260557 -0.75317323 0.8113168 -0.03591734 0.2270953 -0.16366012 -0.57958037 -0.1814716 0.5059002 -0.18367647 -0.90626836 -0.5082151 0.13946606 0.47989216 -0.19082007
u302 0.67003673 0.10202091 -0.6342581 0.9031463 -0.26834992 0.19808713 -0.17115639 -0.69735044 -0.044574052 0.6033766 -0.11458676 -0.80697614 -0.50315595 0.19895737 0.6261121 -0.05122734
u303 0.45302024 0.24040402 -0.5023033 0.7564701 -0.29212913 0.043818217 -0.12298564 -0.58355725 -0.099078804 0.4908273 0.008163982 -0.6958386 -0.6464329 0.055299386 0.50596404 -0.020211814
u304 0.5309369 0.18897429 -0.37302703 0.9759146 -0.34558317 0.09351756 -0.050947294 -0.61694515 -0.14846961 0.63131046 -0.10163942 -0.73415834 -0.65226436 0.1346779 0.62254965 0.03501701
u305 0.43051958 0.23423919 -0.4668033 0.8253212 -0.30467442 0.12023937 -0.10400953 -0.5395981 -0.102770485 0.60206807 -0.03822121 -0.7228125 -0.5295928 0.13235681 0.6038805 0.0809601
u306 0.290924 0.33379 -0.36197463 0.62451625 -0.33013126 0.12131415 -0.1207265 -0.37662122 -0.068894476 0.5307816 0.039435484 -0.58223647 -0.4412426 0.11526599 0.54053223 0.09239995
u307 0.42793128 0.06801953 -0.3303232 0.53151053 -0.14152293 0.20818414 -0.077769466 -0.35106936 -0.18117796 0.36249834 -0.09046211 -0.41997725 -0.28290594 0.035343323 0.30274966 -0.05649012
u308 0.32246903 0.34570315 -0.31301245 0.8859234 -0.57018936 0.14202274 -0.08791869 -0.5725098 -0.11571113 0.6122514 -0.0012384669 -0.65685344 -0.42245138 0.12567942 0.65351254 0.20432584
u309 0.3561127 0.31213117 -0.45732877 0.65467566 -0.31956965 0.14174116 -0.15208317 -0.3486198 0.07915827 0.3654236 0.045230873 -0.4908753 -0.33548915 0.07710128 0.55017155 0.09620817
u310 0.4567608 1.1037419 -1.0431153 1.0276105 -0.82241535 0.48517427 -0.2691056 -0.44880915 0.22764388 0.6582588 0.789018 -1.0732713 -0.8395875 -0.19851294 1.1713449 0.069227524
u311 0.4897442 1.0841315 -1.0815817 1.0470155 -0.8778245 0.47745928 -0.25653186 -0.51732576 0.26113096 0.5917312 0.7176871 -1.1340714 -0.7317465 -0.14024884 1.171559 0.12103782
u312 0.37675577 1.0353845 -1.2005023 0.92242396 -0.76641804 0.42447773 -0.25864875 -0.49329734 0.18183792 0.5081104 0.6195221 -1.0969979 -0.857831 -0.15221104 1.1992013 0.13752654
u313 0.3248515 1.0829442 -0.5195973 1.1864763 -0.91931564 0.2166767 -0.24636702 -0.6733502 -0.007497242 0.7053311 0.472906 -1.1035391 -0.84218585 -0.13104069 1.135919 0.15375656
u314 0.40080783 1.4463164 -1.0202476 0.91269326 -0.9176354 0.49693605 -0.21214235 -0.40003487 0.19355506 0.47030067 0.97561157 -1.070975 -0.84599525 -0.20782243 1.1127323 0.08923352
u315 0.38601884 1.1818697 -0.8869686 0.9535839 -0.77621007 0.40202132 -0.20956855 -0.50921464 0.17869762 0.6019536 0.7329822 -0.9671316 -0.7409652 -0.21153261 1.206629 0.1190328
u316 0.22023124 1.5243886 -0.74147743 0.89706147 -0.938091 0.3253291 -0.205262 -0.43600026 0.11496636 0.5314977 0.9494299 -1.0416687 -0.7632716 -0.252522 1.0545754 0.112529576
u317 0.1719073 1.4658496 -0.50558686 1.0879244 -1.0263908 0.14408103 -0.18790118 -0.6441789 -0.013157455 0.7101154 0.6771796 -1.0897791 -0.8581406 -0.21986756 1.2067542 0.11915006
u318 0.19973846 1.4616741 -0.50101763 1.0451134 -0.9552754 0.10600497 -0.18725227 -0.6169047 -0.047664646 0.690088 0.8749095 -1.1598226 -0.98012316 -0.24842252 1.1229713 0.2022062
u319 0.22201474 1.2124417 -0.74349946 1.0575701 -0.99694973 0.24350692 -0.25772154 -0.54846185 0.1277429 0.72788185 0.71521926 -1.0699227 -0.831368 -0.18090674 1.2464001 0.21947739
u320 0.15369332 1.14837 -0.5132489 0.8654701 -0.7503781 0.121142775 -0.18888353 -0.48975682 -0.010669277 0.43754986 0.59561056 -0.92415017 -0.6667254 -0.119757 0.9605139 0.2141273
u321 0.25992718 0.996996 -0.60527587 0.9334511 -0.846008 0.21395701 -0.20350349 -0.5004916 0.13310863 0.445958 0.60300946 -0.7514557 -0.48112306 -0.14956032 0.9303586 0.12628822
u322 0.08943217 0.62620836 -0.02676881 0.8316183 -0.67432463 -0.039858177 -0.1219152 -0.54687893 -0.32627243 0.5392895 0.10840567 -0.57699394 -0.3011681 0.03748081 0.5847702 0.11355767
u323 0.18965901 0.618776 -0.2682955 0.85173225 -0.7110863 -0.019669317 -0.18797359 -0.51646835 -0.3162979 0.61937237 0.116526015 -0.42058066 -0.20098203 0.07771359 0.8126909 0.14605194
u324 0.12916625 0.7358621 -0.23770873 0.76954824 -0.6544133 -0.15754023 -0.2590379 -0.38315997 -0.31895626 0.6532201 0.18691932 -0.43925422 -0.21711767 0.010756415 0.5813576 0.076802045
u325 0.21071269 0.817168 -0.18386707 0.96980053 -0.82232636 -0.11036343 -0.12879048 -0.59597963 -0.4276568 0.7473168 0.20077816 -0.5023099 -0.20709155 -0.05146143 0.63006675 0.10910858
u326 0.1826465 0.6237586 -0.16491516 0.9214256 -0.763017 -0.06208045 -0.11278644 -0.7067892 -0.4868807 0.6567976 0.15368414 -0.5906789 -0.35747433 -0.009959494 0.76330084 0.110078946
u327 0.059974715 0.9305516 -0.21651249 0.96422446 -0.86857694 -0.14127408 -0.17300506 -0.5829408 -0.5190075 0.8895406 0.284618 -0.6370092 -0.30306882 0.007314531 0.85973036 0.16972388
u328 0.053263374 0.80704015 -0.13518935 1.0028218 -0.8301552 -0.06160226 -0.16561627 -0.6433103 -0.55773526 0.7010054 0.24180341 -0.56720173 -0.33039913 -0.06410903 0.7264145 0.09475204
u329 0.1787016 0.84884834 -0.1278187 1.0479766 -0.84262705 -0.058601547 -0.085407406 -0.7648268 -0.67299646 0.7967781 0.16274463 -0.749712 -0.65999234 -0.061883114 0.87236965 0.14487481
u330 0.07106862 0.8962383 -0.22319955 0.9280326 -0.8396455 -0.13717231 -0.13912669 -0.5509033 -0.46855846 0.69958806 0.31668046 -0.56826186 -0.35760087 -0.033187687 0.83671206 0.08706689
u331 0.15103967 0.8979224 -0.3267285 0.975834 -0.846279 -0.013081618 -0.120967776 -0.7232903 -0.40705582 0.8159901 0.34144688 -0.65470535 -0.47533983 -0.05706196 0.8152221 0.13036597
u332 0.10717825 0.9457584 -0.10904109 1.0857822 -0.88054323 -0.21677886 -0.100702554 -0.63914174 -0.58288693 0.83670074 0.28221506 -0.59571767 -0.28277156 -0.10598526 0.81366014 0.09788488
u333 0.12271485 0.9857371 -0.122285396 0.9472342 -0.8559746 -0.09592961 -0.06513121 -0.7449849 -0.5934103 0.7259406 0.22686262 -0.51859516 -0.3296667 -0.042210866 0.7901016 0.074204884
u334 -0.05326848 1.0603096 -0.21685079 1.1399857 -0.96509004 -0.123874284 -0.14164229 -0.6153007 -0.6716577 0.8628001 0.3303971 -0.5776388 -0.3293265 -0.041594073 0.9388918 0.15488303
u335 0.07833251 1.0093199 -0.11918323 1.1156708 -0.98807496 -0.17138246 -0.14893587 -0.52084494 -0.3559993 0.7964574 0.266449 -0.53342766 -0.26040676 0.015294016 1.0232439 0.118478425
u336 0.1092449 0.88917524 -0.1189065 1.0248346 -0.7921264 -0.046368245 -0.11970557 -0.5997351 -0.3627725 0.8108528 0.32244697 -0.5300198 -0.21320489 -0.01669533 0.62585914 0.08335257
u337 0.20043354 1.1365535 -0.22158726 1.335268 -1.09472 -0.013060912 -0.065046184 -0.75156754 -0.7189154 0.96843946 0.41514957 -0.6933665 -0.23567966 -0.16882206 0.86520857 0.046072237
u338 0.24879655 1.4155619 -0.15129268 1.4485588 -1.1095984 -0.04565 -0.03206868 -0.94360906 -1.3346834 1.285768 0.405842 -0.8651292 -0.54789627 -0.19265291 1.2573586 -0.02148629
u339 0.19147287 1.5853269 -0.029910676 1.5085334 -1.2562692 -0.08315545 -0.009762976 -0.97029644 -1.2726713 1.2599765 0.48173922 -0.83155775 -0.534577 -0.17833851 1.2311329 0.0351732
u340 0.08768614 1.1957823 -0.09574565 1.197149 -0.9127997 -0.11193389 -0.15819438 -0.7829398 -0.6264923 0.7857777 0.38512766 -0.70052505 -0.33267224 -0.0871018 0.87574524 0.15403824
u341 1.2852336 0.1326702 -0.8556621 1.4061776 -0.687998 0.6617738 0.360797 -1.4165074 -0.16099536 0.39033988 -0.18057106 -0.9152372 -0.9282648 0.14505579 1.1242476 -0.14203519
u342 1.1328056 0.09086317 -1.0034728 1.2375433 -0.6763524 0.60088545 0.25381327 -1.2051873 -0.14375348 0.383364 -0.106015086 -0.78257066 -0.54117393 0.13885799 0.9984641 -0.2163772
u343 1.0640246 0.12433947 -0.84527624 1.3706074 -0.67766315 0.52827054 0.21881081 -1.2050611 -0.101940386 0.28089595 -0.16821337 -0.70459396 -0.45405108 0.080035105 0.9397355 -0.19020343
u344 1.4180168 0.22632335 -1.082394 1.6711336 -1.0686536 0.70496166 0.071400635 -1.113897 0.10759292 0.48265088 -0.07817685 -0.68866926 -0.5406694 0.11684925 1.4615729 -0.22351903
u345 1.0492564 0.31104687 -1.0859782 1.210113 -0.7124205 0.5182941 -0.115323484 -0.6627287 0.09116413 0.45905358 0.028418768 -0.5104447 -0.305421 0.047605537 1.104717 -0.2580721
u346 1.0020378 0.20949084 -1.1266955 1.4668243 -0.9860815 0.6259312 -0.13210821 -0.6835167 0.23420037 0.50623333 -0.052273586 -0.49696246 -0.2500013 0.09068911 1.2708861 -0.13042553
u347 0.9756359 0.25737682 -0.8053803 1.3545886 -0.6899874 0.42895353 -0.0042532487 -0.86033535 0.074041665 0.4832092 -0.078978896 -0.567979 -0.33841816 0.14898413 1.022923 -0.15968989
u348 1.2907195 0.1943697 -1.104542 1.3926898 -0.6243059 0.60757405 0.08051929 -0.9372992 0.14375743 0.5230391 -0.06774147 -0.66756207 -0.44846505 0.124865584 1.2040806 -0.3502031
u349 1.1010656 0.21401067 -1.0963562 1.3332739 -0.45119467 0.40265548 -0.12644044 -0.7577631 0.016955243 0.64838505 -0.04251529 -0.6419174 -0.37522316 0.15437172 1.1398282 -0.28309953
u350 1.0977478 0.21749759 -0.99472 1.2338709 -0.22346391 0.38045093 -0.088667415 -0.7087128 -0.11443192 0.5181845 -0.09816218 -0.6119387 -0.2812954 0.08204629 0.90983933 -0.4071327
u351 1.1311723 0.1894974 -0.8991661 1.219035 -0.36883944 0.23294029 -0.19874194 -0.68369323 -0.007845856 0.8272888 -0.042463556 -0.71237564 -0.26086307 0.16629834 1.0565052 -0.32057324
u352 0.83975434 0.30563518 -0.83152944 0.9892046 -0.25247243 0.2884955 -0.16164687 -0.5114088 0.018766813 0.5739172 0.028964072 -0.61547333 -0.17434013 0.02596219 0.67965686 -0.24043617
u353 0.9788547 0.25345227 -0.95661 0.96997803 -0.2555691 0.30245635 -0.1919682 -0.51823753 0.08011845 0.5160064 -0.015422422 -0.61507463 -0.23337735 0.037906334 0.77046037 -0.33290514
u354 0.9586553 0.24453071 -0.7717113 1.1914954 -0.38927436 0.3658614 -0.1758897 -0.7609146 -0.008917745 0.5559164 -0.108488604 -0.6932279 -0.21578987 0.10948436 0.75476396 -0.19770758
u355 0.8498684 0.26559535 -0.73175484 1.0516843 -0.32572773 0.2998257 -0.13597228 -0.7087003 -0.0028483318 0.39395252 0.041274007 -0.5884749 -0.27903613 0.041656576 0.8720297 -0.23771574
u356 1.132166 0.17317615 -0.7983047 1.123084 -0.5070906 0.3620035 -0.19168808 -0.8960785 -0.018827459 0.43688753 -0.15930837 -0.637547 -0.29542443 0.1966243 0.95772904 -0.11866275
u357 0.9111227 0.19493334 -0.81294996 1.0362117 -0.2260979 0.25487334 -0.20134003 -0.8708607 -0.14166322 0.68856025 -0.09890924 -0.756149 -0.3497672 0.1525668 0.9161429 -0.30470178
u358 0.75158757 0.16889912 -0.804327 1.0769451 -0.3531039 0.39859456 -0.09524703 -0.72192293 -0.10400175 0.5149153 -0.11645594 -0.99800366 -0.6961954 0.107623905 0.9126113 -0.13861543
u359 0.858651 0.16474691 -0.7459901 1.0695181 -0.2658159 0.2693351 -0.10065968 -0.80008525 -0.1308835 0.6871233 -0.17719886 -1.0834715 -0.7234643 0.17823952 0.7229143 -0.13495374
u360 1.2029024 0.04519105 -0.97450787 1.0769511 -0.12858875 0.26644278 -0.19380002 -0.9807582 -0.32445747 1.0815145 -0.2030943 -1.2959014 -0.7743106 0.17739727 0.8367113 -0.46940628
u361 0.7683723 0.11457226 -0.689958 0.8176992 -0.17006402 0.18585853 -0.16314767 -0.709587 -0.18036465 0.76273304 -0.099583015 -0.8541 -0.6149974 0.10935475 0.7367081 -0.22821023
u362 1.1940144 0.22549403 -1.2079978 1.188432 0.14267457 0.39373425 -0.21135688 -0.69639283 -0.6784891 0.6546995 -0.20526835 -1.3670423 -0.75523514 -0.02491906 0.5842373 -0.60892296
u363 1.1685362 0.17877021 -1.1129634 1.1523458 0.161569 0.39573887 -0.17575818 -0.8592538 -0.78332055 0.47037902 -0.3206821 -1.3293962 -0.79432756 -0.0016866298 0.63914233 -0.65720564
u364 1.1360642 0.12574093 -1.1519964 0.95857525 0.09632425 0.3003197 -0.2137077 -0.8736867 -0.42454714 1.053173 -0.17519476 -1.2685933 -0.9302514 0.11963157 0.6415017 -0.4859575
u365 0.7894829 0.15869518 -0.77642816 0.852836 -0.20678845 0.24479608 -0.15846287 -0.652693 -0.18998305 0.65374666 -0.15238442 -1.0602038 -0.72951233 0.11490104 0.66608155 -0.23021163
u366 0.96633726 0.15055244 -0.9188363 0.9545738 -0.1035398 0.34392178 -0.13584617 -0.6617557 -0.14903736 0.7096471 -0.1246419 -0.96932566 -0.6660691 0.12559314 0.6878479 -0.29360554
u367 0.92308706 0.06691913 -0.889113 0.9663907 -0.031674128 0.23733865 -0.06930446 -0.7734719 -0.23057523 0.64302564 -0.10031984 -1.0264502 -0.6830772 0.14168966 0.49544206 -0.23861049
u368 0.8669412 0.21078202 -0.8208624 1.1309482 -0.086148836 0.16552423 -0.16158879 -0.8783122 -0.36747536 0.83430326 -0.14729896 -1.1012954 -0.8941005 0.2531901 0.6963357 -0.27575552
u369 0.642143 0.19871567 -0.6394805 0.9401615 -0.085375495 0.19027063 -0.179045 -0.6983309 -0.1389517 0.5107819 -0.05258813 -0.7376821 -0.4759388 0.07269809 0.5201931 -0.1151998
u370 0.5590519 0.13629529 -0.6238517 0.83058155 -0.23324978 0.13294931 -0.16940403 -0.6144128 -0.06937145 0.65770876 -0.096446835 -0.824164 -0.5093535 0.12762713 0.6631698 -0.07898427
u371 0.5751639 0.18692227 -0.55212843 0.7817847 -0.31376755 0.14204909 -0.13477075 -0.6675691 -0.048074882 0.64930713 -0.11461646 -0.8000325 -0.53252167 0.14237083 0.6255424 -0.055424407
u372 0.52654874 0.17830075 -0.51024806 0.7878136 -0.2929377 0.17670144 -0.13603203 -0.58325493 -0.07241558 0.4991484 -0.10925098 -0.6962289 -0.43626028 0.115783155 0.597135 -0.04892118
u373 0.4797445 0.22717392 -0.50870425 0.70062006 -0.22477303 0.056927573 -0.189778 -0.49340665 -0.18228014 0.6941981 -0.03378032 -0.79568213 -0.59721565 0.20303516 0.6138095 -0.075816356
u374 0.368364 0.3046527 -0.359493 0.6118882 -0.37783292 0.09773837 -0.16183384 -0.43272477 -0.032810364 0.43761185 -0.031049527 -0.47573224 -0.3284991 0.06165411 0.46633604 0.03576303
u375 0.3388964 0.35615063 -0.41790166 0.79494315 -0.4637274 0.019866671 -0.22541305 -0.5056082 -0.14033945 0.4301878 0.09977589 -0.54176074 -0.38983068 0.12347135 0.54422736 0.12686911
u376 0.21617056 0.4157586 -0.20240536 0.6702413 -0.552325 0.06284018 -0.156824 -0.44915938 -0.052752562 0.3390708 0.080269486 -0.55582094 -0.29791 0.06894841 0.6066901 0.13164257
u377 0.2812809 0.3098557 -0.40105638 0.61885476 -0.41898006 0.14258683 -0.11615378 -0.39549845 -0.0504132 0.41172054 0.07482301 -0.576133 -0.30674958 0.05170966 0.57099634 0.06392577
u378 0.39994588 1.0148451 -0.9552576 0.9943223 -0.7525328 0.38150406 -0.14375296 -0.5884722 0.15601443 0.5729596 0.6517646 -0.9750731 -0.9429833 -0.1608518 1.0576875 0.07261975
u379 0.5461008 0.97146654 -1.0995466 0.7924922 -0.53738195 0.45957848 -0.20164552 -0.5094171 0.17394796 0.49503434 0.59703577 -1.1246289 -0.89271706 -0.14261404 1.1476386 0.052141514
u380 0.57363486 0.7385639 -1.1307696 0.9525612 -0.5966487 0.4969232 -0.27546933 -0.61995065 0.20552346 0.5113798 0.47244218 -1.1835122 -0.8283808 -0.08302269 1.1509619 0.10845115
u381 0.19127417 1.370144 -0.4246271 1.2117039 -1.0521209 0.123995036 -0.1565612 -0.60844564 -0.020300748 0.67766744 0.76534104 -1.0034369 -0.8349415 -0.19067767 1.2136812 0.1657693
u382 0.36192796 1.1387277 -1.0853335 1.0367578 -0.85708064 0.46632886 -0.2767752 -0.44248632 0.25471637 0.72757065 0.8157163 -1.1309599 -0.81744313 -0.18831556 1.1237705 0.12262534
u383 0.2122695 1.4405496 -0.76337546 1.0023329 -0.95406175 0.21560529 -0.20850484 -0.49484512 0.08288268 0.6372441 0.8608835 -1.1213907 -0.8198414 -0.1714143 1.1605158 0.1881538
u384 0.30531865 1.4607652 -0.9002404 0.94282275 -0.8922892 0.3539687 -0.27914023 -0.5427852 0.108335055 0.6261462 0.965658 -1.1197387 -0.83302 -0.27572498 1.2068658 0.17492275
u385 0.20244735 1.4842142 -0.49436644 1.0669687 -0.9288285 0.13073394 -0.21132612 -0.57809275 0.049081307 0.72978836 0.7966825 -1.0934023 -0.7962345 -0.19369039 1.2512183 0.12870677
u386 0.2328 1.5481274 -0.57192624 1.0516374 -1.1127672 0.14828953 -0.2353383 -0.5697904 0.09793912 0.6754762 0.7402416 -1.1092185 -0.83761847 -0.1619766 1.2810253 0.18370758
u387 0.26345932 1.3314062 -0.72765136 1.043357 -0.9620091 0.27320784 -0.19093302 -0.60179394 0.049943026 0.56798875 0.7455507 -1.0530474 -0.85201234 -0.17955226 1.0469322 0.20503931
u388 0.2600292 1.2124126 -0.47930077 1.0189413 -0.9417089 0.074441746 -0.23416947 -0.50302815 0.047936954 0.5970153 0.53875107 -0.8831644 -0.67816186 -0.0052788267 0.9807541 0.19566332
u389 0.20063871 1.1543007 -0.49629316 0.8860346 -0.7532832 0.16384047 -0.2152747 -0.38448948 0.08098154 0.68789613 0.5857843 -0.8242262 -0.5704093 -0.16251236 0.8658296 0.16995384
u390 0.08073723 0.6798116 -0.13715592 0.73070735 -0.6767899 -0.11753875 -0.12401293 -0.46642536 -0.4169403 0.69439054 0.17269722 -0.54034233 -0.38872898 0.010736022 0.60578454 0.15688467
u391 0.06554143 0.5022387 -0.09713322 0.6558957 -0.43361434 -0.10399079 -0.06423881 -0.36203575 -0.28046137 0.4872799 0.17701918 -0.47474954 -0.29597437 -0.02466804 0.5860567 0.08665523
u392 0.09371846 0.6613741 -0.20755047 0.86430776 -0.7935339 -0.001206178 -0.0989111 -0.40593886 -0.116238706 0.76949257 0.19874811 -0.43917906 -0.21598233 -0.05114518 0.50690955 0.13199645
u393 0.15600222 0.76645577 -0.21624291 1.0436659 -0.82575244 -0.048736103 -0.17393672 -0.53478646 -0.4517077 0.7431428 0.08459573 -0.6753153 -0.38420558 0.025770348 0.8069321 0.2131591
u394 0.17431152 0.8856373 -0.21647622 1.0120836 -0.83998245 -0.06793306 -0.28417435 -0.58886415 -0.36887833 0.7728586 0.29145792 -0.54989904 -0.15962069 -0.02012479 0.86962956 0.1297743
u395 -0.0053655803 1.0567223 -0.10806769 1.0522609 -0.95139873 -0.13691989 -0.14817625 -0.5939361 -0.6490608 0.9644826 0.25461376 -0.6390152 -0.41952497 -0.04667306 0.90032613 0.14533378
u396 0.12182373 0.769443 -0.19042856 0.9896617 -0.69478816 -0.12058828 -0.100871876 -0.53651404 -0.45793137 0.8124351 0.21232013 -0.6354743 -0.35511285 -0.011638976 0.82815653 0.17598476
u397 0.09238482 0.78538597 -0.09108421 1.1509875 -0.8522563 -0.06631298 -0.16644886 -0.64214236 -0.67688245 0.88746846 0.20129193 -0.74875426 -0.5602677 -0.028228534 0.92308736 0.11167471
u398 0.0762799 0.9636818 -0.16849741 0.9956477 -0.9208161 -0.09614668 -0.19250035 -0.53898317 -0.58497065 0.9226943 0.3175966 -0.5633045 -0.33842903 -0.028626543 0.8766739 0.1419889
u399 0.11202673 0.8336018 -0.1786543 0.9173495 -0.8061892 -0.12707241 -0.0947656 -0.6586242 -0.57543856 0.8476511 0.21424139 -0.66936994 -0.5608098 0.025701966 0.81596375 0.12077629
u400 0.18697587 0.9743909 -0.14879516 1.0846417 -0.97627115 -0.08536671 -0.16894059 -0.71832067 -0.545473 0.65842384 0.3290109 -0.44427863 -0.23135944 0.02809184 0.8719437 0.13032855
u401 0.14772205 0.7476319 -0.14520301 1.0194347 -0.78768724 -0.16437069 -0.124463916 -0.63070583 -0.56699574 0.8172266 0.10029465 -0.66684544 -0.3932521 0.08503866 0.8114473 0.0914899
u402 0.19723585 0.91678363 -0.2285944 1.2002984 -1.0859077 -0.040884715 -0.20452723 -0.74870527 -0.56387264 0.74883896 0.22198947 -0.5774177 -0.20757106 -0.05555848 1.0160041 0.19225058
u403 0.09750506 0.9215927 -0.08381397 1.137781 -0.89217734 -0.19756031 -0.14420523 -0.6176577 -0.35469434 0.9039086 0.25688058 -0.54673827 -0.17283846 0.055612814 0.7878068 0.11270773
u404 0.12179844 0.8583184 -0.15355456 1.0502236 -0.7997546 -0.11477399 -0.13115457 -0.671041 -0.5041873 0.83878183 0.16745406 -0.65482396 -0.3189217 0.00791114 0.6596283 0.17422853
u405 0.18761238 1.2782766 -0.052908126 1.2674888 -1.0749071 -0.050775256 -0.065841444 -0.97324973 -0.8316693 0.9452106 0.36020762 -0.7549253 -0.37946624 -0.15256268 0.9047395 0.12396637
u406 0.19254133 1.4597495 -0.11087281 1.5679029 -1.2713764 -0.065065764 -0.11057001 -0.9881346 -1.2804254 1.2916301 0.33818632 -0.8089536 -0.48189238 -0.1498099 1.3048534 0.04861483
u407 0.18946674 1.4982471 -0.122290775 1.4151559 -1.2012897 -0.06742527 0.023873895 -1.0613009 -1.3641367 1.2585024 0.387742 -0.8168828 -0.5559298 -0.16327696 1.2399929 0.005234362
u408 0.15543455 1.0876681 -0.09619047 1.2308259 -0.98067856 -0.069248855 -0.07656827 -0.7021818 -0.681939 0.7845466 0.36088768 -0.61144197 -0.32498384 -0.0739801 0.9610537 0.13202156
u409 1.2490906 0.055102833 -0.9220434 1.4444278 -0.7876768 0.6317346 0.27966258 -1.4720365 -0.19402741 0.47549546 -0.20249808 -0.87507725 -0.67413485 0.16736823 1.1276325 -0.17097558
u410 1.1723452 0.113644935 -0.88494736 1.3903427 -0.748288 0.48187536 0.1534664 -1.2690557 -0.11505026 0.33595788 -0.17626177 -0.8133251 -0.45464757 0.18242009 1.0443115 -0.19661276
u411 1.2382476 0.1059815 -1.0554656 1.3387243 -0.668588 0.6521336 0.26972395 -1.2425919 0.018861858 0.39130718 -0.14722057 -0.64908904 -0.43079907 0.15179993 1.1134702 -0.1883639
u412 1.3715427 0.27533844 -1.2082278 1.6616219 -0.9201077 0.7156233 0.097088754 -1.0264903 0.061049685 0.44998935 -0.08785145 -0.6362603 -0.5831505 0.12833524 1.5457978 -0.15403895
u413 0.9226456 0.32830462 -0.98728913 1.3747286 -0.85059404 0.5593926 -0.1228017 -0.697637 0.22635277 0.38888502 -0.0018165639 -0.5564518 -0.23957384 0.053990003 1.1320767 -0.041163072
u414 0.9611295 0.3280313 -0.88618106 1.3356944 -0.8035127 0.44458887 -0.08525928 -0.7561797 0.16429517 0.44114727 -0.011514797 -0.5509354 -0.22420475 0.10840471 1.0360904 -0.14104706
u415 1.0163018 0.23978058 -0.93306535 1.3022829 -0.63974965 0.4641861 -0.062530816 -0.79022515 0.10878475 0.47885802 -0.04039027 -0.6151541 -0.30736628 0.13829595 1.0268567 -0.16689843
u416 1.1666778 0.22885701 -1.025723 1.3779898 -0.71198094 0.631148 0.04979511 -1.0215031 0.02463792 0.476786 -0.006822822 -0.6884436 -0.437898 0.14289771 1.270682 -0.28018212
u417 1.13532 0.13583067 -0.96185523 1.2213404 -0.2797518 0.3821281 -0.04929027 -0.8477628 -0.015821083 0.6287392 -0.1128232 -0.68534166 -0.35181051 0.16365492 0.9862854 -0.31527656
u418 1.1361018 0.14187391 -0.8365126 1.3598452 -0.2730173 0.3688609 -0.23361202 -0.75871587 -0.05630366 0.70142263 -0.20429967 -0.75214267 -0.26531798 0.1873585 1.009738 -0.36709288
u419 1.1738775 0.16835658 -1.0473132 1.1585714 -0.24715854 0.3720938 -0.084370665 -0.75022435 -0.07161954 0.7909214 -0.10243681 -0.7282033 -0.30549258 0.09679046 0.9441107 -0.39662716
u420 0.85860234 0.26065275 -0.7774186 1.0356162 -0.262878 0.3111966 -0.24192597 -0.58690554 -0.009962933 0.565586 0.00049455056 -0.65186167 -0.21538311 0.08618666 0.8475296 -0.21179596
u421 0.9487059 0.23224585 -0.90514934 1.0219584 -0.3088928 0.25265893 -0.1907522 -0.52686274 0.05150453 0.655498 -0.033026684 -0.64628696 -0.16311374 0.048590563 0.69778556 -0.29615897
u422 1.1166402 0.24823704 -1.013537 1.292815 -0.48674572 0.40638086 -0.09976654 -0.6345738 0.046120364 0.5885382 -0.09606554 -0.59534127 -0.19692875 0.12862317 0.9091758 -0.27895314
u423 1.048974 0.20248154 -0.8765553 1.1240185 -0.34628376 0.3802818 -0.1472218 -0.80627763 0.036510456 0.41809708 -0.12532513 -0.6914866 -0.35180527 0.15599437 0.88378054 -0.0545518
u424 0.91786695 0.2706265 -0.7797039 1.0693595 -0.4397561 0.31419128 -0.20542355 -0.8033673 0.10902267 0.43876824 -0.079960376 -0.64520127 -0.32072875 0.15201154 0.93413883 -0.13910702
u425 1.2270257 0.15995476 -0.94733584 1.1954272 -0.14261709 0.34787664 -0.17451635 -0.90091634 -0.09517386 0.7178304 -0.21463782 -0.89001226 -0.39130113 0.21311615 0.8544335 -0.3365056
u426 0.9188698 0.09611076 -0.6619774 1.0770757 -0.2947614 0.32149783 -0.11203892 -0.9169901 -0.0442257 0.67186975 -0.16521469 -1.0330772 -0.6962302 0.14442438 0.7668043 -0.09331866
u427 0.873511 0.15379432 -0.8429065 0.896233 -0.23028155 0.3255609 -0.10251654 -0.7359797 -0.06040534 0.53733236 -0.09573519 -0.9347667 -0.74713045 0.13917878 0.65274745 -0.18342923
u428 1.0889482 0.17891754 -1.0755404 0.869521 -0.05150335 0.32013732 -0.1113807 -0.7881818 -0.27546516 0.93345326 -0.06688972 -1.297035 -0.77629924 0.13026814 0.8091918 -0.44590804
u429 0.95602584 0.14476137 -0.8124832 0.9009961 -0.14639223 0.31236118 -0.16274273 -0.7579745 -0.22105305 0.9612082 -0.15806541 -1.1874216 -0.58784676 0.16700394 0.73592293 -0.22488397
u430 1.1454507 0.15388356 -1.2928644 1.0648979 0.22128682 0.41500762 -0.14259388 -0.7880276 -0.80012125 0.60422176 -0.20472087 -1.3101804 -0.66416293 -0.012321078 0.52297145 -0.7113505
u431 1.0732412 0.15649661 -1.143322 1.226048 0.16096736 0.4160216 -0.18644314 -0.79091805 -0.7958623 0.5717054 -0.22739582 -1.1976746 -0.7459786 -0.020191139 0.5112352 -0.7425279
u432 1.0873393 0.14340363 -0.8426396 0.9717309 0.06593131 0.22231697 -0.1271333 -0.83319634 -0.5357116 1.0109072 -0.14287476 -1.2899584 -0.83906764 0.1043363 0.5960915 -0.5275178
u433 0.8290873 0.15217853 -0.6139544 1.0385313 -0.19138876 0.24241227 -0.08118141 -0.88851 -0.3284205 0.8082461 -0.19805981 -0.90733117 -0.64885294 0.16452667 0.7167923 -0.21394928
u434 0.98944914 0.10538007 -1.0193777 0.96197546 0.03332838 0.3707289 -0.14620276 -0.72290796 -0.2044281 0.81272835 -0.16018611 -1.2062289 -0.80961585 0.12428511 0.6472998 -0.33085537
u435 0.99858254 0.18973586 -0.8595632 1.0665413 -0.1837838 0.24987221 -0.13766888 -0.8710554 -0.32230052 0.71341103 -0.21830991 -1.0050846 -0.672149 0.19595991 0.7059934 -0.34006512
u436 0.83382034 0.21841148 -0.9244939 1.0394412 -0.14971057 0.19945313 -0.13285041 -0.6499143 -0.27115473 0.7079013 -0.098318815 -1.0276566 -0.7624366 0.18449208 0.6866727 -0.21099295
u437 0.7813244 0.085828744 -0.70051974 0.83252126 -0.092222 0.28233507 -0.20361662 -0.56797 -0.2538635 0.5754644 -0.1947115 -0.85768145 -0.4529824 0.13272431 0.5345745 -0.22145402
u438 0.72392225 0.14770879 -0.70021504 0.8519571 -0.24690899 0.26290983 -0.17374974 -0.7161098 -0.061222214 0.5544324 -0.15869136 -0.78912425 -0.5961712 0.08780962 0.65180117 -0.078834616
u439 0.53667563 0.1458119 -0.36126736 0.9096552 -0.37965018 0.04970277 -0.07615602 -0.66264707 -0.07551342 0.62811095 -0.15795362 -0.7644623 -0.6429655 0.13902842 0.6328965 0.01571639
u440 0.65062195 0.20414314 -0.58085495 0.82993376 -0.25772056 0.0960419 -0.115438625 -0.7266263 -0.11447243 0.61006 -0.118382655 -0.7048939 -0.56490004 0.20957093 0.70408094 -0.0009872916
u441 0.44541803 0.24037464 -0.4974807 0.73275733 -0.23917945 0.13274875 -0.16362105 -0.50835 -0.14205547 0.58703876 -0.070643134 -0.8055676 -0.5712191 0.11004591 0.53412753 -0.018604014
u442 0.22956526 0.27897504 -0.45165297 0.6454503 -0.3065642 0.13480932 -0.2527675 -0.4579622 0.02831997 0.5179281 0.09959857 -0.6583205 -0.34101284 0.037632495 0.4591132 0.05386126
u443 0.2531289 0.28556904 -0.30196583 0.645915 -0.31558618 0.114139125 -0.08828133 -0.3359269 -0.06493249 0.41921285 -0.007668526 -0.5733784 -0.39790383 0.060731594 0.4445043 0.06802304
u444 0.39524597 0.24038132 -0.4173658 0.84257084 -0.31446505 0.103147745 -0.1575445 -0.65874225 -0.11345876 0.5514925 -0.041221503 -0.6419522 -0.39499688 0.087005876 0.6009864 -0.01257646
u445 0.192049 0.3148489 -0.31885785 0.63261473 -0.41085887 0.05174792 -0.12516263 -0.33867088 0.05431975 0.48988497 0.075539336 -0.4847578 -0.45402405 0.020485157 0.5509149 0.058408737
u446 0.4635557 0.9724973 -0.80861485 1.039103 -0.76373196 0.3676608 -0.21288632 -0.5315335 0.056970865 0.44682488 0.5544558 -1.171721 -0.9469594 -0.0852326 1.075346 0.11612587
u447 0.49491188 0.9639792 -1.1372592 1.0219822 -0.6146736 0.46818846 -0.2886893 -0.57725847 0.15073225 0.5507606 0.6290683 -1.1494226 -0.868752 -0.18538836 1.131137 0.04300844
u448 0.56583256 0.98279715 -1.1728293 0.9947791 -0.7345027 0.5660855 -0.26337638 -0.5312242 0.23344454 0.5418693 0.6510889 -1.1330882 -0.875278 -0.2299264 1.0653628 0.09526369
u449 0.30132753 1.2731574 -0.53785974 1.1594058 -1.054272 0.19045405 -0.20001605 -0.6298106 0.0039195213 0.72627264 0.5757493 -1.1974112 -1.0263858 -0.17424555 1.2128841 0.12026754
u450 0.36976847 1.1647832 -0.9962614 0.85480714 -0.7978662 0.46291238 -0.2136449 -0.49432996 0.14414823 0.5283801 0.7945245 -1.142954 -0.83588827 -0.21439075 1.1106471 0.16406056
u451 0.28796858 1.2563158 -0.8229714 1.0587403 -0.86121106 0.35862792 -0.2033619 -0.41500986 0.17705931 0.6891476 0.7877118 -1.0451846 -0.8168956 -0.22009985 1.0803884 0.12632315
u452 0.21255529 1.2186551 -0.8029692 1.0238885 -0.8309549 0.29912534 -0.20333052 -0.47909504 0.121753365 0.64416105 0.7089593 -1.1302326 -0.885736 -0.2141431 1.2017993 0.13370018
u453 0.22586283 1.4948152 -0.58814317 1.0523443 -0.8945704 0.09573935 -0.21514554 -0.5469236 -0.0148651395 0.7735612 0.69217116 -1.2189429 -0.8663991 -0.15456855 1.1331844 0.1548344
u454 0.2136448 1.3920741 -0.56883407 1.0598825 -1.0363022 0.17944193 -0.27875045 -0.5988294 0.09682475 0.73212 0.6414225 -1.0688161 -0.8764586 -0.17964037 1.2017311 0.14006521
u455 0.2518122 1.2652267 -0.73753196 0.97159773 -1.0163248 0.30673566 -0.22888426 -0.58902025 0.09668787 0.5649274 0.6577642 -1.1872734 -0.97047263 -0.15462177 1.2203455 0.19318114
u456 0.172769 1.0483278 -0.5339833 0.898172 -0.90578026 0.18227227 -0.20824178 -0.5080436 0.031042961 0.5341012 0.5172117 -0.92961746 -0.5749127 -0.14352503 0.981087 0.20413218
u457 0.20957342 0.95579845 -0.5894519 0.9610903 -0.63869953 0.2168846 -0.2714882 -0.48283345 0.057210855 0.55227244 0.4861909 -0.8500641 -0.55844873 -0.124960236 0.87462175 0.14362071
u458 0.08849639 0.5989538 -0.10584478 0.69321525 -0.6133996 -0.0038970385 -0.11945257 -0.38885435 -0.5154971 0.63499224 0.16428831 -0.43891478 -0.30184087 -0.03800859 0.5788217 0.11130076
u459 0.14883988 0.46822777 -0.11289742 0.6383039 -0.602923 -0.070866756 -0.18874206 -0.4609097 -0.19203624 0.563873 0.065251306 -0.45456707 -0.14993167 0.003944894 0.58370996 0.100847416
u460 0.1630723 0.69788045 -0.22998919 0.72216576 -0.66562915 -0.04103643 -0.18769418 -0.40538076 -0.30094254 0.6236473 0.14009485 -0.4370619 -0.26112303 0.03731034 0.64500254 0.068055645
u461 -0.0008898816 0.9838022 -0.08311416 0.94715613 -0.83169097 -0.14364727 -0.13530965 -0.6073599 -0.5513834 0.8206282 0.29119706 -0.60880816 -0.4923085 0.016379189 0.6632949 0.13100359
u462 0.10279944 0.8355484 -0.14223273 1.1271434 -0.7059105 -0.17258652 -0.19231911 -0.64432317 -0.5626718 0.8739917 0.20238246 -0.5993493 -0.35310394 0.027878819 0.7758015 0.14138804
u463 0.1547582 0.758757 -0.17065509 1.1993537 -0.7803174 -0.08044368 -0.21859728 -0.67787296 -0.48981515 0.7735283 0.2309752 -0.61489433 -0.22814018 -0.04982776 0.82653326 0.26602492
u464 0.11018693 0.87446064 -0.23370683 1.0015002 -0.8237044 -0.03694271 -0.11776832 -0.60418385 -0.6347251 0.6995503 0.31074494 -0.6588817 -0.38006064 -0.08746268 0.9612276 0.14064765
u465 0.10709291 0.86551034 -0.052321475 1.09245 -0.84574646 -0.11736165 -0.11917973 -0.74990827 -0.5618294 0.84898245 0.2558295 -0.7438588 -0.41191065 -0.046173174 0.8521621 0.14569192
u466 0.10749313 0.59748 -0.20129202 1.063307 -0.894487 -0.047008004 -0.21020101 -0.53151655 -0.465377 0.74485093 0.11929885 -0.57286906 -0.37040013 0.029731834 0.9188231 0.08089102
u467 0.050846886 0.8327816 -0.1444783 0.99951965 -0.8555505 -0.1157859 -0.07179686 -0.60628104 -0.5169645 0.7956552 0.11268871 -0.7298527 -0.42859006 -0.03494876 0.82681394 0.17406128
u468 0.12595946 1.1246934 -0.20508437 1.1744556 -1.0158405 -0.06853734 -0.20282726 -0.5599658 -0.51085633 0.88928527 0.31424934 -0.5887348 -0.29572594 -0.050613508 0.8985004 0.16605514
u469 0.1473267 0.84094805 -0.11840992 1.0554013 -0.8892108 -0.13107322 -0.10678434 -0.6930934 -0.5242512 0.7428589 0.13402504 -0.50366205 -0.30384168 0.041929744 0.78364325 0.13544524
u470 0.12304573 0.9601574 -0.22368245 1.2203833 -0.8592865 -0.07642964 -0.1923111 -0.6157936 -0.5554174 0.7814168 0.29635695 -0.62933165 -0.3594219 -0.012642894 0.9733926 0.1475095
u471 0.16626438 0.91137725 -0.2521938 1.0128942 -0.9034268 -0.09587127 -0.22793214 -0.7400125 -0.52243614 0.7777635 0.26913276 -0.5538457 -0.27059302 -0.008003 0.85763365 0.09800999
u472 0.12992363 0.95568645 -0.095088564 0.98259723 -0.84223926 -0.091479085 -0.123315796 -0.5982604 -0.4040625 0.8067863 0.2359968 -0.55027586 -0.29952157 -0.016870325 0.6600145 0.081091255
u473 0.107331 1.2679236 -0.081010856 1.3940109 -1.1327683 -0.12614968 -0.020548295 -0.9087434 -0.8336423 0.9235025 0.35206693 -0.6721213 -0.28113383 -0.08489232 1.0996866 0.076232366
u474 0.20039348 1.4864771 -0.0724669 1.547786 -1.3068798 -0.09008424 -0.02693115 -1.074401 -1.2470977 1.2768188 0.41795018 -0.8810843 -0.58560264 -0.16500303 1.2090858 0.03709244
u475 0.22650927 1.5040487 -0.15472637 1.4834827 -1.1474198 -0.079852305 -0.0049544387 -1.0031102 -1.2727251 1.2514012 0.4988998 -0.8620658 -0.5121086 -0.1708164 1.1942298 0.03441361
u476 0.083337516 1.2282251 -0.1277206 1.3128105 -0.85818654 -0.13571967 -0.17019872 -0.71649355 -0.69884545 0.85083497 0.2901848 -0.62243545 -0.2556266 -0.09710663 0.9727775 0.13681513
u477 1.3535621 0.03119654 -0.9747475 1.557813 -0.91888076 0.82853734 0.33249527 -1.5649168 -0.038518813 0.30957425 -0.17351876 -0.70476717 -0.686787 0.16628475 1.2417789 -0.12849504
u478 1.185867 0.051682446 -0.90308386 1.4727436 -0.7332701 0.5716041 0.1183822 -1.2848593 -0.10336523 0.3019382 -0.17069636 -0.5984644 -0.38848644 0.13698111 1.0789936 -0.22369821
u479 1.1303662 0.12331773 -0.9103749 1.4110652 -0.8809888 0.69760275 0.25394827 -1.3241547 -0.010878798 0.27462032 -0.10602174 -0.62950164 -0.4124071 0.13146622 1.1315762 -0.19999328
u480 1.3560656 0.31016132 -1.2977976 1.5794615 -0.9669021 0.77517647 0.091146834 -1.0655001 0.10382333 0.5070686 -0.014672532 -0.693402 -0.55797744 0.12643977 1.4015641 -0.2054034
u481 0.98207664 0.3565646 -0.91516066 1.480289 -0.7775487 0.5077526 -0.122337796 -0.722576 0.17304352 0.38847572 0.010204192 -0.5307619 -0.2548618 0.08494192 1.0944868 -0.111020446
u482 1.0670435 0.24753924 -1.1164142 1.3995935 -0.86423266 0.5941428 -0.044723798 -0.6908556 0.22242579 0.4803036 0.021515043 -0.507495 -0.27155954 0.09037765 1.129231 -0.22582795
u483 1.1973615 0.19314197 -1.0107672 1.4064319 -0.7175248 0.62969583 -0.07396561 -0.90107596 0.094103694 0.5721644 -0.11596163 -0.6714095 -0.33273694 0.13471691 1.0758859 -0.19173485
u484 1.306027 0.08988455 -0.99693084 1.4171882 -0.5272971 0.49170163 0.0024187425 -0.9717888 0.052516203 0.6054649 -0.13456011 -0.7965821 -0.46437955 0.16161138 1.1279602 -0.24364296
u485 1.1015763 0.19789745 -0.8615746 1.2330611 -0.33382455 0.38102168 -0.18000872 -0.7722901 0.024769152 0.86122143 -0.067236766 -0.82016176 -0.3313216 0.14843825 0.96541077 -0.2919644
u486 1.0434427 0.16508855 -0.8381275 1.2957749 -0.2462891 0.3199939 -0.12239765 -0.8225693 -0.06265692 0.5807695 -0.12162681 -0.71718276 -0.25240335 0.13625048 0.85470974 -0.38849497
u487 1.2499458 0.19360524 -1.0580901 1.2232897 -0.29856992 0.42899558 -0.15195931 -0.71137387 0.0013574271 0.7833987 -0.13307954 -0.78784317 -0.31052414 0.122854665 0.959815 -0.30232456
u488 0.8887781 0.24361385 -0.81603926 1.0771805 -0.33609247 0.29726887 -0.18087019 -0.551327 0.052062213 0.7089854 -0.053254943 -0.6187509 -0.25201944 0.04395298 0.792208 -0.22004545
u489 0.7846873 0.31011194 -0.8641649 1.0065773 -0.29731593 0.22804631 -0.21134026 -0.41592386 0.046305284 0.55501604 0.021707106 -0.55022615 -0.19188367 0.07294521 0.8086227 -0.21675125
u490 1.0013986 0.17001083 -0.90102184 1.2133595 -0.3438765 0.40065774 -0.14222988 -0.67694485 0.032683086 0.5655382 -0.13027218 -0.62418133 -0.19926609 0.0903817 0.8830008 -0.26568413
u491 0.80660945 0.2411181 -0.8137121 1.0793738 -0.3155287 0.22817355 -0.18674172 -0.7600014 0.04059328 0.43899557 -0.11798435 -0.68766844 -0.34813905 0.12209841 0.8896322 -0.080216534
u492 0.72254026 0.18967775 -0.63420033 0.98455393 -0.3786611 0.2588698 -0.16101252 -0.8232062 -0.043798808 0.429353 -0.04790554 -0.69541246 -0.2805661 0.14282331 0.81118417 -0.09031518
u493 0.93678474 0.2731707 -1.0043876 0.92322224 -0.147355 0.37909764 -0.13256004 -0.7132673 -0.14400077 0.6894273 -0.0620991 -0.8694802 -0.26512843 0.08986019 0.8335835 -0.3133867
u494 0.88760895 0.10968902 -0.7865534 1.0405983 -0.25848725 0.33397225 -0.06928497 -0.8271101 -0.13758451 0.54583347 -0.1340806 -0.9438679 -0.6329078 0.13520403 0.8943534 -0.08913955
u495 0.9989118 0.1824412 -0.89094 0.95755064 -0.19005013 0.37433916 -0.10982415 -0.75307876 -0.14746535 0.70004755 -0.13315032 -1.155176 -0.6598589 0.112044565 0.6072064 -0.22484036
u496 1.1465368 0.16708462 -1.1456574 0.9051414 0.00065108977 0.39935905 -0.12982589 -0.8366151 -0.27359638 1.0167792 -0.12433568 -1.3484586 -0.8690029 0.10365504 0.81110036 -0.41105464
u497 0.71971154 0.14714327 -0.8232158 0.8467708 -0.14565274 0.25189453 -0.11009002 -0.66972834 -0.24800463 0.6582702 -0.027481692 -0.8075093 -0.6260833 0.06884914 0.7022208 -0.24245611
u498 1.143618 0.16618739 -1.1158538 0.9992262 0.14221215 0.36549518 -0.17712611 -0.73211324 -0.68019855 0.5125349 -0.21518485 -1.308469 -0.70002645 -0.064834625 0.5042607 -0.65457827
u499 1.0402741 0.21689254 -1.2204506 1.1559637 0.17799391 0.38889062 -0.20711896 -0.728094 -0.77813077 0.70946133 -0.2538625 -1.379716 -0.81673074 -0.03592257 0.61430234 -0.5926351
u500 1.0338118 0.21958642 -0.98984486 1.0325394 0.005284055 0.26610965 -0.1520097 -0.75742203 -0.32487735 0.8927858 -0.15440102 -1.2013414 -0.8106439 0.053088594 0.6759284 -0.40235016
u501 0.8780438 0.1520168 -0.8819455 0.8741791 -0.056123026 0.23380409 -0.17334943 -0.667784 -0.19503969 0.7660628 -0.11179276 -0.9915734 -0.73638153 0.14656958 0.57322407 -0.2353907
u502 0.84576553 0.18040572 -1.0105861 0.86363345 0.0026342152 0.28461134 -0.19025257 -0.6601077 -0.22149031 0.7934158 -0.11149115 -1.0609281 -0.80321497 0.08725351 0.65296996 -0.3347073
u503 0.93681407 0.1612958 -0.9903569 0.9503673 -0.027853064 0.2575565 -0.1959351 -0.7485076 -0.24777903 0.7104577 -0.12656507 -1.1597974 -0.7044503 0.16524069 0.70821095 -0.24541366
u504 0.99668133 0.18011418 -0.8911643 1.050655 -0.109846465 0.21060443 -0.09771893 -0.7930244 -0.31021217 0.91299254 -0.13078779 -1.1068665 -0.90908766 0.17709616 0.5860271 -0.2970819
u505 0.63939327 0.24113579 -0.5281394 0.80686516 -0.07435064 0.07560625 -0.19684829 -0.53837276 -0.22266185 0.61106193 -0.10090966 -0.8896845 -0.4979389 0.084218286 0.5123554 -0.04613991
u506 0.66940016 0.14450195 -0.61172426 0.9726952 -0.18670343 0.13721536 -0.14667277 -0.7630179 -0.072096236 0.5927527 -0.10247336 -0.82756615 -0.53909355 0.15491256 0.6058386 -0.08050455
u507 0.40034276 0.31235698 -0.43444133 0.7744255 -0.36542314 0.12315934 -0.22324817 -0.41501072 -0.07598376 0.56817013 -0.05956246 -0.6529234 -0.38171172 0.048311945 0.63438606 -0.07478762
u508 0.48489344 0.21644299 -0.61294574 0.7398373 -0.20029205 0.13554642 -0.08533562 -0.46724704 -0.06956633 0.5728744 0.01235847 -0.6980556 -0.50821 0.062100377 0.589995 -0.0738518
u509 0.43283218 0.22793095 -0.48046175 0.8388092 -0.32157513 0.043942504 -0.14020143 -0.5816952 -0.10607287 0.6045554 -0.022713175 -0.855352 -0.48269117 0.10941512 0.58513296 0.033919554
u510 0.15534545 0.43624583 -0.2925499 0.62486154 -0.37619162 0.14466661 -0.2041 -0.31570163 -0.03320441 0.498891 0.13651992 -0.56967443 -0.32708958 -0.043547194 0.53141844 0.16916835
