4546 32
u1 -0.27871132 -0.03301469 -0.00086166116 -0.17732827 -0.5151929 0.19741106 1.2381833 -1.5439874 -0.10766445 -0.06598474 -0.40711027 -1.0568691 0.16251656 1.1069741 -1.0298206 0.18752572 0.82966363 -1.3783505 -1.4482559 -1.1470946 -0.3992947 -0.022147533 0.121434554 -1.3105177 1.5349461 0.1363818 -0.12454017 -1.4088404 0.489761 -0.18823683 -0.13639702 1.621239
i1 0.1797006 0.12243103 0.78409654 0.080083676 -0.47610384 -0.21763942 -0.16658527 -0.22062092 -0.73140436 -1.8212879 -0.22442992 -0.30558965 0.18855903 1.3899887 -1.5249324 -0.26440698 1.2975155 0.5834533 0.14716545 0.23388879 0.5900873 -0.11143228 -1.1518534 -0.04690954 -0.0031373822 -0.16509168 -0.93777436 0.18809366 0.09628662 0.039312623 -0.25691485 0.4375118
i2 0.29393145 0.88855517 0.3584219 0.39959633 -0.41340333 -0.8423989 0.69423383 -0.24366194 0.41467258 0.5111509 -0.22720335 0.69152355 -0.2062901 1.17908 -2.2455566 -0.46056435 0.05243286 0.1498584 -0.09167874 -1.1288391 1.895444 -0.24499503 -0.46726954 0.21801475 2.3283417 0.5757889 -0.22035918 0.14616816 -0.34926587 0.91580784 0.272493 0.76618475
i3 0.32843447 0.6807163 0.5371608 -0.06452087 -0.97891474 -0.8152848 1.0827618 -0.247672 0.57956034 0.22397067 -0.17190261 0.5298973 -0.09484012 0.8251479 -2.2729237 -0.03280976 -0.29358378 0.58534765 0.31924856 0.50993645 1.8534834 0.45586902 -0.64157474 -0.5951788 0.9986129 0.9145406 -0.30518275 -0.1134358 -1.3171551 0.40210918 0.2974303 1.2318774
i4 0.7321163 0.65803885 0.28457442 0.35879475 -0.7589561 -0.45325506 0.98072743 -0.30769658 0.082611665 0.4000189 -0.062398847 0.49367654 0.25296676 0.057359513 -2.8262258 0.035006188 0.28442165 0.0643802 -0.06152857 0.2785625 1.0075406 0.48498046 0.10056017 -0.4578326 2.4020572 1.3836673 -0.123349175 0.336537 0.51064223 0.73042524 -0.14520195 0.6159024
i5 0.18147065 0.8441836 0.2578899 0.38539952 -0.97737974 0.06787404 1.3636528 -1.2099619 -0.06854092 0.5700589 0.4640283 0.65389293 -0.33890665 1.2439839 -1.9902879 -0.41022572 -0.4488236 0.68662345 -0.46956384 0.55062526 1.227799 -0.3234297 -0.08289465 -0.49320027 2.0314064 0.83836657 -0.1147284 -0.0852509 -0.54785013 0.6065433 -0.28278652 -0.13730232
i6 -0.3609786 -0.15639265 -0.6567336 0.5996216 0.122605756 0.36995405 -0.13140324 -0.6626326 -0.92166287 -0.43269297 0.40829957 -0.9735051 -0.060515434 0.19120963 -1.8111519 -0.2749491 0.60314816 0.3863017 -0.4398666 0.3783684 0.8210205 1.501362 0.14903028 0.3928068 -0.42379406 0.4326606 0.19491108 0.35032997 -0.48453256 -0.39756978 0.041694857 0.20952985
i7 0.71998155 -0.0072303037 0.3799783 0.7429753 -0.052505754 -1.0842898 0.81056213 -0.93965256 -0.092887156 0.29813334 -0.66964114 -0.89221406 0.3726602 -0.4798067 -2.801127 0.2882193 0.22172987 0.13159701 0.28771532 -1.0538654 0.28189766 0.96899676 -0.077776685 0.63328826 0.16884466 -0.7689085 -0.20460956 -0.05472415 -0.589729 0.16779423 0.050185263 -0.16669095
i8 -0.05737588 -0.17593193 -0.18196853 1.3388903 -0.37199536 -0.1689892 0.45500052 -0.52672404 -0.26821682 -1.0659225 -0.020627165 -0.38430783 0.124172606 -0.31046012 -2.1702015 0.27846998 -0.104985215 0.22293715 0.4386018 -0.3139897 0.68082184 0.51192516 -0.03700811 0.68007797 0.07246089 0.072814 -0.55902255 -0.6848442 0.05268712 -0.3188368 -0.16323607 0.4494976
i9 -0.051494576 0.10772705 -0.20188667 0.47586837 -0.1637821 -0.1662 0.120895736 -0.59816116 0.031245679 -1.6707294 -0.17546655 -1.170459 -0.45286828 0.6366134 -1.5665427 0.25983065 0.21589881 0.3981782 0.23783034 -0.9271181 0.94108266 0.088378064 0.16987433 0.82594234 -0.56915647 -0.15322407 0.075457454 -0.10491334 -0.4536841 -0.18006615 0.086379364 1.0548579
i10 0.3150805 1.1799333 0.08259962 0.4777315 -0.51355517 -0.44281924 0.6768056 -0.86341363 1.1414388 0.7622697 -0.16221032 0.54855686 0.15638433 0.5485825 -2.382627 0.28354824 -0.40181148 0.6929187 -0.35578892 0.23691598 1.9817761 0.6877816 -0.07503762 -0.28940985 1.4624842 1.0741502 0.05101608 -0.5234612 -0.24275658 0.6269196 -0.20951045 0.3752042
i11 1.3867708 -0.0069906292 0.08994901 0.41912645 0.68361974 -0.4013625 1.2761002 -0.6341511 0.03857899 -0.3685624 0.9808051 -0.07541299 -0.20775972 1.2373621 -1.942024 -0.03833051 -0.5175457 -0.49618635 -0.8235358 0.08966574 0.3503522 -0.3816195 0.6198754 0.2402769 -0.50000155 0.3164301 -0.098164305 -0.53477985 -0.48479876 -0.021972535 -0.45554444 0.6064494
i12 0.2809696 0.30080467 0.4005134 0.114951335 -0.66436774 -1.1759648 0.34930375 -0.53466123 0.048185475 0.24191476 0.45385215 -0.086544275 1.2836494 1.9214244 -1.6212776 -0.05524895 -0.021962821 0.683133 -0.70627356 0.29838175 0.6359446 0.12176082 -0.2910201 0.4330197 0.25120917 0.31493592 0.10699905 0.051283628 -0.043246053 0.6384432 -0.00077302736 0.40934306
i13 0.33610496 1.6267767 1.0408369 -0.13997841 -0.013737483 -0.7109637 0.5088931 -1.5490746 -0.019944252 0.13383995 0.24601322 0.016283501 -0.070381515 0.66599345 -2.2320998 -0.2989332 0.24743453 0.3137897 -0.30025274 0.70861804 1.7670642 -0.013397871 0.023130635 -0.06881734 0.39810854 0.19502945 0.36069766 -0.07916047 0.66290647 -1.0162033 0.056798648 0.058120806
i14 0.3932099 1.3102772 0.7516054 -0.14660248 0.013750065 0.010838717 0.42776713 -0.8548837 -0.08147639 0.6308148 -0.12345721 0.23299429 -0.15496641 0.70378995 -1.9250318 -0.68757683 -0.3887994 0.86547536 -1.027544 0.7705523 1.7023077 0.41178584 -0.3638114 0.33667263 0.83853096 0.9993071 0.3784419 -0.06118866 -0.03609237 -0.4497214 -0.37374288 0.8601463
i15 0.4512609 1.8643112 0.96786654 -0.077875726 -0.08913324 -0.73466635 0.047567476 -0.46842685 0.2427378 0.45287535 -0.13992001 -0.16703473 -0.062366866 0.30380404 -2.4450736 -0.6080931 -0.3409603 0.32732695 -0.65990865 0.5855581 1.2786694 0.5838385 -0.3592191 0.33434775 1.1662999 0.9842338 -0.16690104 -0.24549802 0.3897284 -0.5795461 -0.21390253 0.581453
i16 0.30056214 1.3937985 0.5247562 0.032958344 0.0931192 -0.41271687 0.57489055 -0.7630082 0.8520057 0.48088452 -0.26380947 0.24753258 -0.35070884 0.38271576 -2.0842848 -0.20160463 -0.45758894 0.50695616 -0.50764084 0.4411533 1.8117067 0.47244114 -0.4060164 0.23349452 0.95601285 1.3080614 -0.049008954 -0.29481342 0.087474674 -0.166537 -0.31368855 0.827223
i17 0.67567664 0.7963844 1.0561501 0.21264227 -0.50814867 -0.5551843 0.17280623 -1.2233973 0.167557 0.46078354 0.51420957 0.57877713 0.4039143 1.0427817 -1.880901 -0.67107534 -0.4806366 0.9242296 -0.45049965 0.575012 0.4774626 -0.3244136 0.12873325 -0.16742596 0.49644256 0.28709096 -0.17964594 -0.341741 0.46085528 0.58035034 0.24337135 1.7104751
i18 0.25700244 2.093114 0.21244323 -0.048416536 -0.13062558 -0.3297032 0.34674922 -1.0303215 1.1805232 0.54412735 -0.11954748 0.10700877 -0.10403086 0.5083517 -2.1075118 -0.1508594 -0.38088012 0.62304026 -1.1907609 0.7242252 1.8765639 1.0216805 -0.6135518 0.1830424 0.79622716 1.0443728 0.40663487 -0.17245144 -0.01219705 -0.44439974 -0.32491973 0.36987814
i19 0.55300236 0.7705151 0.79029465 0.48883104 -0.656604 -0.697722 0.79688555 -0.65753007 0.091341436 0.32365003 0.33451757 0.5447175 0.23845764 -0.015487834 -2.496865 -0.04693671 -0.3041085 -0.5581111 -0.06391187 -0.10492769 1.4291089 0.16669615 0.12940326 -0.1864421 2.092377 0.84376746 -0.20626158 -0.5801188 0.5999786 0.7069261 0.10371347 0.3924452
i20 0.546693 1.2682207 0.790198 -0.16944605 -0.013864807 -0.22707951 0.48505682 -1.0658488 0.23784955 0.56562155 -0.2709489 -0.1312736 -0.057930917 0.4104513 -1.6762093 -0.57698506 -0.1955468 0.5959602 -0.908752 0.64130384 1.8198532 0.24368422 0.060632817 0.18761536 0.44728842 0.44508594 0.3027308 0.021543566 0.20778655 -0.06753832 -0.28488392 0.80370814
i21 0.4185819 0.67987156 0.98567873 -0.06944312 0.056868006 -0.012725915 0.38530076 -1.3426902 -0.016707696 0.61846805 -0.13668886 0.10093824 -0.0010189002 0.5283931 -1.5750682 -0.6269365 -0.36517227 0.79764694 -0.86451185 0.64095426 1.8079444 0.3836852 -0.041769058 0.4670498 0.5447354 0.72994936 0.19011912 -0.1423912 0.01851876 0.026128363 -0.28131098 1.1786054
u2 -0.42385772 -0.08070219 0.009491823 -0.12399741 -0.64780694 -0.13103579 1.0654383 -1.642907 -0.033021584 -0.23122928 -0.25544804 -0.7930551 -0.10258347 1.3502839 -0.46076638 0.28719282 0.64355505 -0.8904332 -1.417983 -1.2042246 -0.574646 -0.0052289288 0.008162074 -1.3083533 1.4316733 0.3879851 -0.19449103 -1.4379092 0.5341935 -0.427433 -0.31423497 1.6316985
u3 -0.42525735 0.0017026277 0.1491712 -0.10925257 -0.62197465 -0.01072747 1.1951332 -1.6369776 -0.023393549 -0.12193622 -0.16238 -0.9180208 -0.23680314 1.2471902 -0.42077318 0.21137407 0.7692985 -1.0532646 -1.7215438 -1.1394043 -0.4588156 -0.08557745 -0.27156743 -1.1207049 1.2897632 0.5342352 -0.20155928 -1.2872998 0.5535045 -0.21433775 -0.33230382 1.5220523
u4 -0.18341158 0.16947606 -0.20380352 -0.105917215 -0.8064976 -0.16591801 1.3434589 -1.6568186 -0.19014156 -0.3183513 -0.07905358 -1.11528 0.4758891 0.4741974 -0.3842872 -0.12743276 0.320545 -0.98183656 -1.347874 -1.434265 -0.26420715 -0.07334765 0.1497823 -1.5217797 1.9005175 0.03785467 0.1690332 -0.91017497 0.3449161 -0.48230693 -0.08417176 1.4141896
u5 -0.2683593 0.3285811 -0.35092112 -0.17041425 -0.54259163 -0.39993355 0.9481465 -1.6537931 0.31720886 -0.1114227 -0.18181758 -0.9804389 0.6900928 0.14509933 0.014179492 0.0071571255 -0.037698284 -0.57521456 -0.8981698 -1.2210053 -0.24629432 0.1559458 -0.070201635 -1.391331 1.6431414 0.48467097 0.29459402 -0.8696653 0.2661737 -0.6597143 -0.073596895 1.5659797
u6 -0.20681392 0.26887104 -0.41280818 -0.17224184 -0.50931865 -0.3299524 1.1375754 -1.8598707 0.13016388 -0.14448369 -0.0027275425 -1.0556278 0.67954564 0.08714432 -0.09946577 -0.019366445 -0.16447267 -0.88707334 -1.0725108 -1.322077 -0.2369021 0.035324443 0.008817625 -1.5094185 1.7045132 0.18482086 0.34321165 -0.8564321 0.26710588 -0.52786505 -0.35990593 1.4755365
u7 -0.30631533 0.18065175 -0.26689067 -0.337593 -0.5484736 0.029050453 1.0000019 -1.4304757 0.31209606 -0.025184726 -0.20619862 -0.8863146 0.3876438 0.35356912 -0.16566862 -0.052590463 0.04373353 -0.5245341 -1.0013121 -1.5118364 -0.36018082 0.0980099 -0.244184 -1.4341327 1.5002608 0.18576519 -0.02261981 -0.86387295 0.38098758 -0.56536543 -0.09892339 1.4392927
i22 0.15388323 1.2684159 0.16869798 0.102736965 -0.3744522 -0.25998414 0.6852459 -0.8245971 0.87126714 0.43505976 -0.04039936 0.40453094 -0.13656451 0.9797776 -1.6088867 -0.22225 -0.3963209 0.56592906 -0.5305922 0.38382143 1.8642973 0.04723941 -0.53687775 -0.040853202 1.1197765 0.93412334 0.035670076 0.2086945 -0.250697 0.14639044 -0.38544407 0.7017434
u8 -0.3078886 0.23055919 -0.49859095 -0.151014 -0.7335209 -0.13556705 0.8851151 -2.1002386 -0.0985717 -0.1246348 0.108590454 -0.90005577 0.4890388 0.55521876 -0.4122381 0.05797567 -0.050711405 -1.1506081 -1.2394887 -1.5761231 -0.12450356 -0.23816478 0.19144116 -1.3396583 1.5923656 -0.34132057 0.0057315906 -1.1780227 0.3188074 -0.72485465 -0.09537665 0.9244351
u9 -0.23423375 0.24473432 -0.38867763 -0.20568074 -0.74921155 -0.22416905 0.42239636 -1.8172456 0.037716523 -0.008741943 -0.14869858 -0.951844 0.47268716 0.52879375 -0.2188589 0.047861807 0.031256016 -0.7303153 -1.0875686 -1.6268662 -0.018212209 -0.25511426 -0.033869263 -1.3183955 1.6462175 -0.33299568 -0.24758378 -0.9593184 0.032838803 -0.9096941 0.04659847 1.4004214
u10 -0.09116076 0.2332859 -0.5249007 -0.19059375 -0.659119 -0.2929265 0.21550623 -2.057546 0.34625712 -0.14784005 -0.14778827 -0.8029937 0.4951149 0.4834378 -0.14803149 0.05564286 0.060327996 -0.47049004 -0.7221035 -1.4500192 0.056454565 -0.4152798 -0.17819269 -1.3981633 1.4506075 -0.2507082 -0.24722809 -1.0367379 -0.105627276 -1.062408 0.05418365 1.1983451
u11 -0.1592006 0.41434413 -0.53136283 -0.2535368 -0.67077804 -0.1861508 0.46057954 -1.7950753 0.24589773 0.0021261203 -0.015171065 -0.7587235 0.46298835 0.4600363 -0.265032 0.00015892187 0.12670548 -0.8740791 -0.98684597 -1.7276568 0.19703436 -0.33439547 -0.3061432 -1.2195282 1.562479 -0.3816424 -0.16719256 -0.70310724 -0.02219343 -0.9768473 0.12235982 0.9349718
u12 -0.21501692 0.25795823 -0.3717431 -0.3349775 -0.4401232 -0.17096236 0.3310283 -1.6445285 0.4163182 0.03187576 -0.07227844 -0.75610626 0.4320065 0.27171504 -0.12676542 0.18467487 -0.036711454 -0.5858329 -0.8537092 -1.5205463 0.116257824 -0.29099375 -0.44616547 -1.3378371 1.1305109 0.015678013 -0.4082985 -0.76738465 0.04243002 -0.962965 0.00434108 1.1709404
u13 -0.12228579 0.31845886 -0.49937218 -0.20859954 -0.41969165 -0.27276176 0.33944076 -1.9375871 0.4409196 0.02992378 -0.21971887 -0.70275867 0.52580255 0.32423708 0.03200719 0.12998225 -0.06435296 -0.62846386 -0.9473903 -1.6147866 0.010140776 -0.37725896 -0.30211642 -1.2544801 1.4568356 -0.044256233 -0.33275297 -0.96539605 -0.039248146 -0.8794203 0.018050201 1.352562
u14 -0.15989366 0.27165815 -0.32353804 -0.26980773 -0.49033937 -0.30190375 0.2847856 -1.9328364 0.18459284 -0.23818626 -0.06221425 -0.7731401 0.6802598 0.27557835 -0.14990431 0.038802322 -0.26804826 -0.58304155 -0.63512725 -1.4245199 0.009816578 -0.3018567 -0.07973076 -1.324877 1.4485476 0.04523017 -0.1386172 -0.9326249 0.050953466 -0.98822534 -0.056286957 1.3060675
u15 -0.38618168 0.3171999 -0.27718538 -0.21510348 -1.0850843 -0.11098777 0.2967087 -1.525153 0.6078985 0.13176076 -0.43252113 -0.67897385 0.6906947 0.31006435 -0.1278046 0.11779543 0.13174373 -0.76832396 -0.80507237 -1.5314989 -0.11062092 0.10187498 -0.042756192 -1.3688148 1.456551 -0.03020823 -0.07811077 -0.5121594 0.30910888 -1.0734091 0.38537887 1.3055815
i23 0.37422964 1.8871396 0.428892 -0.05232983 -0.10669133 -0.52105755 0.20673023 -0.662846 1.1423148 0.5863139 -0.39536443 0.06471424 -0.07019474 0.5831385 -2.2129574 -0.45500162 -0.2891861 0.5833141 -1.0535479 0.44057256 1.9143604 0.8445989 -0.7855101 0.3436456 1.0531167 0.79766667 0.3613207 0.03685296 0.15260392 -0.50812054 -0.15799981 0.59615076
u16 -0.2335133 0.35156924 -0.29191953 -0.17214806 -1.1278305 -0.28713852 0.4647387 -1.5019202 0.5220482 0.16060159 -0.35082087 -0.8037258 0.6835387 0.37251863 -0.23193766 0.041434444 0.27254763 -0.8700797 -0.8834902 -1.3418288 -0.17717758 0.007509696 -0.30387384 -1.3822361 1.4183177 0.021967236 0.021408472 -0.3678752 0.19637285 -0.95333546 0.3767668 1.4312522
u17 -0.35623008 0.2574774 -0.2977014 -0.2900886 -1.2959626 -0.28300372 -0.030458463 -1.4771776 0.5815294 0.3780148 -0.29457417 -0.90460974 0.5201913 0.44186023 -0.19133803 0.03720577 0.3344286 -0.8144914 -0.6967245 -1.42014 0.14545186 -0.116319574 -0.42429888 -1.483522 1.3999548 -0.28341645 -0.31326583 -0.47566363 -0.026621256 -0.9910155 0.42546588 1.1906087
u18 -0.30309114 0.17255822 -0.18274938 -0.34260947 -0.9032185 0.5758304 -0.02258325 -1.5709856 0.25320557 0.2433505 -0.018437926 -0.99232167 0.3339028 0.26769322 -0.9033287 0.19037166 0.06196056 -0.62024677 -1.3390033 -1.2563713 0.115856044 -0.111272335 -0.28231922 -1.1464207 1.3269482 -0.1365995 -0.287373 -0.44109872 0.1265079 -0.9391945 0.11057345 1.2867411
u19 -0.3526151 0.22235505 -0.23251465 -0.2881898 -0.915614 0.69094807 -0.09267763 -1.4879308 0.6611968 0.27639475 0.10168699 -1.0963526 0.317777 0.5214665 -0.7347583 0.24961162 -0.16063334 -0.357276 -1.4137598 -1.1434258 -0.003610459 0.056529846 -0.8402846 -1.1595635 1.1814561 -0.06500913 -0.38399377 -0.4034754 0.07576036 -0.8901611 0.10506595 1.1252558
u20 -0.3123869 0.23778193 -0.46498603 -0.29930097 -0.845176 0.49890548 -0.104339145 -1.6080538 0.59969723 0.6010015 0.24572466 -1.049098 0.031406734 0.7866136 -1.0385562 0.17327613 0.22436513 -0.7682729 -1.5297688 -1.5705978 0.38758835 -0.3224523 -0.8902186 -1.189313 1.3244666 -0.50259745 -0.5195841 -0.49584243 -0.23433045 -1.0226443 0.42173833 0.93595433
u21 -0.34537712 0.24535593 -0.4457798 -0.34733033 -0.8621564 0.33205637 -0.3545092 -1.6775625 0.39844146 0.38433695 0.19116881 -0.9392778 0.4310702 0.55878097 -0.78605944 0.070792 0.03809753 -0.60193527 -1.4781929 -1.4254371 0.15424916 -0.19931254 -0.80821663 -1.1784161 1.3115438 -0.6546653 -0.33047134 -0.2937507 -0.039291944 -1.2526 0.41690814 0.84900767
u22 -0.3125481 0.15424328 -0.14970428 -0.42333317 -1.1445653 0.22322915 -0.43181628 -1.6382233 1.0169584 0.21809916 -0.12993813 -1.1651489 0.59068793 0.898569 -1.3353505 0.14672914 0.06474308 -0.1372578 -0.660413 -1.0769486 0.33151066 0.02360897 -0.895936 -1.7201074 1.2709352 -0.17990506 -0.5452022 -0.70028394 -0.35154894 -1.4084935 0.5510545 1.2005029
u23 -0.29340038 0.032486647 -0.1087304 -0.42578837 -1.2262045 0.41257805 -0.40325558 -1.6799494 1.0045158 0.19955961 -0.09604276 -1.232012 0.6098828 0.7634932 -1.1158899 0.19027266 0.01768788 -0.04049061 -0.68336505 -0.9078029 0.40158814 0.008718327 -0.86792684 -1.5801882 1.1169906 -0.1288429 -0.5061581 -0.7414494 -0.34827858 -1.410039 0.60988194 1.3001988
u24 -0.40214428 0.11754874 -0.36344466 -0.44670674 -0.9674434 0.2563447 -0.41984576 -1.7175329 0.7837476 0.40693492 0.1324572 -1.2062569 0.283343 0.6166545 -1.0207244 0.17010973 0.1391258 -0.42935768 -1.0684332 -1.2569367 0.21925727 -0.16618171 -1.0257808 -1.3341924 1.4069117 -0.46159345 -0.4772576 -0.4744415 -0.12998948 -1.1446234 0.30482832 1.1312438
u25 -0.36333895 0.18487321 -0.5121255 -0.2996279 -0.86758584 0.15395322 -0.13820662 -1.9173908 0.6704596 0.29682016 0.1706732 -0.78251225 0.31408298 0.53405935 -0.7979933 0.26034135 -0.033761214 -0.48809603 -1.3980864 -1.1580122 0.21828124 -0.10335587 -0.6779135 -1.2819892 1.2138604 -0.40243462 -0.39733428 -0.5687768 -0.0080911955 -1.2684059 0.23083553 0.8812948
u26 -0.33798718 0.10689899 -0.3913756 -0.3942124 -0.81435925 0.49065644 -0.3308217 -1.7182218 0.7439678 0.44935519 0.17690554 -1.1190463 0.24279156 0.5453337 -0.77422595 0.17886418 0.028727617 -0.43444392 -1.1712346 -1.2071078 0.16026671 -0.11355693 -1.0569451 -1.3476186 1.3737452 -0.38834298 -0.45200378 -0.53847176 -0.04243601 -1.1150604 0.27733272 0.87542874
u27 -0.3609646 0.16592254 -0.39258814 -0.34972253 -0.8929099 0.47959122 -0.24802157 -1.8648658 0.5024372 0.40606192 -0.061710827 -1.1518615 0.3677527 0.35686195 -0.80753094 0.28119525 -0.15494975 -0.5440026 -1.266979 -1.4131643 0.067444265 -0.043540243 -0.75082564 -1.3924209 1.3343933 -0.20475027 -0.43414044 -0.4202012 0.07938974 -1.2351117 0.100456655 1.0603257
u28 -0.47344002 0.119679615 -0.33620122 -0.30272642 -0.7228724 0.6739309 -0.042066894 -1.9614218 0.92750144 0.33055118 0.33453545 -0.83534944 0.085245065 0.44342932 -0.8273254 0.3906875 -0.22777027 -0.47547287 -1.5202491 -0.9128764 0.16075704 0.08686203 -1.0632257 -1.2353257 1.1357039 0.035680667 -0.4019398 -0.7638808 -0.036323417 -1.045735 0.14447665 0.7358507
u29 -0.37195882 0.08535075 -0.17294855 -0.45830765 -0.636851 0.89728934 -0.12838276 -1.5910944 0.95780504 0.32181883 -0.014855688 -0.6677896 0.46126452 0.16776031 -0.6135834 0.23902254 -0.14572218 -0.43191233 -1.0549808 -1.1651675 0.15122849 -0.003529542 -1.1535472 -0.9836265 0.7952057 0.082575835 -0.47801623 -0.47827762 -0.07470871 -1.0984447 0.4960944 1.3480972
u30 -0.36897805 0.12524334 0.0040654135 -0.35660648 -0.5933789 0.2806551 -0.06462377 -1.5222179 0.5210709 0.11877841 -0.04391181 -0.7013318 0.6281252 0.38017365 -0.7632029 0.1573565 -0.03714344 -0.7478457 -1.2055143 -1.247099 0.11464594 0.02272582 -0.5549782 -0.8442372 0.9234719 0.2530937 -0.33232814 -0.442713 0.062359605 -0.9813246 0.29924643 1.1991845
u31 -0.42704627 0.37972233 -0.29818976 -0.46859983 -0.49257788 0.23183946 0.20651801 -1.7530451 0.42583027 0.08897455 0.3271673 -0.6849114 0.5843795 0.05630733 -0.7302623 0.09416052 -0.18692707 -0.87334603 -1.2834777 -1.5826069 -0.059013363 -0.23401617 -0.9094438 -0.70891553 0.80535257 0.2828088 -0.31742105 -0.5191094 0.17571984 -0.7050793 0.30841398 1.2684255
u32 -0.4693904 0.19080962 -0.33049878 -0.4663392 -0.40283817 0.29985943 0.11083341 -1.5218959 0.620889 0.3153142 0.31979337 -0.54765993 0.44081584 0.031428438 -0.6217219 0.13920154 -0.11746674 -0.7529491 -1.410168 -1.5081292 0.057197224 -0.16486165 -0.9868961 -0.85074 0.716612 0.19616368 -0.34566534 -0.43064103 0.13565688 -0.64471334 0.23932557 0.98094344
u33 -0.3548047 0.26505244 -0.2531884 -0.34648204 -0.41366544 0.44810396 0.14948526 -1.7501057 0.61820894 0.3636315 0.49199346 -0.6444758 0.55310845 -0.071411006 -0.53267926 0.13546231 -0.31785008 -0.7359979 -1.3631835 -1.261846 -0.050765727 0.034371544 -1.1289083 -0.55880934 0.8103601 0.32417202 -0.17368518 -0.4848764 0.09534706 -0.7792273 0.14337976 1.2099771
u34 -0.37201244 0.2953351 -0.03158384 -0.4487345 -0.50342435 -0.114272475 0.2368018 -1.5062122 0.38784376 0.09814152 0.26562813 -0.7444163 0.80936474 -0.07464962 -0.46212417 0.10455545 -0.042164005 -0.6159648 -0.9796943 -0.7980038 -0.052277476 -0.127212 -0.9861964 -0.82454866 0.76615846 0.4982521 -0.023166452 -0.32553756 0.22358942 -0.64392006 0.49723023 0.9877747
u35 -0.524202 0.29917315 -0.25354978 -0.535523 -0.70488966 0.5320618 0.0061321743 -1.29052 0.5899929 0.17938861 0.27973244 -0.8827994 0.84333986 0.008012072 -0.6323342 -0.07775679 -0.15352267 -0.7412642 -1.3296825 -1.4122492 -0.051624402 0.014173846 -1.0865729 -0.7612085 0.8519624 0.4093671 -0.110264674 -0.17058288 0.33846822 -0.86601716 0.6824334 1.4312177
u36 -0.5315728 -0.015616075 -0.05622383 -0.5129123 -0.46197614 0.2809351 0.11470061 -1.5023199 0.56360173 0.38922474 -0.008883785 -0.5494554 0.81929964 -0.08063141 -0.567535 0.25950786 -0.2142705 -0.92906 -1.0449203 -1.4236671 -0.011021591 -0.030300006 -1.0670259 -0.7027842 0.6462696 0.5605074 -0.20738463 -0.2959457 0.34581298 -0.80026954 0.57938784 1.366884
u37 -0.44807425 0.096649535 -0.0066707805 -0.5473882 -0.3190875 0.27836946 0.26683837 -1.643818 0.40483853 0.22884989 0.3016488 -0.54915464 0.70466244 -0.19367185 -0.4485556 0.09327882 -0.22109272 -0.73169434 -1.3050286 -1.3808323 -0.110461384 -0.088388875 -0.96059835 -0.6362292 0.6379308 0.47688827 -0.0865621 -0.36440915 0.3266197 -0.5653458 0.37933135 1.388851
u38 -0.21517724 0.64731014 -0.087933764 -0.4615378 -0.97349834 0.3632784 0.049561344 -0.97838295 0.2453967 0.23609205 0.5703647 -1.0387988 0.98752815 -0.17980199 -0.8372629 -0.49439785 -0.16371195 -0.50330174 -1.3068533 -1.2436978 0.13813546 0.11992489 -0.9304355 -0.57946646 1.4950144 0.36630875 0.4076982 0.3496809 0.045226436 -1.0353225 1.0982001 1.2961713
u39 -0.12784965 0.83764356 0.010276182 -0.50070274 -1.0653987 0.16414855 0.075383596 -1.0153925 0.31894532 0.13562378 1.076496 -0.938777 1.3232614 -0.22538021 -0.7876864 -0.62564856 -0.28345194 -0.4666203 -1.1071544 -1.0219092 0.118903615 0.38626978 -1.18359 -0.52160907 1.4228345 0.39272934 0.58704895 0.42681542 -0.04151008 -1.0240865 1.2183576 1.245868
u40 -0.2759569 0.57436824 0.011052555 -0.4877767 -1.0267923 0.4044114 0.20113096 -0.84698796 0.0001381362 0.22517025 0.7572345 -1.1140503 1.1203355 -0.23431084 -0.76938516 -0.33943427 -0.12978046 -0.30418566 -1.3521745 -1.0023245 0.22174944 0.28702125 -1.0343596 -0.6249923 1.4984874 0.3763992 0.43032023 0.51626843 0.002234325 -0.8733108 1.2280966 1.465715
u41 -0.2633788 0.4661473 0.2589613 -0.5456005 -0.38083085 -0.20799592 0.5486507 -1.5172975 -0.21664654 -0.21774864 0.71579427 -0.7478162 1.4601736 -0.46867067 -0.9377562 -0.16253474 -0.15869999 -0.638873 -0.82694376 -1.2038319 0.16834496 0.024580333 -1.2162775 -0.4108407 0.7315528 1.0365052 0.6779848 0.68326604 0.30773348 -0.7045313 0.9886996 1.7603003
i24 0.18505263 2.1091428 1.127968 -0.08616511 0.31331918 -0.41843 0.093675956 -0.880536 0.30118933 0.14317201 -0.096894756 -0.22818987 -0.14989509 0.35769084 -2.0190895 -0.23419875 -0.2523366 0.3330588 -1.1201187 0.446442 1.8810239 0.7523956 -0.3642793 0.5075451 0.22556686 0.9378844 0.45456862 -0.3702527 0.20012148 -0.8565019 -0.2145781 0.39006406
u42 -0.13301598 0.7908789 0.18979523 -0.38032413 -0.60815537 0.37062946 0.18576074 -1.2322667 0.28897557 -0.039132763 0.9056847 -0.7231462 1.6800424 -0.32037297 -0.65034246 -0.43112144 -0.44799444 -0.51529175 -1.1239165 -1.1042895 -0.018603755 0.25912103 -1.0481145 -0.21004686 1.1023309 0.9000382 0.68195033 0.52592504 0.19794534 -0.7474229 1.1651841 1.463195
u43 -0.0730399 0.7585607 0.23532099 -0.45889753 -0.53619623 0.052825384 0.25146592 -1.3513997 0.16746625 -0.11316111 1.0978441 -0.91188484 1.6017486 -0.32559827 -0.743606 -0.44381422 -0.37352496 -0.5157286 -0.9079517 -1.0664477 0.10847762 0.3080563 -1.1704309 -0.46809065 0.91594654 0.9407367 0.90342873 0.66407484 0.06398354 -0.74246585 1.2863616 1.4467438
i25 0.078821555 1.956388 0.90105057 -0.23676245 0.35815454 -0.41781566 0.066168435 -0.92830724 0.41368324 0.22305822 -0.15779331 -0.0056757266 -0.17776752 0.14192079 -1.65634 -0.24910817 -0.24575908 0.23702854 -1.0475317 0.36504617 1.6589584 0.7362014 -0.26875147 0.42894197 0.26836002 0.8672154 0.42762238 -0.2406743 0.27090466 -0.67808545 -0.26275402 0.23346181
i26 0.035374176 2.0292635 1.1330435 -0.24221353 0.38311335 -0.4527747 0.0752073 -0.9583232 0.40530112 0.24406809 -0.091860205 -0.11537547 -0.11850549 0.30676934 -1.6819305 -0.18959348 -0.31239328 0.32283202 -1.1915903 0.41128525 1.7071973 0.668727 -0.29529274 0.5056356 0.14844148 0.9389328 0.43628135 -0.33925924 0.27200326 -0.66572297 -0.19210795 0.34884775
u44 -0.26057816 0.6129476 0.16948321 -0.5600811 -0.555351 0.014815473 0.1484573 -1.599068 0.17190157 0.02338449 0.92625165 -0.67753994 1.6377071 -0.5524746 -0.6281404 -0.29043698 -0.309203 -0.6062684 -0.7447356 -1.1336436 0.12859492 0.07244065 -1.2346948 -0.36993057 0.8778332 0.9403687 0.661695 0.54320616 0.13106655 -0.67752135 1.616324 1.5890684
u45 -0.1838994 0.49533135 0.2450037 -0.48483983 -0.35736802 -0.19759293 0.29155 -1.554604 0.19918185 0.033348553 0.7923813 -0.4704741 1.5430232 -0.46139094 -0.9799062 -0.19880092 -0.27837726 -0.5146368 -0.69118845 -1.091353 0.17756237 -0.033756994 -1.3907589 -0.3389085 0.4520828 1.1550021 0.5631555 0.66122633 0.101254806 -0.860586 1.6914845 1.6567758
i27 0.10879813 1.8704914 0.95636374 -0.093334354 0.2921826 -0.29879817 0.23501211 -1.0701599 0.32682866 0.16252658 -0.17055194 -0.122747764 -0.36318988 0.049702216 -1.4352978 -0.24822526 -0.2591656 0.218653 -0.78674394 0.31798306 1.6627856 0.6166831 -0.20035754 0.37341398 0.22804065 1.009307 0.13765968 -0.41870987 0.15939857 -1.0354111 -0.27173313 0.37331536
u46 -0.16812819 0.6527468 0.2892162 -0.5440655 -0.45782962 -0.21032566 0.32851648 -1.4775509 0.28843096 0.09662321 0.83393437 -0.52712065 1.5992681 -0.47587913 -1.0044231 -0.24425234 -0.26614818 -0.48161066 -0.6600723 -1.213205 0.13700567 0.07271564 -1.4292792 -0.21491267 0.5636132 1.2431234 0.6635841 0.7442277 0.0751148 -0.8632903 1.8221624 1.6890595
u47 -0.23032346 0.8961447 0.17671242 -0.41486692 -0.43097606 0.4402034 0.35229823 -1.1445631 0.36989436 0.040627945 0.6955639 -0.41802767 1.7186344 -0.32520422 -0.79549736 -0.4554649 -0.5393985 -0.4938191 -0.9861249 -1.3968403 0.21897212 0.19744076 -1.1316321 0.0188353 0.9453086 1.1231233 0.51535785 0.49043518 0.07707188 -1.0749731 1.6031979 1.350576
i28 0.21037796 2.1315153 0.95986974 -0.07090451 0.46528667 -0.29940557 0.2766439 -1.0640957 0.41946456 0.15250061 -0.33218867 -0.21778198 -0.39354593 0.0087656155 -1.5715474 -0.28784478 -0.23099649 0.18019728 -0.7882828 0.45597047 1.9409084 0.8392445 -0.27076498 0.4428245 0.23988236 1.3979769 0.041531112 -0.51615155 0.07606956 -1.2491317 -0.3431533 0.52972937
i29 0.22235934 2.1555493 1.0246621 -0.14470805 0.36611608 -0.26928973 0.124973156 -0.95573825 0.6993343 0.24669142 -0.25732192 -0.21042363 -0.15856321 0.28040522 -1.6600248 -0.35212573 -0.4027322 0.24163382 -1.30461 0.4610175 1.8831321 1.3159165 -0.40270948 0.54288405 0.26113617 1.1357028 0.18005426 -0.66507703 0.22679631 -0.7549017 -0.40294367 0.53452146
u48 -0.23097466 0.7049503 0.059203867 -0.39860094 -0.3305849 0.12876205 0.17104614 -1.1670899 0.5048659 0.18214259 0.52310133 -0.28934756 1.3822598 -0.40668684 -0.5403078 -0.2179039 -0.26996437 -0.6705156 -0.84664685 -1.3595045 0.08288673 -0.04476048 -1.2954662 0.28008154 0.6990693 1.1068898 0.35393628 0.23246147 0.16730732 -1.0061115 1.4829538 1.5944192
i30 0.31515774 2.4000134 1.1205703 -0.07041175 0.2863205 -0.17642476 0.23739816 -1.0389599 0.64847237 0.24675208 -0.21631478 -0.19581679 -0.20132658 0.36427242 -1.8020552 -0.45314857 -0.37388563 0.33231553 -1.2903411 0.48370966 1.7203788 1.3157014 -0.44767332 0.5989366 0.33027425 1.2597432 0.27796602 -0.6524017 0.029899225 -1.1921656 -0.39296314 0.46224034
u49 -0.23690455 0.70726424 0.09803968 -0.4010609 -0.3667055 0.1860843 0.32114562 -1.445958 0.4427603 0.1315788 0.58874875 -0.4089221 1.2350367 -0.505963 -0.69379467 -0.29478282 -0.367801 -0.5198578 -0.83703744 -1.1735682 0.18506126 0.0014214993 -1.1388146 -0.14701636 0.8350027 0.83375096 0.4372788 0.35769147 0.0835761 -0.895495 1.2696543 1.534983
i31 0.3936547 2.2083657 1.1907829 0.122371234 0.47535342 -0.02368444 0.47043806 -1.2778503 0.41729707 -0.015371069 -0.38172045 -0.37591743 -0.41307473 0.18158524 -1.4318521 -0.40369755 -0.25493497 0.028942078 -0.8784281 0.34177554 1.760309 1.2101262 -0.35154364 0.41803786 0.37449402 1.5970207 -0.03496027 -0.7329825 -0.012095409 -1.0748135 -0.31873584 0.5718182
i32 0.19818889 2.1849165 0.9959032 -0.016830152 0.3542814 -0.23037301 0.2589917 -1.1645917 0.4309702 0.18130052 -0.28902155 -0.1766064 -0.2865494 0.14979225 -1.6493996 -0.18850063 -0.4448346 0.27885365 -0.955521 0.39777264 1.527945 0.8677481 -0.22269396 0.49543044 0.3077003 1.2887905 -0.023634 -0.45584822 0.087805785 -0.9203367 -0.35380024 0.47090077
u50 -0.2732349 0.24892464 0.33797354 -0.38246915 0.25986305 0.49019796 0.49217638 -1.5653869 1.0602939 -0.019187782 -0.08325074 0.2758243 0.7452838 -0.40501794 -0.42888993 0.140053 0.16652186 -1.2147797 -0.7402976 -1.2794783 0.42825732 -0.3245616 -1.5541412 -0.021814689 -0.1479465 1.1217525 -0.20236897 -1.2296512 0.16593732 -0.32621908 0.8795671 1.6258454
u51 -0.20471287 0.48518035 0.100949295 -0.25231102 0.0054589575 0.0011518329 0.60944283 -1.4575255 0.7550584 0.023312896 -0.17832813 0.09899404 0.4201926 -0.19424884 -0.12810493 -0.012802195 0.124828756 -0.8626263 -0.78656447 -1.2547423 0.15638319 -0.41558382 -0.9907404 -0.08603528 0.14370768 1.0833486 -0.06197882 -0.76344955 0.0823803 -0.44502386 0.6044551 1.4043552
u52 -0.09526531 0.52564186 -0.05712674 -0.31272423 0.11114891 0.116121694 0.50296646 -1.6447616 0.83457935 -0.039984196 0.05937238 0.21568696 0.5848126 -0.2847535 -0.1263111 -0.08795776 -0.1986796 -0.7194668 -0.5850891 -0.9837926 0.32215583 -0.3807797 -1.0259712 0.101894945 0.13104679 0.9543587 0.0038897737 -1.2322268 -0.03015111 -0.61586994 0.55211586 1.6085478
i33 0.1473242 1.7485409 0.95577985 -0.07985045 0.39533478 -0.12713934 0.36844102 -1.3452784 0.47436956 0.04923433 -0.21019231 -0.13251002 -0.37404543 -0.24415465 -1.1927582 -0.20648405 -0.06637193 0.09944678 -0.5445428 0.14976694 1.4113345 0.6802984 -0.2390549 0.3544214 0.08614911 1.3100634 0.050202504 -0.4661517 0.17069197 -1.1920441 -0.19638221 0.40760103
u53 -0.15624239 0.39173177 0.42694607 -0.38448727 0.24799442 0.17329413 0.86770695 -1.7195117 1.0672799 -0.0886229 0.23606102 0.2791817 0.6428901 -0.27856946 -0.38429776 0.061979465 0.1501669 -0.98906857 -0.46483055 -1.1395527 0.56938356 -0.3549966 -1.5633699 0.051171683 -0.33982307 1.339681 -0.014607719 -1.1847515 0.010221617 -0.3960259 0.706184 1.2471858
u54 -0.18871056 0.3058047 0.38115522 -0.25751752 0.1356204 0.16395243 0.6425223 -1.5617468 0.80565083 -0.061633732 0.14606918 0.14543273 0.3154765 -0.3005041 -0.42127627 0.17588525 0.2573085 -1.2472079 -0.7438734 -1.0456651 0.55810595 -0.35432857 -1.3648273 -0.008987305 -0.3053573 1.0955734 -0.15704197 -1.2446294 -0.011981886 -0.42129943 0.72268134 1.5263592
u55 -0.12164267 0.35533616 0.41569173 -0.25531238 0.08704958 0.108139664 0.74651307 -1.8164731 0.94314307 -0.012118288 0.08583421 0.34160152 0.80796796 -0.3928487 -0.44951105 0.09065993 0.2150966 -1.2970366 -0.47926873 -0.9781041 0.67375284 -0.34037015 -1.4662459 0.23201312 -0.37878147 1.4142863 -0.03376502 -1.316918 -0.026120156 -0.6195695 0.8780136 1.5632308
i34 0.1479307 1.8063241 0.9495079 -0.05755016 0.40591353 -0.1722323 0.32126093 -1.3887854 0.40079772 0.06362448 -0.28569785 -0.15064281 -0.4720613 -0.023175925 -1.3975645 -0.16671355 -0.11019524 0.06188264 -0.59431165 0.20241493 1.5353894 0.6673456 -0.12467838 0.32294255 0.1407597 1.1218386 0.079745635 -0.4038548 0.14005136 -1.163348 -0.1849948 0.49578905
u56 -0.20549859 0.5039878 0.45842588 -0.27943364 0.14955796 0.33954674 0.65239465 -1.5738429 1.0706047 -0.1495123 0.024165135 0.30839455 0.5635578 -0.24171674 -0.30078462 0.15230322 -0.0018472513 -1.0183864 -0.5822047 -1.2213103 0.6308298 -0.3259059 -1.4883264 0.2954661 -0.17231119 1.5042076 -0.18886492 -0.9725866 0.054643124 -0.47376773 1.161967 1.4529612
u57 -0.15823242 0.45827678 0.6689559 -0.3171048 0.06952148 0.30623084 0.9470067 -1.6129602 1.0511076 -0.31048426 -0.102693275 0.54570293 1.1591293 -0.2864516 -0.65143895 0.050488256 0.16271554 -1.5144387 -0.3754647 -1.3325598 0.73311824 -0.21901712 -1.4511819 0.1823003 -0.5073717 1.5027542 -0.0033890265 -1.3085561 0.06821087 -0.14358176 1.2346736 1.4174453
i35 0.19675238 2.223628 0.97397435 -0.11745193 0.5841664 -0.3192676 0.31266183 -1.5146623 0.42883798 0.09245658 -0.40860006 -0.14195707 -0.5216964 -0.049997255 -1.4722596 -0.11925122 -0.14184253 0.09689937 -0.495095 0.25084564 1.8321736 0.9386763 -0.026266342 0.40728065 0.06035635 1.1917048 -0.03440925 -0.5127829 0.084654234 -1.506786 -0.326878 0.4164002
u58 -0.39800236 0.36202297 0.40062147 -0.20734386 -0.05187433 0.16139957 0.667978 -1.3039737 0.9905402 0.034998428 -0.15148112 0.3225524 0.72340417 -0.13462918 -0.5316843 0.1372865 0.08681539 -1.2320007 -0.78761554 -1.2196248 0.4969694 -0.122765705 -0.9754083 0.2688523 0.008775737 1.3871133 -0.30187756 -1.0182797 0.0648381 -0.47655743 0.91081214 1.6295382
u59 -0.22121648 0.35242587 0.4833369 -0.333178 0.19178796 0.27311835 0.5801328 -1.529887 1.33515 0.12696551 0.017560668 0.27235007 0.7615123 -0.35865536 -0.32860303 0.1326065 -0.07612966 -1.2057775 -0.44269696 -1.3073571 0.7746969 -0.26927343 -1.1599197 0.29051936 -0.24938917 1.5415592 -0.15451644 -1.2787008 -0.010639809 -0.42663655 1.2451371 1.6376219
u60 -0.245147 0.3955663 0.34118435 -0.2732085 -0.10182452 0.18614174 0.7002407 -1.534583 1.360324 0.14492379 -0.09148122 0.33610997 0.874785 -0.3874021 -0.5310835 0.15073629 0.2675248 -1.3152176 -0.63748187 -1.1942257 0.9342899 -0.2250106 -1.1803104 -0.033620477 -0.2145865 1.2261122 -0.10277924 -0.83881253 0.018530115 -0.63978416 1.3152006 1.2853857
u61 -0.123766914 0.5878255 0.3336371 -0.25813785 -0.09095754 -0.12435443 0.8087665 -1.3450454 1.0143191 0.0050440975 -0.23794602 0.6606968 0.9252293 -0.13554727 -0.41268674 0.015912501 0.43255964 -1.1882432 -0.42966118 -1.199707 0.6899588 -0.28206733 -1.2336627 0.20994931 -0.19716227 1.5046026 -0.12806281 -1.103461 -0.032513086 -0.693254 0.9257471 1.7136164
u62 -0.32093158 0.5827778 0.54841614 -0.29769653 -0.17350774 0.17506477 0.63572013 -1.4192172 0.9936822 -0.17548741 -0.11361302 0.5446628 0.9914826 -0.10342749 -0.46741518 0.05520829 0.14950271 -1.3173717 -0.5687996 -1.384269 0.85483056 -0.13970076 -1.1704899 0.49929488 -0.10166941 1.8665336 -0.30810472 -1.14081 0.1283198 -0.4023579 1.0895574 1.5602722
u63 -0.21976472 0.5079153 0.31955066 -0.26313382 -0.013932894 0.2057052 0.6036342 -1.3703117 1.3064942 0.042409457 -0.21615654 0.6301718 0.8332629 -0.17692639 -0.36639512 0.16095331 0.16007973 -1.2303609 -0.5367521 -1.2734677 0.5766688 -0.2951766 -1.1692572 0.10401598 -0.15985377 1.4947059 -0.26158732 -1.178069 0.006394602 -0.79327196 0.92093956 1.5229396
u64 -0.25791875 0.5102705 0.3985281 -0.21609719 -0.021033049 -0.16550109 0.6067799 -1.6032877 1.2290071 0.15066431 -0.03686683 0.5348279 0.61820793 -0.20596923 -0.20801492 0.16408257 0.38533598 -0.98476464 -0.5333654 -0.9285629 0.7106175 -0.2457723 -1.3962616 0.25383422 -0.18523985 1.5615048 -0.100064576 -1.1761937 -0.074582994 -0.5362107 1.0843452 1.7213124
u65 -0.16774322 0.3785736 0.803423 -0.30508545 -0.02886546 -0.1341236 1.2985934 -1.6755469 1.1237793 -0.11199542 0.06733775 0.34509155 1.1270313 -0.32921144 -0.6686506 0.12110279 0.42799437 -1.158213 -0.24006194 -1.0188138 1.0553194 -0.20431013 -1.22599 0.22673367 -0.38013363 1.6759301 -0.017696967 -1.0736421 0.025336308 -0.3467078 1.3482541 1.3748285
u66 0.008768267 0.357053 1.2126335 -0.42909136 0.05394149 -0.30318105 1.403567 -2.0004873 0.8527088 -0.22695486 0.11395001 0.29100713 1.2306387 -0.4088088 -1.1442353 0.15756738 0.42611775 -1.3151674 -0.21806283 -1.0495543 0.93791234 -0.31133232 -1.5412799 -0.0501367 -0.3645369 1.7252808 0.08816583 -1.1067076 0.1403134 -0.17904368 1.2613633 1.499159
u67 -0.053837862 0.3270191 1.4299479 -0.43559653 -0.03198942 -0.32002586 1.2208841 -1.9340631 1.0136707 -0.17686644 0.14008787 0.27599543 1.2961979 -0.40500107 -1.2596111 0.106776714 0.3680053 -1.370504 -0.2233636 -1.035496 1.0162704 -0.23978566 -1.5359249 0.06440028 -0.32630485 1.7348235 0.016623676 -1.1612903 0.0927699 -0.2459826 1.4681498 1.5680184
u68 -0.26225358 0.27997315 0.5053174 -0.35858098 0.010881645 -0.001766824 0.987516 -1.553991 1.0436289 -0.05953485 0.089727186 0.31584877 0.99527365 -0.35623297 -0.60938543 0.20580156 0.23574568 -1.2676733 -0.37297404 -0.9853975 0.86894673 -0.1754066 -1.2885371 -0.14551906 -0.34655648 1.3601633 0.035434186 -0.82076555 0.1484712 -0.418662 1.0072337 1.4991821
i36 0.18669134 0.39752647 0.15692656 0.07986791 0.0105396975 -0.094651945 0.19601937 -0.2554639 0.100592345 -0.06155492 0.024198627 -0.034875523 -0.059340023 0.042818118 -0.1480602 -0.1491442 0.03245877 0.122164614 -0.08769938 0.09030399 0.3352471 0.17271604 -0.05493074 -0.005799709 0.120302655 0.19592854 0.094907664 0.0196591 0.002335339 -0.23722441 -0.054795213 0.05676665
u69 -0.30745924 0.012737873 0.07085762 -0.18424924 -0.57019496 0.053045653 1.2365135 -1.6622506 -0.3970661 -0.17506763 -0.3511886 -1.1773721 0.29067406 1.2554435 -1.2082117 0.12771365 0.7995714 -1.3319213 -1.5540287 -1.122481 -0.3844681 -0.0651077 0.15342985 -1.2568562 1.6526173 0.19794445 -0.051767252 -1.2638772 0.5196223 -0.30793095 -0.1273083 1.4871795
u70 -0.4108045 -0.09123821 0.10326487 -0.15781291 -0.5055181 -0.09794813 1.2719986 -1.5857986 -0.1240784 -0.29451993 -0.13639505 -1.006965 -0.1704936 1.1767458 -0.41236398 0.20293437 0.6552911 -0.88868755 -1.684571 -1.0994496 -0.5362525 -0.1792148 -0.1392377 -1.1395793 1.4410673 0.41166657 -0.13061303 -1.3066646 0.51518404 -0.19731812 -0.27776906 1.5856881
u71 -0.402864 0.04080857 0.26138785 -0.07760248 -0.5876808 -0.088329695 0.95800763 -1.5572082 -0.06525829 -0.260679 -0.12460972 -0.9883013 -0.22250417 1.2792763 -0.32802722 0.27322024 0.7170514 -1.0081702 -1.5481602 -1.1026119 -0.393253 -0.09571832 -0.24705052 -1.1912726 1.2841036 0.5305132 -0.19602115 -1.3192303 0.50441575 -0.28175336 -0.3521304 1.6186016
u72 -0.19014587 0.23090579 -0.29650998 -0.19518067 -0.7610305 0.013802275 1.4373335 -1.5719057 -0.090184726 -0.23532107 -0.1439697 -1.0825315 0.52609074 0.34625217 -0.44589907 -0.2322629 0.3287569 -0.8898718 -1.1628768 -1.5476056 -0.2376325 -0.082808696 0.17729984 -1.5511386 1.8984947 0.030860616 0.28323087 -0.77755624 0.33516872 -0.43845692 0.010196354 1.321141
u73 -0.14728288 0.32891804 -0.3516782 -0.21607272 -0.6097495 -0.3210171 1.0278556 -1.7059215 0.096803896 -0.33589467 -0.0056218477 -1.2032825 0.55262965 0.07707598 0.027018681 -0.20685254 -0.15805025 -0.58144236 -1.020024 -1.3029522 -0.2616414 -0.07408906 -0.05814893 -1.4059842 1.7909807 0.31891268 0.36539838 -0.742571 0.1906356 -0.48791903 -0.21088582 1.496616
u74 -0.19940396 0.2548219 -0.48007974 -0.20248613 -0.45954043 -0.29523385 1.1159787 -1.8268342 0.1765143 -0.20644115 -0.0361852 -1.2542793 0.51278144 0.14052612 -0.02139453 -0.0741798 -0.052227408 -0.65576106 -1.1052175 -1.3893272 -0.25841787 -0.0044754203 0.12902418 -1.5060768 1.8841063 0.14817001 0.3139455 -0.8068755 0.27039474 -0.42793465 -0.31681708 1.4594653
u75 -0.254215 0.28240657 -0.33615077 -0.26266825 -0.56088054 -0.15592384 1.1597626 -1.6590897 0.34456435 -0.1592175 -0.1416478 -0.97166526 0.31988263 0.3449004 -0.17857634 -0.016268099 0.06642741 -0.44380897 -0.9417075 -1.2219727 -0.28795254 0.08232445 -0.045724656 -1.4399244 1.512022 0.27443418 0.15127793 -0.93768114 0.29972306 -0.55141157 -0.17532672 1.304733
u76 -0.30672893 0.20615879 -0.38617632 -0.15829048 -0.6716388 -0.13389207 0.750632 -2.0325563 -0.33155307 -0.21414073 0.056622054 -0.8368572 0.5000964 0.47854692 -0.5014625 0.03927648 0.025815215 -1.1895807 -1.2751853 -1.6444415 -0.09290065 -0.31189302 0.24639824 -1.1326447 1.5831028 -0.37405044 0.0031004958 -0.912825 0.32899317 -0.832607 -0.09935766 1.116744
u77 -0.32379425 0.1511163 -0.4221652 -0.29787037 -0.70346934 -0.19188713 0.4772968 -1.9922769 0.19803673 -0.006298056 -0.11860223 -0.6697015 0.57114726 0.4016298 -0.36577508 0.21693623 -0.042028617 -0.91935754 -0.9242856 -1.6024009 0.016245516 -0.29094738 -0.24952026 -1.3344549 1.3599472 -0.2521155 -0.2773829 -1.0418664 0.11422924 -0.9239567 0.17002335 1.2350663
u78 -0.21072555 0.04637658 -0.38350153 -0.31006542 -0.6282039 -0.21487305 0.14026634 -1.8986325 0.32270893 -0.09423885 -0.20003404 -0.8577501 0.45129102 0.52253413 -0.23771332 0.17662221 -0.011640959 -0.6416892 -0.7810771 -1.5160688 0.08600518 -0.3416564 -0.08527877 -1.3960098 1.3635927 -0.26690754 -0.5045335 -1.1287186 0.024013808 -1.0956632 -0.019239476 1.2923219
u79 -0.21627465 0.26733327 -0.48170307 -0.32241952 -0.60120356 -0.28866717 0.353042 -1.6412975 0.44553855 0.23395215 -0.06354768 -0.8432757 0.21438567 0.4351987 -0.20986292 0.09024644 0.044126067 -0.753136 -0.9819874 -1.6189959 0.025722483 -0.33887842 -0.38531077 -1.4020448 1.4779636 -0.23066048 -0.2614259 -0.96408385 0.0074112946 -0.8102658 0.16860656 1.2311765
u80 -0.16421995 0.31582928 -0.6065298 -0.3403077 -0.45877844 -0.25689495 0.3177841 -1.6673129 0.6687374 0.12258774 -0.17279564 -0.8017349 0.49385092 0.32252115 0.0347902 0.03903901 -0.042377736 -0.38164932 -0.719196 -1.3929217 0.045934405 -0.18097164 -0.33925208 -1.6722395 1.4757887 -0.27402005 -0.27766803 -0.875622 -0.090303026 -1.2701833 0.16802275 1.2458799
u81 -0.30920908 0.334955 -0.59739405 -0.35897171 -0.52508575 -0.3290404 0.12342792 -1.7710527 0.48815796 0.20679295 -0.15324453 -0.7799522 0.45863903 0.23064609 0.1313775 0.013893653 -0.09890884 -0.44859627 -0.8393156 -1.8448838 -0.21206838 -0.27758086 -0.45681784 -1.4810092 1.5807754 -0.008203642 -0.2269432 -0.91211164 0.04117551 -1.1062651 0.19486734 1.526793
u82 -0.17505693 0.20100196 -0.3844087 -0.2157429 -0.70462203 -0.30794656 0.4355849 -1.9157213 0.35639784 0.03863876 -0.29252294 -0.86527765 0.66272426 0.25341952 -0.07152287 0.12048628 -0.083605655 -0.7959197 -0.7640828 -1.443335 0.010141163 -0.22995733 -0.035341494 -1.3950659 1.4820982 0.06982291 -0.22288395 -0.84805375 0.079765886 -0.931799 0.120814994 1.4312667
u83 -0.35275292 0.18994094 -0.28312927 -0.22958462 -1.0504156 -0.26865295 0.31490374 -1.6376451 0.34978443 0.16327128 -0.23640248 -0.757951 0.55319434 0.35686055 -0.29876345 0.17123662 0.21360947 -0.8717246 -0.9495565 -1.3397851 0.07543569 0.034193866 -0.15418354 -1.447743 1.3905742 -0.21691982 -0.09508135 -0.39835078 0.144946 -1.1144761 0.3932277 1.0620946
u84 -0.46297827 0.1532197 -0.2797954 -0.24498808 -1.1071155 -0.18288961 0.23417301 -1.5803369 0.46861053 0.16286823 -0.33729643 -0.75958776 0.58998287 0.3755924 -0.23516008 0.13249622 0.13742624 -0.98594236 -0.8845313 -1.3826265 -0.0992771 -0.095644675 -0.29813308 -1.1894239 1.411698 0.052317824 -0.05870382 -0.3046278 0.23914982 -0.9224396 0.3644743 1.3940619
u85 -0.36285618 0.07034217 -0.24023828 -0.4144857 -1.0809151 -0.25283214 0.22242472 -1.4527545 0.52143604 0.16831443 -0.48707038 -0.77673906 0.82141346 0.43168753 -0.44095173 0.15116437 0.30225226 -0.96452075 -0.6300759 -1.4709061 0.1009579 -0.101395756 -0.26608527 -1.4856988 1.2866106 -0.33505377 -0.32617894 -0.37237558 0.10723886 -0.8318058 0.53938276 1.3050202
u86 -0.38136733 0.11390486 -0.2789104 -0.30306268 -0.99108213 0.3316866 0.04173209 -1.7855014 0.14539331 0.10892985 -0.07041586 -1.149199 0.6491777 0.4166462 -0.8454452 0.16288115 0.02046374 -0.66388595 -1.2193981 -1.4130541 -0.08245517 -0.14373147 -0.31387126 -1.315478 1.4693341 -0.14353885 -0.29261926 -0.3069028 0.15738118 -1.009988 0.23911346 1.1841222
u87 -0.5029531 0.09952992 -0.13603374 -0.35140732 -0.7914057 0.7699398 -0.21053581 -1.527808 0.6974136 0.4598602 0.021118753 -0.9627385 0.36461258 0.27666724 -0.7747827 0.3276256 -0.08787275 -0.6945875 -1.3840787 -1.359066 0.023975534 0.011031701 -0.9162277 -1.1632267 1.0592138 0.16785264 -0.40874314 -0.26968738 0.17851241 -0.9455528 0.25843892 1.2787622
u88 -0.2569923 0.24086952 -0.48120952 -0.3315707 -0.7886237 0.24624768 -0.16216074 -1.6785687 0.6310242 0.51575166 0.31979838 -0.96555215 0.13305123 0.6482149 -1.0662519 0.19791578 0.1376245 -0.76277834 -1.3552176 -1.4921689 0.341098 -0.38925412 -0.9863803 -1.0100121 1.2880707 -0.5843893 -0.44459647 -0.55904657 -0.11718633 -0.9991419 0.26880637 0.9683089
u89 -0.29278505 0.28976032 -0.38423434 -0.3241345 -0.9347931 0.22776914 -0.19470784 -1.6038119 0.49819237 0.38493204 0.09481065 -0.9228795 0.2237062 0.38641274 -0.71443534 0.078665525 0.09577125 -0.4398015 -1.4133813 -1.2049887 0.20697783 -0.1965778 -0.78558046 -1.0388795 1.4146966 -0.29011667 -0.33719876 -0.2198293 -0.07836494 -1.4024618 0.52028507 1.187919
u90 -0.32651943 0.028078865 -0.110314555 -0.4342629 -1.0611542 0.41636539 -0.4621896 -1.9295216 0.8341863 0.1668545 -0.17466688 -1.1027948 0.672877 0.8156917 -1.2155615 0.32250318 -0.14807136 -0.076701075 -0.7427854 -1.0107785 0.36438495 -0.06295102 -0.7346607 -1.6169147 1.1938436 -0.10463195 -0.49542394 -0.9126971 -0.2623653 -1.4146678 0.45960265 1.3248401
u91 -0.27664244 0.07542214 -0.07410455 -0.3969253 -1.0669143 0.3152604 -0.44748598 -1.7768607 0.9928917 0.2133638 0.011491888 -1.1331514 0.5321329 0.83669764 -1.2348047 0.1942317 0.008209076 -0.09818587 -0.680065 -0.95675874 0.41285196 0.06098876 -0.93758434 -1.5420775 1.1711189 -0.06798158 -0.46525198 -0.80593973 -0.31779766 -1.420137 0.5089737 1.3051729
u92 -0.30569988 0.14195904 -0.40237427 -0.3783267 -1.0038629 0.35552183 -0.41598114 -1.5280786 0.84419656 0.5417395 0.0452317 -1.1688039 0.07899745 0.7846115 -1.1122074 0.20874423 0.20018221 -0.42246875 -1.1369343 -1.3583306 0.40177256 -0.25279424 -1.0438428 -1.483329 1.4744363 -0.6084618 -0.64639974 -0.49685246 -0.24580094 -1.1918262 0.5097072 0.9579628
u93 -0.30133367 0.19479467 -0.40311152 -0.41908774 -0.9031967 0.5227998 -0.38671535 -1.6894886 0.742963 0.42503175 0.31755477 -0.9493266 0.29229924 0.43946975 -0.8097929 0.18992792 -0.10284102 -0.46745312 -1.3644413 -1.2541604 0.1559057 -0.056167614 -0.88095385 -1.1755927 1.251305 -0.2417301 -0.49226108 -0.3587673 -0.06092452 -1.2050186 0.30463576 1.053393
u94 -0.2869232 0.09927714 -0.31340367 -0.3738546 -0.98650473 0.2547619 -0.19034916 -1.5722414 0.41399145 0.25381818 -0.07279462 -1.2426499 0.26608455 0.6673649 -1.0361477 0.11318772 0.20590751 -0.45917514 -1.1570519 -1.0695678 0.1472284 -0.0971583 -0.6510908 -1.4358556 1.4595411 -0.48423347 -0.38557655 -0.496722 -0.046327583 -1.1280035 0.22472745 0.9713241
u95 -0.31611335 0.14706084 -0.15942977 -0.29830045 -0.8580886 0.55193365 -0.05475298 -1.7099096 0.71302724 0.25441307 0.13096304 -1.1148552 0.02936934 0.38910452 -0.58940464 0.25931028 0.15289892 -0.37743306 -1.324375 -1.1466695 0.355608 0.009257936 -0.74603975 -1.4606546 1.2441081 -0.098811544 -0.4939183 -0.6293006 -0.1625897 -1.1295806 -0.03911417 0.90603864
u96 -0.38208514 0.14441061 -0.2680432 -0.274574 -0.79771155 0.907076 -0.091277406 -1.6397767 1.1790326 0.36194167 0.11440448 -0.79912204 0.10722202 0.4211486 -0.7811644 0.3419051 -0.17756425 -0.34754488 -1.2694703 -0.9214263 0.25433272 0.13766585 -1.0680593 -1.147127 0.96847564 0.11918786 -0.47362345 -0.6665143 -0.098001696 -1.0944062 0.20103066 1.0527223
u97 -0.3924202 0.18724467 -0.16895208 -0.43502876 -0.73394614 0.5071343 -0.50599176 -1.8266832 1.024019 0.27167642 0.13945644 -0.6213268 0.7639671 0.096372984 -0.67790586 0.18805118 -0.24630484 -0.4556159 -0.91842026 -1.0581435 0.07195903 -0.101615995 -1.2478199 -0.7848184 0.9327092 0.24527405 -0.3918602 -0.43137273 0.050326183 -1.382882 0.65048313 1.4962622
u98 -0.4075537 0.09881432 -0.33927813 -0.36167714 -0.5159827 0.33152172 -0.032283254 -1.828928 0.7220952 0.25491005 -0.08988294 -0.71348834 0.5943537 0.17507944 -0.5622294 0.2935188 -0.12096423 -0.50101227 -1.090129 -1.2154464 -0.035382178 -0.23947676 -0.692584 -1.006081 1.0619677 0.027642723 -0.36906397 -0.5832808 0.1477911 -1.0459976 0.2683986 1.2175323
u99 -0.43267584 0.38097054 -0.50449675 -0.43242586 -0.6011725 0.16430399 0.25975636 -1.575487 0.016072793 0.084439054 0.35476425 -0.93911433 0.55252844 0.18066782 -0.64176726 -0.024044357 -0.106671914 -0.890651 -1.6076063 -1.7808425 -0.004396637 -0.13141112 -0.55255497 -0.97165585 1.1961964 -0.049773335 -0.032344043 -0.18684852 0.20614108 -0.6489211 0.04063272 0.8428364
u100 -0.43718523 0.39131096 -0.3459189 -0.3989958 -0.6430774 0.19165726 0.2868721 -1.7263485 0.64553064 0.17607191 0.45669 -0.7709986 0.642608 -0.0003856738 -0.5775278 -0.033400293 -0.33154878 -0.53013444 -1.2627672 -1.0362757 -0.028347813 0.19183244 -1.0324316 -0.7491205 0.8292723 0.14866167 -0.01660474 -0.564036 0.013402153 -0.704224 0.3902281 1.1835213
u101 -0.34975874 0.22418222 0.0046395347 -0.3156078 -0.43735975 0.3878502 0.1347339 -1.8283991 0.66062534 0.17636794 0.39532918 -0.63117915 0.67971355 0.09811512 -0.46045658 0.21869543 -0.07067138 -0.76504296 -1.164678 -0.94418466 0.06941675 -0.07529295 -1.1149396 -0.68793416 0.6419816 0.48154533 -0.19115178 -0.3404457 -0.023097858 -0.7383185 0.1879253 0.91306126
u102 -0.58895594 0.22763436 -0.19943339 -0.5378587 -0.6414682 0.15403226 -0.10927617 -1.4526857 0.49076673 0.39740053 0.23844029 -0.71470153 0.85828114 -0.21532744 -0.3711329 0.033308797 -0.04183804 -0.5532985 -1.0981275 -1.3630716 -0.056657158 -0.20396475 -1.2397163 -0.78879124 0.8698968 0.5364751 -0.15463878 -0.1793989 0.28848374 -1.123101 0.75281215 1.4244512
u103 -0.5294191 0.3172925 -0.2190669 -0.50262344 -0.46575925 0.25690106 0.269818 -1.5104623 0.39993256 0.23936865 0.05362173 -0.70412743 0.8747454 -0.13421074 -0.31470266 0.04871757 -0.34917223 -0.8160545 -1.1038381 -1.4443411 -0.17501493 -0.05784836 -0.85105354 -0.75327724 0.9165127 0.40827477 -0.033877995 -0.45229328 0.26377413 -0.5832322 0.55647236 1.4520634
u104 -0.63192135 0.21544923 -0.15848276 -0.69838727 -0.51167816 0.09854583 0.4212537 -1.6665016 0.45031545 0.2009163 0.085256614 -0.5287289 1.045103 -0.19597003 -0.552849 0.1138069 0.02508459 -0.85464764 -1.1690061 -1.4068027 -0.23243827 -0.31118628 -1.0561596 -0.76896155 0.8003185 0.5554428 0.026355244 -0.4899302 0.52405715 -0.79562587 0.7620498 1.3951671
u105 -0.44656494 0.371143 0.023277592 -0.51174045 -0.66827226 0.24835685 0.2862666 -1.4148368 0.5703976 0.18826292 0.16512923 -0.58918947 0.7575632 -0.03744913 -0.5865358 -0.027506433 -0.039445035 -0.69036585 -1.079485 -1.1363161 -0.0072017047 -0.04127757 -1.1009258 -0.67515534 0.6986685 0.59377414 -0.0696032 -0.3289096 0.2425465 -0.8181769 0.7323995 1.3681619
u106 -0.24912053 0.54767483 0.05317079 -0.51332694 -0.9100117 0.2820828 0.24442028 -1.1382009 0.14550401 0.18208957 0.67627084 -1.0939381 1.1946268 -0.3147471 -0.6972285 -0.37708384 -0.19981137 -0.3877167 -1.1139499 -1.0124521 0.12864386 0.18985757 -0.8899338 -0.61564195 1.3264573 0.41741025 0.52744555 0.43950328 0.060039148 -0.9819548 1.0379224 1.554209
u107 -0.14032166 0.6659544 -0.069181286 -0.4115895 -0.78113353 0.13541691 0.036433883 -1.0933241 0.33241785 0.21498466 0.79456484 -0.7320781 1.045808 -0.2627523 -0.69096214 -0.24634585 -0.20477104 -0.64450985 -1.4376878 -1.1833038 0.122230805 0.13687226 -1.0631481 -0.63197786 1.4483817 0.35052314 0.28576526 0.49481773 0.1266281 -1.051754 1.0823668 1.2206223
u108 -0.21359633 0.4955893 -0.08973518 -0.55183095 -0.8572522 0.17299749 0.20348756 -1.0555059 0.080019645 0.19564196 0.69969416 -1.0706164 1.0658509 -0.32118726 -0.79220253 -0.33523363 -0.2502015 -0.40015122 -1.3404185 -1.2538923 0.08543644 0.2357297 -0.9548536 -0.8022931 1.509661 0.48408636 0.48599544 0.5811278 0.19676739 -0.91589284 1.1513088 1.3599211
u109 -0.17622146 0.5256028 0.28604278 -0.53914464 -0.35303542 -0.22056681 0.40178472 -1.6052579 0.097155385 -0.11534308 0.8255696 -0.75469035 1.3807478 -0.4634006 -0.81447023 -0.20591287 -0.21166775 -0.69921553 -0.9664806 -1.204993 0.11490532 0.058671445 -1.2103854 -0.36380327 0.65772986 0.99640155 0.5765886 0.48245472 0.1835935 -0.56954575 0.9331919 1.6493077
u110 -0.22912325 0.75033104 0.11314861 -0.45428267 -0.8574773 0.3629742 -0.0519474 -1.1432892 0.26350772 -0.016698966 0.86097676 -0.9107503 1.4948006 -0.29225424 -0.6642393 -0.39857277 -0.39789513 -0.45507443 -0.9823289 -1.0231982 0.09613857 0.28999397 -1.1214134 -0.34095332 1.2849041 0.845535 0.6004953 0.45943832 0.17749836 -0.96529996 1.3419495 1.3424165
u111 -0.16784835 0.6660218 0.31583214 -0.42413473 -0.5687463 -0.23918758 -0.0041427496 -1.6169828 0.30333865 0.039176043 1.0776322 -0.81923825 1.3329663 -0.3847694 -0.7349389 -0.36514932 -0.21246412 -0.55830944 -0.8389565 -0.8968133 0.11191476 0.16876692 -1.4278474 -0.37688348 0.79735786 1.0085287 0.6609689 0.38111943 0.13403058 -0.7856243 1.3061343 1.3111546
u112 -0.29601958 0.72915983 0.12576017 -0.53185683 -0.52291703 0.09013059 0.081979744 -1.3533561 0.17186259 0.038572803 0.9106129 -0.6473518 1.3968687 -0.30868047 -0.7832815 -0.27470872 -0.30186284 -0.6144524 -0.9136561 -1.205686 0.017842032 0.13922906 -1.2778543 -0.2631554 0.77673846 0.8703186 0.6307119 0.41227993 0.22821024 -0.8127549 1.5592327 1.2913853
u113 -0.17833342 0.6558189 0.36281437 -0.5392456 -0.32735896 -0.26984724 0.3297793 -1.7065614 0.1589597 0.04010714 0.8609799 -0.52591974 1.7177218 -0.5978168 -0.8860434 -0.296908 -0.22106802 -0.65520996 -0.65759885 -1.1979318 0.12483223 -0.07282913 -1.5110227 -0.22593121 0.53897893 1.1980768 0.78588617 0.6996856 0.1421213 -0.81184715 1.4735322 1.6616827
u114 -0.09607709 0.7007408 0.1598959 -0.45603895 -0.39563572 -0.23886536 0.36709923 -1.5371045 0.31681946 0.0021653136 0.8575419 -0.5367467 1.6450863 -0.54147536 -0.97428334 -0.33164233 -0.24137416 -0.47993192 -0.686759 -1.2013655 0.26956794 0.082044244 -1.5383909 -0.12943076 0.57299066 1.136276 0.7547466 0.64215 0.08710694 -1.0948745 1.7708963 1.6645464
u115 -0.30488914 0.94029313 0.2682385 -0.43120763 -0.5695911 0.5581156 0.19002604 -1.1412876 0.43912035 0.2182421 0.66782075 -0.44399956 1.6914165 -0.36851755 -0.8036327 -0.3841444 -0.45179832 -0.5983327 -1.0706955 -1.2999767 0.14666402 0.17820624 -1.406547 0.16527483 0.8170185 1.3070209 0.43745467 0.47441703 0.092585355 -0.8955846 1.6155121 1.4853343
u116 -0.26188275 0.5739116 0.03275888 -0.46625254 -0.28180075 0.30943593 0.23899937 -1.2167407 0.4818719 0.21328619 0.52862513 -0.4802018 1.4288695 -0.37643483 -0.6975027 -0.19562852 -0.39018017 -0.62198406 -0.8346585 -1.3703399 0.053501327 0.0036696997 -1.1696218 -0.13553281 0.73246497 0.7654272 0.33085713 0.29085332 0.12678784 -0.88716644 1.3869898 1.6431324
u117 -0.17312725 0.8795116 0.19207361 -0.29934302 -0.3239266 0.29718024 0.12806095 -1.2274952 0.35878503 0.23172474 0.6456991 -0.26510328 1.432269 -0.4168459 -0.69805354 -0.2710622 -0.4735573 -0.6227069 -0.9975526 -1.3822215 0.105100356 0.032503046 -1.188478 0.12452385 0.5614054 1.1579372 0.35692692 0.42856526 -0.011240116 -0.8238652 1.5156256 1.4740136
u118 -0.3166943 0.27513942 0.39538884 -0.34230226 -0.018351076 -0.020927157 0.5368941 -1.6381996 1.0116044 0.15113306 -0.0339748 0.22026725 0.7985282 -0.23656887 -0.47073835 0.27395493 0.26817513 -1.1366997 -0.71514666 -1.0134735 0.20483008 -0.38205415 -1.2562834 0.110657744 -0.080345556 1.1474644 -0.18694115 -1.035296 0.28751248 -0.5171557 0.76257545 1.4044346
u119 -0.29882228 0.34944913 0.105467536 -0.2857134 -0.06795547 -0.37093338 0.609413 -1.5383265 0.7104647 0.104362726 -0.2032629 0.14069192 0.6589471 -0.030625638 -0.20161872 0.3201023 0.40047646 -1.1105068 -0.8846194 -1.2509643 0.16484742 -0.36186326 -0.9730862 -0.43601966 0.33459556 0.91389596 -0.18094122 -0.8511848 0.38110694 -0.66642326 0.87929195 1.335781
u120 -0.38962787 0.26424235 0.022655502 -0.53507304 -0.118992686 -0.02720144 0.4331675 -1.4614708 1.0949192 0.14729424 -0.069309674 0.17569248 0.8001044 -0.3135331 -0.12957592 0.06562751 -0.1610312 -0.87926453 -0.3378937 -1.0974883 0.3683499 -0.3899907 -1.0983245 -0.13469733 0.25801793 0.83443904 -0.013464665 -0.96764916 0.13481437 -0.946697 0.8995152 1.5447344
u121 -0.12242477 0.24055108 0.4942712 -0.41262656 0.2956023 0.17859955 0.77688134 -1.5967827 0.90794903 0.037573792 0.1611739 0.1763829 0.49838838 -0.5634392 -0.2787406 0.023049604 0.14653908 -1.0431038 -0.50159234 -1.1202877 0.4678061 -0.42288673 -1.4947331 0.09739043 -0.46114692 1.3950297 -0.08785932 -1.1083928 -0.17614755 -0.47812775 0.8076439 1.7869763
u122 -0.24782957 0.29624063 0.65061986 -0.3152205 0.18631902 -0.039229956 0.8351229 -1.4178542 0.7400015 -0.0785548 -0.053414304 0.36059475 0.57709754 -0.22993965 -0.5984788 0.21632019 0.403221 -1.2584697 -0.64635706 -0.9644545 0.57262534 -0.23832077 -1.4377892 0.034705933 -0.45104536 1.5837466 -0.054898947 -0.9168058 0.13923739 -0.24560007 0.92151827 1.5496507
u123 -0.24770175 0.24353895 0.52704114 -0.37332478 0.06408434 0.15391123 0.5421176 -1.5458081 0.84335685 0.09429574 0.12561393 0.12182624 0.57343763 -0.44665045 -0.30766442 0.092471994 0.15988451 -0.90012205 -0.4064642 -1.0874305 0.5973407 -0.3280439 -1.3284193 0.091727525 -0.32410026 1.4482912 -0.06887596 -0.9572228 0.015945781 -0.526252 1.0290796 1.7254678
u124 -0.3089064 0.33515564 0.3227221 -0.30984658 -0.07909792 -0.035264004 0.4958613 -1.4113973 1.3449081 0.24798612 -0.08433569 0.44538695 0.8770621 -0.22470106 -0.4321959 0.205221 0.33784512 -1.1985856 -0.42117587 -1.1756172 0.6856808 -0.31203726 -1.1145203 -0.064055815 -0.08627238 1.2379036 -0.118787915 -1.1028906 0.102282114 -0.7024426 1.4491284 1.3125842
u125 -0.2368948 0.31491235 0.59524167 -0.38537115 0.08604297 -0.05982229 0.7158141 -1.7313378 1.1415046 -0.07836169 -0.008465965 0.31346455 0.86440104 -0.45669124 -0.5078695 0.18288642 0.21184361 -1.3481759 -0.38159633 -0.9006179 0.8047312 -0.3225066 -1.3367245 0.062183555 -0.27886474 1.3157754 -0.17595874 -1.1502931 0.2488279 -0.19190143 1.0260557 1.2868586
u126 -0.17184651 0.5267651 0.4398996 -0.21170461 -0.111239076 0.2915147 0.5312564 -1.5230246 1.4871902 -0.055154335 -0.09714762 0.42047855 0.69761956 -0.25982046 -0.4095046 0.15331604 0.10922969 -1.3027483 -0.6413535 -1.4060625 0.70472723 -0.26349702 -1.1261506 0.20289741 -0.110524595 1.4703181 -0.3067496 -1.1879497 -0.017866023 -0.46729958 1.094329 1.561012
u127 -0.29376382 0.4186868 0.6299647 -0.24125601 0.058851197 0.14201835 0.5740846 -1.3206162 1.266146 0.10097978 -0.09644167 0.28039125 0.55515134 -0.22226074 -0.46473053 0.12517253 0.16132662 -1.1288509 -0.56944567 -1.3624828 0.6716896 -0.2686672 -1.060883 0.22236177 -0.1664083 1.4625725 -0.3566172 -1.2780352 0.054116108 -0.66636413 1.1233546 1.6293633
u128 -0.2527649 0.46670228 0.4937264 -0.23812778 0.059801284 0.012586008 0.9529986 -1.6169509 1.2288969 -0.040711425 -0.068216935 0.43072724 0.69057083 -0.25809237 -0.3993456 0.15561041 0.13667296 -1.425547 -0.44873422 -1.1936843 0.7635238 -0.2892718 -1.2990898 0.0959112 -0.24636081 1.4942149 -0.0027365831 -1.056752 -0.01089536 -0.42512938 1.0349286 1.5245721
u129 -0.21451329 0.526539 0.37277943 -0.15999766 -0.0005606079 0.14245075 0.81149 -1.5636044 1.2740151 -0.08445435 -0.12812483 0.6348763 0.7936404 -0.15061969 -0.24949268 0.18466201 0.17867373 -1.206305 -0.3789126 -1.0658674 0.63279116 -0.19485913 -1.2448788 0.22046652 -0.27179492 1.4254029 -0.0017544739 -1.0477074 -0.036946025 -0.6623918 1.2570717 1.3231609
u130 -0.25706136 0.60045683 0.53552014 -0.25888464 -0.007962971 0.15207888 0.5331933 -1.4784384 1.1139512 -0.050177976 -0.22870076 0.41016266 0.97425133 -0.14079028 -0.33619562 0.11286905 0.08511763 -1.2082767 -0.4581198 -1.2823061 0.74982375 -0.22092797 -1.1102707 0.27090773 -0.02021735 1.6553336 -0.33873153 -1.2836683 0.00516784 -0.5565145 1.2292124 1.4264368
u131 -0.22653747 0.42305902 0.4822079 -0.20508304 -0.034184035 0.05025974 0.6101776 -1.5270435 1.2875602 0.17435676 -0.058362115 0.38815966 0.7779714 -0.2150229 -0.3594428 0.10829398 0.24691556 -1.0939648 -0.42668417 -0.95079243 0.63470155 -0.14724165 -1.2114047 0.093018025 -0.13461985 1.4641517 -0.06858564 -1.1279126 0.004718423 -0.6966972 1.455597 1.4471519
u132 -0.24900135 0.38970587 0.5061561 -0.22750519 -0.0656457 0.10733863 0.8726326 -1.5638562 1.0420417 -0.03460376 -0.074648224 0.527034 0.9302119 -0.3145378 -0.21214034 0.18148403 0.21014486 -1.028873 -0.41847897 -1.0616566 0.62050784 -0.2883906 -1.1906527 0.41089782 -0.43971634 1.76506 -0.10079282 -1.0327928 0.0046564136 -0.4980191 1.177672 1.7531657
u133 -0.21855567 0.3966042 0.7852091 -0.36224827 -0.025748348 -0.2835932 1.1639279 -1.5531472 1.111342 -0.027588252 -0.1015329 0.35823384 0.9942581 -0.2974741 -0.7921058 0.20911808 0.56182534 -1.1639712 -0.3964422 -1.0446821 1.0978619 -0.24887146 -1.3803871 0.043997888 -0.3750576 1.6570647 -0.07747205 -1.0989493 0.055729922 -0.3561917 1.7103254 1.3489232
u134 -0.016935531 0.30054656 1.1904657 -0.3524797 -0.025649112 -0.38450876 1.3075751 -1.9924394 1.0368127 -0.16342254 0.06512375 0.20071055 1.2496858 -0.43191186 -1.1453476 0.086152405 0.43083024 -1.3221047 -0.16109213 -1.1644176 1.0656934 -0.22967196 -1.4313263 -0.051839728 -0.3405983 1.7136215 0.026327156 -1.0818942 0.13394897 -0.2513033 1.411556 1.4743631
u135 -0.014256406 0.26235813 1.3459938 -0.41823453 -0.056810793 -0.33192796 1.2751583 -2.1206896 0.8731392 -0.128681 0.20653042 0.07057411 0.96013695 -0.3468522 -1.050886 0.0926221 0.42637295 -1.2513531 -0.10898689 -1.231823 0.93499655 -0.17616741 -1.5520672 0.027200373 -0.35006657 1.7988582 0.035992973 -1.1672925 0.10509302 -0.37634197 1.285958 1.5451416
u136 -0.16720025 0.4358169 0.61411977 -0.24737762 0.011975177 -0.14354381 1.0171325 -1.5415251 0.9826029 -0.06393499 -0.12377357 0.42471078 0.8210165 -0.24296384 -0.5079986 0.1255211 0.38995486 -1.2477286 -0.38329735 -1.1275102 0.8776321 -0.27494085 -1.3683414 0.16369645 -0.48447952 1.8170999 -0.07115171 -0.958047 -0.029670771 -0.3285088 1.0490116 1.6200669
u137 -0.36778164 -0.073636435 -0.011157242 -0.20264244 -0.601927 0.121271834 1.065648 -1.5341997 -0.34268314 -0.08850743 -0.3288406 -1.1641937 0.26026294 1.1391034 -1.1934911 0.13884956 0.75275564 -1.5856391 -1.377431 -1.1788589 -0.334418 -0.1155345 0.06111721 -1.4708164 1.6299998 0.03599673 -0.06719257 -1.0985312 0.6249648 -0.33435962 -0.18875603 1.2587003
u138 -0.27731153 0.032937106 0.06738804 -0.09368153 -0.6331927 -0.35481748 1.0607983 -1.5916775 0.028119909 -0.11097501 -0.29606003 -0.5951609 -0.09626599 1.0688277 -0.41704863 0.19704294 0.8875272 -0.95776755 -1.44867 -1.0689223 -0.40969968 -0.108235426 -0.25766823 -1.10721 1.2171956 0.37564287 -0.13243026 -1.3160584 0.4096079 -0.33290297 -0.060945686 1.7263796
u139 -0.32217222 -0.013291477 0.07990791 -0.13049221 -0.4961495 -0.31788838 1.1883931 -1.7782527 -0.02270931 -0.32101798 -0.12285456 -0.7046894 0.16148978 1.1093104 -0.32385054 0.27399632 0.64035296 -1.0219857 -1.3467983 -1.0512267 -0.4163592 -0.008170897 -0.122842446 -1.2072934 1.3287932 0.50238603 -0.03729046 -1.4764241 0.48230305 -0.08445107 -0.28099442 1.4884288
u140 -0.17058413 0.19373426 -0.29761836 -0.21418424 -0.661174 -0.00022182851 1.4100085 -1.5529147 -0.18959814 -0.31780526 -0.15272826 -1.0830973 0.5441938 0.2838781 -0.45562702 -0.21163136 0.30621836 -0.88301873 -1.2347088 -1.4999381 -0.19715355 -0.12520501 0.16388388 -1.5431472 1.9978187 -0.06108856 0.17246637 -0.82000244 0.31506947 -0.45808044 -0.12040356 1.2446542
u141 -0.19982544 0.3465868 -0.41557002 -0.21851987 -0.57333976 -0.27842528 1.2166208 -1.6923132 0.07837937 -0.21791045 -0.0821294 -0.9992974 0.70456386 -0.021883154 -0.072207525 -0.16293877 -0.22887018 -0.66305995 -0.99148506 -1.4332497 -0.19354323 0.052007258 0.045699388 -1.3752775 1.7558882 0.26691 0.4457126 -0.7920742 0.23396164 -0.5779955 -0.15210061 1.4503044
u142 -0.12413459 0.26821455 -0.30115214 -0.17708741 -0.5225582 -0.2019837 0.9951071 -1.6711451 0.1658168 -0.23878166 0.014264403 -1.2109987 0.45223618 0.15956137 -0.0025825198 -0.120445006 -0.19547945 -0.5222332 -1.1779009 -1.2909435 -0.18576474 0.0056892834 0.08571728 -1.5566807 1.8304158 0.25512227 0.22132535 -0.792737 0.18472475 -0.6112625 -0.24059285 1.4849639
u143 -0.3252581 0.18273978 -0.4136626 -0.23137148 -0.6422721 -0.007025029 1.0986578 -1.6746238 0.3586082 -0.08745241 -0.21731928 -0.933763 0.26590523 0.3702607 -0.14692013 0.067880124 0.027515223 -0.5031933 -0.99082893 -1.3161385 -0.22967511 0.015685484 0.08988615 -1.516917 1.5478224 0.21257551 0.053278055 -0.995024 0.33779988 -0.5957636 -0.16234736 1.2235321
u144 -0.28192595 0.24101117 -0.44389662 -0.15166853 -0.57048184 -0.12638201 0.80455446 -2.276812 -0.17534342 -0.18352015 0.17157398 -0.7819298 0.5375707 0.3886354 -0.40191543 0.07768312 -0.092014715 -1.231422 -1.234083 -1.6031135 -0.07545018 -0.35160103 0.04018659 -1.1412933 1.5910468 -0.29306483 0.02713361 -1.0491828 0.2179329 -0.76724076 -0.030335201 0.95162535
u145 -0.20187584 0.2653367 -0.4563554 -0.29217574 -0.54339343 -0.24672483 0.55817723 -1.9025111 0.19597061 -0.096533895 -0.09741237 -0.80328673 0.47833824 0.38974017 -0.25225434 -0.014974281 -0.056781583 -0.776152 -0.8912438 -1.6217471 -0.03595829 -0.43861637 -0.059609834 -1.2905387 1.6106062 -0.27996892 -0.10592415 -0.9594441 0.09268902 -0.84234846 -0.050535534 1.2334225
u146 -0.18810064 0.20839486 -0.4069213 -0.2922572 -0.74316514 -0.19486098 0.23256369 -1.787491 0.336304 -0.018281505 -0.20067959 -0.92480576 0.34721336 0.43635496 -0.25582096 0.090041615 -0.030231472 -0.4371499 -0.6430311 -1.5881333 0.14249039 -0.2858808 -0.08963157 -1.6220671 1.4575287 -0.26274493 -0.3078417 -0.9687405 -0.07023549 -1.0547714 -0.024435434 1.1744912
u147 -0.27333313 0.23653468 -0.4489647 -0.2814271 -0.62954664 -0.2751853 0.46138084 -1.7909274 0.18415897 0.13281967 0.07173458 -0.9900805 0.5100796 0.43308547 -0.30601764 0.089050174 -0.074381754 -0.86829317 -1.1225113 -1.5697165 -0.0120410705 -0.1921105 -0.3077076 -1.3156714 1.4918741 -0.2583149 -0.12014661 -0.81500036 -0.041242257 -0.73854417 0.03157525 1.0739105
u148 -0.12110073 0.31640637 -0.42622566 -0.44643486 -0.41121474 -0.3161394 0.2729238 -1.7061762 0.5046217 0.018759595 -0.26495227 -0.680908 0.4851275 0.37285984 -0.116468385 0.07171557 -0.062776074 -0.47885752 -0.9417093 -1.5695981 -0.15421458 -0.2532178 -0.36492696 -1.449473 1.3509791 -0.03346522 -0.23039265 -0.8806167 0.0032819032 -0.9790964 -0.04245446 1.4931722
u149 -0.21263735 0.25720775 -0.5500607 -0.2621345 -0.4470241 -0.3325831 0.4435073 -1.7722 0.5822418 0.09534667 -0.16991882 -0.58299184 0.6169062 0.14753339 0.026237778 0.090773664 -0.08668481 -0.75425935 -0.6812277 -1.492469 0.12064921 -0.21657768 -0.33875018 -1.2617631 1.2833948 -0.005416227 -0.11562256 -0.73370296 -0.03529206 -0.8758129 0.15507594 1.1216534
u150 -0.22548749 0.2319398 -0.43164742 -0.24782203 -0.7763912 -0.2895176 0.56518924 -1.8690339 0.39554286 -0.1245168 -0.17480148 -1.012406 0.4736037 0.31832564 -0.044569533 0.11126721 -0.072502024 -0.47140175 -0.9786914 -1.4882231 -0.14914343 -0.24131717 -0.13158266 -1.5436494 1.4565284 -0.083924726 -0.23719479 -0.9673561 0.103330284 -0.98633915 -0.017453922 1.3846607
u151 -0.35388517 0.23244233 -0.1890986 -0.13023861 -1.1673096 -0.25458032 0.4143487 -1.541522 0.58046746 0.13563327 -0.47783864 -0.6570035 0.60531056 0.3735845 -0.21596909 0.1250105 0.2521799 -0.8119852 -0.71510226 -1.3624893 -0.058336012 0.020918489 0.09835146 -1.2644824 1.3506206 0.15291007 -0.123593666 -0.5422054 0.16286446 -0.7606992 0.32310596 1.4443709
u152 -0.44059134 0.09452007 -0.39978492 -0.22133961 -1.0811478 -0.38975114 0.27674827 -1.538541 0.4415077 0.31321895 -0.7248127 -0.7493336 0.48967123 0.29286557 -0.1652273 0.2140971 0.31926635 -1.0377524 -1.0405166 -1.4380926 -0.022650853 -0.09878287 -0.10578992 -1.5685763 1.488961 -0.20313053 -0.31757754 -0.464988 0.3294918 -1.0681249 0.5062368 1.4415096
u153 -0.3067186 0.23763026 -0.32661048 -0.26748577 -1.0656159 -0.26686403 0.20777938 -1.5523564 0.5235786 0.24732506 -0.32400733 -0.7295406 0.5540834 0.42904943 -0.40148866 0.1493494 0.3952101 -0.916003 -0.7438213 -1.7029235 0.17897299 -0.30410182 -0.26005095 -1.427628 1.517809 -0.39993796 -0.2682291 -0.30662045 0.03602529 -0.9887353 0.57482207 0.9621458
u154 -0.32761356 0.2220587 -0.14487159 -0.29030907 -0.9318898 0.45079473 -0.053370137 -1.6766329 0.25827667 0.09976081 0.12015144 -1.3253944 0.52433914 0.3534246 -0.7705626 0.06672165 -0.055323303 -0.55066353 -1.1269437 -1.3371055 0.09730737 -0.18842342 -0.2887271 -1.2350254 1.3549452 -0.30880663 -0.22712883 -0.16442792 0.112736985 -1.0406972 0.23049723 1.2089576
u155 -0.47719112 0.091469966 -0.36037046 -0.41700676 -0.817278 0.79984504 -0.0976245 -1.6724262 0.51234376 0.43946347 0.10930902 -1.0186228 0.28362265 0.5397723 -0.9011473 0.25387576 0.04764819 -0.7008676 -1.6345403 -1.4887556 0.051527463 -0.009294751 -0.71717536 -1.3014954 1.2217298 -0.14554596 -0.37882766 -0.4575036 0.2706407 -0.9822495 0.00414584 0.9820002
u156 -0.30133986 0.17625591 -0.39160043 -0.3078667 -0.8582164 0.3915578 -0.2551106 -1.786171 0.5154448 0.45536464 0.25505877 -0.7903468 0.36293432 0.67544436 -1.026527 0.15749873 0.17041837 -0.72472954 -1.4162403 -1.4988328 0.32154587 -0.31779754 -1.0100958 -1.174521 1.2357455 -0.6323543 -0.5038342 -0.54738456 -0.15231153 -1.1754038 0.4231212 0.95027035
u157 -0.3501346 0.23555766 -0.46281287 -0.3369599 -0.6980771 0.47061893 -0.09071998 -1.8425367 0.3614453 0.21260776 0.07440872 -0.89961237 0.37857684 0.4314514 -0.8412518 0.21077663 -0.060451318 -0.65319407 -1.4633397 -1.5473151 0.14934991 -0.24992175 -0.55046904 -1.0896741 1.3095465 -0.46894464 -0.34791705 -0.2696497 0.011612747 -1.1622761 0.25830227 0.95523125
u158 -0.35486904 -0.04455437 -0.14274514 -0.4350147 -1.1517655 0.35171247 -0.33190206 -1.5249672 0.9253937 0.30174685 -0.26862907 -1.2579705 0.52827764 0.8573515 -1.1796936 0.27875525 -0.0132292975 -0.011262064 -0.672739 -0.9134629 0.27589804 0.015252482 -0.6871089 -2.0045698 1.2252493 -0.100102216 -0.5784207 -0.8815347 -0.32017267 -1.4101007 0.5227951 1.5221014
u159 -0.41781694 0.013228613 -0.17173451 -0.43053007 -1.1367553 0.32830852 -0.39298028 -1.6412988 0.9313506 0.28016806 -0.1523559 -1.2872391 0.53638005 0.8665494 -1.1665707 0.23269252 -0.09957676 -0.13043244 -0.7828395 -0.98080236 0.26729584 -0.06368933 -0.8436216 -1.6642774 1.3768245 -0.2163339 -0.5825702 -0.81359404 -0.30133787 -1.3350092 0.553184 1.1693866
u160 -0.26314533 0.11393678 -0.5643181 -0.45325658 -1.0179574 0.34969467 -0.32455593 -1.7040852 0.850682 0.47763872 0.1811503 -1.153066 0.0755876 0.8385949 -0.98068434 0.0957203 0.21503548 -0.24453042 -1.203556 -1.4034536 0.3854024 -0.18156898 -1.0806901 -1.6704262 1.5020554 -0.7944258 -0.45750138 -0.56409675 -0.15600623 -1.3047397 0.40293324 0.79430515
u161 -0.30610198 0.1725635 -0.3994539 -0.33950207 -0.85392934 0.42693415 -0.25085878 -1.8048288 0.46003067 0.24253517 0.2935048 -1.0757271 0.43842688 0.42174834 -0.7980512 0.114896215 -0.18159834 -0.5172013 -1.2451355 -1.3695142 0.1886668 -0.03172369 -0.8045113 -1.3127147 1.428438 -0.44179416 -0.34143677 -0.3366439 -0.06961297 -1.1778164 0.20078652 0.72644293
u162 -0.2945361 0.07130436 -0.3898454 -0.2905892 -1.0641344 0.41295052 -0.4850451 -1.6716127 0.6849637 0.39020303 0.12741414 -1.2810662 0.10545275 0.62198585 -0.8917908 0.20842615 0.14717604 -0.3988333 -1.4506098 -1.3026407 0.2822352 -0.15486363 -0.9257403 -1.602842 1.4370997 -0.7458425 -0.59259635 -0.21641506 -0.164679 -1.2329316 0.33595195 0.8322768
u163 -0.5045471 0.012541475 -0.21791424 -0.45366654 -0.90220076 0.5010826 -0.115625694 -1.6893559 0.62906533 0.4201334 -0.12437734 -1.0783913 0.41379797 0.45733094 -0.77332884 0.38123924 0.019049559 -0.4001815 -1.1338754 -1.4082137 0.09379258 -0.12838314 -0.7697092 -1.4467309 1.1123432 -0.030740308 -0.50448877 -0.4939176 0.120722905 -0.85027647 0.3092381 1.242986
u164 -0.5124724 0.12566732 -0.364794 -0.3675497 -0.6720765 0.9250333 -0.20782089 -1.7127808 1.2760004 0.45577368 0.14996085 -0.7610918 0.101776116 0.57328093 -0.7818045 0.3984974 -0.23249418 -0.27111435 -1.4382765 -0.9878776 0.08045763 0.13297065 -1.2416911 -1.0725763 1.014282 0.21014556 -0.47404522 -0.7100219 0.008079281 -1.2120916 0.2545294 1.0184644
u165 -0.44860297 0.28534326 -0.17136909 -0.37365547 -0.7530691 0.8231052 -0.40267074 -1.3557451 0.9421138 0.3934131 0.16611183 -0.851435 0.7324138 0.18057317 -0.7053739 0.12533472 -0.34773585 -0.37474525 -1.2327006 -1.1534235 0.23353846 0.041390978 -0.9328479 -0.92507935 1.1166987 0.19235042 -0.37644464 -0.42724106 0.027448194 -1.3859242 0.67902076 1.2591144
u166 -0.44621596 0.15576401 -0.19339204 -0.42424962 -0.69949645 0.46253878 -0.04162678 -1.5885811 0.53150326 0.15881966 -0.0015260803 -0.8446987 0.6902761 0.28555787 -0.7554764 0.21076815 -0.18752068 -0.54565394 -1.3136119 -1.0530361 -0.11562804 -0.12066739 -0.73286617 -1.0557282 1.009745 0.13590015 -0.34293815 -0.27108783 0.26331607 -1.0429175 0.26205787 1.1930825
u167 -0.46959817 0.117975466 -0.20052934 -0.4691973 -0.4309612 0.11852569 0.22368906 -1.9027268 0.23959045 0.23682219 0.33028448 -0.6565186 0.7157902 -0.14215156 -0.5426323 0.09543192 -0.17211387 -0.73068506 -1.2421885 -1.5555468 -0.09804306 -0.24762964 -1.0691066 -0.7036226 0.78024185 0.22264284 -0.0600868 -0.4330405 0.3023515 -0.75463307 0.31619635 1.3745092
u168 -0.45432895 0.14572322 -0.2877661 -0.47747532 -0.52730316 0.20730323 0.23623364 -1.6024576 0.6208297 0.28679302 0.4282827 -0.6740381 0.45328295 0.059996307 -0.5050213 0.15785116 -0.21350022 -0.42915404 -1.3399932 -1.1435617 -0.2008768 -0.073720425 -1.0749311 -0.6703066 0.68121576 0.23020357 -0.28154734 -0.47801828 0.16756514 -0.8358358 0.14425507 1.2031246
u169 -0.46110663 0.09703278 -0.2919885 -0.5214514 -0.21348411 0.1569 0.084771 -1.9543787 0.5217656 0.4117395 0.42273593 -0.7195495 0.31394204 -0.22610608 -0.4443719 0.14306372 -0.156715 -0.6906623 -1.2107815 -1.1863079 -0.032289926 -0.18878233 -1.1818036 -0.79559636 0.65124524 0.24369678 -0.17397861 -0.3733563 0.12941183 -0.75154334 0.30862954 1.3148515
u170 -0.24186417 0.23249896 -0.09984462 -0.34545162 -0.31118947 0.021548232 0.3538506 -1.515753 0.21286498 0.06665317 0.31718513 -0.32634732 0.8809318 -0.20248096 -0.36239746 0.007408704 -0.050128825 -0.8307812 -0.9710316 -1.1420268 -0.09913106 -0.07948972 -0.97601867 -0.44416654 0.6606934 0.4500944 0.10001079 -0.29297936 0.19743346 -0.57625586 0.4486746 1.2897286
u171 -0.4064105 0.17884749 -0.014749979 -0.5575538 -0.5273513 0.117076874 0.17203239 -1.6302276 0.2961538 0.11900267 0.31210533 -0.68299246 1.0934186 -0.16149315 -0.5319329 0.070011176 -0.1509594 -0.6122325 -0.78974295 -0.9134721 -0.12502903 -0.10334943 -0.9289438 -0.60743004 0.6376399 0.55896086 0.021123944 -0.3600077 0.19550519 -0.66070205 0.5855023 1.129859
u172 -0.6202956 0.09172021 -0.068180285 -0.6408456 -0.3813192 0.48601067 0.04822102 -1.5956955 0.4510828 0.36806998 0.056158572 -0.60632145 0.8096035 -0.15209977 -0.4957285 0.076457255 -0.11388336 -0.7315987 -1.0182147 -1.3600574 -0.11493849 -0.16417079 -0.94595784 -0.52745265 0.6347988 0.52380353 -0.23851289 -0.29579145 0.32248062 -0.7991809 0.6263354 1.3005503
u173 -0.44992217 0.21347122 -0.15105739 -0.44758776 -0.3753594 0.39438078 0.31122103 -1.234218 0.42474934 0.291049 0.3186479 -0.564591 0.8037293 -0.25308877 -0.42167854 0.044441402 -0.12849875 -0.7163427 -1.3303148 -1.2120372 -0.22395036 -0.13524495 -1.038679 -0.40545115 0.88873357 0.57240033 -0.10155806 -0.13309188 0.3337201 -0.6462931 0.2950767 1.2448289
u174 -0.12214964 0.54680127 -0.013323632 -0.38509974 -0.892674 0.47925654 0.13417819 -1.1871041 0.43622094 0.13126707 0.80406225 -1.0603569 1.0629159 -0.23528372 -0.83760196 -0.34029844 -0.22332041 -0.44604674 -1.4001446 -1.1700569 0.2428809 0.30739677 -1.0721444 -0.44330418 1.26621 0.2834343 0.36734545 0.49981952 -0.034614783 -0.82551193 0.98460966 1.3803697
u175 -0.18203501 0.67751694 -0.012532805 -0.4347389 -0.9039725 0.21301554 0.10035354 -1.1201974 0.1317178 0.19249381 0.88307685 -0.9354816 0.9785343 -0.21110992 -0.8337505 -0.40159687 -0.22817096 -0.5628936 -1.2765374 -0.98815244 0.10029497 0.2266064 -1.1575536 -0.5225951 1.3885757 0.4978934 0.43874252 0.30110905 0.094349995 -0.9116464 1.1905134 1.2341092
u176 -0.19811445 0.64144766 0.0134700015 -0.45101294 -0.9022709 0.2575917 0.13005422 -1.2026004 0.42299387 0.1929547 0.9313815 -1.0152484 0.98433167 -0.1752051 -0.8033327 -0.39267042 -0.15075442 -0.45046404 -1.2541127 -1.0153128 0.19873103 0.24296448 -1.1918442 -0.6307982 1.3337083 0.4704094 0.44995797 0.39573738 0.019401798 -0.8620643 1.0825346 1.2387753
u177 -0.24017422 0.39365903 0.16327971 -0.5297653 -0.521989 -0.37584934 0.5090102 -1.6118557 -0.02373996 -0.14242215 0.77191746 -0.8061044 1.4036874 -0.49367714 -0.87691206 -0.21908793 -0.14882663 -0.5283746 -0.96192414 -1.0405042 0.07720416 0.07427564 -1.1797101 -0.65716004 0.8296131 0.9631623 0.7148281 0.553345 0.2840889 -0.6657847 0.9575909 1.6009377
u178 -0.19514704 0.73774666 0.315125 -0.42182928 -0.53394115 0.19634289 0.054738775 -1.2603735 0.1718839 0.01986014 0.7801709 -0.7137953 1.5113807 -0.39344043 -0.7228199 -0.32559755 -0.34603977 -0.6087602 -1.0766876 -1.1219013 0.058183677 0.1107119 -1.1391681 -0.18646738 1.0411072 1.1354045 0.5337476 0.41001806 0.23666781 -0.7949373 1.137713 1.2610159
u179 -0.14636555 0.76900035 0.38635048 -0.4389058 -0.609645 -0.11952532 0.29458904 -1.4948395 0.0608103 -0.14422368 0.8836746 -0.8344391 1.6306373 -0.36825737 -0.82213753 -0.36670145 -0.30143213 -0.5557499 -1.0471413 -0.9540176 0.132493 0.17956926 -1.2398518 -0.39492366 0.955326 1.0253737 0.69462657 0.70773184 0.1530646 -0.6893528 1.2794496 1.4231699
u180 -0.1541447 0.7235839 0.20630656 -0.43739083 -0.47875425 0.06270424 0.11949988 -1.3925796 0.11870543 -0.086217895 0.9653868 -0.68742305 1.4943824 -0.4655819 -0.7350087 -0.29663828 -0.25374642 -0.62093735 -0.95780796 -1.103278 0.023520349 0.039317045 -1.3772727 -0.3418662 0.9234127 1.0740076 0.6353206 0.6278498 0.20838767 -0.7876262 1.3937843 1.2850527
u181 -0.044048473 0.65332717 0.33689103 -0.47127244 -0.3955933 -0.22434436 0.24823126 -1.6551228 0.57599926 -0.07171145 0.81563324 -0.5058831 1.5622525 -0.4216198 -0.83700335 -0.17697911 -0.11115708 -0.5493503 -0.47444084 -1.049725 0.287484 0.14351021 -1.5509304 -0.22926268 0.5980453 1.1255355 0.56663483 0.45516717 0.08325562 -0.903097 1.7902777 1.4450424
u182 -0.23640491 0.62358487 0.14406441 -0.54940134 -0.34218553 -0.09521255 0.30571628 -1.6098655 0.37707916 0.19868428 0.8727906 -0.30384567 1.696845 -0.48488086 -0.8558718 -0.22627093 -0.32493812 -0.7958913 -0.71126145 -1.3371416 0.24415071 0.009933404 -1.4746804 -0.03265854 0.532406 1.1649858 0.68017894 0.56399876 0.12218456 -0.95925003 1.912665 1.6484828
u183 -0.21485256 0.8106515 0.16648716 -0.41166413 -0.62209255 0.24792299 0.31382856 -1.2323319 0.39103967 0.15242301 0.75082 -0.5352222 1.7425144 -0.5405174 -0.588618 -0.46542144 -0.41740894 -0.5591101 -0.842318 -1.2905412 0.15731843 0.19509174 -1.3049864 0.026649501 0.96118516 1.0407091 0.6960723 0.6438955 0.14918764 -0.88013226 1.8532628 1.5909885
u184 -0.19445667 0.82899284 0.20404966 -0.36364302 -0.47866216 0.17763525 0.0814119 -1.3334799 0.5538689 0.17285384 0.80747175 -0.50142825 1.5830504 -0.43842703 -0.662537 -0.32185057 -0.37351957 -0.6004007 -0.8177383 -1.2009865 0.27381173 0.13485199 -1.6604704 0.1602665 0.6716136 1.1672267 0.53801143 0.6125818 0.050557774 -0.98534316 1.6888288 1.3351744
u185 -0.28884214 0.6644757 0.12767665 -0.46380737 -0.3947445 0.115232326 0.33703068 -1.1790577 0.23419198 0.059977163 0.4965108 -0.47019413 1.492639 -0.5201463 -0.61204743 -0.28667796 -0.26149285 -0.5293364 -0.8916537 -1.1828395 0.045724973 0.06696621 -1.2250159 0.03864916 0.76412475 0.9840185 0.5564119 0.67024446 0.16296263 -0.82287836 1.4371613 1.6836301
u186 -0.2233381 0.35354638 0.6069432 -0.37303507 -0.15657106 0.34456906 0.38376427 -1.2922928 0.99560744 -0.03569345 0.1280949 0.1103553 0.7698019 -0.20783089 -0.43760115 0.07663917 0.20564553 -1.039849 -0.6254887 -0.9201536 0.44829175 -0.19831634 -1.4235457 0.008381174 0.08375288 1.0137827 -0.17109151 -0.89301324 0.011663682 -0.8056322 0.7377708 1.3123814
u187 -0.34474528 0.38027444 -0.062345006 -0.32326365 -0.12407209 -0.012187546 0.39649436 -1.5290059 0.9374686 0.14868674 0.027481392 -0.090835 0.7810657 -0.24292123 0.014303379 0.03362741 -0.0706204 -0.82747555 -0.7355323 -1.2476493 0.20543796 -0.29312915 -0.98745877 -0.34643695 0.33285442 0.85450757 -0.05159182 -0.76837194 0.116433844 -0.863956 0.72933906 1.1992509
u188 -0.3634313 0.33407345 0.21870337 -0.2816707 -0.075036965 -0.112258926 0.5943791 -1.4708586 1.115266 0.24791668 -0.0075938855 0.1639807 0.7143 -0.18765508 -0.10956103 0.13045304 0.19007772 -0.9680208 -0.44600686 -0.99222785 0.47463346 -0.22204691 -1.0367192 -0.1263819 0.14153849 1.1708257 -0.02427262 -0.8325839 0.08524023 -0.5389611 0.93276405 1.4788224
u189 -0.24015135 0.31846386 0.44303617 -0.3138818 -0.013796625 0.16846202 0.74856776 -1.4707229 1.1789132 0.06572217 -0.10505918 0.28347877 0.5432485 -0.18272512 -0.38822442 0.20375355 0.28267512 -1.2473453 -0.6240886 -1.0939548 0.47627237 -0.15787771 -1.4560988 0.05867279 -0.2299468 1.2601113 -0.077217296 -1.0495771 0.10755764 -0.57446235 0.9618761 1.5866772
u190 -0.09387553 0.32532442 0.39115632 -0.2779482 0.17554581 0.15504615 0.88814884 -1.7878895 0.9255668 -0.1395007 0.14222963 0.08851401 0.47524777 -0.349811 -0.17422262 0.033934787 0.10290276 -1.1941359 -0.6173224 -1.1824365 0.6414667 -0.38122177 -1.0761737 0.058375552 -0.31266132 1.2104013 -0.19441386 -1.3845313 -0.18947314 -0.46639144 0.6946608 1.4985514
u191 -0.26823947 0.4087831 0.5300911 -0.18770121 -0.1371298 0.0017479867 0.7644392 -1.4195882 1.2776581 0.05883397 -0.088628516 0.28097615 0.815905 -0.40055132 -0.4202625 0.168845 0.4138621 -1.1962723 -0.4067938 -0.8179529 0.79581946 -0.19789572 -0.93440676 -0.0067667556 -0.027386896 1.3339996 0.080657355 -1.1244044 0.024392843 -0.71574515 1.185809 1.1602956
u192 -0.21298772 0.36003378 0.46500656 -0.2378217 -0.05260026 0.09877793 0.74398243 -1.4800506 1.0626079 0.11789532 -0.027439672 0.4410039 0.6681112 -0.33500305 -0.45630068 0.095461674 0.23897377 -1.2479774 -0.3643696 -1.0007856 0.5656214 -0.28823346 -1.3159268 0.11227363 -0.17570786 1.1829528 -0.082812674 -0.8737343 0.046238765 -0.6178958 1.1719038 1.395177
u193 -0.2646463 0.27946174 0.6659348 -0.3010057 -0.10137861 -0.00034504934 0.90501994 -1.4520193 0.8413172 0.0032474233 -0.18530796 0.21053396 0.6858298 -0.36301866 -0.47798425 0.11634439 0.36413777 -1.2761644 -0.54634804 -1.0854555 0.5711432 -0.2652943 -0.9744713 0.033980474 -0.04703456 1.5446098 -0.11285174 -0.96543217 0.2089197 -0.21657361 1.0926974 1.5363612
u194 -0.25625607 0.56151384 0.607429 -0.30896968 0.17389521 0.3386306 0.78176165 -1.5573931 1.2446167 -0.0010258213 -0.15550664 0.5489642 0.8426449 -0.2138846 -0.6148554 0.15035947 0.25349084 -1.6077554 -0.61679494 -1.2594895 0.8478848 -0.28130862 -1.5110067 0.34493715 -0.45797363 1.7431684 -0.15366471 -1.2124571 -0.009280873 -0.32336923 0.9654301 1.4743388
u195 -0.12983255 0.52844745 0.510046 -0.26897138 -0.099195786 0.23580055 0.7823203 -1.3423762 0.9039907 -0.050623942 -0.10491179 0.43907896 1.1207769 -0.25148314 -0.6294167 -0.008322538 0.12991476 -1.1520697 -0.467231 -1.3047881 0.5148811 -0.31106713 -1.0106169 0.22238788 -0.05920298 1.422146 -0.091650896 -0.9630096 -0.025751978 -0.40353483 0.9790727 1.463022
u196 -0.23875225 0.436246 0.56533873 -0.1492183 -0.014848228 0.0014205471 0.97902066 -1.428007 1.3361164 0.0395278 -0.2158199 0.59782964 0.9361838 -0.23124166 -0.4864037 0.16400337 0.55633503 -1.4530753 -0.36125565 -1.0411459 0.7256221 -0.17467733 -1.2562613 0.31415275 -0.3586004 1.6061243 0.014030857 -1.1327454 0.093644574 -0.43375286 1.4144933 1.6802925
u197 -0.2738493 0.5109035 0.5121793 -0.1791033 0.118820034 -0.08150164 0.7857856 -1.3840088 1.1206585 0.15735507 -0.06709037 0.6154878 0.7365803 -0.30560234 -0.29583052 0.24320069 0.54178923 -1.3596376 -0.63395834 -1.1596346 0.66455925 -0.33324823 -1.6310351 0.35983533 -0.3716895 1.751715 -0.106616616 -1.0597711 0.14599073 -0.46801102 1.1984258 1.7662946
u198 -0.15081662 0.7891589 0.5312221 -0.30107 0.13126081 0.20455296 0.6819682 -1.6372547 1.3862994 -0.20679246 0.010587319 0.6499638 0.84391093 -0.16927058 -0.44584078 -0.091495186 0.06763212 -1.0378611 -0.7159679 -1.42781 0.77619344 -0.3806591 -1.3132848 0.40518245 -0.12750682 1.6439885 -0.26380715 -1.4132305 -0.06559429 -0.50963384 0.9157813 1.3737462
u199 -0.19432747 0.5493919 0.24873744 -0.23463383 -0.05149534 0.060032245 0.67194825 -1.5373753 1.2784073 0.101883955 -0.1331913 0.55933744 0.89782006 -0.2645281 -0.3734605 0.04654296 0.14606737 -1.0740209 -0.5517062 -1.0846194 0.60518366 -0.20738636 -1.2573831 0.27293107 -0.062645 1.5249616 -0.1120051 -1.0928398 0.0053231292 -0.78680587 1.1094328 1.4479955
u200 -0.23193364 0.5311456 0.32020524 -0.26741505 -0.010219882 -0.14832617 0.7019302 -1.4294169 1.0987357 -0.06817477 0.040048007 0.4549966 0.7513028 -0.18633051 -0.2087106 0.05645119 0.18311164 -1.0261793 -0.58009636 -0.96694404 0.65239614 -0.2929555 -1.231699 0.33547172 -0.2252262 1.6384 -0.20313859 -1.1998068 0.046810817 -0.5622477 0.94009405 1.5157802
u201 -0.11966248 0.34772897 0.7909876 -0.3704767 0.06616534 -0.14988983 1.3408107 -1.6313895 0.9431478 -0.25337833 0.12006434 0.4353611 1.1184465 -0.44371527 -0.6390208 0.09607122 0.5177272 -1.1054119 -0.25475857 -1.1877208 0.87243503 -0.35499182 -1.3323158 0.2954596 -0.4721045 1.8966697 0.11774646 -1.0590836 0.008107466 -0.38870063 1.4284375 1.6242819
u202 -0.02646073 0.29986483 1.0910157 -0.339729 0.006886861 -0.15111725 1.3699837 -1.9686335 0.8302675 -0.24936703 -0.028429331 0.27086806 1.1561648 -0.38257757 -1.0115865 0.08847285 0.42155492 -1.2230827 -0.18404588 -1.0488663 1.0702536 -0.21324898 -1.3088102 -0.10758109 -0.31693825 1.713002 0.09737876 -1.1010433 0.034038063 -0.4053098 1.368682 1.379284
u203 -0.09185891 0.19123691 1.2654637 -0.45546988 0.030391168 -0.26711395 1.5337127 -2.0284061 0.89244235 -0.20871037 0.07675048 0.20822823 0.95378226 -0.3685936 -1.1097156 0.16632515 0.54113334 -1.2024882 -0.110094786 -1.0303158 1.1044335 -0.2878667 -1.5680445 -0.109080836 -0.47566864 1.7679548 0.06621088 -1.0787281 0.1049414 -0.26863885 1.3568991 1.4948049
u204 -0.24940208 0.2424117 0.7621462 -0.3856664 0.0792985 0.042935427 1.1185336 -1.7031392 1.0491732 -0.09072245 -0.046859395 0.41041762 0.9654906 -0.40774667 -0.6201344 0.25009298 0.5946504 -1.225217 -0.40495765 -0.9243666 0.8559508 -0.22163263 -1.5149984 0.19011399 -0.4200696 1.7518005 -0.0011816821 -0.95592856 0.11103066 -0.44092166 1.3361868 1.4134687
u205 -0.40705398 -0.0578797 0.04447561 -0.11430726 -0.5913994 0.14300562 1.3539536 -1.5763161 -0.27903298 -0.24285817 -0.4522481 -1.1883198 0.30207014 1.1854749 -0.927047 0.19660094 0.7446846 -1.4281645 -1.3197067 -0.9836694 -0.3433313 0.012218332 0.33336234 -1.4153622 1.5557091 0.28388432 -0.014637922 -1.3593723 0.56224835 -0.12726778 -0.14748086 1.5021697
u206 -0.41582152 -0.10742445 0.13190034 -0.20700958 -0.6454717 -0.21245687 1.1198188 -1.5546842 -0.09258639 -0.18619117 -0.212624 -0.90185153 -0.026106225 1.2054237 -0.42033672 0.24637453 0.71180713 -0.9223836 -1.4282266 -1.1392876 -0.5166161 0.053723536 -0.14489573 -1.4304774 1.2932307 0.40916982 -0.09650635 -1.2278925 0.5022783 -0.23541038 -0.26254922 1.5708704
u207 -0.43972564 -0.032150805 0.124859616 -0.15166041 -0.6936682 -0.0068887863 1.0718373 -1.4884928 0.25526255 -0.2283254 -0.2399903 -0.9135035 -0.06581464 1.1586064 -0.54527056 0.23006712 0.7792444 -0.85597724 -1.5901315 -1.1013033 -0.46146324 0.1722424 -0.100073904 -1.1599971 1.1783298 0.46387568 -0.15510319 -1.378867 0.5011676 -0.3433298 -0.19517247 1.4923494
u208 -0.2732457 0.20944077 -0.33198017 -0.24344246 -0.7200838 -0.023924021 1.3520174 -1.6277417 -0.22623385 -0.23049918 -0.17621793 -1.1084421 0.5457035 0.32279634 -0.47203645 -0.04945467 0.22508565 -0.9504456 -1.2116553 -1.6867399 -0.28877592 -0.06295449 0.23005943 -1.6240817 2.0031693 -0.0031489027 0.13116571 -0.86950254 0.43271783 -0.4940715 -0.09071854 1.3057746
u209 -0.24736202 0.34746653 -0.3784733 -0.23593305 -0.68056685 -0.38829464 0.95170766 -1.7329897 0.005586454 -0.16657111 -0.12045009 -1.0357883 0.56831384 0.075054236 -0.01865985 -0.15835056 -0.12838796 -0.69983697 -0.97339076 -1.5656662 -0.27574995 -0.1212491 0.19103625 -1.3201905 1.9785358 0.1398628 0.3154555 -0.70841086 0.24998005 -0.6563889 -0.058219284 1.5106078
u210 -0.28093994 0.37546888 -0.30931082 -0.29606402 -0.6226871 -0.2523524 0.9162789 -1.8039106 -0.05483989 -0.32125658 -0.067787506 -1.0412536 0.5790013 0.2199818 -0.035245836 -0.07032346 -0.2567454 -0.583548 -0.9856437 -1.4654554 -0.27044272 -0.06272366 -0.034843035 -1.3969915 1.6873461 0.383492 0.23846945 -0.7706942 0.28417504 -0.51280403 -0.27569178 1.3535001
u211 -0.26053783 0.2021826 -0.2563312 -0.22836997 -0.4729297 -0.09723745 1.1431036 -1.7234887 0.39377996 -0.25467804 -0.28266543 -0.94485474 0.309734 0.46402866 -0.16823195 -0.030086963 0.060397264 -0.4573577 -1.0645118 -1.2274905 -0.33850586 0.09499734 0.104141146 -1.3863354 1.4525259 0.4441224 0.17544913 -1.133905 0.31205717 -0.5429173 -0.33504212 1.5266755
u212 -0.27045462 0.28441417 -0.38015178 -0.115181774 -0.7607555 -0.25047684 0.93298113 -1.9937384 -0.17284141 -0.23830663 -0.0076582027 -0.84824765 0.3991518 0.47213367 -0.38416487 0.051003795 0.16096729 -1.1183511 -1.187528 -1.5632117 -0.13402897 -0.28667894 0.18338262 -1.2418175 1.686657 -0.17106563 0.13961305 -1.0011657 0.23184404 -0.70668334 -0.08153607 1.1959165
u213 -0.18729074 0.29376468 -0.45670632 -0.20532708 -0.6898271 -0.08467409 0.48033887 -1.8722087 0.2769838 -0.01817509 -0.0744488 -0.97228533 0.28485978 0.63425493 -0.18278334 -0.03181177 0.10244528 -0.5373003 -1.0684044 -1.4229678 -0.04949035 -0.22848587 -0.19566491 -1.560702 1.422549 -0.22965781 -0.089006305 -1.0753357 0.014064559 -0.8941097 -0.058611657 1.1837658
u214 -0.099815264 0.17397337 -0.46190453 -0.3646068 -0.47346294 -0.16687389 0.24666506 -2.0686424 0.24817361 -0.21450825 -0.17957304 -0.8996663 0.48897052 0.45564827 -0.22380844 0.08319892 -0.14008157 -0.4111424 -0.80464596 -1.4743128 0.05370514 -0.38862836 0.05121834 -1.5725839 1.6191951 -0.3903696 -0.29771644 -0.9778745 -0.115720116 -1.1440294 -0.18330848 1.2448895
u215 -0.3310021 0.3172811 -0.45376456 -0.28561917 -0.43909925 -0.07204875 0.44699785 -1.7814807 0.22158156 0.12517095 -0.143664 -0.70266265 0.51817834 0.3884817 -0.2527725 0.06520589 -0.08524411 -0.7951433 -1.1529787 -1.6830133 0.023900956 -0.3823949 -0.2771416 -1.3251139 1.3917744 -0.18385732 -0.19583836 -0.85899943 0.046091117 -0.8183159 0.11062 1.0417688
u216 -0.07377849 0.3086879 -0.54955554 -0.2988624 -0.5694227 -0.43182346 0.10925447 -2.0016055 0.5608638 0.0016987089 -0.008146474 -0.6846601 0.72504574 0.24272522 0.06060188 0.040633485 -0.2700654 -0.41040662 -0.79780126 -1.5093389 0.0033656412 -0.31633413 -0.5883448 -1.3344898 1.2848777 0.0020525586 -0.19039309 -0.8926822 -0.10631819 -1.1036652 0.115485005 1.2182795
u217 -0.076305225 0.34917712 -0.55689687 -0.29857352 -0.5053845 -0.30610442 0.29310346 -1.7741022 0.40113297 0.09210008 -0.065824606 -0.82660776 0.3930407 0.20165245 -0.038628265 0.08907427 -0.12644307 -0.35881862 -0.8742624 -1.4625999 0.014974784 -0.1909933 -0.3849533 -1.268527 1.4434237 -0.12296512 -0.12466732 -0.9318677 -0.09664316 -0.8681457 0.010144829 1.2595893
u218 -0.15224285 0.24017859 -0.35821062 -0.24321666 -0.7843895 -0.43400896 0.50221455 -1.8181568 0.3389648 -0.21553268 -0.31343725 -0.8435706 0.7681992 0.39946845 -0.23382774 0.11742173 -0.0025911678 -0.35325593 -0.7685433 -1.3046029 -0.05344628 -0.06944941 0.014460431 -1.6242809 1.6631384 0.0011970837 -0.025801118 -1.0522703 0.084146835 -1.0284259 0.1504859 1.472128
u219 -0.48587295 0.25263318 -0.38280118 -0.32494769 -1.1451237 -0.14940599 0.13130891 -1.3957193 0.50178385 0.30974412 -0.29236916 -0.658798 0.64884 0.30341673 -0.1729059 0.16920383 -0.045920927 -0.75494003 -0.82997584 -1.5085261 0.006882878 -0.017267639 -0.23311444 -1.1866723 1.4146144 0.112818874 -0.2271137 -0.41081804 0.14553739 -1.2730657 0.6121269 1.2576656
u220 -0.40472907 0.18547349 -0.32026997 -0.1454973 -0.9954558 -0.19644172 0.39407605 -1.4760574 0.4421428 0.22873315 -0.26012975 -0.81863004 0.73119104 0.2317025 -0.23290712 0.065650865 0.2005396 -1.0683228 -0.92231816 -1.4169419 -0.08980242 -0.004701845 -0.34625384 -1.2008419 1.4846799 -0.15726645 -0.036299504 -0.18663295 0.16112767 -0.8237232 0.3990705 1.276775
u221 -0.25301167 0.14758794 -0.2396172 -0.22687541 -1.3233529 -0.15143543 -0.06281072 -1.362203 0.65980625 0.34306118 -0.47913623 -0.7625556 0.54807353 0.4669047 -0.34197715 0.10606965 0.341169 -0.8442287 -0.66569394 -1.4484888 0.13248804 -0.17327496 -0.4315975 -1.2887627 1.3663466 -0.18140012 -0.45060077 -0.29114434 -0.02202434 -1.0202934 0.8264994 1.5189782
u222 -0.30389404 0.05323706 -0.2015912 -0.31857407 -0.9652709 0.43776193 -0.19473903 -1.5428501 0.3624116 0.18583009 -0.07975006 -1.1533129 0.55928814 0.36871457 -0.8447258 0.13260569 -0.04605058 -0.4360018 -1.2249205 -1.2210108 -0.047328625 -0.08860096 -0.43822888 -1.1977695 1.311489 -0.20099683 -0.32136032 -0.34873974 0.12687927 -1.1111877 0.2848672 1.4450575
u223 -0.40262473 0.1477403 -0.29162624 -0.30822536 -0.83726996 0.7558469 -0.08838351 -1.4486305 0.5766075 0.43275934 0.026561033 -1.1615229 0.22542572 0.5081895 -0.8141075 0.24025248 0.13837531 -0.7210489 -1.4790989 -1.5087473 0.11102513 -0.019169904 -0.7489049 -1.2456784 1.2188826 -0.025676824 -0.4838069 -0.41020042 0.07987186 -0.9043583 0.07412057 0.98755497
u224 -0.3720279 0.24931653 -0.45522192 -0.3448646 -0.87772316 0.37897265 -0.16867383 -1.709727 0.3663914 0.45603997 0.08407886 -1.0340239 0.16610605 0.6446773 -1.0384119 0.093951106 0.26242337 -0.7972108 -1.6091652 -1.6101441 0.22396345 -0.45891356 -0.8212053 -1.1317837 1.4409139 -0.6448022 -0.44968808 -0.3356226 -0.012387179 -1.1326898 0.32881048 0.9881164
u225 -0.40862322 0.22336309 -0.39340514 -0.3694012 -0.82650816 0.55062646 -0.18572994 -1.6237564 0.39716658 0.50794506 0.03817345 -0.84174174 0.29235753 0.30502394 -0.70164585 0.21203704 0.0014161601 -0.68089503 -1.3762724 -1.439198 0.18010588 -0.30996218 -0.6984099 -0.9116024 1.3268273 -0.3597423 -0.50026125 -0.3078832 0.029452188 -1.0068381 0.43741065 1.05655
u226 -0.28295162 0.07380992 -0.21713267 -0.44231844 -1.1265588 0.32052052 -0.39307794 -1.7019744 1.0486343 0.27616414 -0.120805986 -1.0285842 0.61393815 0.7394973 -0.99102974 0.21082313 -0.10842014 -0.018446423 -0.5778332 -0.9614691 0.31634337 -0.10231212 -0.9177277 -1.5495257 1.2857416 -0.1445163 -0.5027506 -0.83845335 -0.3498852 -1.4298381 0.58576536 1.2816477
u227 -0.32099277 0.09664176 -0.19774002 -0.39835048 -1.1878276 0.09653337 -0.5477526 -1.8617395 0.9844088 0.14079292 -0.03620285 -1.2168431 0.6286883 0.8684023 -1.2149831 0.1438294 -0.1199658 -0.08622726 -0.5801195 -0.92642784 0.37425533 -0.028790342 -0.7372159 -1.6702276 1.4041045 -0.267654 -0.51097935 -0.8269251 -0.38960975 -1.4936103 0.5157148 1.1818146
u228 -0.24170567 0.22397672 -0.4044945 -0.45696372 -0.91608876 0.33741564 -0.34782115 -1.554668 0.9190456 0.37166384 0.113862954 -0.9615345 0.3111126 0.5923104 -1.1055723 -0.024041673 0.2066994 -0.41717216 -0.9405326 -1.2580067 0.4287666 -0.29004788 -1.0568458 -1.1961195 1.495548 -0.50294507 -0.43000984 -0.5257063 -0.31117296 -1.2075504 0.53251123 0.9329671
u229 -0.47702435 0.06458913 -0.41819778 -0.3953603 -0.7172905 0.46810427 -0.14212057 -1.8169588 0.60411197 0.23884371 0.15141867 -1.1032952 0.29244938 0.39801776 -0.9055239 0.2556954 -0.05958248 -0.598626 -1.303075 -1.3285836 0.117329665 -0.15038782 -0.73307395 -1.2596804 1.2093672 -0.40451914 -0.38952443 -0.41916558 -0.04002035 -1.1235118 0.2728492 0.9830257
u230 -0.25099728 0.20342065 -0.3656279 -0.29847026 -1.0101925 0.5208591 -0.20148788 -1.5134548 0.6541701 0.30406386 0.11341702 -1.1020504 0.058407083 0.68685776 -1.0292357 0.0960055 0.39121333 -0.35795733 -1.2252039 -1.2870574 0.27651834 -0.07206562 -0.90724516 -1.463428 1.4234924 -0.48103178 -0.3671884 -0.47146833 -0.082117535 -1.0906534 0.18377347 0.92584604
u231 -0.42583942 0.15745652 -0.2519933 -0.33461353 -0.8414258 0.9987264 -0.040988218 -1.4763854 0.67201763 0.3889605 -0.03594247 -1.2905793 0.2836407 0.4984488 -0.8313554 0.31905058 -0.14449662 -0.468953 -1.2400267 -1.3356229 0.21591389 0.03395616 -0.6761231 -1.3849581 1.1847526 0.01199042 -0.5359875 -0.5345861 0.015946113 -0.96918714 0.13339992 1.0930489
u232 -0.38613316 0.18692349 -0.37591013 -0.399552 -0.65424925 0.7520798 -0.16750942 -2.0211112 1.2069789 0.46059346 0.18831559 -0.6844836 0.1556279 0.43743297 -0.7621835 0.37146753 -0.20527615 -0.36336184 -1.4306388 -1.0560188 0.05639078 0.06915665 -1.3555903 -1.0966958 0.9196181 0.07466849 -0.44328836 -0.6946723 -0.10006867 -1.1391708 0.21994749 1.1596171
u233 -0.36660573 0.12658994 -0.14502035 -0.4058266 -0.6941149 0.7469975 -0.32241973 -1.6209712 0.85787135 0.3738844 0.06838744 -0.6127748 0.7601372 0.11481902 -0.91943246 0.16612278 -0.2462738 -0.54034245 -1.036933 -1.2019972 0.1873403 0.026353728 -1.0149106 -0.89699346 0.8754485 0.12712081 -0.39231825 -0.31730944 0.014077442 -1.2495351 0.51624393 1.2508636
u234 -0.4419743 0.03427145 -0.3024463 -0.47679028 -0.7121666 0.8138015 -0.35944209 -1.6645693 0.566268 0.35091257 -0.01764296 -0.9317156 0.5378797 0.18162884 -0.61700886 0.17750804 -0.18140662 -0.5036635 -1.1968483 -1.2895914 -0.15541475 -0.07310009 -0.7958485 -0.80301243 1.1005242 -0.020725708 -0.4040352 -0.40226376 0.22831053 -1.0784556 0.32154804 1.1996056
u235 -0.36992857 0.16919306 -0.3889085 -0.41695637 -0.49426597 0.3037054 0.23577212 -1.686176 0.1909805 0.23372893 0.2371734 -0.68465525 0.4845158 0.090307094 -0.53235275 0.112628184 -0.19776829 -0.79451853 -1.3654169 -1.4776553 -0.09889235 -0.21330012 -0.6889643 -0.74415827 0.8849867 -0.09407577 -0.30729726 -0.50726175 0.28479266 -0.7237741 0.23757179 0.99110335
u236 -0.39578956 0.1862784 -0.22724326 -0.3840772 -0.6149613 0.31065002 0.13989983 -1.7344695 0.60068417 0.33309776 0.46078986 -0.7247393 0.5037507 0.101275384 -0.37639382 0.087453544 -0.036747128 -0.9235194 -1.3714418 -1.2652991 0.15117496 -0.016722579 -1.0624089 -0.7102536 0.81640834 0.22003415 -0.11016054 -0.36299998 0.007854709 -1.0343437 0.33313 1.2279487
u237 -0.5271244 0.13916595 -0.21492761 -0.45739567 -0.37397444 0.46963942 0.17294095 -1.7726384 0.6040904 0.30035186 0.33732325 -0.7032634 0.70158243 0.07079809 -0.63189995 0.27203912 -0.2230896 -0.85595125 -1.4491589 -1.5959299 0.012710143 -0.12190971 -1.1779336 -0.77037627 0.7136033 0.3416028 -0.353462 -0.46108788 0.20065339 -0.67400116 0.26576516 1.301616
u238 -0.38566533 0.29109263 -0.051457357 -0.47980815 -0.33125806 0.099365994 0.29449192 -1.6858848 0.37475085 0.005502269 0.15982957 -0.5879686 0.6514828 -0.09144483 -0.507216 0.05915062 0.028756374 -0.8247451 -1.1843007 -1.1222845 -0.068471774 -0.23109256 -1.0443323 -0.6900752 0.6659038 0.62477964 -0.07368194 -0.31854844 0.22357556 -0.43858537 0.58297724 1.1291778
u239 -0.5591038 0.27266535 -0.10225217 -0.63026935 -0.6014648 0.2473869 0.11974155 -1.595708 0.3591534 0.11575512 0.2623155 -0.83027524 1.082701 -0.11751114 -0.7321749 0.06483202 -0.24578427 -0.6785527 -1.0262046 -1.3526405 -0.071003124 -0.13528469 -1.3085014 -0.55464375 0.6735083 0.54398465 -0.113611914 -0.24643323 0.3454752 -0.84163123 0.59620637 1.420176
u240 -0.42918548 0.3246234 -0.09870993 -0.4099134 -0.4558311 0.46309066 0.20079853 -1.3508027 0.422006 0.3390076 0.15314382 -0.5350096 0.81511843 -0.21715349 -0.49490795 -0.007118882 -0.023610475 -0.7480754 -1.1764274 -1.3921622 -0.016786048 0.0016963189 -0.9702166 -0.32716218 0.6458119 0.6450026 -0.06625302 -0.171586 0.28691825 -0.70090485 0.4841609 1.3125339
u241 -0.54112154 0.25602475 -0.14531639 -0.5882252 -0.56626433 0.13726062 0.2301146 -1.5109926 0.34685338 0.30305886 0.14748234 -0.34261727 1.225028 -0.13953298 -0.46457016 0.041559026 -0.18460052 -0.93765634 -1.137936 -1.4951476 -0.2515805 -0.15317716 -1.2047924 -0.73280203 0.77162105 0.5716308 0.034270603 -0.2669233 0.5063076 -0.7763661 0.849049 1.4638892
